################################################################################
# Neural network connection values (weights and biases).
################################################################################
# Col  Name       Description
################################################################################
# 1    connection Neural network connection value.
# 2    t          Connection type (a = weight, b = bias).
# 3    index      Index enumerating weights.
# 4    l_s        Starting point layer (end point layer for biases).
# 5    n_s        Starting point neuron in starting layer (end point neuron for biases).
# 6    l_e        End point layer.
# 7    n_e        End point neuron in end layer.
################################################################################
#                      1 2         3     4     5     6     7
#             connection t     index   l_s   n_s   l_e   n_e
############################################################
 -1.3875385764501041E-01 a         1     0     1     1     1
  9.8612288773439847E+00 a         2     0     1     1     2
 -2.6897339915307907E+00 a         3     0     1     1     3
  2.1978818644803608E+00 a         4     0     1     1     4
 -5.5221432051286301E-01 a         5     0     1     1     5
 -3.7227283152594709E-01 a         6     0     1     1     6
  2.3821877978063219E+00 a         7     0     1     1     7
  3.8834287533287197E+00 a         8     0     1     1     8
  1.9670050674923312E+00 a         9     0     1     1     9
  2.5316789962281834E+00 a        10     0     1     1    10
  7.5182790419635737E+00 a        11     0     1     1    11
 -1.3491695932309238E+00 a        12     0     1     1    12
  1.5693271266767341E+00 a        13     0     1     1    13
 -2.7891913691235475E+00 a        14     0     1     1    14
 -2.0674012566178357E+00 a        15     0     1     1    15
  2.3522621158166248E+00 a        16     0     1     1    16
  1.4112947966955560E+00 a        17     0     1     1    17
  9.6086150151857996E-01 a        18     0     1     1    18
  5.7993862189218115E-01 a        19     0     1     1    19
 -9.8575142096846289E+00 a        20     0     1     1    20
  1.1044149942979842E+00 a        21     0     1     1    21
  2.2619368955471766E-01 a        22     0     1     1    22
 -5.4685518192102958E+00 a        23     0     1     1    23
 -5.0185500000194869E+00 a        24     0     1     1    24
 -1.3502115356883778E+01 a        25     0     1     1    25
  1.8753464385892585E-01 a        26     0     2     1     1
 -3.0887302977035862E+00 a        27     0     2     1     2
 -3.2279223882785635E-01 a        28     0     2     1     3
 -6.5248107364126862E-01 a        29     0     2     1     4
 -4.6407296345784882E-01 a        30     0     2     1     5
 -2.6869715030448366E-01 a        31     0     2     1     6
 -3.6005824172468315E-01 a        32     0     2     1     7
 -8.8387445691567323E-01 a        33     0     2     1     8
 -3.9548024193135561E-01 a        34     0     2     1     9
 -6.5425873483551322E-01 a        35     0     2     1    10
 -1.6034997837156459E+00 a        36     0     2     1    11
 -2.7240698292870064E-01 a        37     0     2     1    12
 -1.0395504257352637E+00 a        38     0     2     1    13
 -1.0158645095188448E+00 a        39     0     2     1    14
  6.0201190050017572E-01 a        40     0     2     1    15
 -6.7576534814503442E-01 a        41     0     2     1    16
  2.9377360071714592E-01 a        42     0     2     1    17
 -6.2899024114839788E-02 a        43     0     2     1    18
 -2.1565937889586180E+00 a        44     0     2     1    19
  1.6416910152260733E+00 a        45     0     2     1    20
  4.0994949988801571E-02 a        46     0     2     1    21
 -1.3047149916105458E-01 a        47     0     2     1    22
  1.1662151362635802E+00 a        48     0     2     1    23
  1.4374201384766077E+00 a        49     0     2     1    24
  3.1827810665441914E+00 a        50     0     2     1    25
 -1.3854569601874644E-01 a        51     0     3     1     1
 -8.9400692690171404E+00 a        52     0     3     1     2
  1.0990042018792709E+00 a        53     0     3     1     3
 -1.4609998048781587E+00 a        54     0     3     1     4
 -1.3662314960960489E-01 a        55     0     3     1     5
  3.2810222840725878E-01 a        56     0     3     1     6
 -1.4522552054447830E+00 a        57     0     3     1     7
 -3.5554056654478949E+00 a        58     0     3     1     8
 -8.5589414171457168E-01 a        59     0     3     1     9
 -1.2009868770847572E+00 a        60     0     3     1    10
 -5.5288262393918277E+00 a        61     0     3     1    11
  3.9215065054978238E-01 a        62     0     3     1    12
 -2.4659108007854393E+00 a        63     0     3     1    13
 -5.1153858082598391E-01 a        64     0     3     1    14
  2.3038378530054793E+00 a        65     0     3     1    15
 -2.2023710738030182E+00 a        66     0     3     1    16
 -1.1208674086384121E-01 a        67     0     3     1    17
 -3.8038858733747943E-01 a        68     0     3     1    18
 -3.0484845769505040E+00 a        69     0     3     1    19
  7.7806689472836368E+00 a        70     0     3     1    20
 -7.1976417952187488E-01 a        71     0     3     1    21
 -2.8892938309333210E-01 a        72     0     3     1    22
  3.9879712293290583E+00 a        73     0     3     1    23
  4.9673818193201313E+00 a        74     0     3     1    24
  1.1504121181451159E+01 a        75     0     3     1    25
 -5.4559612701503690E-01 a        76     0     4     1     1
 -4.9051080313489059E+00 a        77     0     4     1     2
  1.3179445739901663E+00 a        78     0     4     1     3
  1.6527763414195253E+00 a        79     0     4     1     4
 -1.5329876100206092E+00 a        80     0     4     1     5
  1.7167991564675829E+00 a        81     0     4     1     6
 -2.4738397124079692E-01 a        82     0     4     1     7
 -1.9443137308690088E+00 a        83     0     4     1     8
  1.1599909791218228E+00 a        84     0     4     1     9
 -7.0049809170435617E-01 a        85     0     4     1    10
 -3.1816952895717301E+00 a        86     0     4     1    11
  2.4714456103381410E+00 a        87     0     4     1    12
 -8.1575227068280654E-01 a        88     0     4     1    13
  5.3176701098291410E+00 a        89     0     4     1    14
  9.3644143481225184E-01 a        90     0     4     1    15
 -3.0098399539929970E+00 a        91     0     4     1    16
 -2.6377859843259994E+00 a        92     0     4     1    17
  2.8937435615256198E-02 a        93     0     4     1    18
  6.5587031453965903E+00 a        94     0     4     1    19
  3.7251956439886866E+00 a        95     0     4     1    20
 -1.1010390628037214E+00 a        96     0     4     1    21
 -6.8759464087735389E-01 a        97     0     4     1    22
  1.6992075141411558E+00 a        98     0     4     1    23
 -5.4850678923400320E-01 a        99     0     4     1    24
  2.6327709167773077E+00 a       100     0     4     1    25
  6.3347793422178378E-01 a       101     0     5     1     1
  1.0991029681824351E+01 a       102     0     5     1     2
 -1.0687929733831109E-01 a       103     0     5     1     3
 -2.8659283818787551E+00 a       104     0     5     1     4
 -1.7568816653720606E-01 a       105     0     5     1     5
 -2.6626065319327639E+00 a       106     0     5     1     6
 -2.2099072659723498E-01 a       107     0     5     1     7
  2.9903004832598667E+00 a       108     0     5     1     8
 -5.0500007471340772E-02 a       109     0     5     1     9
  1.0968684708766594E+00 a       110     0     5     1    10
  1.7193850197855955E+00 a       111     0     5     1    11
 -1.9928387100410254E+00 a       112     0     5     1    12
  3.3513045246083388E+00 a       113     0     5     1    13
 -1.2569519864000567E+00 a       114     0     5     1    14
 -4.1661692031519371E+00 a       115     0     5     1    15
  4.8157769234271680E-01 a       116     0     5     1    16
  1.3927961732758520E+00 a       117     0     5     1    17
 -4.9017840522244743E-01 a       118     0     5     1    18
 -2.4582158018137892E+00 a       119     0     5     1    19
 -5.8821956800216970E+00 a       120     0     5     1    20
  2.0604172515411441E+00 a       121     0     5     1    21
  1.5455361636910361E+00 a       122     0     5     1    22
 -1.9088559404710621E+00 a       123     0     5     1    23
 -4.8331246240178949E-01 a       124     0     5     1    24
 -5.9413889823569432E+00 a       125     0     5     1    25
  2.0811412702607252E-01 a       126     0     6     1     1
 -5.3943161320576802E+00 a       127     0     6     1     2
  1.6166378785667268E-01 a       128     0     6     1     3
  1.3059566478295166E+00 a       129     0     6     1     4
  1.3491422005483802E+00 a       130     0     6     1     5
  5.8141906571409996E-01 a       131     0     6     1     6
 -8.9192131889467494E-02 a       132     0     6     1     7
 -6.8784010363017245E-01 a       133     0     6     1     8
 -6.0142024671621608E-01 a       134     0     6     1     9
 -5.1784148397698992E-01 a       135     0     6     1    10
  8.4173289973266108E-01 a       136     0     6     1    11
  6.1061428065510026E-01 a       137     0     6     1    12
 -1.9722212941764725E+00 a       138     0     6     1    13
 -1.1027041223701410E+00 a       139     0     6     1    14
  2.1707274785484270E+00 a       140     0     6     1    15
  1.9877609239915837E+00 a       141     0     6     1    16
 -6.0565785446960951E-01 a       142     0     6     1    17
  8.7628595390210617E-01 a       143     0     6     1    18
 -1.0678998910310327E+00 a       144     0     6     1    19
  2.1622725857992950E+00 a       145     0     6     1    20
 -8.5570844838918447E-01 a       146     0     6     1    21
 -1.8670959338500120E-01 a       147     0     6     1    22
  4.6285561143746884E-01 a       148     0     6     1    23
  4.0455639426915435E-01 a       149     0     6     1    24
  3.3129763122619860E+00 a       150     0     6     1    25
 -2.0050009531881757E-01 a       151     0     7     1     1
  8.2826912315173085E-01 a       152     0     7     1     2
 -8.6646852651032308E-02 a       153     0     7     1     3
 -4.1457377796927375E-01 a       154     0     7     1     4
 -2.7057721895038483E-01 a       155     0     7     1     5
 -3.7179152519836323E-01 a       156     0     7     1     6
  4.6391200286991535E-01 a       157     0     7     1     7
  4.8189433869350991E-02 a       158     0     7     1     8
  2.8177212800016788E-01 a       159     0     7     1     9
  2.7032432690296265E-01 a       160     0     7     1    10
 -2.9911979138402023E-01 a       161     0     7     1    11
 -8.3274983635437713E-02 a       162     0     7     1    12
  3.4916143824665347E-01 a       163     0     7     1    13
  4.3266509440949519E-01 a       164     0     7     1    14
 -6.2114096577461264E-01 a       165     0     7     1    15
 -6.9698072520960874E-01 a       166     0     7     1    16
  3.3759974404797125E-02 a       167     0     7     1    17
 -7.0466329895989277E-02 a       168     0     7     1    18
  4.4912401588565704E-01 a       169     0     7     1    19
 -2.1879371295717845E-01 a       170     0     7     1    20
  2.9656338490793650E-02 a       171     0     7     1    21
 -2.2895690824025769E-01 a       172     0     7     1    22
  4.6565118523372126E-02 a       173     0     7     1    23
 -3.9720505121049515E-01 a       174     0     7     1    24
 -7.2936004408347055E-01 a       175     0     7     1    25
 -3.7022607169299934E-02 a       176     0     8     1     1
  1.0456352087557266E-01 a       177     0     8     1     2
 -1.3843556191615441E-01 a       178     0     8     1     3
  1.4597055301863088E-01 a       179     0     8     1     4
  1.4219231493085165E-02 a       180     0     8     1     5
  1.3161366044189274E-01 a       181     0     8     1     6
 -5.0182555670389865E-02 a       182     0     8     1     7
  1.3281748794834230E-03 a       183     0     8     1     8
 -6.9500305710063506E-02 a       184     0     8     1     9
 -6.3518912019351587E-02 a       185     0     8     1    10
  2.4980936087040124E-02 a       186     0     8     1    11
  6.4922487113853136E-02 a       187     0     8     1    12
  7.9673445648928032E-02 a       188     0     8     1    13
  5.8144294871359054E-02 a       189     0     8     1    14
  4.5433044346638231E-02 a       190     0     8     1    15
  1.4771573310732189E-01 a       191     0     8     1    16
 -3.8661741539780789E-02 a       192     0     8     1    17
 -6.2530706453759383E-02 a       193     0     8     1    18
  5.6189069720210248E-04 a       194     0     8     1    19
 -9.4862274325566348E-02 a       195     0     8     1    20
  4.6732058269118729E-03 a       196     0     8     1    21
  1.6812236897865841E-04 a       197     0     8     1    22
 -2.1032651665564471E-02 a       198     0     8     1    23
  1.4557949098013076E-02 a       199     0     8     1    24
 -4.9804949581664287E-02 a       200     0     8     1    25
 -9.7534695259835580E-01 a       201     0     9     1     1
  1.0501785226099155E+01 a       202     0     9     1     2
 -4.3999894724388672E-01 a       203     0     9     1     3
 -1.9917509405757247E-04 a       204     0     9     1     4
  1.3120387592803917E+00 a       205     0     9     1     5
 -2.2733118670559831E+00 a       206     0     9     1     6
 -1.8879372475451986E-01 a       207     0     9     1     7
  1.9465385581353523E+00 a       208     0     9     1     8
 -6.1356654700317947E-01 a       209     0     9     1     9
 -1.9387995846998991E+00 a       210     0     9     1    10
  1.6476207281130393E+00 a       211     0     9     1    11
 -7.6071274810889715E+00 a       212     0     9     1    12
  4.2992953823383689E-01 a       213     0     9     1    13
  1.8958894236337571E+00 a       214     0     9     1    14
 -5.4849636496923662E+00 a       215     0     9     1    15
  1.3044987830382722E+00 a       216     0     9     1    16
  1.0060108133057706E+00 a       217     0     9     1    17
  2.0990590898996540E+00 a       218     0     9     1    18
  4.4790622995082101E+00 a       219     0     9     1    19
 -3.7742587506659260E+00 a       220     0     9     1    20
  2.8570147017286263E-01 a       221     0     9     1    21
  3.8859380316401965E-01 a       222     0     9     1    22
 -7.2654541760502467E-01 a       223     0     9     1    23
 -1.7598273511083120E+00 a       224     0     9     1    24
  4.2542054803758242E+00 a       225     0     9     1    25
  1.8505793603799794E+00 a       226     0    10     1     1
 -4.1671771427949915E+00 a       227     0    10     1     2
  1.9303406597307207E+00 a       228     0    10     1     3
 -5.6785475189681422E+00 a       229     0    10     1     4
 -6.7527941741035857E-01 a       230     0    10     1     5
 -1.4905308637089387E+00 a       231     0    10     1     6
 -7.3444376648187715E-01 a       232     0    10     1     7
 -1.8117164928326033E+00 a       233     0    10     1     8
 -1.0876196176301440E+00 a       234     0    10     1     9
 -8.1279240009878934E-02 a       235     0    10     1    10
 -4.6451286428988006E+00 a       236     0    10     1    11
  4.5731610497171997E-02 a       237     0    10     1    12
  5.3483942159072462E-01 a       238     0    10     1    13
 -1.2289966361412696E-01 a       239     0    10     1    14
  1.0610208299759638E+00 a       240     0    10     1    15
 -1.3183440017196538E-01 a       241     0    10     1    16
  6.9350428984388968E-01 a       242     0    10     1    17
 -6.7277289970166210E-01 a       243     0    10     1    18
 -4.3593889039334668E+00 a       244     0    10     1    19
  4.3151960013912314E+00 a       245     0    10     1    20
  1.7720759712356313E-01 a       246     0    10     1    21
  2.2564562167547925E-01 a       247     0    10     1    22
  2.0385053948294458E+00 a       248     0    10     1    23
  3.2082544515467299E+00 a       249     0    10     1    24
  6.1668348718600434E+00 a       250     0    10     1    25
  2.0954082317889586E+00 a       251     0    11     1     1
 -5.6202549370233550E+00 a       252     0    11     1     2
  9.0504376186595403E-01 a       253     0    11     1     3
  5.1351990230750530E+00 a       254     0    11     1     4
 -2.8323270064972448E+00 a       255     0    11     1     5
  2.3521592957164077E+00 a       256     0    11     1     6
  1.2943054011533011E+00 a       257     0    11     1     7
 -5.3152862102416065E-01 a       258     0    11     1     8
  9.8559379072799813E-01 a       259     0    11     1     9
  3.3190331774173427E+00 a       260     0    11     1    10
 -7.5201156093672783E-01 a       261     0    11     1    11
  9.2108095876364633E+00 a       262     0    11     1    12
  2.7000589404437108E+00 a       263     0    11     1    13
 -2.4041322085483787E+00 a       264     0    11     1    14
  1.8276470989738067E+00 a       265     0    11     1    15
  1.2148221033431770E+00 a       266     0    11     1    16
  5.1963960156107603E-01 a       267     0    11     1    17
 -1.5108018031169150E+00 a       268     0    11     1    18
  2.1595776885040956E+00 a       269     0    11     1    19
  8.2768764673402218E-02 a       270     0    11     1    20
 -1.0693146865424428E+00 a       271     0    11     1    21
 -1.1728307734935850E+00 a       272     0    11     1    22
 -1.0979049624100135E+00 a       273     0    11     1    23
 -1.1943167302187034E+00 a       274     0    11     1    24
 -1.3021976311466691E+01 a       275     0    11     1    25
 -2.0373333761974712E+00 a       276     0    12     1     1
 -4.4080064400181138E+00 a       277     0    12     1     2
 -5.1185808832682760E+00 a       278     0    12     1     3
  7.2786421157542924E-01 a       279     0    12     1     4
  1.9006958769249582E+00 a       280     0    12     1     5
  4.9872061023201226E+00 a       281     0    12     1     6
  3.2085376431163676E-01 a       282     0    12     1     7
  4.9886457051055828E+00 a       283     0    12     1     8
  2.6341718971205483E+00 a       284     0    12     1     9
  5.8322458207417700E+00 a       285     0    12     1    10
  5.9732617890151500E+00 a       286     0    12     1    11
  1.0990659760902307E+01 a       287     0    12     1    12
  6.1676119521127868E+00 a       288     0    12     1    13
  4.5895608325110349E+00 a       289     0    12     1    14
  1.0403533507547609E+00 a       290     0    12     1    15
  2.2060417383693931E+00 a       291     0    12     1    16
 -1.0923110415184829E+00 a       292     0    12     1    17
 -2.6144401299216873E+00 a       293     0    12     1    18
 -5.0748884119462954E+00 a       294     0    12     1    19
 -2.7414098904194688E+00 a       295     0    12     1    20
  1.6548533890177977E+00 a       296     0    12     1    21
  2.0201979870194973E+00 a       297     0    12     1    22
 -3.8145946110430384E+00 a       298     0    12     1    23
 -6.2922776132204801E+00 a       299     0    12     1    24
 -7.5034476017075935E+00 a       300     0    12     1    25
 -1.5222906239514569E+00 a       301     0    13     1     1
  9.8624638217083771E-01 a       302     0    13     1     2
  1.2022526531329303E+00 a       303     0    13     1     3
  7.0823800309455653E-01 a       304     0    13     1     4
  1.1586995602834527E+00 a       305     0    13     1     5
  8.7086790647024370E-01 a       306     0    13     1     6
  5.9294474241565276E-01 a       307     0    13     1     7
 -1.7579118423257791E+00 a       308     0    13     1     8
 -4.8886324728199954E-01 a       309     0    13     1     9
 -4.1587120040448405E-01 a       310     0    13     1    10
  8.9928783825576064E-01 a       311     0    13     1    11
 -1.3437552392182754E+00 a       312     0    13     1    12
 -1.4458742306786176E+00 a       313     0    13     1    13
  3.5766173292080600E-01 a       314     0    13     1    14
  4.0499442837173910E-01 a       315     0    13     1    15
 -3.8897830078206801E+00 a       316     0    13     1    16
 -1.9375087973931737E+00 a       317     0    13     1    17
  3.6098270334012472E-01 a       318     0    13     1    18
  4.6536267854520008E-01 a       319     0    13     1    19
  1.5036253848948773E+00 a       320     0    13     1    20
  3.9587558158185265E-01 a       321     0    13     1    21
  9.3351064178543186E-01 a       322     0    13     1    22
  1.6607331681732843E-01 a       323     0    13     1    23
  1.3800354443589731E+00 a       324     0    13     1    24
  1.2236979331992353E+00 a       325     0    13     1    25
  4.0148640590769596E-01 a       326     0    14     1     1
  2.0825512787625358E+00 a       327     0    14     1     2
  7.4226269038105004E+00 a       328     0    14     1     3
 -5.8573586710557610E-02 a       329     0    14     1     4
  5.1369207568741126E-01 a       330     0    14     1     5
 -3.5899239931087337E+00 a       331     0    14     1     6
 -2.1541729753120649E+00 a       332     0    14     1     7
 -6.9525881807088918E+00 a       333     0    14     1     8
 -4.6420517774065182E+00 a       334     0    14     1     9
 -4.4047723669580643E+00 a       335     0    14     1    10
 -6.3786486205209991E+00 a       336     0    14     1    11
 -1.1591061315503348E+01 a       337     0    14     1    12
 -7.6235389189119758E+00 a       338     0    14     1    13
 -3.5395024052629185E+00 a       339     0    14     1    14
  1.0701918062461735E-01 a       340     0    14     1    15
 -8.9237000542598128E+00 a       341     0    14     1    16
 -2.1308014493628762E+00 a       342     0    14     1    17
  1.3262468425829537E+00 a       343     0    14     1    18
  5.2057632470611823E+00 a       344     0    14     1    19
  9.6637365041624221E+00 a       345     0    14     1    20
 -1.9836939086621712E+00 a       346     0    14     1    21
  8.4636237276931159E-01 a       347     0    14     1    22
  4.4560889006917055E+00 a       348     0    14     1    23
  1.1352802134965334E+01 a       349     0    14     1    24
  1.3461177261084181E+01 a       350     0    14     1    25
 -7.5069234319017664E-01 a       351     0    15     1     1
  4.2450643878018441E+00 a       352     0    15     1     2
  3.1579482404461728E-01 a       353     0    15     1     3
 -1.2992729915991226E+00 a       354     0    15     1     4
 -3.5415495873108765E-01 a       355     0    15     1     5
  2.3318845159163950E+00 a       356     0    15     1     6
 -3.4633216052264850E+00 a       357     0    15     1     7
  1.3773944769940718E+00 a       358     0    15     1     8
  1.2621145253547348E+00 a       359     0    15     1     9
 -8.0127134743477164E+00 a       360     0    15     1    10
  4.5927753018293247E+00 a       361     0    15     1    11
  2.7889298840139372E+00 a       362     0    15     1    12
 -3.4115459532333805E+00 a       363     0    15     1    13
  1.2119509214000432E+00 a       364     0    15     1    14
  5.7749257823324323E+00 a       365     0    15     1    15
  3.4082128108569982E+00 a       366     0    15     1    16
 -3.6372489624117401E+00 a       367     0    15     1    17
  8.5140111217960923E-01 a       368     0    15     1    18
  4.2320057076132911E-01 a       369     0    15     1    19
 -3.1160152969317396E+00 a       370     0    15     1    20
  1.9275700539441030E+00 a       371     0    15     1    21
  3.8756362444249945E+00 a       372     0    15     1    22
 -1.9901795421221935E+00 a       373     0    15     1    23
 -2.7878217642839060E+00 a       374     0    15     1    24
 -2.0694185294127174E+00 a       375     0    15     1    25
  7.9264315117059031E-02 a       376     0    16     1     1
 -2.9785644834781526E+00 a       377     0    16     1     2
 -1.2841423604157043E-01 a       378     0    16     1     3
 -3.9902299333279636E+00 a       379     0    16     1     4
  8.0624590606116209E-01 a       380     0    16     1     5
 -1.5458835321427158E-01 a       381     0    16     1     6
 -3.4037909269776495E-01 a       382     0    16     1     7
 -8.5072202710745337E-01 a       383     0    16     1     8
 -3.7451834142514984E-01 a       384     0    16     1     9
  5.1555328007660189E-02 a       385     0    16     1    10
 -6.2889929263275568E-01 a       386     0    16     1    11
 -1.0439261927222061E+00 a       387     0    16     1    12
 -6.8446953756261564E-01 a       388     0    16     1    13
 -1.7935539101038189E-01 a       389     0    16     1    14
  2.0504724824861058E+00 a       390     0    16     1    15
 -2.6236519682554971E-01 a       391     0    16     1    16
 -8.9669552529148600E-01 a       392     0    16     1    17
 -2.9435593723767023E-01 a       393     0    16     1    18
 -4.5148467929355931E+00 a       394     0    16     1    19
  1.8096583508543844E+00 a       395     0    16     1    20
  8.8428024164806873E-01 a       396     0    16     1    21
  7.3395728676325184E-02 a       397     0    16     1    22
  8.9045003070581441E-01 a       398     0    16     1    23
  1.7263179834806961E+00 a       399     0    16     1    24
  4.6449673879774327E+00 a       400     0    16     1    25
 -1.8313389509633002E+00 a       401     0    17     1     1
 -1.5227836576038176E+00 a       402     0    17     1     2
 -2.3920375692100704E+00 a       403     0    17     1     3
  5.9801591240427392E+00 a       404     0    17     1     4
  1.4608728723370259E+00 a       405     0    17     1     5
  8.0901839235601302E-03 a       406     0    17     1     6
  3.4250608596116554E+00 a       407     0    17     1     7
 -4.1757696186887260E-02 a       408     0    17     1     8
 -9.8600532589140588E-01 a       409     0    17     1     9
  6.8280680193853147E+00 a       410     0    17     1    10
 -1.2476778655763114E+00 a       411     0    17     1    11
 -3.3162989758100241E+00 a       412     0    17     1    12
  2.0678353386905393E+00 a       413     0    17     1    13
 -3.6571561318290663E-01 a       414     0    17     1    14
 -5.2603904930943584E+00 a       415     0    17     1    15
 -3.3064113876107983E+00 a       416     0    17     1    16
  3.1735886884965625E+00 a       417     0    17     1    17
 -2.2839216768153728E-01 a       418     0    17     1    18
  2.9375639848949282E+00 a       419     0    17     1    19
  7.3900667280094678E-01 a       420     0    17     1    20
 -2.3437161206686072E+00 a       421     0    17     1    21
 -5.1457841381002041E+00 a       422     0    17     1    22
  9.4757678638104281E-01 a       423     0    17     1    23
  5.9440560546565470E-02 a       424     0    17     1    24
 -6.8545823578870846E-01 a       425     0    17     1    25
 -1.3748075298646674E+00 a       426     0    18     1     1
 -2.7203253013985802E+00 a       427     0    18     1     2
 -5.8817107046624697E+00 a       428     0    18     1     3
  1.4187329628031485E+01 a       429     0    18     1     4
  1.0255553109724660E+00 a       430     0    18     1     5
 -8.7200135124251354E-01 a       431     0    18     1     6
  1.5236932903949092E+00 a       432     0    18     1     7
  6.3516141105929247E+00 a       433     0    18     1     8
  8.0691337034337640E-01 a       434     0    18     1     9
  3.3173384146254845E+00 a       435     0    18     1    10
 -2.9834501899953287E+00 a       436     0    18     1    11
  1.6909259280236681E+00 a       437     0    18     1    12
  2.4191263991425149E+00 a       438     0    18     1    13
  5.6844312775268051E+00 a       439     0    18     1    14
 -8.9407832589280645E+00 a       440     0    18     1    15
  2.0869971962061280E+00 a       441     0    18     1    16
  2.7307680235905498E+00 a       442     0    18     1    17
  5.5087377230764056E-01 a       443     0    18     1    18
  5.7118487932554451E+00 a       444     0    18     1    19
 -1.1162664588578626E+00 a       445     0    18     1    20
 -3.9922450976506054E+00 a       446     0    18     1    21
 -3.0496242864448684E+00 a       447     0    18     1    22
  2.7300306312794098E+00 a       448     0    18     1    23
 -1.8270016239799798E+00 a       449     0    18     1    24
 -1.0929261538976794E+01 a       450     0    18     1    25
  1.6549677517719796E+00 a       451     0    19     1     1
  1.0868007476543853E+00 a       452     0    19     1     2
 -1.1383352211608930E+00 a       453     0    19     1     3
 -1.9085136274015937E+00 a       454     0    19     1     4
 -1.0510933829724376E+00 a       455     0    19     1     5
 -1.8334040176112845E+00 a       456     0    19     1     6
  1.1079387599234420E+00 a       457     0    19     1     7
  2.1264643329958535E+00 a       458     0    19     1     8
  8.7775173022279207E-01 a       459     0    19     1     9
 -8.4685549273374749E-01 a       460     0    19     1    10
 -1.4950039114562794E-01 a       461     0    19     1    11
  6.2564789010891853E-01 a       462     0    19     1    12
  7.2469502431116173E-01 a       463     0    19     1    13
 -1.8433308590351818E-01 a       464     0    19     1    14
 -1.3075549818006466E-01 a       465     0    19     1    15
  5.0283735375903174E+00 a       466     0    19     1    16
  2.2442228076257780E+00 a       467     0    19     1    17
  6.0343955390978782E-02 a       468     0    19     1    18
 -1.1356531996584449E+00 a       469     0    19     1    19
 -4.0166665194045459E+00 a       470     0    19     1    20
 -4.7625481781967394E-01 a       471     0    19     1    21
 -9.4642095901070278E-01 a       472     0    19     1    22
 -6.9150561517263942E-01 a       473     0    19     1    23
 -3.6251008974072580E+00 a       474     0    19     1    24
 -3.1699508235925702E+00 a       475     0    19     1    25
  2.9112558042945409E+00 a       476     0    20     1     1
  4.1282090892447290E+00 a       477     0    20     1     2
  1.6066622520216052E+00 a       478     0    20     1     3
 -1.3237548951418868E+01 a       479     0    20     1     4
 -3.1566633190416016E+00 a       480     0    20     1     5
 -1.5360894039740272E+00 a       481     0    20     1     6
 -1.3815293687307926E+00 a       482     0    20     1     7
 -1.5967097704144697E+00 a       483     0    20     1     8
  1.8348098669063420E+00 a       484     0    20     1     9
 -5.1108322983695444E+00 a       485     0    20     1    10
  3.4453587569372677E+00 a       486     0    20     1    11
  2.1093890470107941E+00 a       487     0    20     1    12
  2.6121694311792620E-01 a       488     0    20     1    13
 -5.1944878323999655E+00 a       489     0    20     1    14
  7.6302553365153383E+00 a       490     0    20     1    15
  7.5752586400566742E+00 a       491     0    20     1    16
  2.4520892762470194E+00 a       492     0    20     1    17
 -8.6116057409664093E-01 a       493     0    20     1    18
 -4.8576136049625536E+00 a       494     0    20     1    19
 -5.9145097822367632E+00 a       495     0    20     1    20
  3.0711504059296821E+00 a       496     0    20     1    21
  7.9724487546959566E-01 a       497     0    20     1    22
 -3.7417269426725874E+00 a       498     0    20     1    23
 -4.5010651135506219E+00 a       499     0    20     1    24
  2.6044041662166038E+00 a       500     0    20     1    25
  4.1255110268756185E+00 a       501     0    21     1     1
  6.1286847259391726E+00 a       502     0    21     1     2
  3.7346540846560421E+00 a       503     0    21     1     3
 -9.7436185160167863E+00 a       504     0    21     1     4
 -3.0110460026173698E+00 a       505     0    21     1     5
 -8.1689843429726505E-01 a       506     0    21     1     6
  8.2197985717091058E+00 a       507     0    21     1     7
 -6.5992314793010856E+00 a       508     0    21     1     8
 -2.9604014159897902E+00 a       509     0    21     1     9
 -6.5884783508722489E+00 a       510     0    21     1    10
  5.9499124426450054E+00 a       511     0    21     1    11
 -1.1343593750788340E+01 a       512     0    21     1    12
 -8.8203149789757496E-01 a       513     0    21     1    13
 -3.6130656519576263E+00 a       514     0    21     1    14
  2.8818509788368938E+00 a       515     0    21     1    15
 -3.0237181929779744E-01 a       516     0    21     1    16
 -5.7698284610264565E+00 a       517     0    21     1    17
  6.4257334093465801E-01 a       518     0    21     1    18
 -1.7574596959194999E+00 a       519     0    21     1    19
 -9.7021192201442776E+00 a       520     0    21     1    20
 -1.2745789011087296E+00 a       521     0    21     1    21
  1.4913558943520488E+00 a       522     0    21     1    22
  2.6266455667873450E+00 a       523     0    21     1    23
  2.4532357796122328E+00 a       524     0    21     1    24
  1.0746397852949563E+00 a       525     0    21     1    25
  1.3255227453429936E+00 a       526     0    22     1     1
 -2.2726272771435250E+00 a       527     0    22     1     2
  2.0488509877781977E+00 a       528     0    22     1     3
 -5.6541307184601299E+00 a       529     0    22     1     4
  1.0892469498012258E-01 a       530     0    22     1     5
 -2.9208068102014684E-01 a       531     0    22     1     6
 -3.6701443512079296E-01 a       532     0    22     1     7
 -2.4807645350765357E+00 a       533     0    22     1     8
 -6.2486239142378552E-01 a       534     0    22     1     9
  3.2622477609728051E-01 a       535     0    22     1    10
 -1.4039373309774090E+00 a       536     0    22     1    11
 -1.9242838192500156E+00 a       537     0    22     1    12
 -8.0010057305096083E-01 a       538     0    22     1    13
 -9.4665494353336688E-01 a       539     0    22     1    14
  1.4202383059023200E+00 a       540     0    22     1    15
 -1.7516109992153683E+00 a       541     0    22     1    16
 -7.7180516349028561E-01 a       542     0    22     1    17
 -7.2206355364284058E-01 a       543     0    22     1    18
 -4.4103326620997061E+00 a       544     0    22     1    19
  1.9788830824445001E+00 a       545     0    22     1    20
  2.6794941864027139E-01 a       546     0    22     1    21
  9.5536567641796033E-01 a       547     0    22     1    22
  4.7437664035622790E-01 a       548     0    22     1    23
  2.7091089776451627E+00 a       549     0    22     1    24
  5.8585584461495372E+00 a       550     0    22     1    25
 -5.7156654154432660E+00 a       551     0    23     1     1
 -5.0967425599143716E+00 a       552     0    23     1     2
 -3.1180023080845238E+00 a       553     0    23     1     3
  1.4598147348375965E+01 a       554     0    23     1     4
  3.3377553182499575E+00 a       555     0    23     1     5
  3.6959468983464490E+00 a       556     0    23     1     6
 -8.7079496093130242E+00 a       557     0    23     1     7
  5.5144902442308066E+00 a       558     0    23     1     8
  2.9134592632011076E+00 a       559     0    23     1     9
  7.3331918686575523E+00 a       560     0    23     1    10
 -4.2227919068577942E+00 a       561     0    23     1    11
  1.0645130267105680E+01 a       562     0    23     1    12
  7.1495410943630022E-01 a       563     0    23     1    13
  3.0665570522636041E+00 a       564     0    23     1    14
 -3.9305242678998979E+00 a       565     0    23     1    15
 -3.5308176169725036E+00 a       566     0    23     1    16
  4.2786186701158311E+00 a       567     0    23     1    17
 -6.4899703010972976E-01 a       568     0    23     1    18
  5.6661550430605558E+00 a       569     0    23     1    19
  1.0655258461091373E+01 a       570     0    23     1    20
  2.0136907139303752E+00 a       571     0    23     1    21
 -6.7895895270181850E-01 a       572     0    23     1    22
 -2.7130605724902508E+00 a       573     0    23     1    23
 -1.1355252301404426E+00 a       574     0    23     1    24
 -2.2961155424238640E+00 a       575     0    23     1    25
 -3.0192662713334961E+00 a       576     0    24     1     1
  2.6698825636571279E+00 a       577     0    24     1     2
 -1.0531145606254000E+00 a       578     0    24     1     3
  9.1970054733538931E-01 a       579     0    24     1     4
  9.8734805270855805E-02 a       580     0    24     1     5
 -6.2008762042594656E-01 a       581     0    24     1     6
  1.1170879397218523E+00 a       582     0    24     1     7
 -2.0093658200645317E+00 a       583     0    24     1     8
 -1.3996600542290625E+00 a       584     0    24     1     9
 -1.6987109818249542E+00 a       585     0    24     1    10
 -2.5049435882496052E-01 a       586     0    24     1    11
  8.4575315907518234E-01 a       587     0    24     1    12
  4.6984350770855404E-01 a       588     0    24     1    13
  2.6119910607277608E+00 a       589     0    24     1    14
  3.5493604248343791E-01 a       590     0    24     1    15
 -3.2877843754489726E+00 a       591     0    24     1    16
 -2.9690788062714923E+00 a       592     0    24     1    17
  1.0255520143155299E-01 a       593     0    24     1    18
  3.3042420288622627E+00 a       594     0    24     1    19
  3.0998765324305583E-01 a       595     0    24     1    20
 -8.4563899545062338E-01 a       596     0    24     1    21
 -6.1675806347439543E-01 a       597     0    24     1    22
  2.4105349825917100E+00 a       598     0    24     1    23
  2.9557486371451023E+00 a       599     0    24     1    24
 -5.0448609150143708E-01 a       600     0    24     1    25
  5.7046815646537743E+00 a       601     0    25     1     1
 -4.2671946660361435E+00 a       602     0    25     1     2
  1.8775937288108826E+00 a       603     0    25     1     3
 -1.7055485126494929E+00 a       604     0    25     1     4
 -2.3410379782256674E-01 a       605     0    25     1     5
  1.6489020906808618E+00 a       606     0    25     1     6
 -1.7167558630748714E+00 a       607     0    25     1     7
  3.4728371753492646E+00 a       608     0    25     1     8
  2.5224172788255292E+00 a       609     0    25     1     9
  2.0307256496188373E+00 a       610     0    25     1    10
  3.1195986269020065E-01 a       611     0    25     1    11
 -1.0804118128100775E+00 a       612     0    25     1    12
 -5.4263602168456870E-01 a       613     0    25     1    13
 -4.2565462085721988E+00 a       614     0    25     1    14
 -7.7667900087474251E-01 a       615     0    25     1    15
  5.6799996999676585E+00 a       616     0    25     1    16
  4.8695717081567373E+00 a       617     0    25     1    17
 -6.1871499287897529E-02 a       618     0    25     1    18
 -5.6560502396318721E+00 a       619     0    25     1    19
 -8.7772148842035458E-01 a       620     0    25     1    20
  2.0416812892808287E+00 a       621     0    25     1    21
  1.4397275950543242E+00 a       622     0    25     1    22
 -4.3598250431429442E+00 a       623     0    25     1    23
 -5.1511693243859575E+00 a       624     0    25     1    24
  5.2201837432126486E-01 a       625     0    25     1    25
 -2.6490881830626916E+00 a       626     0    26     1     1
  1.7443516359739388E+00 a       627     0    26     1     2
 -8.1883299629336526E-01 a       628     0    26     1     3
  8.1938194271831066E-01 a       629     0    26     1     4
  1.0987490766003882E-01 a       630     0    26     1     5
 -9.7012107550931315E-01 a       631     0    26     1     6
  5.9196966372290138E-01 a       632     0    26     1     7
 -1.5735429193135906E+00 a       633     0    26     1     8
 -1.1181602779734441E+00 a       634     0    26     1     9
 -5.1936774458752599E-01 a       635     0    26     1    10
 -8.9090799571759569E-02 a       636     0    26     1    11
  2.7825386958979348E-01 a       637     0    26     1    12
  1.7693148857267951E-01 a       638     0    26     1    13
  1.8088285899406091E+00 a       639     0    26     1    14
  4.2800603574587981E-01 a       640     0    26     1    15
 -2.4657502992146605E+00 a       641     0    26     1    16
 -1.9644508077610543E+00 a       642     0    26     1    17
 -8.5725976612877952E-02 a       643     0    26     1    18
  2.4958057030700282E+00 a       644     0    26     1    19
  4.9702116549374070E-01 a       645     0    26     1    20
 -1.1384520073441542E+00 a       646     0    26     1    21
 -7.5596810586274832E-01 a       647     0    26     1    22
  2.0147074391939146E+00 a       648     0    26     1    23
  2.3030677034302593E+00 a       649     0    26     1    24
 -9.8471755077364304E-02 a       650     0    26     1    25
  8.9893443698120717E-02 b       651     1     1
  3.0968659098398001E-03 b       652     1     2
 -2.4588953690812268E-01 b       653     1     3
 -6.9158334827647616E-01 b       654     1     4
 -1.2059229023880452E-01 b       655     1     5
  9.0738228583143038E-02 b       656     1     6
 -6.9573424450552493E-02 b       657     1     7
 -1.6890673792908598E-01 b       658     1     8
 -2.5301221111223227E-01 b       659     1     9
 -3.2038961471617278E-02 b       660     1    10
  2.3618881353065402E-01 b       661     1    11
 -3.9584892996205123E-01 b       662     1    12
 -3.6023594501531381E-01 b       663     1    13
 -6.1516421387424436E-01 b       664     1    14
  3.6317025877473749E-02 b       665     1    15
  3.9652209167984631E-01 b       666     1    16
 -3.0170014574707648E-02 b       667     1    17
 -9.2874889789352405E-02 b       668     1    18
 -3.5054813571715077E-01 b       669     1    19
  3.9967462232843209E-01 b       670     1    20
  1.3103363293295867E-01 b       671     1    21
 -1.3194728289481417E-01 b       672     1    22
  2.0519366528081615E-01 b       673     1    23
  4.9860211711445890E-02 b       674     1    24
 -1.6587174255027495E-01 b       675     1    25
  7.7405757455810367E-02 a       676     1     1     2     1
  1.2030616393420451E-01 a       677     1     1     2     2
 -3.5707771285992368E-01 a       678     1     1     2     3
  2.1103490210411158E-01 a       679     1     1     2     4
 -9.0152518609755639E-01 a       680     1     1     2     5
  1.1294140834756457E-01 a       681     1     1     2     6
  2.9626179947149767E-01 a       682     1     1     2     7
  3.1507472499561945E-01 a       683     1     1     2     8
 -3.0877446532887581E-01 a       684     1     1     2     9
  2.5710861431802146E-01 a       685     1     1     2    10
 -5.1273409990307398E-02 a       686     1     1     2    11
  4.5472658179759311E-02 a       687     1     1     2    12
 -1.4778415913657950E-01 a       688     1     1     2    13
  5.3972062521521194E-03 a       689     1     1     2    14
 -1.7633959432496482E-01 a       690     1     1     2    15
  6.5752559353619150E-02 a       691     1     1     2    16
  1.9432247078013096E-01 a       692     1     1     2    17
 -1.4133793206217563E-01 a       693     1     1     2    18
  6.1540525335817875E-01 a       694     1     1     2    19
 -4.1505833349691468E-01 a       695     1     1     2    20
  3.0475148005615771E-01 a       696     1     1     2    21
  4.0879062005171704E-02 a       697     1     1     2    22
 -4.6768071553007766E-02 a       698     1     1     2    23
  4.8548461497635259E-01 a       699     1     1     2    24
  1.2967014255282622E-01 a       700     1     1     2    25
 -1.5400269619332632E-01 a       701     1     2     2     1
 -1.0224250364358622E+00 a       702     1     2     2     2
  2.4550775321676127E-01 a       703     1     2     2     3
  2.1262623549999771E-01 a       704     1     2     2     4
  9.7231814539360278E-02 a       705     1     2     2     5
 -4.6907500857958605E-02 a       706     1     2     2     6
  9.8992376472855703E-01 a       707     1     2     2     7
 -2.9148408524653141E-01 a       708     1     2     2     8
 -3.2457385695602614E-01 a       709     1     2     2     9
  8.1483561915479036E-02 a       710     1     2     2    10
  8.3160160011034656E-01 a       711     1     2     2    11
  8.6606599931168107E-02 a       712     1     2     2    12
  5.4423378321864189E-02 a       713     1     2     2    13
 -5.1340897224185771E-02 a       714     1     2     2    14
  2.1431865695518262E-01 a       715     1     2     2    15
 -8.5648285516346867E-01 a       716     1     2     2    16
 -1.1395936725858952E-01 a       717     1     2     2    17
 -1.9697552077212155E-01 a       718     1     2     2    18
 -3.3141622502616645E-02 a       719     1     2     2    19
 -3.6551874603875528E-01 a       720     1     2     2    20
  2.5287660698550762E-01 a       721     1     2     2    21
 -8.6667204416461044E-02 a       722     1     2     2    22
  3.7234818054335941E-02 a       723     1     2     2    23
 -2.7082915397667662E-01 a       724     1     2     2    24
  3.8532121320407525E-01 a       725     1     2     2    25
  1.5776749386776071E-01 a       726     1     3     2     1
 -3.4762863943907818E-01 a       727     1     3     2     2
 -1.2283885141225227E-01 a       728     1     3     2     3
  1.7398012696841193E-02 a       729     1     3     2     4
  1.0339307581677319E+00 a       730     1     3     2     5
  1.2500167034786336E-01 a       731     1     3     2     6
  2.3683557058069329E-01 a       732     1     3     2     7
 -2.8698385515324926E-01 a       733     1     3     2     8
  7.0015747056360586E-02 a       734     1     3     2     9
  4.3323465472317435E-01 a       735     1     3     2    10
 -1.2391595772876214E+00 a       736     1     3     2    11
  3.0361272619879343E-01 a       737     1     3     2    12
 -6.2198698086197414E-02 a       738     1     3     2    13
  8.7391158578204592E-02 a       739     1     3     2    14
  2.3267707681508591E-02 a       740     1     3     2    15
 -1.4304452038752274E-01 a       741     1     3     2    16
  1.7545925418395503E-01 a       742     1     3     2    17
  1.5159251069021759E-01 a       743     1     3     2    18
 -5.4665432994111918E-01 a       744     1     3     2    19
 -3.2463515117195102E-01 a       745     1     3     2    20
  3.3841178724712162E-01 a       746     1     3     2    21
 -3.7923750371063596E-02 a       747     1     3     2    22
  1.5382413307541470E-01 a       748     1     3     2    23
  1.1164564312777450E-01 a       749     1     3     2    24
  1.9659499061584859E-01 a       750     1     3     2    25
  1.9163408534549661E-01 a       751     1     4     2     1
  3.9125099444481060E-01 a       752     1     4     2     2
 -5.6491522228794555E-01 a       753     1     4     2     3
 -4.4419160719787892E-01 a       754     1     4     2     4
 -2.5427216580488932E-01 a       755     1     4     2     5
  5.4026317114931152E-02 a       756     1     4     2     6
 -9.9293695261094428E-01 a       757     1     4     2     7
  7.1538491287838091E-01 a       758     1     4     2     8
  3.5655755151111712E-01 a       759     1     4     2     9
  1.0540559885127394E+00 a       760     1     4     2    10
  1.5810234439427195E-02 a       761     1     4     2    11
 -4.2274992559093012E-02 a       762     1     4     2    12
  3.7044914422173758E-01 a       763     1     4     2    13
 -2.3377977656577156E-01 a       764     1     4     2    14
 -5.0135061660955563E-02 a       765     1     4     2    15
  2.6704987376345568E-01 a       766     1     4     2    16
 -1.2222002276030835E-02 a       767     1     4     2    17
  1.9125463067223050E-01 a       768     1     4     2    18
  8.3537542660212738E-01 a       769     1     4     2    19
 -2.2909365524587330E-01 a       770     1     4     2    20
  8.5461318170890824E-03 a       771     1     4     2    21
 -3.1788703471867175E-01 a       772     1     4     2    22
  1.8582671379780230E-02 a       773     1     4     2    23
 -2.7338721937351690E-01 a       774     1     4     2    24
  1.6314500020483075E-01 a       775     1     4     2    25
 -4.4989591114151753E-02 a       776     1     5     2     1
  2.0812077914280078E-01 a       777     1     5     2     2
  1.3478333007209839E-01 a       778     1     5     2     3
 -4.3743409489655501E-02 a       779     1     5     2     4
 -3.2324109892193575E-01 a       780     1     5     2     5
 -7.3519567915182257E-02 a       781     1     5     2     6
  4.7761547295802620E-02 a       782     1     5     2     7
 -2.3405838304799295E-01 a       783     1     5     2     8
 -1.7540744182089563E-01 a       784     1     5     2     9
  3.5276945718333991E-01 a       785     1     5     2    10
 -3.5196456882931887E-01 a       786     1     5     2    11
 -6.0662825308192794E-02 a       787     1     5     2    12
 -2.1467314192479381E-02 a       788     1     5     2    13
 -2.6293605182573609E-01 a       789     1     5     2    14
  2.2236427870224854E-01 a       790     1     5     2    15
  7.8050311419542151E-01 a       791     1     5     2    16
 -9.3163340008320536E-02 a       792     1     5     2    17
  1.7743555205490308E-01 a       793     1     5     2    18
 -4.1179224178444229E-01 a       794     1     5     2    19
  4.5381140363285410E-01 a       795     1     5     2    20
  1.9198741322015803E-01 a       796     1     5     2    21
 -4.3353996538967465E-01 a       797     1     5     2    22
  4.5925650970579136E-02 a       798     1     5     2    23
  1.6584367016916546E-01 a       799     1     5     2    24
 -2.3591129551964271E-01 a       800     1     5     2    25
 -5.4073693937694300E-01 a       801     1     6     2     1
  3.5372173386318601E-01 a       802     1     6     2     2
  2.4763639245645172E-01 a       803     1     6     2     3
 -2.8028269003008081E-02 a       804     1     6     2     4
 -3.0986907289823812E-01 a       805     1     6     2     5
  2.0884602085112861E-01 a       806     1     6     2     6
 -3.4183169394013224E-01 a       807     1     6     2     7
  4.4752150591062329E-01 a       808     1     6     2     8
 -8.3205877062298178E-02 a       809     1     6     2     9
  5.7248050538774353E-01 a       810     1     6     2    10
  2.3203667356468660E-01 a       811     1     6     2    11
  2.9118174634692073E-01 a       812     1     6     2    12
  2.1183958419819690E-01 a       813     1     6     2    13
  3.3103028816057478E-03 a       814     1     6     2    14
  2.0126748377889137E-01 a       815     1     6     2    15
  5.4521161532560210E-02 a       816     1     6     2    16
 -2.5518158477034275E-01 a       817     1     6     2    17
  2.2364062904593410E-01 a       818     1     6     2    18
  6.8427973303791201E-01 a       819     1     6     2    19
 -3.0830300099852109E-01 a       820     1     6     2    20
  8.9581510122784813E-01 a       821     1     6     2    21
  2.0930550047307503E-01 a       822     1     6     2    22
  4.4668157760020799E-01 a       823     1     6     2    23
  2.2695944785747305E-01 a       824     1     6     2    24
 -4.9738875930416662E-02 a       825     1     6     2    25
 -4.9788500495277876E-01 a       826     1     7     2     1
  1.6092073720804265E-01 a       827     1     7     2     2
 -2.4880276985107086E-01 a       828     1     7     2     3
 -4.1953492923002028E-01 a       829     1     7     2     4
  7.1655981108002542E-01 a       830     1     7     2     5
 -1.2973474788646891E-01 a       831     1     7     2     6
 -2.7803612498237762E-01 a       832     1     7     2     7
  3.0829420531459450E-01 a       833     1     7     2     8
 -3.3532004892015566E-01 a       834     1     7     2     9
  4.3190249027014777E-01 a       835     1     7     2    10
 -3.5702539365875585E-01 a       836     1     7     2    11
  4.9360154476513562E-01 a       837     1     7     2    12
 -1.2934637068465210E-01 a       838     1     7     2    13
  3.3923896424070366E-01 a       839     1     7     2    14
 -9.5954177445465805E-02 a       840     1     7     2    15
 -3.8881770052981834E-01 a       841     1     7     2    16
  2.1056737521561692E-02 a       842     1     7     2    17
 -2.1958230108448212E-01 a       843     1     7     2    18
  7.2673409306656411E-01 a       844     1     7     2    19
 -4.4516067422720484E-01 a       845     1     7     2    20
  4.0975380465566075E-01 a       846     1     7     2    21
 -1.0110537586071046E-01 a       847     1     7     2    22
  2.3101123299688973E-02 a       848     1     7     2    23
  3.2111870575082901E-01 a       849     1     7     2    24
  2.6209520967248068E-01 a       850     1     7     2    25
 -2.1775327936970701E-01 a       851     1     8     2     1
  5.6280000685116205E-01 a       852     1     8     2     2
  1.4443148628125914E-02 a       853     1     8     2     3
  8.6667628075504280E-02 a       854     1     8     2     4
  6.8337165025638441E-02 a       855     1     8     2     5
  3.1689894226312360E-01 a       856     1     8     2     6
 -7.5836172110263736E-02 a       857     1     8     2     7
 -4.7947333300098938E-01 a       858     1     8     2     8
  3.9442547614608980E-01 a       859     1     8     2     9
  3.6792106461986052E-01 a       860     1     8     2    10
  1.3153611790364266E+00 a       861     1     8     2    11
 -1.1375991882161578E-01 a       862     1     8     2    12
  2.2141895110623597E-01 a       863     1     8     2    13
  7.4154979597502975E-03 a       864     1     8     2    14
 -1.7780249421939040E-01 a       865     1     8     2    15
 -3.4482655531790513E-01 a       866     1     8     2    16
 -1.4278165442397164E-01 a       867     1     8     2    17
  3.1428978435208327E-01 a       868     1     8     2    18
  3.3361192667492323E-01 a       869     1     8     2    19
 -2.0256747642702802E-01 a       870     1     8     2    20
  3.9957062159308360E-01 a       871     1     8     2    21
  2.3698899855078326E-01 a       872     1     8     2    22
 -1.8295663711035579E-01 a       873     1     8     2    23
 -5.5764074194334190E-01 a       874     1     8     2    24
  1.5817697714285389E-01 a       875     1     8     2    25
 -4.0699777832274575E-01 a       876     1     9     2     1
 -3.9404952463075946E-03 a       877     1     9     2     2
  2.9381458220089635E-01 a       878     1     9     2     3
  7.4096219756806539E-02 a       879     1     9     2     4
 -2.7468986128366485E-01 a       880     1     9     2     5
  1.3940869375179829E-01 a       881     1     9     2     6
  3.3429058051340027E-01 a       882     1     9     2     7
 -2.4527693841411327E-01 a       883     1     9     2     8
 -3.3273174318614776E-02 a       884     1     9     2     9
  1.6471365705787645E-02 a       885     1     9     2    10
  6.3150538989660254E-01 a       886     1     9     2    11
 -8.5565881514409325E-01 a       887     1     9     2    12
  2.7252666068320103E-01 a       888     1     9     2    13
  1.0578042724389364E-01 a       889     1     9     2    14
 -1.5443673045379400E-01 a       890     1     9     2    15
 -5.4666948363923711E-02 a       891     1     9     2    16
  2.6042773845417938E-01 a       892     1     9     2    17
  3.0113225277625072E-01 a       893     1     9     2    18
  1.6667161783296863E-01 a       894     1     9     2    19
 -2.9842734050821843E-03 a       895     1     9     2    20
  1.4599014712458525E-01 a       896     1     9     2    21
  2.8425971464938671E-01 a       897     1     9     2    22
 -2.3728063605509175E-01 a       898     1     9     2    23
 -7.6082281107016335E-03 a       899     1     9     2    24
  1.0453350843141755E-01 a       900     1     9     2    25
 -4.1896627752884263E-01 a       901     1    10     2     1
  6.4344930227418162E-01 a       902     1    10     2     2
  1.5447005395113150E-01 a       903     1    10     2     3
 -2.6979109202312307E-01 a       904     1    10     2     4
 -9.2075415516987585E-02 a       905     1    10     2     5
  2.4381808026480586E-01 a       906     1    10     2     6
 -7.7942418177651418E-01 a       907     1    10     2     7
 -8.0311156537627304E-01 a       908     1    10     2     8
 -3.8672416923345256E-02 a       909     1    10     2     9
  3.3893672386074836E-01 a       910     1    10     2    10
  6.3927118856366250E-01 a       911     1    10     2    11
  3.2697193974569667E-02 a       912     1    10     2    12
 -7.1016432792869441E-02 a       913     1    10     2    13
  2.9138271444843011E-01 a       914     1    10     2    14
 -2.3344577797982616E-01 a       915     1    10     2    15
  2.6097900133409963E-01 a       916     1    10     2    16
 -2.9446934485271603E-01 a       917     1    10     2    17
 -2.3078685676775462E-01 a       918     1    10     2    18
  3.4679206583631966E-01 a       919     1    10     2    19
  2.8555451961596612E-01 a       920     1    10     2    20
 -2.4756448553849159E-01 a       921     1    10     2    21
  2.1893022962941044E-01 a       922     1    10     2    22
 -1.6147973834618171E-01 a       923     1    10     2    23
 -2.6734989294106049E-01 a       924     1    10     2    24
 -2.3334508274311552E-01 a       925     1    10     2    25
 -7.4981389905942919E-01 a       926     1    11     2     1
  3.5769074553963892E-01 a       927     1    11     2     2
  2.4772080100059460E-01 a       928     1    11     2     3
 -1.4918582407518166E-01 a       929     1    11     2     4
 -1.0765162284365282E-01 a       930     1    11     2     5
  2.4029225053021841E-01 a       931     1    11     2     6
 -1.3704666352764697E-01 a       932     1    11     2     7
  8.2031654616132477E-01 a       933     1    11     2     8
  5.1664149681215049E-02 a       934     1    11     2     9
  7.4333510602672348E-01 a       935     1    11     2    10
  9.9860715252944998E-01 a       936     1    11     2    11
 -3.7067930914722991E-01 a       937     1    11     2    12
  6.1008941838292252E-02 a       938     1    11     2    13
 -2.1499418103850859E-01 a       939     1    11     2    14
  5.4483214790233625E-01 a       940     1    11     2    15
  3.4756143482682633E-01 a       941     1    11     2    16
 -2.4561507531797342E-02 a       942     1    11     2    17
 -4.2999101755693014E-01 a       943     1    11     2    18
  1.1991135575691911E+00 a       944     1    11     2    19
  6.5671625386392241E-01 a       945     1    11     2    20
  4.0760078529815796E-01 a       946     1    11     2    21
  7.4628603540216609E-01 a       947     1    11     2    22
  3.7716321323286273E-01 a       948     1    11     2    23
  4.2562573633393985E-01 a       949     1    11     2    24
  6.5918632441261893E-01 a       950     1    11     2    25
  3.4263100333027735E-01 a       951     1    12     2     1
 -1.4196305866146153E-01 a       952     1    12     2     2
 -3.9082451058381057E-01 a       953     1    12     2     3
 -3.0457177146914611E-02 a       954     1    12     2     4
 -2.5188678378611418E-01 a       955     1    12     2     5
  1.9200954399412945E-01 a       956     1    12     2     6
 -1.7490950152570456E-01 a       957     1    12     2     7
  1.1780861307902799E+00 a       958     1    12     2     8
  1.3737813681478342E-01 a       959     1    12     2     9
 -7.6466096619287960E-03 a       960     1    12     2    10
 -2.7797163364241756E-01 a       961     1    12     2    11
  4.9282247805759782E-01 a       962     1    12     2    12
  7.6993322752246784E-01 a       963     1    12     2    13
 -2.3165031455346211E-01 a       964     1    12     2    14
 -1.3740452287213975E-01 a       965     1    12     2    15
 -8.3619543853854963E-02 a       966     1    12     2    16
  2.2076100754391242E-01 a       967     1    12     2    17
  1.5327152672603792E-01 a       968     1    12     2    18
 -6.4152090541013185E-01 a       969     1    12     2    19
 -1.4745457940437001E-01 a       970     1    12     2    20
 -1.6436238369906475E-01 a       971     1    12     2    21
 -3.5258529048959097E-01 a       972     1    12     2    22
  8.5905695388701103E-02 a       973     1    12     2    23
 -2.5881229191350854E-02 a       974     1    12     2    24
 -3.8503365274276291E-01 a       975     1    12     2    25
  1.2991652725183228E-01 a       976     1    13     2     1
 -8.5321901933859912E-02 a       977     1    13     2     2
 -4.8914444426160253E-01 a       978     1    13     2     3
 -1.6394527900920819E-01 a       979     1    13     2     4
  8.6056688825657990E-01 a       980     1    13     2     5
  7.9038050162098528E-02 a       981     1    13     2     6
 -4.9434668729946302E-01 a       982     1    13     2     7
  8.8001294429946797E-01 a       983     1    13     2     8
  2.3872513854300051E-01 a       984     1    13     2     9
  1.6841399873005977E-01 a       985     1    13     2    10
  9.5440931956725789E-02 a       986     1    13     2    11
  7.4302683603845598E-01 a       987     1    13     2    12
 -1.5511463621415369E-01 a       988     1    13     2    13
  1.1718240092215641E-01 a       989     1    13     2    14
  2.8103923315838042E-01 a       990     1    13     2    15
 -5.8829682292551611E-01 a       991     1    13     2    16
 -2.5146399733741161E-02 a       992     1    13     2    17
 -1.2328466756726725E-01 a       993     1    13     2    18
 -2.0474764071066467E-01 a       994     1    13     2    19
  4.7869079873467085E-02 a       995     1    13     2    20
  4.8768153147291943E-01 a       996     1    13     2    21
 -2.0313931599483767E-01 a       997     1    13     2    22
 -2.0790939006893508E-01 a       998     1    13     2    23
  1.1367641587931359E-02 a       999     1    13     2    24
  8.7120843489529276E-01 a      1000     1    13     2    25
 -1.3397706420193925E-01 a      1001     1    14     2     1
  1.1672338234758929E-01 a      1002     1    14     2     2
  3.3919814877773652E-01 a      1003     1    14     2     3
  1.0076014917051453E-01 a      1004     1    14     2     4
 -7.6528037711563435E-01 a      1005     1    14     2     5
  1.6369622343580445E-01 a      1006     1    14     2     6
  5.7886694842075748E-01 a      1007     1    14     2     7
 -9.9710106508193719E-01 a      1008     1    14     2     8
 -1.6637741169356174E-01 a      1009     1    14     2     9
 -3.9484986213756013E-01 a      1010     1    14     2    10
  1.9620869228021218E-01 a      1011     1    14     2    11
 -9.6545978472961891E-01 a      1012     1    14     2    12
 -3.0687542959758152E-01 a      1013     1    14     2    13
 -4.6009288174117910E-02 a      1014     1    14     2    14
  2.6011760824473223E-01 a      1015     1    14     2    15
  3.4967843019119688E-01 a      1016     1    14     2    16
 -2.4429323654014337E-01 a      1017     1    14     2    17
  1.2356605391680454E-01 a      1018     1    14     2    18
 -9.6675275219393481E-02 a      1019     1    14     2    19
 -8.1116918026151827E-02 a      1020     1    14     2    20
 -2.1206196689657941E-01 a      1021     1    14     2    21
  5.3091202084726141E-01 a      1022     1    14     2    22
 -1.3534047871734335E-03 a      1023     1    14     2    23
 -7.5272711794452191E-02 a      1024     1    14     2    24
 -4.7511924973955511E-02 a      1025     1    14     2    25
 -1.5798288174640174E-01 a      1026     1    15     2     1
 -7.4868765628097661E-02 a      1027     1    15     2     2
 -4.5562153650584059E-01 a      1028     1    15     2     3
  8.4321256380328280E-02 a      1029     1    15     2     4
  7.9468272845969157E-01 a      1030     1    15     2     5
 -1.0271042439613109E-02 a      1031     1    15     2     6
  6.4609330246793284E-01 a      1032     1    15     2     7
 -1.1254712302505693E-01 a      1033     1    15     2     8
  1.2376520610718793E-01 a      1034     1    15     2     9
 -1.6796730073337146E-01 a      1035     1    15     2    10
 -2.9879801862435457E-01 a      1036     1    15     2    11
  1.2889220490325206E+00 a      1037     1    15     2    12
 -5.5343796066241110E-02 a      1038     1    15     2    13
  4.0868474497273588E-01 a      1039     1    15     2    14
 -3.2404680457712130E-02 a      1040     1    15     2    15
 -6.4914302474989038E-01 a      1041     1    15     2    16
 -1.0881158389150705E-01 a      1042     1    15     2    17
 -2.4874773524374982E-01 a      1043     1    15     2    18
 -2.7966347529549845E-01 a      1044     1    15     2    19
  7.5949905802975826E-01 a      1045     1    15     2    20
  4.4678181311208084E-02 a      1046     1    15     2    21
 -2.2226858224309926E-01 a      1047     1    15     2    22
  2.7413268257256668E-01 a      1048     1    15     2    23
 -1.1176786511121074E-01 a      1049     1    15     2    24
  3.3470837728451747E-01 a      1050     1    15     2    25
  3.0104989217751232E-01 a      1051     1    16     2     1
  2.1588846665372557E-01 a      1052     1    16     2     2
 -1.4840212708685252E-01 a      1053     1    16     2     3
  3.3346685105211105E-01 a      1054     1    16     2     4
  6.2268872987351409E-01 a      1055     1    16     2     5
  1.2277610698529831E-01 a      1056     1    16     2     6
 -8.5010348527875479E-02 a      1057     1    16     2     7
 -7.3973705152337110E-01 a      1058     1    16     2     8
 -1.7904503916584955E-01 a      1059     1    16     2     9
 -8.1548984534229471E-02 a      1060     1    16     2    10
 -2.5153264170122897E-01 a      1061     1    16     2    11
  2.3007773572910054E-01 a      1062     1    16     2    12
 -5.6230841609051348E-02 a      1063     1    16     2    13
  3.5839825649539775E-01 a      1064     1    16     2    14
 -3.2801022188429191E-01 a      1065     1    16     2    15
 -5.5990918125680023E-01 a      1066     1    16     2    16
 -1.6244458887099636E-01 a      1067     1    16     2    17
  3.5206286797817204E-01 a      1068     1    16     2    18
  5.5159591710195743E-01 a      1069     1    16     2    19
 -5.4616914538220207E-01 a      1070     1    16     2    20
 -3.4517800039788488E-01 a      1071     1    16     2    21
  5.3697953149360578E-01 a      1072     1    16     2    22
 -1.5539257379395924E-01 a      1073     1    16     2    23
  7.1110636639160271E-02 a      1074     1    16     2    24
 -8.1216698297180395E-02 a      1075     1    16     2    25
 -1.7550848565571844E-01 a      1076     1    17     2     1
 -3.7912201044909882E-01 a      1077     1    17     2     2
 -2.8394245188844791E-01 a      1078     1    17     2     3
  1.7767309133185877E-01 a      1079     1    17     2     4
 -1.3887089797785857E+00 a      1080     1    17     2     5
 -1.3119337715451676E-01 a      1081     1    17     2     6
  3.1449150950899681E-02 a      1082     1    17     2     7
  3.8782856714585430E-02 a      1083     1    17     2     8
 -2.4528845044093633E-01 a      1084     1    17     2     9
  6.9078051101759119E-01 a      1085     1    17     2    10
  5.7280161662733853E-01 a      1086     1    17     2    11
 -9.9595181621605089E-01 a      1087     1    17     2    12
  5.7875116018661588E-01 a      1088     1    17     2    13
 -1.1963058254723816E-01 a      1089     1    17     2    14
  2.2539852289237419E-01 a      1090     1    17     2    15
  3.2138495314282073E-01 a      1091     1    17     2    16
  4.2726979453615629E-02 a      1092     1    17     2    17
  1.3763166311172476E-01 a      1093     1    17     2    18
 -4.9286370325524914E-01 a      1094     1    17     2    19
 -7.2497900091283585E-01 a      1095     1    17     2    20
 -8.1826987652791072E-01 a      1096     1    17     2    21
  4.4291511198411920E-01 a      1097     1    17     2    22
 -2.9854665840223260E-01 a      1098     1    17     2    23
 -4.3542491822904855E-01 a      1099     1    17     2    24
  1.0906931989167642E-02 a      1100     1    17     2    25
  7.1247615368182022E-03 a      1101     1    18     2     1
 -3.7878323638323097E-01 a      1102     1    18     2     2
  3.4423940304024592E-01 a      1103     1    18     2     3
  2.1719139804535911E-01 a      1104     1    18     2     4
 -2.8337388249406470E-01 a      1105     1    18     2     5
 -1.4971792918740835E-02 a      1106     1    18     2     6
  1.8244591824944442E-01 a      1107     1    18     2     7
 -6.0342500795891363E-01 a      1108     1    18     2     8
  2.8891549401785505E-01 a      1109     1    18     2     9
  1.7772877750064672E-01 a      1110     1    18     2    10
  1.2941185242488751E+00 a      1111     1    18     2    11
 -7.6476903769635618E-02 a      1112     1    18     2    12
  2.6308187632481134E-02 a      1113     1    18     2    13
  1.2560649695783044E-01 a      1114     1    18     2    14
 -5.9005161949394154E-02 a      1115     1    18     2    15
 -8.8753069796766593E-01 a      1116     1    18     2    16
 -7.9541041340974894E-02 a      1117     1    18     2    17
  5.7590332006897151E-02 a      1118     1    18     2    18
 -1.6763533246607740E-01 a      1119     1    18     2    19
 -2.5280164371880837E-01 a      1120     1    18     2    20
 -1.8696023509329868E-01 a      1121     1    18     2    21
  4.3509195581308152E-01 a      1122     1    18     2    22
 -3.7529628856980057E-01 a      1123     1    18     2    23
 -8.0150631698893721E-02 a      1124     1    18     2    24
 -2.0371704493349274E-01 a      1125     1    18     2    25
  2.7885185709420179E-01 a      1126     1    19     2     1
 -5.1184151815949686E-01 a      1127     1    19     2     2
  6.2467707429638220E-01 a      1128     1    19     2     3
  2.5769183402281848E-02 a      1129     1    19     2     4
 -6.8098868918908417E-01 a      1130     1    19     2     5
  1.3032579179388398E-01 a      1131     1    19     2     6
  3.6565284291736538E-01 a      1132     1    19     2     7
  7.5335083476508036E-01 a      1133     1    19     2     8
  3.7106019398624013E-01 a      1134     1    19     2     9
  3.0457818594754837E-01 a      1135     1    19     2    10
  7.6889653948504655E-01 a      1136     1    19     2    11
 -8.8067158004398149E-01 a      1137     1    19     2    12
 -1.7548902261417493E-01 a      1138     1    19     2    13
 -2.2722192656045602E-02 a      1139     1    19     2    14
 -1.9458655036518130E-01 a      1140     1    19     2    15
  9.6138839743628290E-01 a      1141     1    19     2    16
 -9.1689852635818775E-02 a      1142     1    19     2    17
  3.0207504715841876E-01 a      1143     1    19     2    18
  3.1228372993260706E-01 a      1144     1    19     2    19
  2.3882766396747693E-01 a      1145     1    19     2    20
  1.8152217865373053E-02 a      1146     1    19     2    21
  3.3044797158771877E-01 a      1147     1    19     2    22
  1.3506360821554031E-01 a      1148     1    19     2    23
  6.9121832909204883E-01 a      1149     1    19     2    24
 -2.2278121390668085E-01 a      1150     1    19     2    25
  4.1429298243989249E-01 a      1151     1    20     2     1
 -1.9253914867594063E-01 a      1152     1    20     2     2
  9.9180498606314546E-02 a      1153     1    20     2     3
 -2.6771718298124197E-01 a      1154     1    20     2     4
 -5.9406290066557188E-01 a      1155     1    20     2     5
 -9.9958804169003795E-02 a      1156     1    20     2     6
 -5.7738150776186803E-01 a      1157     1    20     2     7
  4.8188090120332555E-01 a      1158     1    20     2     8
 -3.5803945373390872E-01 a      1159     1    20     2     9
 -4.3729466618278839E-01 a      1160     1    20     2    10
  1.8921755782234267E-01 a      1161     1    20     2    11
 -1.0272378683645729E+00 a      1162     1    20     2    12
  2.8579302722105498E-01 a      1163     1    20     2    13
 -2.3165626986250698E-01 a      1164     1    20     2    14
 -6.9067648294231232E-02 a      1165     1    20     2    15
  3.4264572160748508E-01 a      1166     1    20     2    16
  2.4523440808330027E-01 a      1167     1    20     2    17
 -5.6312695283210938E-03 a      1168     1    20     2    18
  4.6142866212328049E-01 a      1169     1    20     2    19
 -4.1907501415323778E-01 a      1170     1    20     2    20
  1.9910722869834318E-02 a      1171     1    20     2    21
  3.2728745784839131E-01 a      1172     1    20     2    22
 -5.4084577934340274E-02 a      1173     1    20     2    23
  5.7294832414458256E-02 a      1174     1    20     2    24
 -3.2319706778240909E-01 a      1175     1    20     2    25
 -2.5430833388843360E-01 a      1176     1    21     2     1
 -1.0539400601341192E-01 a      1177     1    21     2     2
 -3.5695482036326309E-01 a      1178     1    21     2     3
  2.4734807528408054E-01 a      1179     1    21     2     4
 -4.1799789053520120E-01 a      1180     1    21     2     5
 -6.6425873370874827E-02 a      1181     1    21     2     6
  1.2988431210183610E-01 a      1182     1    21     2     7
  2.5657949286767141E-02 a      1183     1    21     2     8
 -2.2647805069963872E-01 a      1184     1    21     2     9
 -3.2718632198879127E-01 a      1185     1    21     2    10
 -3.6498734439477598E-01 a      1186     1    21     2    11
  1.7590475358188176E-01 a      1187     1    21     2    12
 -1.0010666382002055E-01 a      1188     1    21     2    13
  6.2449063020301870E-02 a      1189     1    21     2    14
  2.4429674473142465E-02 a      1190     1    21     2    15
 -2.9956228826026748E-01 a      1191     1    21     2    16
 -1.7644050261519303E-01 a      1192     1    21     2    17
 -3.1889972050881110E-01 a      1193     1    21     2    18
 -1.2561486440608299E-01 a      1194     1    21     2    19
  4.4446790337709963E-01 a      1195     1    21     2    20
 -2.9740000629550006E-01 a      1196     1    21     2    21
 -3.7405193812805038E-01 a      1197     1    21     2    22
 -8.0583828848371425E-02 a      1198     1    21     2    23
  5.9521789425008531E-01 a      1199     1    21     2    24
 -6.3089715608461450E-01 a      1200     1    21     2    25
  2.3307618770355326E-01 a      1201     1    22     2     1
  6.7845266671915960E-01 a      1202     1    22     2     2
 -4.1112090771154325E-01 a      1203     1    22     2     3
  1.6966959165448375E-01 a      1204     1    22     2     4
  3.3421718287417995E-01 a      1205     1    22     2     5
  1.2153113446942085E-01 a      1206     1    22     2     6
 -4.6972623306083688E-01 a      1207     1    22     2     7
  7.1500135220856331E-01 a      1208     1    22     2     8
  2.0025604012555970E-01 a      1209     1    22     2     9
  3.0869741862884348E-01 a      1210     1    22     2    10
  1.2186569386342301E-01 a      1211     1    22     2    11
  6.1430282392652058E-01 a      1212     1    22     2    12
 -3.6138159288184418E-01 a      1213     1    22     2    13
 -1.1175055804089934E-01 a      1214     1    22     2    14
 -1.4951746158937829E-01 a      1215     1    22     2    15
  1.9036861257787333E-01 a      1216     1    22     2    16
 -6.5706777119722573E-02 a      1217     1    22     2    17
 -7.8919171094337576E-02 a      1218     1    22     2    18
  7.0089384276040168E-01 a      1219     1    22     2    19
  1.8280349688228531E-02 a      1220     1    22     2    20
  1.3047813381765869E-01 a      1221     1    22     2    21
 -4.9643121780921168E-01 a      1222     1    22     2    22
  3.0534015373345563E-01 a      1223     1    22     2    23
  4.2396929651260201E-01 a      1224     1    22     2    24
  2.1499328318987948E-01 a      1225     1    22     2    25
 -2.6700065190682409E-01 a      1226     1    23     2     1
 -1.0314258739531619E+00 a      1227     1    23     2     2
 -1.0471158488435826E-01 a      1228     1    23     2     3
 -5.3109152576213216E-02 a      1229     1    23     2     4
 -9.1833707217952376E-01 a      1230     1    23     2     5
 -4.0295757588372803E-02 a      1231     1    23     2     6
  3.7012193389730441E-01 a      1232     1    23     2     7
  2.7146152235393695E+00 a      1233     1    23     2     8
 -1.9237987477119076E-01 a      1234     1    23     2     9
 -4.7763798286618704E-02 a      1235     1    23     2    10
  7.9835833791614755E-02 a      1236     1    23     2    11
  2.3046984942366694E-01 a      1237     1    23     2    12
 -2.0248545773076015E-01 a      1238     1    23     2    13
  9.0899400842981259E-02 a      1239     1    23     2    14
  3.1550388614035552E-01 a      1240     1    23     2    15
  4.2616506363147244E-01 a      1241     1    23     2    16
  1.6981392491240619E-02 a      1242     1    23     2    17
  1.3449061492124215E-01 a      1243     1    23     2    18
 -8.2224310615304763E-01 a      1244     1    23     2    19
 -3.3293711950108079E-01 a      1245     1    23     2    20
  6.7636062794679180E-02 a      1246     1    23     2    21
 -2.3570686186026313E-01 a      1247     1    23     2    22
  6.0861376320374150E-01 a      1248     1    23     2    23
  2.8597895874059515E-01 a      1249     1    23     2    24
  5.4363468130305626E-01 a      1250     1    23     2    25
 -1.8865384017188230E-01 a      1251     1    24     2     1
  2.1434512816310380E-01 a      1252     1    24     2     2
  2.4845409791202416E-01 a      1253     1    24     2     3
 -7.8697893789309747E-02 a      1254     1    24     2     4
 -6.3001100810606536E-01 a      1255     1    24     2     5
 -2.4239349422612097E-01 a      1256     1    24     2     6
  1.3245617395190196E-01 a      1257     1    24     2     7
 -2.3656974432219607E-01 a      1258     1    24     2     8
 -5.9728126322241603E-03 a      1259     1    24     2     9
  1.7107096075795564E-01 a      1260     1    24     2    10
  3.1204177190618493E-01 a      1261     1    24     2    11
 -1.3508410389572018E-01 a      1262     1    24     2    12
 -9.1867032912488281E-02 a      1263     1    24     2    13
  3.0016604119897844E-01 a      1264     1    24     2    14
  3.1262487609323564E-01 a      1265     1    24     2    15
  3.7888474828740110E-01 a      1266     1    24     2    16
 -1.9090804139612041E-01 a      1267     1    24     2    17
  1.5255854291075938E-01 a      1268     1    24     2    18
 -2.7087045830253603E-01 a      1269     1    24     2    19
 -3.9652323601237871E-01 a      1270     1    24     2    20
  3.4607003663100017E-02 a      1271     1    24     2    21
  2.1984961500297764E-01 a      1272     1    24     2    22
  2.4548304940352314E-01 a      1273     1    24     2    23
 -2.6328403268234080E-01 a      1274     1    24     2    24
  2.1940129725462604E-01 a      1275     1    24     2    25
  3.4991720110254576E-01 a      1276     1    25     2     1
 -9.5824390994260833E-01 a      1277     1    25     2     2
 -7.1390663395653683E-02 a      1278     1    25     2     3
 -6.5237804350322018E-02 a      1279     1    25     2     4
 -9.7060422089685849E-02 a      1280     1    25     2     5
 -1.8095969351371191E-01 a      1281     1    25     2     6
 -2.7697077545355198E-01 a      1282     1    25     2     7
  9.7629148310327696E-01 a      1283     1    25     2     8
 -1.5212213487848730E-01 a      1284     1    25     2     9
 -7.0215589902342690E-01 a      1285     1    25     2    10
  1.1149928508187410E+00 a      1286     1    25     2    11
 -6.6574653630113348E-02 a      1287     1    25     2    12
 -1.8877920326900804E-01 a      1288     1    25     2    13
  3.6748389136503373E-01 a      1289     1    25     2    14
 -2.0296212841721853E-01 a      1290     1    25     2    15
  4.2885017736436520E-01 a      1291     1    25     2    16
 -1.2367426183128456E-01 a      1292     1    25     2    17
 -6.3841635529348503E-02 a      1293     1    25     2    18
  6.8108308099220127E-01 a      1294     1    25     2    19
 -1.3937744955823639E-01 a      1295     1    25     2    20
  6.0995291597178136E-01 a      1296     1    25     2    21
  4.6981703614404602E-01 a      1297     1    25     2    22
  2.2213791983889905E-01 a      1298     1    25     2    23
 -3.4350681082120660E-01 a      1299     1    25     2    24
  1.7108778691771853E-01 a      1300     1    25     2    25
 -7.7335378280033312E-02 b      1301     2     1
  4.5022910956861706E-01 b      1302     2     2
 -5.9071759835417359E-01 b      1303     2     3
  1.5853384412933441E-01 b      1304     2     4
  9.9712932283620992E-02 b      1305     2     5
 -7.6957864014190669E-01 b      1306     2     6
 -3.3012547164973766E-01 b      1307     2     7
 -6.8001919751419587E-02 b      1308     2     8
 -6.4308361520377577E-01 b      1309     2     9
  5.3139973222993564E-01 b      1310     2    10
 -2.6712184564692459E-01 b      1311     2    11
 -1.0014863177594296E-01 b      1312     2    12
 -3.4760661205689936E-01 b      1313     2    13
  6.6532084716274797E-01 b      1314     2    14
 -4.6883986669218841E-01 b      1315     2    15
  4.7438253098038241E-01 b      1316     2    16
  1.2375174027240630E-01 b      1317     2    17
 -7.2136707133401501E-01 b      1318     2    18
 -1.6964771910639234E-01 b      1319     2    19
 -3.3293601973737819E-01 b      1320     2    20
  2.5004935991046318E-01 b      1321     2    21
 -1.0028065289021626E-01 b      1322     2    22
  4.2481544930170301E-01 b      1323     2    23
 -3.0103061297277950E-01 b      1324     2    24
 -1.4089499616671325E-01 b      1325     2    25
 -1.9904814859713404E-01 a      1326     2     1     3     1
 -1.7512844158764962E-01 a      1327     2     2     3     1
  7.1458420527798508E-02 a      1328     2     3     3     1
 -1.7286192951492926E-01 a      1329     2     4     3     1
  2.5289991652741452E-02 a      1330     2     5     3     1
  4.7126170930823236E-01 a      1331     2     6     3     1
  9.5206167460601926E-02 a      1332     2     7     3     1
 -4.2192119230198215E-02 a      1333     2     8     3     1
  4.7483246979793431E-01 a      1334     2     9     3     1
 -1.1063770150175087E-01 a      1335     2    10     3     1
  6.1324732028005882E-03 a      1336     2    11     3     1
  1.2342170615722550E-01 a      1337     2    12     3     1
  2.2496857794822872E-01 a      1338     2    13     3     1
 -1.7060714474461847E-01 a      1339     2    14     3     1
  1.8855603437383159E-01 a      1340     2    15     3     1
  8.1589979415691252E-02 a      1341     2    16     3     1
 -1.7143632814299836E-01 a      1342     2    17     3     1
  4.6926284931770124E-01 a      1343     2    18     3     1
  1.7427372323952411E-01 a      1344     2    19     3     1
 -1.0050561058525415E-01 a      1345     2    20     3     1
 -1.9012069202936466E-01 a      1346     2    21     3     1
 -1.5346218135577419E-01 a      1347     2    22     3     1
 -2.5118388965859384E-01 a      1348     2    23     3     1
  1.3861655666972203E-01 a      1349     2    24     3     1
  1.0745762041631579E-01 a      1350     2    25     3     1
 -1.4225073073970620E+00 b      1351     3     1
