################################################################################
# Neural network connection values (weights and biases).
################################################################################
# Col  Name       Description
################################################################################
# 1    connection Neural network connection value.
# 2    t          Connection type (a = weight, b = bias).
# 3    index      Index enumerating weights.
# 4    l_s        Starting point layer (end point layer for biases).
# 5    n_s        Starting point neuron in starting layer (end point neuron for biases).
# 6    l_e        End point layer.
# 7    n_e        End point neuron in end layer.
################################################################################
#                      1 2         3     4     5     6     7
#             connection t     index   l_s   n_s   l_e   n_e
############################################################
  6.4072194452421876E+00 a         1     0     1     1     1
  2.7731281497132660E+00 a         2     0     1     1     2
 -3.7597214050085159E-01 a         3     0     1     1     3
  9.9241002343682938E-01 a         4     0     1     1     4
  1.7366747298999849E+00 a         5     0     1     1     5
  6.0832455411134578E+00 a         6     0     1     1     6
 -3.4642205843791224E-01 a         7     0     1     1     7
 -2.8622382216596334E+00 a         8     0     1     1     8
  1.1003416271716600E+00 a         9     0     1     1     9
  1.6996166737439744E+00 a        10     0     1     1    10
 -8.4933760011903878E+00 a        11     0     1     1    11
  2.6266851025106019E+00 a        12     0     1     1    12
  5.4618632443774917E+00 a        13     0     1     1    13
  9.5399907140173268E-01 a        14     0     1     1    14
 -1.8802388257108680E+00 a        15     0     1     1    15
  2.1713751419013737E-02 a        16     0     1     1    16
 -5.6493942343931884E+00 a        17     0     1     1    17
 -6.6870458409630587E+00 a        18     0     1     1    18
 -6.1565080201859568E-01 a        19     0     1     1    19
  5.1819758422973843E+00 a        20     0     1     1    20
 -2.4427225811107989E+00 a        21     0     1     1    21
  6.3555803417712520E+00 a        22     0     1     1    22
 -6.4781587304823542E+00 a        23     0     1     1    23
  2.4245087161431864E+00 a        24     0     1     1    24
 -2.4710641207107775E+00 a        25     0     1     1    25
 -2.0590371909902712E+00 a        26     0     2     1     1
 -7.4325355927323380E-02 a        27     0     2     1     2
 -3.3690671583297083E-01 a        28     0     2     1     3
 -1.9283502437296545E+00 a        29     0     2     1     4
  1.0512993642278734E+00 a        30     0     2     1     5
 -1.2179558506923458E+00 a        31     0     2     1     6
 -2.0383143020214722E-01 a        32     0     2     1     7
  1.2363822400775561E+00 a        33     0     2     1     8
 -1.5986600664406154E+00 a        34     0     2     1     9
  3.5269146161813825E-01 a        35     0     2     1    10
  3.1750191031661186E+00 a        36     0     2     1    11
 -8.8665966433528864E-02 a        37     0     2     1    12
 -8.5979567564329495E-01 a        38     0     2     1    13
 -5.2599223636619209E-02 a        39     0     2     1    14
  7.8108185391346951E-01 a        40     0     2     1    15
 -1.7724597451302176E-01 a        41     0     2     1    16
  1.6645552158289463E+00 a        42     0     2     1    17
  1.1874570602336867E+00 a        43     0     2     1    18
 -8.3423041259527142E-01 a        44     0     2     1    19
 -1.1913876356003283E+00 a        45     0     2     1    20
  4.4602471168668550E-01 a        46     0     2     1    21
 -1.3203063606925283E+00 a        47     0     2     1    22
  1.5133787234023419E+00 a        48     0     2     1    23
 -5.4531762723351096E-01 a        49     0     2     1    24
  7.0895187803853243E-01 a        50     0     2     1    25
 -6.2054688919803507E+00 a        51     0     3     1     1
 -9.0824639667237761E-01 a        52     0     3     1     2
 -7.1002824895787311E-03 a        53     0     3     1     3
 -3.1381410450201872E+00 a        54     0     3     1     4
  1.7943355707837105E-01 a        55     0     3     1     5
 -4.5823492561832007E+00 a        56     0     3     1     6
  7.0611269739157226E-02 a        57     0     3     1     7
  3.4775627151339963E+00 a        58     0     3     1     8
 -2.2634232733717869E+00 a        59     0     3     1     9
  1.2825212516451856E-01 a        60     0     3     1    10
  9.3196599516709373E+00 a        61     0     3     1    11
 -9.2432474098981354E-01 a        62     0     3     1    12
 -4.2603090420440513E+00 a        63     0     3     1    13
 -1.1363434097478725E-01 a        64     0     3     1    14
  2.2068015132176337E+00 a        65     0     3     1    15
 -4.7300666738841013E-01 a        66     0     3     1    16
  4.6981726546119509E+00 a        67     0     3     1    17
  4.7842462777049617E+00 a        68     0     3     1    18
 -8.6785134547102438E-01 a        69     0     3     1    19
 -4.1607613003854995E+00 a        70     0     3     1    20
  1.7784768705688343E+00 a        71     0     3     1    21
 -5.1052082738791142E+00 a        72     0     3     1    22
  5.5436989198064337E+00 a        73     0     3     1    23
 -1.4973869588040920E+00 a        74     0     3     1    24
  2.1260867049749788E+00 a        75     0     3     1    25
  1.0608086634822360E+00 a        76     0     4     1     1
 -2.4510295530185249E+00 a        77     0     4     1     2
  8.8284201822184483E-01 a        78     0     4     1     3
  3.6836637770699614E+00 a        79     0     4     1     4
 -7.9442234359743213E-01 a        80     0     4     1     5
 -1.2680845831957674E+00 a        81     0     4     1     6
  3.2004350548070910E+00 a        82     0     4     1     7
 -7.7153727671408223E-01 a        83     0     4     1     8
  1.4296194519050467E+00 a        84     0     4     1     9
 -2.8051971182574826E+00 a        85     0     4     1    10
 -4.0910316174275252E+00 a        86     0     4     1    11
 -3.3761517210963117E+00 a        87     0     4     1    12
 -2.1635715015450767E+00 a        88     0     4     1    13
 -1.8230805866806814E+00 a        89     0     4     1    14
 -1.1716027944831030E-01 a        90     0     4     1    15
  4.0826657003952063E+00 a        91     0     4     1    16
  3.3714940995496097E+00 a        92     0     4     1    17
  5.3332073985120418E+00 a        93     0     4     1    18
 -3.0701800982159061E-01 a        94     0     4     1    19
 -2.2805347517993194E-01 a        95     0     4     1    20
  2.4430600352184029E+00 a        96     0     4     1    21
  1.7330542018548283E+00 a        97     0     4     1    22
  3.1301733682886965E+00 a        98     0     4     1    23
 -2.2678883142181960E+00 a        99     0     4     1    24
 -1.4395773387262047E+00 a       100     0     4     1    25
  1.7074558534757005E+00 a       101     0     5     1     1
  1.7176611939016881E-01 a       102     0     5     1     2
 -2.1160050799278816E+00 a       103     0     5     1     3
 -4.0697454245063375E-01 a       104     0     5     1     4
 -1.3310403301378857E+00 a       105     0     5     1     5
  2.1221105566386353E+00 a       106     0     5     1     6
 -4.3642736087053065E+00 a       107     0     5     1     7
 -2.3527062741678115E+00 a       108     0     5     1     8
  9.7959999643633988E-01 a       109     0     5     1     9
  9.0401980807998572E-01 a       110     0     5     1    10
 -3.7405789408298090E-01 a       111     0     5     1    11
  1.9166960014328323E+00 a       112     0     5     1    12
  5.9362811587067510E-01 a       113     0     5     1    13
  6.8527448706030825E-01 a       114     0     5     1    14
 -8.1664746494241625E-01 a       115     0     5     1    15
 -4.7376281687639974E+00 a       116     0     5     1    16
 -5.5670365566874889E+00 a       117     0     5     1    17
 -6.9149743455222312E+00 a       118     0     5     1    18
  1.7453170217342049E+00 a       119     0     5     1    19
 -1.1212859549345817E-01 a       120     0     5     1    20
 -2.8370597638298971E+00 a       121     0     5     1    21
 -2.3602800692647579E+00 a       122     0     5     1    22
 -7.2260434480276832E+00 a       123     0     5     1    23
  3.3701926202049330E+00 a       124     0     5     1    24
  1.7173154421293977E+00 a       125     0     5     1    25
 -1.7404398888799764E+00 a       126     0     6     1     1
  1.3123644219430401E+00 a       127     0     6     1     2
  1.6750510049004632E+00 a       128     0     6     1     3
 -3.5577699894346559E-01 a       129     0     6     1     4
  7.7832979651680967E-01 a       130     0     6     1     5
 -3.1583334437335470E-01 a       131     0     6     1     6
  1.9227133094220394E+00 a       132     0     6     1     7
  1.7274131922271625E+00 a       133     0     6     1     8
 -8.4783249138011474E-01 a       134     0     6     1     9
 -1.5725272470957055E-01 a       135     0     6     1    10
  1.3702975462565368E+00 a       136     0     6     1    11
 -2.8611434529676311E-01 a       137     0     6     1    12
  7.3647761890420693E-01 a       138     0     6     1    13
  6.0292516234309701E-01 a       139     0     6     1    14
 -7.8357996067629027E-02 a       140     0     6     1    15
  1.2200748552490468E+00 a       141     0     6     1    16
  2.1223414247859367E+00 a       142     0     6     1    17
  2.4410176302367472E+00 a       143     0     6     1    18
 -4.7065285609008728E-01 a       144     0     6     1    19
  4.7739188215251804E-01 a       145     0     6     1    20
  1.2008366139295161E+00 a       146     0     6     1    21
  4.4618840233297646E-01 a       147     0     6     1    22
  3.5072789017566124E+00 a       148     0     6     1    23
 -1.4654936795834885E+00 a       149     0     6     1    24
 -4.5773333124039070E-02 a       150     0     6     1    25
  3.6304656229838855E-01 a       151     0     7     1     1
 -5.1046583745017871E-01 a       152     0     7     1     2
 -4.3201856629345392E-01 a       153     0     7     1     3
  7.3756061210305410E-02 a       154     0     7     1     4
 -5.2436192206847920E-02 a       155     0     7     1     5
  1.8014019462951283E-01 a       156     0     7     1     6
 -3.2718012770307503E-01 a       157     0     7     1     7
 -4.5948618646420503E-01 a       158     0     7     1     8
  4.5114330880824255E-01 a       159     0     7     1     9
 -3.6601620389257669E-02 a       160     0     7     1    10
 -3.2907861340720490E-01 a       161     0     7     1    11
 -2.4296205858471273E-01 a       162     0     7     1    12
 -3.3885253115289665E-01 a       163     0     7     1    13
 -2.5855477437728338E-02 a       164     0     7     1    14
  1.6743098382690946E-02 a       165     0     7     1    15
 -2.0034137860002438E-02 a       166     0     7     1    16
 -3.0843717838466894E-01 a       167     0     7     1    17
 -3.5598880225773644E-01 a       168     0     7     1    18
 -1.4477659937762047E-01 a       169     0     7     1    19
 -2.2437513971223921E-01 a       170     0     7     1    20
 -3.8398601755046108E-01 a       171     0     7     1    21
  1.0314443687074409E-01 a       172     0     7     1    22
 -7.0083547561652637E-01 a       173     0     7     1    23
  3.1584311591096265E-01 a       174     0     7     1    24
 -1.4394692187703752E-02 a       175     0     7     1    25
  7.0693129289619225E-02 a       176     0     8     1     1
  1.2389920125836640E-01 a       177     0     8     1     2
 -9.5518162103019971E-02 a       178     0     8     1     3
  5.0071157024693752E-02 a       179     0     8     1     4
 -1.4379068168813326E-02 a       180     0     8     1     5
 -1.6997596527733305E-02 a       181     0     8     1     6
 -3.7040799006944484E-04 a       182     0     8     1     7
 -5.6911263854286957E-02 a       183     0     8     1     8
 -8.3679166123998297E-02 a       184     0     8     1     9
  4.1388729175611386E-02 a       185     0     8     1    10
 -7.6299033953524512E-02 a       186     0     8     1    11
  1.1883087149573114E-01 a       187     0     8     1    12
  1.4505959376464225E-01 a       188     0     8     1    13
 -1.1860303768816075E-01 a       189     0     8     1    14
 -3.7988431574470349E-02 a       190     0     8     1    15
 -1.5108787405426349E-01 a       191     0     8     1    16
 -7.0893060913725978E-02 a       192     0     8     1    17
 -2.7801095182348485E-02 a       193     0     8     1    18
 -2.5291980363347712E-02 a       194     0     8     1    19
  8.9387726085231073E-02 a       195     0     8     1    20
  7.4868725522330828E-02 a       196     0     8     1    21
  2.6869150175828273E-03 a       197     0     8     1    22
  5.1345899349160180E-02 a       198     0     8     1    23
 -1.0331044336836254E-01 a       199     0     8     1    24
 -1.0143143806354057E-01 a       200     0     8     1    25
 -1.0176863255936461E+00 a       201     0     9     1     1
 -1.2049822018433014E+00 a       202     0     9     1     2
 -4.6224025000689686E+00 a       203     0     9     1     3
  6.6178139272620600E+00 a       204     0     9     1     4
 -2.7730294774798239E+00 a       205     0     9     1     5
  1.3747988332167558E+00 a       206     0     9     1     6
 -3.3809709101924806E-01 a       207     0     9     1     7
 -3.6395049118253620E+00 a       208     0     9     1     8
 -3.0409394581652283E+00 a       209     0     9     1     9
  2.4016787230646459E+00 a       210     0     9     1    10
 -5.8238266375190886E+00 a       211     0     9     1    11
  8.5704552879214135E-01 a       212     0     9     1    12
 -2.8415770354039234E+00 a       213     0     9     1    13
 -1.6786333954360144E+00 a       214     0     9     1    14
 -2.5362469097671330E+00 a       215     0     9     1    15
 -1.3462085290980619E+00 a       216     0     9     1    16
 -2.9229477170925824E+00 a       217     0     9     1    17
 -4.6752675260708703E+00 a       218     0     9     1    18
  1.7780757223888461E+00 a       219     0     9     1    19
 -4.5470897557289032E+00 a       220     0     9     1    20
 -1.3696002744585518E+00 a       221     0     9     1    21
  3.1157191896466880E+00 a       222     0     9     1    22
 -3.5471651028531187E-01 a       223     0     9     1    23
  5.2568233884627862E+00 a       224     0     9     1    24
 -2.5409390993732361E+00 a       225     0     9     1    25
 -5.2273535044016519E+00 a       226     0    10     1     1
 -1.0971461165385152E+00 a       227     0    10     1     2
  1.1076970308191711E+00 a       228     0    10     1     3
 -3.9529994317442760E+00 a       229     0    10     1     4
 -1.8075838939339259E+00 a       230     0    10     1     5
 -2.3349219717842931E+00 a       231     0    10     1     6
 -9.0176516933456452E-01 a       232     0    10     1     7
  1.9598740048508687E+00 a       233     0    10     1     8
 -6.3155377068426832E-01 a       234     0    10     1     9
 -1.0793318834745997E+00 a       235     0    10     1    10
  6.5928892325144535E+00 a       236     0    10     1    11
 -4.4635709924417483E-01 a       237     0    10     1    12
 -3.6139127230780308E+00 a       238     0    10     1    13
 -1.0389975745177568E-01 a       239     0    10     1    14
  1.1524765763513167E+00 a       240     0    10     1    15
 -1.1256458413567596E+00 a       241     0    10     1    16
  1.6001497688045287E+00 a       242     0    10     1    17
  2.0930160756503460E+00 a       243     0    10     1    18
  5.5707253148613987E-02 a       244     0    10     1    19
 -2.5247277141321063E+00 a       245     0    10     1    20
  1.5095041446724335E+00 a       246     0    10     1    21
 -4.4612866491571710E+00 a       247     0    10     1    22
  2.5655351695704178E+00 a       248     0    10     1    23
 -1.1535161125124369E+00 a       249     0    10     1    24
  1.8839960219145524E+00 a       250     0    10     1    25
  5.9327273439766124E+00 a       251     0    11     1     1
  1.1203613549836371E+00 a       252     0    11     1     2
  5.8222042627913728E+00 a       253     0    11     1     3
 -3.5280220443669998E+00 a       254     0    11     1     4
  1.8634786868246481E-01 a       255     0    11     1     5
  4.6916317929302975E-01 a       256     0    11     1     6
  1.1098337948811356E+00 a       257     0    11     1     7
  6.8714474713271700E-01 a       258     0    11     1     8
  4.9815784060683272E+00 a       259     0    11     1     9
 -4.3155576204584110E+00 a       260     0    11     1    10
 -2.0510878677369502E+00 a       261     0    11     1    11
 -8.0154253576712542E-01 a       262     0    11     1    12
  5.0248460456469708E+00 a       263     0    11     1    13
  1.5855026375827868E+00 a       264     0    11     1    14
  5.6192773771504090E-01 a       265     0    11     1    15
  2.4596116682313771E+00 a       266     0    11     1    16
 -4.1845889045776091E-01 a       267     0    11     1    17
  1.4735164882887100E+00 a       268     0    11     1    18
 -1.4047914777355872E+00 a       269     0    11     1    19
  9.0578332204079288E+00 a       270     0    11     1    20
  1.9177835859044052E+00 a       271     0    11     1    21
  3.5980817546059779E-01 a       272     0    11     1    22
 -2.5530621771455162E+00 a       273     0    11     1    23
 -5.7439506253567778E+00 a       274     0    11     1    24
  1.7735214148316427E+00 a       275     0    11     1    25
  8.6253232381744862E+00 a       276     0    12     1     1
  5.2946517483832878E+00 a       277     0    12     1     2
  7.7464730158785178E-01 a       278     0    12     1     3
  2.3591078683029290E+00 a       279     0    12     1     4
  3.3638039657556242E+00 a       280     0    12     1     5
  7.0559305653797306E+00 a       281     0    12     1     6
 -4.2291589782656125E+00 a       282     0    12     1     7
  5.5191805907752611E-01 a       283     0    12     1     8
  6.5602521542443819E+00 a       284     0    12     1     9
 -2.9196565256430222E+00 a       285     0    12     1    10
 -1.9677434393187370E+00 a       286     0    12     1    11
  1.3183061179490583E+00 a       287     0    12     1    12
 -1.5722166274160138E-01 a       288     0    12     1    13
  4.7392919936849003E+00 a       289     0    12     1    14
  2.5975332103935682E+00 a       290     0    12     1    15
 -4.7889152093129501E-02 a       291     0    12     1    16
 -6.3215279783981781E+00 a       292     0    12     1    17
  4.1589832688812747E+00 a       293     0    12     1    18
 -1.1848860627593387E+00 a       294     0    12     1    19
  2.9310906948617856E+00 a       295     0    12     1    20
 -2.5071450834957183E+00 a       296     0    12     1    21
 -1.7002345098102776E+00 a       297     0    12     1    22
 -9.9454340779379997E+00 a       298     0    12     1    23
 -3.4268292852877855E+00 a       299     0    12     1    24
 -5.0650432467282525E-01 a       300     0    12     1    25
 -2.0530266968323765E-01 a       301     0    13     1     1
 -2.0919039429191506E+00 a       302     0    13     1     2
 -9.8809093809762050E-01 a       303     0    13     1     3
  1.1042385843365383E-01 a       304     0    13     1     4
  2.1330410124036865E+00 a       305     0    13     1     5
 -1.0078626993156676E+00 a       306     0    13     1     6
  8.8496592755663225E-02 a       307     0    13     1     7
 -7.2351865676962268E-01 a       308     0    13     1     8
 -7.5346854013701159E-01 a       309     0    13     1     9
 -3.7459032024367223E-01 a       310     0    13     1    10
 -1.4576493625364337E-01 a       311     0    13     1    11
 -3.9316794212133979E+00 a       312     0    13     1    12
 -5.0324967461907322E-01 a       313     0    13     1    13
 -2.5099686853298825E-01 a       314     0    13     1    14
 -2.6341333539592515E-01 a       315     0    13     1    15
  1.0670307411936164E+00 a       316     0    13     1    16
  2.0038545214297434E+00 a       317     0    13     1    17
  1.0546695799775123E+00 a       318     0    13     1    18
  6.5139106545354586E-01 a       319     0    13     1    19
 -8.1856948095663007E-01 a       320     0    13     1    20
 -4.4319182994586967E-02 a       321     0    13     1    21
  1.4169066589159272E+00 a       322     0    13     1    22
  1.0557072626871682E+00 a       323     0    13     1    23
 -3.6002011980482668E-01 a       324     0    13     1    24
  6.2300926150521097E-01 a       325     0    13     1    25
 -9.5984483496610373E+00 a       326     0    14     1     1
 -9.6334231835510877E+00 a       327     0    14     1     2
 -2.7262059423868141E+00 a       328     0    14     1     3
 -3.9130909363580053E+00 a       329     0    14     1     4
  8.5809050007009446E-01 a       330     0    14     1     5
 -9.4484383076080523E+00 a       331     0    14     1     6
  3.2567248046798216E+00 a       332     0    14     1     7
 -8.1228353984207879E-01 a       333     0    14     1     8
 -7.7886935988850761E+00 a       334     0    14     1     9
  1.5255418158693586E+00 a       335     0    14     1    10
  2.9663438488674689E+00 a       336     0    14     1    11
 -8.7938636486872070E+00 a       337     0    14     1    12
 -2.8737043491821628E+00 a       338     0    14     1    13
 -4.3045645541250535E+00 a       339     0    14     1    14
 -1.7339266396932880E+00 a       340     0    14     1    15
  6.5717123668260502E-01 a       341     0    14     1    16
  1.0622189222173619E+01 a       342     0    14     1    17
 -1.7776692630859869E+00 a       343     0    14     1    18
  1.7713083729019248E+00 a       344     0    14     1    19
 -5.6269861303173832E+00 a       345     0    14     1    20
  2.2834661979944313E+00 a       346     0    14     1    21
  2.2030411726951775E+00 a       347     0    14     1    22
  1.1891961355810018E+01 a       348     0    14     1    23
  2.1261229996001303E+00 a       349     0    14     1    24
  2.2278557194824460E+00 a       350     0    14     1    25
  2.5092422715609786E+00 a       351     0    15     1     1
  1.8318066384195184E+00 a       352     0    15     1     2
 -7.7755752603464456E-01 a       353     0    15     1     3
  4.2161994171923292E+00 a       354     0    15     1     4
 -2.1908473271638262E-01 a       355     0    15     1     5
 -1.4582541815823273E+00 a       356     0    15     1     6
  1.6191498247672897E+00 a       357     0    15     1     7
 -4.4258775788076815E-01 a       358     0    15     1     8
  1.7339429756676565E+00 a       359     0    15     1     9
  2.1784587373491844E+00 a       360     0    15     1    10
 -4.3971986167924637E-01 a       361     0    15     1    11
  6.2519054843238528E+00 a       362     0    15     1    12
  8.3678671192010352E+00 a       363     0    15     1    13
 -4.0168322358973924E-01 a       364     0    15     1    14
 -7.3506108816586369E-01 a       365     0    15     1    15
 -8.4360239319574615E-01 a       366     0    15     1    16
 -2.7763444315368431E+00 a       367     0    15     1    17
  1.7830299041657785E-01 a       368     0    15     1    18
  9.0811236746316226E-01 a       369     0    15     1    19
  9.8574720771698576E-01 a       370     0    15     1    20
 -1.7788310004945178E+00 a       371     0    15     1    21
 -6.2595450270702475E+00 a       372     0    15     1    22
 -5.0645626791863148E+00 a       373     0    15     1    23
  3.2900293408159276E+00 a       374     0    15     1    24
 -2.0099471698123255E+00 a       375     0    15     1    25
 -3.0063314254303650E+00 a       376     0    16     1     1
  1.1496778323564860E-01 a       377     0    16     1     2
  9.0758442223971517E-02 a       378     0    16     1     3
 -1.9875645353431137E+00 a       379     0    16     1     4
  4.6939197474336236E-01 a       380     0    16     1     5
 -1.1809756174389641E+00 a       381     0    16     1     6
 -5.7590673331527642E-01 a       382     0    16     1     7
  1.6339584591661624E+00 a       383     0    16     1     8
 -5.9245189147436006E-01 a       384     0    16     1     9
  6.6256419113227050E-01 a       385     0    16     1    10
  4.7556978674123034E+00 a       386     0    16     1    11
  3.1470526181720043E-01 a       387     0    16     1    12
 -1.5690490898153384E+00 a       388     0    16     1    13
  2.7041361337724196E-01 a       389     0    16     1    14
  1.3187298573425887E+00 a       390     0    16     1    15
 -7.3794221961345852E-01 a       391     0    16     1    16
  1.6115210250479430E+00 a       392     0    16     1    17
  1.2333520758824006E+00 a       393     0    16     1    18
 -2.8406655914284240E-01 a       394     0    16     1    19
 -2.8003889730388489E+00 a       395     0    16     1    20
 -5.9337348537714586E-02 a       396     0    16     1    21
 -2.1540930013782598E+00 a       397     0    16     1    22
  1.8295983817417507E+00 a       398     0    16     1    23
 -1.6948178021463409E-01 a       399     0    16     1    24
  3.4820604465233596E-01 a       400     0    16     1    25
  1.1201709177092198E+00 a       401     0    17     1     1
 -8.7638868732056319E-01 a       402     0    17     1     2
 -8.8827113352798592E-01 a       403     0    17     1     3
 -9.1991140973663776E-01 a       404     0    17     1     4
  1.1445905415101372E+00 a       405     0    17     1     5
  2.5773581843013056E+00 a       406     0    17     1     6
 -6.5506651686692496E-01 a       407     0    17     1     7
 -4.4897716664252640E-01 a       408     0    17     1     8
 -1.8707101046294448E+00 a       409     0    17     1     9
 -1.8300245427437647E-01 a       410     0    17     1    10
 -3.7743097053050962E+00 a       411     0    17     1    11
 -5.1970254007059005E+00 a       412     0    17     1    12
 -5.3933114774271971E+00 a       413     0    17     1    13
  3.3391386725383010E-01 a       414     0    17     1    14
  1.5577097344416874E-01 a       415     0    17     1    15
  1.9308405137591564E+00 a       416     0    17     1    16
  2.2843782846853382E+00 a       417     0    17     1    17
 -4.2742224874882845E-01 a       418     0    17     1    18
 -9.4793346051996230E-01 a       419     0    17     1    19
  2.4318392752336090E-01 a       420     0    17     1    20
  3.3922810085440475E-01 a       421     0    17     1    21
  9.4797310303244409E+00 a       422     0    17     1    22
  3.5465283200415270E+00 a       423     0    17     1    23
 -1.8082010850197243E+00 a       424     0    17     1    24
 -1.1800472662669385E-01 a       425     0    17     1    25
  3.1136204191025474E+00 a       426     0    18     1     1
  3.3233559068724960E+00 a       427     0    18     1     2
 -9.4577920252932857E-01 a       428     0    18     1     3
  7.0492945965926381E+00 a       429     0    18     1     4
 -1.0634903659813220E+00 a       430     0    18     1     5
  4.1542788006686768E+00 a       431     0    18     1     6
 -2.4794340009383564E+00 a       432     0    18     1     7
 -3.2170230622067619E-01 a       433     0    18     1     8
 -5.9539311358095745E-02 a       434     0    18     1     9
 -1.9628841606526943E+00 a       435     0    18     1    10
 -3.2672800204134600E-01 a       436     0    18     1    11
  3.1887522176645198E+00 a       437     0    18     1    12
 -3.7460986339332600E+00 a       438     0    18     1    13
 -1.6548688696189717E+00 a       439     0    18     1    14
 -4.2172139812768922E-01 a       440     0    18     1    15
 -1.2284624054713160E+00 a       441     0    18     1    16
  1.4491544283078106E+00 a       442     0    18     1    17
 -2.2644836889931563E-01 a       443     0    18     1    18
  5.5412281652128004E-01 a       444     0    18     1    19
  6.3471334991260404E+00 a       445     0    18     1    20
  1.0806832003019804E+00 a       446     0    18     1    21
  5.6662949092267034E+00 a       447     0    18     1    22
  2.4466077454052688E+00 a       448     0    18     1    23
 -3.8144689419557318E+00 a       449     0    18     1    24
  1.4247441381510129E+00 a       450     0    18     1    25
 -7.2655317742501072E-02 a       451     0    19     1     1
  2.7253736826118651E+00 a       452     0    19     1     2
  1.8761786307668320E+00 a       453     0    19     1     3
  5.9523100958782837E-01 a       454     0    19     1     4
 -1.9056128234100751E+00 a       455     0    19     1     5
  1.9532291266332442E+00 a       456     0    19     1     6
  1.6258772977808508E-01 a       457     0    19     1     7
  3.7478726399580953E-01 a       458     0    19     1     8
  6.7439538572948365E-01 a       459     0    19     1     9
  7.6087804758070710E-01 a       460     0    19     1    10
  8.0457660874145320E-01 a       461     0    19     1    11
  5.1721950222339501E+00 a       462     0    19     1    12
  1.5756332934242028E+00 a       463     0    19     1    13
  3.4760930226294734E-01 a       464     0    19     1    14
 -5.6230490311918435E-01 a       465     0    19     1    15
 -1.1137445830313009E+00 a       466     0    19     1    16
 -3.8403416555250436E+00 a       467     0    19     1    17
 -1.7285030974180644E+00 a       468     0    19     1    18
 -5.9467313166430635E-01 a       469     0    19     1    19
  1.2528051195966254E+00 a       470     0    19     1    20
  3.9289953500163888E-01 a       471     0    19     1    21
 -1.4410983588783517E+00 a       472     0    19     1    22
 -4.5670580594304105E-01 a       473     0    19     1    23
  6.8232579614444655E-01 a       474     0    19     1    24
 -1.1460329959970799E+00 a       475     0    19     1    25
  1.3701822390373274E-02 a       476     0    20     1     1
  1.9777244380491752E+00 a       477     0    20     1     2
  3.2706696527571468E+00 a       478     0    20     1     3
 -2.5156266520947117E+00 a       479     0    20     1     4
 -2.1972900296020041E+00 a       480     0    20     1     5
 -6.7834354928749674E-01 a       481     0    20     1     6
  3.5462668894817648E+00 a       482     0    20     1     7
  1.7165115293071018E-01 a       483     0    20     1     8
  1.6794074492554423E+00 a       484     0    20     1     9
  3.3374358791325816E+00 a       485     0    20     1    10
 -1.4191171658317676E+00 a       486     0    20     1    11
  8.0768937472614137E+00 a       487     0    20     1    12
  7.1599566018874574E+00 a       488     0    20     1    13
  1.5637227383907593E+00 a       489     0    20     1    14
 -5.9857073449742915E-01 a       490     0    20     1    15
 -2.2791045288866418E+00 a       491     0    20     1    16
 -8.8613901170742455E+00 a       492     0    20     1    17
 -2.5998940696770565E+00 a       493     0    20     1    18
 -1.6820111855939166E+00 a       494     0    20     1    19
 -1.9496581796044039E+00 a       495     0    20     1    20
 -3.4294552740163142E-01 a       496     0    20     1    21
 -7.4896411714105700E+00 a       497     0    20     1    22
 -3.8413020578966424E+00 a       498     0    20     1    23
  5.9062436930692890E+00 a       499     0    20     1    24
 -3.7673900383951935E+00 a       500     0    20     1    25
 -4.7951753732253302E+00 a       501     0    21     1     1
 -1.2379525479920144E+00 a       502     0    21     1     2
 -2.1439428093812024E-01 a       503     0    21     1     3
 -6.0640073105393153E+00 a       504     0    21     1     4
  4.3345104776227581E+00 a       505     0    21     1     5
 -2.0518625562771526E+00 a       506     0    21     1     6
 -3.0962770344138915E+00 a       507     0    21     1     7
  2.2995073536194086E-01 a       508     0    21     1     8
  3.2506416213725453E+00 a       509     0    21     1     9
  5.8113799436680935E+00 a       510     0    21     1    10
  2.8582680988151993E-01 a       511     0    21     1    11
 -2.9975072132503872E-01 a       512     0    21     1    12
  9.2974335737221523E+00 a       513     0    21     1    13
 -2.8185154067783036E+00 a       514     0    21     1    14
 -5.6302849661168830E+00 a       515     0    21     1    15
  8.3617987448678932E-01 a       516     0    21     1    16
  2.0323243277708755E-01 a       517     0    21     1    17
 -1.0638954266173336E+01 a       518     0    21     1    18
  4.1045476050927121E+00 a       519     0    21     1    19
 -2.6566107122659721E+00 a       520     0    21     1    20
  8.1045247909494278E-01 a       521     0    21     1    21
  2.1720727943365934E+00 a       522     0    21     1    22
 -3.6670100232658607E+00 a       523     0    21     1    23
  1.6294187120392345E+00 a       524     0    21     1    24
 -2.4326246537677996E+00 a       525     0    21     1    25
 -3.6125391359582730E+00 a       526     0    22     1     1
 -8.4698132408967697E-01 a       527     0    22     1     2
  4.0058569977012001E-02 a       528     0    22     1     3
 -4.0500009398885766E+00 a       529     0    22     1     4
  1.0445149434781498E-01 a       530     0    22     1     5
 -1.2883163866569440E+00 a       531     0    22     1     6
 -9.3257840644412793E-01 a       532     0    22     1     7
  1.5124454519846373E+00 a       533     0    22     1     8
 -8.1153721991590355E-01 a       534     0    22     1     9
 -5.5415115506879109E-01 a       535     0    22     1    10
  3.5295683332132337E+00 a       536     0    22     1    11
 -2.2016244066000361E+00 a       537     0    22     1    12
 -1.2023555936475423E+00 a       538     0    22     1    13
  1.3722531154243853E-01 a       539     0    22     1    14
  4.7275684561036824E-01 a       540     0    22     1    15
  1.3508110593164000E+00 a       541     0    22     1    16
  2.3340057319281393E+00 a       542     0    22     1    17
  3.0102339616810009E-01 a       543     0    22     1    18
  1.3645426319843310E-01 a       544     0    22     1    19
 -3.0534018975509793E+00 a       545     0    22     1    20
 -1.8317587573639185E-02 a       546     0    22     1    21
 -1.4889611398765545E+00 a       547     0    22     1    22
  5.0843713757321085E-01 a       548     0    22     1    23
 -6.9116753999764624E-01 a       549     0    22     1    24
  8.0428384488387950E-01 a       550     0    22     1    25
  6.6533629884801986E+00 a       551     0    23     1     1
  1.6347313771684469E-02 a       552     0    23     1     2
 -1.0226273155957135E+00 a       553     0    23     1     3
  6.7361549447444391E+00 a       554     0    23     1     4
 -3.2391075785171410E+00 a       555     0    23     1     5
  1.1102687205061514E+00 a       556     0    23     1     6
  3.2725282653373307E+00 a       557     0    23     1     7
 -7.0963931834714389E-01 a       558     0    23     1     8
 -2.8635586810636968E+00 a       559     0    23     1     9
 -5.9065933952951850E+00 a       560     0    23     1    10
 -3.3362021862953890E+00 a       561     0    23     1    11
 -3.7824900595286217E+00 a       562     0    23     1    12
 -9.1082588552497015E+00 a       563     0    23     1    13
  2.2608636023346200E+00 a       564     0    23     1    14
  5.9512645448599955E+00 a       565     0    23     1    15
  7.0507067717690053E-01 a       566     0    23     1    16
  2.5885992981929471E+00 a       567     0    23     1    17
  1.1587953453735443E+01 a       568     0    23     1    18
 -3.3409330813719595E+00 a       569     0    23     1    19
  3.1288580734487792E+00 a       570     0    23     1    20
 -2.0529923647236661E+00 a       571     0    23     1    21
  6.2979531107202258E-01 a       572     0    23     1    22
  2.2724447376799870E+00 a       573     0    23     1    23
 -2.0018802499569288E+00 a       574     0    23     1    24
  3.3538422450910934E+00 a       575     0    23     1    25
  1.3573270154291970E+00 a       576     0    24     1     1
 -1.4054419415463100E+00 a       577     0    24     1     2
 -2.4348569097438415E+00 a       578     0    24     1     3
  1.2742684553852661E+00 a       579     0    24     1     4
  3.7167747637202025E-01 a       580     0    24     1     5
 -3.7016641232047376E+00 a       581     0    24     1     6
 -8.8225261873412383E-02 a       582     0    24     1     7
 -6.1220534315423503E-01 a       583     0    24     1     8
  1.8292773442900759E-01 a       584     0    24     1     9
  2.0157306810032880E+00 a       585     0    24     1    10
 -1.8177781647118871E+00 a       586     0    24     1    11
 -1.9153565803560164E+00 a       587     0    24     1    12
  3.7643884915444342E-01 a       588     0    24     1    13
 -1.4474949641915538E+00 a       589     0    24     1    14
 -3.7079474602837947E-02 a       590     0    24     1    15
 -8.4969421506865839E-01 a       591     0    24     1    16
  2.0783683825987445E+00 a       592     0    24     1    17
  6.9618023208988467E-01 a       593     0    24     1    18
  3.2791168646621749E+00 a       594     0    24     1    19
 -1.9343821458577082E+00 a       595     0    24     1    20
  6.4882228862629365E-01 a       596     0    24     1    21
  1.1538288596550961E-01 a       597     0    24     1    22
  3.7443770997115614E-02 a       598     0    24     1    23
  5.3148168774158688E-01 a       599     0    24     1    24
 -2.4730392188898622E+00 a       600     0    24     1    25
 -1.9453046522432158E+00 a       601     0    25     1     1
  1.8256045820992417E+00 a       602     0    25     1     2
  3.6071114679912437E+00 a       603     0    25     1     3
 -2.4000169496560795E+00 a       604     0    25     1     4
 -2.6895743053045318E-01 a       605     0    25     1     5
  6.1671149595182904E+00 a       606     0    25     1     6
  3.4524392562119821E-01 a       607     0    25     1     7
  8.1997985679550833E-01 a       608     0    25     1     8
 -8.5253540673436934E-02 a       609     0    25     1     9
 -3.5858899119167424E+00 a       610     0    25     1    10
  3.4549284754788134E+00 a       611     0    25     1    11
  3.9118389483827851E+00 a       612     0    25     1    12
 -6.6638878950686742E-01 a       613     0    25     1    13
  2.4249646627266039E+00 a       614     0    25     1    14
  8.7848375295941986E-02 a       615     0    25     1    15
  1.4757837794879907E+00 a       616     0    25     1    16
 -4.5114347877617851E+00 a       617     0    25     1    17
 -1.3596305027744429E+00 a       618     0    25     1    18
 -5.1665809004264114E+00 a       619     0    25     1    19
  3.5998029517796168E+00 a       620     0    25     1    20
 -9.7960917790680202E-01 a       621     0    25     1    21
 -3.5161709835573335E-01 a       622     0    25     1    22
 -4.6251656056539570E-01 a       623     0    25     1    23
 -1.1539001005836445E+00 a       624     0    25     1    24
  4.0852484612635918E+00 a       625     0    25     1    25
  6.8410230341901934E-01 a       626     0    26     1     1
 -5.1615553501175093E-01 a       627     0    26     1     2
 -1.1890524958978124E+00 a       628     0    26     1     3
  1.1629228720746656E+00 a       629     0    26     1     4
 -5.6321917341771319E-02 a       630     0    26     1     5
 -2.6135373965456079E+00 a       631     0    26     1     6
 -2.3436167184121889E-01 a       632     0    26     1     7
 -1.9122352168945081E-01 a       633     0    26     1     8
 -2.9767659544941441E-02 a       634     0    26     1     9
  1.6224165829233492E+00 a       635     0    26     1    10
 -1.6809296082809599E+00 a       636     0    26     1    11
 -1.9387627306165425E+00 a       637     0    26     1    12
  2.7682225114599984E-01 a       638     0    26     1    13
 -1.1343094046388977E+00 a       639     0    26     1    14
 -4.5238458727619557E-02 a       640     0    26     1    15
 -6.9805706027152392E-01 a       641     0    26     1    16
  2.3521989127235106E+00 a       642     0    26     1    17
  6.4366563437120883E-01 a       643     0    26     1    18
  2.1113572862975425E+00 a       644     0    26     1    19
 -1.6814078775646530E+00 a       645     0    26     1    20
  4.1841994693253520E-01 a       646     0    26     1    21
  2.3635879248938124E-01 a       647     0    26     1    22
  4.1013423284911504E-01 a       648     0    26     1    23
  7.1482965293575695E-01 a       649     0    26     1    24
 -1.7298260436062141E+00 a       650     0    26     1    25
 -1.1489503829762505E-01 b       651     1     1
  1.2671442431569865E-01 b       652     1     2
  3.2793468203260312E-01 b       653     1     3
 -3.6064671110993818E-02 b       654     1     4
 -3.7168234359053609E-01 b       655     1     5
  1.5430873930679576E-01 b       656     1     6
  2.3609893587893005E-01 b       657     1     7
  1.6165932780040155E-02 b       658     1     8
  2.2922585452815206E-01 b       659     1     9
  7.0756461936908696E-02 b       660     1    10
  3.7342183332129558E-01 b       661     1    11
  4.8490322493406524E-01 b       662     1    12
  2.4882467452225709E-01 b       663     1    13
 -1.3347019068117211E-01 b       664     1    14
  3.1845173012969658E-02 b       665     1    15
 -1.0443355135910865E-01 b       666     1    16
 -6.6456845237873485E-02 b       667     1    17
 -2.9421999830599505E-01 b       668     1    18
  1.4799260665840858E-01 b       669     1    19
 -4.2982247574292126E-01 b       670     1    20
  7.8484229202833114E-02 b       671     1    21
 -1.9762218763417250E-01 b       672     1    22
  2.4117251591204442E-01 b       673     1    23
  1.7957008025584037E-01 b       674     1    24
 -1.1929850907735634E-01 b       675     1    25
 -1.5597397890129278E-01 a       676     1     1     2     1
  2.1830598808200047E-01 a       677     1     1     2     2
  1.0370180441598353E-01 a       678     1     1     2     3
  6.7189242744647448E-01 a       679     1     1     2     4
  4.2872052182348069E-01 a       680     1     1     2     5
 -1.9372124846465424E-01 a       681     1     1     2     6
 -2.4419559138398242E-01 a       682     1     1     2     7
 -5.8517100776770481E-01 a       683     1     1     2     8
  1.3297362470043763E+00 a       684     1     1     2     9
  3.9526501911504149E-02 a       685     1     1     2    10
 -3.9969063512968855E-01 a       686     1     1     2    11
 -2.6843147935989714E-01 a       687     1     1     2    12
  6.4292748035918035E-01 a       688     1     1     2    13
 -4.1488493447987990E-01 a       689     1     1     2    14
  8.9265227996064933E-01 a       690     1     1     2    15
  3.3786564315507963E+00 a       691     1     1     2    16
 -2.7278116098599736E-01 a       692     1     1     2    17
  1.5950809509868533E-02 a       693     1     1     2    18
  2.8798013538087641E-01 a       694     1     1     2    19
 -1.5097825243380403E+00 a       695     1     1     2    20
  9.1384190238335861E-01 a       696     1     1     2    21
 -1.5079832494442874E-01 a       697     1     1     2    22
  8.4148863555912709E-02 a       698     1     1     2    23
 -7.5613759639445466E-01 a       699     1     1     2    24
 -1.1083424057990194E+00 a       700     1     1     2    25
  8.2443235337624071E-02 a       701     1     2     2     1
 -1.8624877748089141E-01 a       702     1     2     2     2
 -2.4099669102862109E-01 a       703     1     2     2     3
  2.1819873634424011E-01 a       704     1     2     2     4
 -2.9870831624712402E-01 a       705     1     2     2     5
  4.1333463348315097E-01 a       706     1     2     2     6
  2.0888657764923121E-01 a       707     1     2     2     7
 -1.1542312963131371E+00 a       708     1     2     2     8
  5.1678257012169193E-01 a       709     1     2     2     9
  1.1938838158840252E-01 a       710     1     2     2    10
 -1.4960660770943821E-01 a       711     1     2     2    11
  1.7809882286758921E-02 a       712     1     2     2    12
  4.6174158577488117E-01 a       713     1     2     2    13
  3.0383212403319415E-01 a       714     1     2     2    14
  3.5902917931522949E-01 a       715     1     2     2    15
  5.0717058501242218E-01 a       716     1     2     2    16
 -7.5497804268633700E-02 a       717     1     2     2    17
 -3.2705842335074072E-02 a       718     1     2     2    18
 -3.0181938062157521E-02 a       719     1     2     2    19
  1.0859400799382231E-02 a       720     1     2     2    20
  1.5991527399079630E-01 a       721     1     2     2    21
 -3.5308922660323205E-01 a       722     1     2     2    22
  1.1400816380239229E+00 a       723     1     2     2    23
 -7.7872817675788644E-02 a       724     1     2     2    24
  4.9591635909006664E-02 a       725     1     2     2    25
 -1.9989525582553236E-01 a       726     1     3     2     1
 -2.1820648017453853E-01 a       727     1     3     2     2
 -1.4090997301446404E-01 a       728     1     3     2     3
  2.1162631869337498E-01 a       729     1     3     2     4
  3.4134067269675453E-02 a       730     1     3     2     5
  7.0203433413368835E-02 a       731     1     3     2     6
  2.9498239092394063E-01 a       732     1     3     2     7
  3.3428560104569005E-01 a       733     1     3     2     8
  1.7798967249000225E-01 a       734     1     3     2     9
 -5.2048967542294627E-02 a       735     1     3     2    10
 -6.6869347743386917E-02 a       736     1     3     2    11
 -2.3723418050899284E-01 a       737     1     3     2    12
  5.0269484529510422E-01 a       738     1     3     2    13
  5.1078775055389122E-03 a       739     1     3     2    14
  5.5749808583088789E-01 a       740     1     3     2    15
  1.4669853076382215E+00 a       741     1     3     2    16
 -2.8344737330177307E-02 a       742     1     3     2    17
 -1.1664061686867644E-01 a       743     1     3     2    18
  7.8612468572260646E-02 a       744     1     3     2    19
 -3.1292482344797354E-02 a       745     1     3     2    20
  4.1298441875987790E-01 a       746     1     3     2    21
 -1.4851233472848707E-01 a       747     1     3     2    22
 -7.2085697191232354E-02 a       748     1     3     2    23
  6.9668356317723931E-02 a       749     1     3     2    24
 -2.9134648373673883E-01 a       750     1     3     2    25
 -2.8173948175331170E-01 a       751     1     4     2     1
  1.6605034987067288E-01 a       752     1     4     2     2
  1.2754145405297646E-01 a       753     1     4     2     3
  4.9874125654804075E-01 a       754     1     4     2     4
 -1.2657565686962030E-01 a       755     1     4     2     5
 -1.0422992907953196E-01 a       756     1     4     2     6
 -8.6541019259881558E-01 a       757     1     4     2     7
  7.6074765335195138E-01 a       758     1     4     2     8
 -8.4342649212144039E-01 a       759     1     4     2     9
 -8.7157262893056572E-02 a       760     1     4     2    10
 -6.1974951924115984E-01 a       761     1     4     2    11
 -2.5015412718469865E-01 a       762     1     4     2    12
 -1.7680931922490717E-01 a       763     1     4     2    13
  5.7461430384365841E-01 a       764     1     4     2    14
 -3.7779557226858279E-01 a       765     1     4     2    15
  5.8750422846452044E-01 a       766     1     4     2    16
  3.8297229135110350E-01 a       767     1     4     2    17
  1.1216113490780441E-01 a       768     1     4     2    18
  1.0470170402431101E-02 a       769     1     4     2    19
  8.1733862725270323E-01 a       770     1     4     2    20
 -7.4759421568876061E-01 a       771     1     4     2    21
 -3.6152009601359236E-01 a       772     1     4     2    22
 -1.8620388493089604E-01 a       773     1     4     2    23
 -4.6737364865529173E-02 a       774     1     4     2    24
  2.7219861126726946E-02 a       775     1     4     2    25
 -4.9324666072763834E-01 a       776     1     5     2     1
 -1.0469772913567865E-01 a       777     1     5     2     2
 -3.2598699211947840E-01 a       778     1     5     2     3
 -2.1888350096160777E-01 a       779     1     5     2     4
 -1.5984088191179061E-01 a       780     1     5     2     5
  2.0247484001803615E-01 a       781     1     5     2     6
  4.8930285975904882E-02 a       782     1     5     2     7
 -1.5335616825581846E-01 a       783     1     5     2     8
  9.6734582223511695E-02 a       784     1     5     2     9
 -1.8318006625662750E-01 a       785     1     5     2    10
 -3.3893403219235085E-01 a       786     1     5     2    11
 -9.9887825385307896E-02 a       787     1     5     2    12
 -1.8296164854222188E-01 a       788     1     5     2    13
  7.3992434249776584E-02 a       789     1     5     2    14
 -4.2268094529606137E-01 a       790     1     5     2    15
 -1.2684472751498084E+00 a       791     1     5     2    16
 -7.6885604920058581E-01 a       792     1     5     2    17
  1.3516578676658461E-01 a       793     1     5     2    18
  2.1276352313800373E-01 a       794     1     5     2    19
  5.2081961569861024E-01 a       795     1     5     2    20
  4.4627560840104002E-01 a       796     1     5     2    21
 -9.1618046381537338E-02 a       797     1     5     2    22
  9.1406541437641042E-01 a       798     1     5     2    23
  8.2880857581860834E-01 a       799     1     5     2    24
  2.8401551200878822E-01 a       800     1     5     2    25
 -2.4715226108720595E-01 a       801     1     6     2     1
  1.6073961656646239E-02 a       802     1     6     2     2
 -1.3743041599730027E-01 a       803     1     6     2     3
  6.3054988494003605E-01 a       804     1     6     2     4
 -3.6867103825725794E-01 a       805     1     6     2     5
  3.3365058988733720E-01 a       806     1     6     2     6
  6.1019494391164297E-01 a       807     1     6     2     7
  3.8255290260590546E-02 a       808     1     6     2     8
  1.2914377488063145E+00 a       809     1     6     2     9
  6.5427145148569321E-01 a       810     1     6     2    10
 -8.1457511600843927E-02 a       811     1     6     2    11
 -2.4743069166615364E-01 a       812     1     6     2    12
  8.9410499840707003E-01 a       813     1     6     2    13
 -1.3673870575520639E-01 a       814     1     6     2    14
  4.5635570060988556E-01 a       815     1     6     2    15
  1.7757533585925021E+00 a       816     1     6     2    16
  5.2089135334533265E-01 a       817     1     6     2    17
  2.9249098468906243E-01 a       818     1     6     2    18
  4.3319298103462500E-01 a       819     1     6     2    19
 -3.3158029571126718E-01 a       820     1     6     2    20
  5.8005995223472639E-01 a       821     1     6     2    21
 -2.6520857570584772E-01 a       822     1     6     2    22
  5.1904349437872777E-01 a       823     1     6     2    23
  6.8183188259871030E-01 a       824     1     6     2    24
  6.6294893338531113E-01 a       825     1     6     2    25
 -3.8345723254707381E-01 a       826     1     7     2     1
 -2.5986036720022315E-01 a       827     1     7     2     2
 -1.0398113478663250E-02 a       828     1     7     2     3
 -1.2465084317995488E-01 a       829     1     7     2     4
 -4.8103549646506982E-02 a       830     1     7     2     5
  1.2710378650664505E-02 a       831     1     7     2     6
 -4.7487652965675042E-01 a       832     1     7     2     7
  1.1201286876629464E+00 a       833     1     7     2     8
  1.3517715542273035E-02 a       834     1     7     2     9
  6.6137178976606620E-02 a       835     1     7     2    10
  7.6090691943585614E-02 a       836     1     7     2    11
 -4.4897692012802104E-01 a       837     1     7     2    12
  9.2175537487109604E-02 a       838     1     7     2    13
 -4.4741952519872272E-02 a       839     1     7     2    14
 -3.6566437791101386E-01 a       840     1     7     2    15
  4.7284761186143015E-01 a       841     1     7     2    16
  6.7543122639499168E-03 a       842     1     7     2    17
  2.0421933806806641E-01 a       843     1     7     2    18
  1.6418217017036038E-01 a       844     1     7     2    19
 -4.6375795895065203E-01 a       845     1     7     2    20
  8.3602356930826260E-01 a       846     1     7     2    21
 -1.2290438078344135E-01 a       847     1     7     2    22
  7.2304877094536268E-01 a       848     1     7     2    23
  1.5210814578680421E+00 a       849     1     7     2    24
  1.3978684104647718E-01 a       850     1     7     2    25
 -1.3915709602234252E-01 a       851     1     8     2     1
 -7.8720989616183429E-02 a       852     1     8     2     2
  4.1936906174133643E-03 a       853     1     8     2     3
 -2.6354368363815756E-01 a       854     1     8     2     4
  2.5347163845355108E-01 a       855     1     8     2     5
  3.6124799544499842E-01 a       856     1     8     2     6
 -3.4537296771075382E-01 a       857     1     8     2     7
  4.1309928874248621E-02 a       858     1     8     2     8
 -8.1351518042042908E-02 a       859     1     8     2     9
  1.1155900494387322E-01 a       860     1     8     2    10
 -4.3754339489479814E-02 a       861     1     8     2    11
  9.1810968962381792E-02 a       862     1     8     2    12
  5.0636430056552648E-02 a       863     1     8     2    13
  1.9959235382236779E-01 a       864     1     8     2    14
 -6.2236739883219150E-01 a       865     1     8     2    15
  5.6859065006718612E-01 a       866     1     8     2    16
  2.9133996002063489E-01 a       867     1     8     2    17
 -5.4678561170865314E-01 a       868     1     8     2    18
 -3.5258664493260330E-02 a       869     1     8     2    19
  9.0575659464148939E-01 a       870     1     8     2    20
  3.3317381031342264E-01 a       871     1     8     2    21
 -3.8861730584778725E-01 a       872     1     8     2    22
  3.1446646023596470E-01 a       873     1     8     2    23
  4.6622484962296445E-01 a       874     1     8     2    24
  1.5585304360118071E-01 a       875     1     8     2    25
 -2.1526314924659333E-02 a       876     1     9     2     1
 -9.3117520239542548E-03 a       877     1     9     2     2
 -5.2342882532711721E-01 a       878     1     9     2     3
  3.5674252068227780E-01 a       879     1     9     2     4
 -1.4669903602900297E-01 a       880     1     9     2     5
 -4.8937752557176362E-02 a       881     1     9     2     6
  8.7594831580908819E-02 a       882     1     9     2     7
 -9.8302783269963523E-01 a       883     1     9     2     8
  2.9999531061508000E-01 a       884     1     9     2     9
 -1.0291697213117264E-01 a       885     1     9     2    10
  4.4227982323211519E-02 a       886     1     9     2    11
  1.9362893164804698E-01 a       887     1     9     2    12
 -2.1528274853809801E-01 a       888     1     9     2    13
  4.3176326037270278E-02 a       889     1     9     2    14
  3.8051280431346257E-01 a       890     1     9     2    15
 -1.7824772206283350E+00 a       891     1     9     2    16
 -5.9302456251758495E-01 a       892     1     9     2    17
 -3.0532679367299315E-01 a       893     1     9     2    18
 -1.8613869815434764E-01 a       894     1     9     2    19
  4.7755698679294184E-01 a       895     1     9     2    20
 -3.2640837746742080E-01 a       896     1     9     2    21
 -4.4282704285408203E-02 a       897     1     9     2    22
  1.8934357621828207E-01 a       898     1     9     2    23
 -7.7986363359027389E-01 a       899     1     9     2    24
  3.4991818358824056E-01 a       900     1     9     2    25
  6.4632914382038845E-02 a       901     1    10     2     1
 -1.8548099860375009E-01 a       902     1    10     2     2
 -6.4259793741672441E-02 a       903     1    10     2     3
 -3.2820945706887455E-01 a       904     1    10     2     4
  1.3071362005176396E-01 a       905     1    10     2     5
 -1.5728874349307043E-01 a       906     1    10     2     6
  8.7063830678816886E-02 a       907     1    10     2     7
  1.2463926274385255E+00 a       908     1    10     2     8
 -4.0310891965846016E-02 a       909     1    10     2     9
 -4.4357246701176600E-01 a       910     1    10     2    10
  1.1639907208982090E-02 a       911     1    10     2    11
  8.3737208758453266E-02 a       912     1    10     2    12
 -1.4178806947731673E-01 a       913     1    10     2    13
  4.2123681687688552E-01 a       914     1    10     2    14
 -8.9833885036077588E-02 a       915     1    10     2    15
 -6.0278091470016101E-02 a       916     1    10     2    16
 -8.0544915716091570E-01 a       917     1    10     2    17
 -5.1726626864945568E-01 a       918     1    10     2    18
 -7.6024694844334684E-01 a       919     1    10     2    19
 -3.6513656423561192E-01 a       920     1    10     2    20
  5.7263598368773250E-01 a       921     1    10     2    21
  1.0937414178278710E+00 a       922     1    10     2    22
  2.5463306206608482E-02 a       923     1    10     2    23
  1.7974350872497176E+00 a       924     1    10     2    24
  2.6332979396551526E-01 a       925     1    10     2    25
  1.0114586932594509E-01 a       926     1    11     2     1
 -1.9683095616331694E-01 a       927     1    11     2     2
  1.4725728026614854E-01 a       928     1    11     2     3
  1.7928332298646085E-02 a       929     1    11     2     4
 -3.7846372729506311E-01 a       930     1    11     2     5
  9.4561152129717796E-01 a       931     1    11     2     6
  4.1677555624922097E-01 a       932     1    11     2     7
  2.8493436629962154E-01 a       933     1    11     2     8
 -2.2132321490768819E-01 a       934     1    11     2     9
 -3.2114569929870890E-01 a       935     1    11     2    10
 -1.2478773338019192E-01 a       936     1    11     2    11
  3.2526075433472590E-01 a       937     1    11     2    12
  2.9743344533926358E-01 a       938     1    11     2    13
  3.6538374584975719E-01 a       939     1    11     2    14
  9.6857193255424689E-01 a       940     1    11     2    15
  1.0211266895258577E+00 a       941     1    11     2    16
 -4.8504845456453660E-01 a       942     1    11     2    17
 -1.0554078667536863E-01 a       943     1    11     2    18
 -6.3458855542363479E-01 a       944     1    11     2    19
  7.1090106034954012E-02 a       945     1    11     2    20
 -4.6378174994578297E-01 a       946     1    11     2    21
  3.8385228302153912E-01 a       947     1    11     2    22
  1.1104171644467814E-01 a       948     1    11     2    23
  9.7472458785864868E-01 a       949     1    11     2    24
 -5.6022707307533592E-01 a       950     1    11     2    25
 -2.9908429296442035E-01 a       951     1    12     2     1
 -1.5660092338295697E-01 a       952     1    12     2     2
 -2.8530467937250809E-02 a       953     1    12     2     3
  2.4155922500253557E-02 a       954     1    12     2     4
  6.4079851080459516E-01 a       955     1    12     2     5
  1.0031013243728194E-01 a       956     1    12     2     6
 -8.9487114404505474E-01 a       957     1    12     2     7
 -8.2943483028983619E-02 a       958     1    12     2     8
  8.0342487346373459E-01 a       959     1    12     2     9
 -2.9998870907145808E-01 a       960     1    12     2    10
  3.1462127584636029E-01 a       961     1    12     2    11
  4.8676810279822047E-03 a       962     1    12     2    12
  9.7717446979644143E-02 a       963     1    12     2    13
 -5.9215357125729930E-02 a       964     1    12     2    14
 -9.5123798084618960E-01 a       965     1    12     2    15
 -1.3280232589657819E+00 a       966     1    12     2    16
  1.7158820749903853E-01 a       967     1    12     2    17
 -6.4870081918389821E-01 a       968     1    12     2    18
 -4.0707412904476027E-03 a       969     1    12     2    19
 -4.4315287537322690E-01 a       970     1    12     2    20
 -2.6398014612941290E-01 a       971     1    12     2    21
 -3.5095671314194193E-01 a       972     1    12     2    22
  3.5054473877908587E-01 a       973     1    12     2    23
 -1.2066862401908152E+00 a       974     1    12     2    24
 -2.0275853875996364E-01 a       975     1    12     2    25
  5.2178284884220671E-01 a       976     1    13     2     1
  9.2021381477790445E-02 a       977     1    13     2     2
  2.4351684026931536E-01 a       978     1    13     2     3
 -3.5344514250094766E-01 a       979     1    13     2     4
 -1.1828044546388607E-01 a       980     1    13     2     5
  6.8559295410311827E-01 a       981     1    13     2     6
  7.8775699413823563E-01 a       982     1    13     2     7
  2.3393792885191411E-01 a       983     1    13     2     8
 -3.8834821855402668E-01 a       984     1    13     2     9
  6.1203997712674048E-02 a       985     1    13     2    10
  5.2656735558861578E-02 a       986     1    13     2    11
 -2.9667963777562356E-01 a       987     1    13     2    12
  9.0479304394489549E-02 a       988     1    13     2    13
 -6.9863241813299104E-01 a       989     1    13     2    14
  1.0031821182109134E-01 a       990     1    13     2    15
  4.0344149497956083E-01 a       991     1    13     2    16
 -2.8924506772981218E-01 a       992     1    13     2    17
 -2.1165810167535579E-01 a       993     1    13     2    18
  3.2676186585342332E-01 a       994     1    13     2    19
 -3.1031323886415652E-01 a       995     1    13     2    20
  1.8832000882512673E-01 a       996     1    13     2    21
 -1.8118208490195384E-01 a       997     1    13     2    22
 -3.5799037310803261E-01 a       998     1    13     2    23
  1.5119241086000803E+00 a       999     1    13     2    24
  4.9933436367801953E-02 a      1000     1    13     2    25
 -1.2371935314604320E-01 a      1001     1    14     2     1
  1.8243811120424464E-02 a      1002     1    14     2     2
  3.3235249863612037E-02 a      1003     1    14     2     3
  3.3697778538168521E-01 a      1004     1    14     2     4
  3.5973555099444149E-01 a      1005     1    14     2     5
 -1.3026095770207217E-02 a      1006     1    14     2     6
 -2.2666898929050697E-01 a      1007     1    14     2     7
 -1.8428444921352954E-02 a      1008     1    14     2     8
  5.8334683116265706E-01 a      1009     1    14     2     9
  1.5779738323636888E-01 a      1010     1    14     2    10
  1.1624472323794996E-01 a      1011     1    14     2    11
 -3.3414939555028403E-02 a      1012     1    14     2    12
 -4.2295837700908820E-03 a      1013     1    14     2    13
  6.3637376110543611E-02 a      1014     1    14     2    14
  2.6605779973289678E-02 a      1015     1    14     2    15
  1.4674918215191752E+00 a      1016     1    14     2    16
 -8.4739065514401885E-02 a      1017     1    14     2    17
 -1.9012540330405052E-02 a      1018     1    14     2    18
 -4.4084481728014810E-02 a      1019     1    14     2    19
 -3.3941912435527000E-01 a      1020     1    14     2    20
  2.7625761320372910E-01 a      1021     1    14     2    21
 -2.5041412662201618E-01 a      1022     1    14     2    22
 -1.0905560878054713E-01 a      1023     1    14     2    23
 -9.2481469616133372E-01 a      1024     1    14     2    24
  1.4467896710863132E-01 a      1025     1    14     2    25
 -4.4857817278162559E-01 a      1026     1    15     2     1
 -4.1711665907870127E-01 a      1027     1    15     2     2
  1.3988591875610797E-02 a      1028     1    15     2     3
  4.0944182472196894E-01 a      1029     1    15     2     4
  3.0999115506147129E-01 a      1030     1    15     2     5
  4.5469492936090308E-04 a      1031     1    15     2     6
 -4.7567297409384750E-02 a      1032     1    15     2     7
  5.7137941521636637E-01 a      1033     1    15     2     8
  1.6151957334551312E-01 a      1034     1    15     2     9
 -2.6882402336675809E-01 a      1035     1    15     2    10
  3.5819896102834578E-02 a      1036     1    15     2    11
 -7.5868400036113018E-02 a      1037     1    15     2    12
  2.2772856535635419E-01 a      1038     1    15     2    13
  2.4383780744210262E-01 a      1039     1    15     2    14
  3.2093300465698865E-01 a      1040     1    15     2    15
 -4.4886995624103476E-02 a      1041     1    15     2    16
 -6.0289678439847637E-02 a      1042     1    15     2    17
 -1.6418796154385884E-01 a      1043     1    15     2    18
 -1.5602494495533170E-01 a      1044     1    15     2    19
  1.6895918378931657E-01 a      1045     1    15     2    20
  3.3674574633343313E-01 a      1046     1    15     2    21
 -7.3189324442726389E-03 a      1047     1    15     2    22
  3.2706684195920194E-01 a      1048     1    15     2    23
 -8.4572904173996044E-01 a      1049     1    15     2    24
  1.0547098578455459E-01 a      1050     1    15     2    25
  4.9524780062323505E-02 a      1051     1    16     2     1
  2.5126568889293333E-01 a      1052     1    16     2     2
 -1.9533493497531104E-01 a      1053     1    16     2     3
  3.3266765410781124E-01 a      1054     1    16     2     4
 -3.4377237528085504E-02 a      1055     1    16     2     5
 -2.5271623840293144E-02 a      1056     1    16     2     6
  4.2247010993221568E-01 a      1057     1    16     2     7
 -4.7266959566448236E-01 a      1058     1    16     2     8
  5.2541871889776237E-01 a      1059     1    16     2     9
  3.0827654455441672E-01 a      1060     1    16     2    10
 -2.6378330312273107E-01 a      1061     1    16     2    11
 -2.0643817797052322E-01 a      1062     1    16     2    12
  7.1170202796459514E-01 a      1063     1    16     2    13
  1.7605142979243152E-01 a      1064     1    16     2    14
  2.9385196023084648E-01 a      1065     1    16     2    15
  2.5634840327772490E-01 a      1066     1    16     2    16
  6.6118380717135317E-01 a      1067     1    16     2    17
  3.0728459669029917E-01 a      1068     1    16     2    18
  7.5421711680927428E-01 a      1069     1    16     2    19
 -4.0827062862168989E-01 a      1070     1    16     2    20
 -2.4495691496924996E-01 a      1071     1    16     2    21
 -1.6123687696266979E-02 a      1072     1    16     2    22
  1.1574475006779232E+00 a      1073     1    16     2    23
  2.9694675393588131E-02 a      1074     1    16     2    24
  6.1847169135179036E-01 a      1075     1    16     2    25
 -1.4204626855270630E-01 a      1076     1    17     2     1
  1.1357917226402021E-01 a      1077     1    17     2     2
 -8.0371840456742300E-04 a      1078     1    17     2     3
 -1.0474000513464925E-01 a      1079     1    17     2     4
 -2.1968082600497868E-01 a      1080     1    17     2     5
 -1.4676378634759102E-01 a      1081     1    17     2     6
 -5.4470594652455495E-01 a      1082     1    17     2     7
 -7.2567773062307828E-01 a      1083     1    17     2     8
  1.0000261984455133E-01 a      1084     1    17     2     9
  2.3356418817503222E-02 a      1085     1    17     2    10
 -5.0269338411878073E-01 a      1086     1    17     2    11
  1.9531813486698621E-01 a      1087     1    17     2    12
  1.2733410537441531E-01 a      1088     1    17     2    13
 -9.4667781215393965E-01 a      1089     1    17     2    14
  3.4627443650691303E-01 a      1090     1    17     2    15
 -7.4827016505943411E-01 a      1091     1    17     2    16
 -3.3769573843655970E-01 a      1092     1    17     2    17
  6.2736332415595875E-01 a      1093     1    17     2    18
  3.9251297165825094E-01 a      1094     1    17     2    19
  7.9923666138028759E-01 a      1095     1    17     2    20
 -1.0399305360643160E-01 a      1096     1    17     2    21
 -2.3456029874034651E-01 a      1097     1    17     2    22
 -1.3780848533104056E-01 a      1098     1    17     2    23
 -2.8786447203333138E-01 a      1099     1    17     2    24
 -3.0833761977396257E-01 a      1100     1    17     2    25
 -5.7569345658580628E-02 a      1101     1    18     2     1
  3.0969782596091250E-01 a      1102     1    18     2     2
  5.9285720657544605E-01 a      1103     1    18     2     3
  2.1140094153564443E-01 a      1104     1    18     2     4
  2.1438423097679390E-01 a      1105     1    18     2     5
  1.7120039657323208E-01 a      1106     1    18     2     6
 -2.8847247811286714E-01 a      1107     1    18     2     7
  3.1983548826813973E-01 a      1108     1    18     2     8
  5.9454627701077756E-01 a      1109     1    18     2     9
  4.5223806109532605E-01 a      1110     1    18     2    10
 -4.8249165314037584E-02 a      1111     1    18     2    11
 -1.6804237365127681E-02 a      1112     1    18     2    12
 -7.2980011663714317E-01 a      1113     1    18     2    13
  7.4122709696986655E-01 a      1114     1    18     2    14
 -1.9358944741648541E-02 a      1115     1    18     2    15
 -8.7766250447944810E-02 a      1116     1    18     2    16
  3.3265116706735548E-01 a      1117     1    18     2    17
  8.1305031431921623E-02 a      1118     1    18     2    18
 -1.5083376396263098E-01 a      1119     1    18     2    19
  6.1628450987766936E-01 a      1120     1    18     2    20
  4.1260900697330949E-01 a      1121     1    18     2    21
  4.7428277282925223E-02 a      1122     1    18     2    22
 -4.4548302779249227E-01 a      1123     1    18     2    23
  2.1020832207380749E-01 a      1124     1    18     2    24
  1.0625739475571816E+00 a      1125     1    18     2    25
  2.5132349364715029E-01 a      1126     1    19     2     1
 -1.1775110415876944E-01 a      1127     1    19     2     2
 -2.0588797212408465E-02 a      1128     1    19     2     3
 -5.4337720937501011E-01 a      1129     1    19     2     4
 -4.1084749755671029E-01 a      1130     1    19     2     5
 -3.1707729896104719E-01 a      1131     1    19     2     6
  1.4647078462257979E-01 a      1132     1    19     2     7
 -4.3695388413008213E-01 a      1133     1    19     2     8
 -4.2720568417560434E-01 a      1134     1    19     2     9
  2.9993849269174955E-01 a      1135     1    19     2    10
 -2.2314120969065665E-01 a      1136     1    19     2    11
 -1.9910187585131481E-01 a      1137     1    19     2    12
  4.6607017573675902E-01 a      1138     1    19     2    13
  2.1772959374207709E-01 a      1139     1    19     2    14
  6.9632985177471041E-01 a      1140     1    19     2    15
  3.9172359609734042E-01 a      1141     1    19     2    16
 -7.2340988589925839E-02 a      1142     1    19     2    17
 -2.7316656800545808E-01 a      1143     1    19     2    18
 -3.2874665373847917E-01 a      1144     1    19     2    19
 -9.5276111318966544E-02 a      1145     1    19     2    20
 -1.5422573603086243E-01 a      1146     1    19     2    21
  3.0573431859420674E-01 a      1147     1    19     2    22
 -5.9180273479975909E-01 a      1148     1    19     2    23
  5.2334535800208380E-02 a      1149     1    19     2    24
 -4.8579364194040842E-01 a      1150     1    19     2    25
  1.5867445374245134E-01 a      1151     1    20     2     1
 -7.6098651269252193E-02 a      1152     1    20     2     2
 -5.4668135806183862E-02 a      1153     1    20     2     3
  3.0862070542101167E-01 a      1154     1    20     2     4
 -2.3128286721475050E-01 a      1155     1    20     2     5
  5.3747992311089010E-01 a      1156     1    20     2     6
 -1.5592645186218290E-01 a      1157     1    20     2     7
 -5.7451935706783130E-01 a      1158     1    20     2     8
  1.8391844330334504E+00 a      1159     1    20     2     9
 -1.7964645240480148E-01 a      1160     1    20     2    10
 -7.7336189349989126E-01 a      1161     1    20     2    11
 -3.0962007717945644E-01 a      1162     1    20     2    12
  7.0133239905669631E-01 a      1163     1    20     2    13
  4.6049213406134515E-01 a      1164     1    20     2    14
  5.1098607283252151E-01 a      1165     1    20     2    15
  2.6689201582264168E+00 a      1166     1    20     2    16
 -3.0191269538300178E-02 a      1167     1    20     2    17
  4.2752829339061332E-01 a      1168     1    20     2    18
 -2.5506183752967920E-01 a      1169     1    20     2    19
 -7.5636107109833872E-01 a      1170     1    20     2    20
 -4.7931945287193051E-01 a      1171     1    20     2    21
  1.9193577026836042E-01 a      1172     1    20     2    22
 -5.3803954023678810E-02 a      1173     1    20     2    23
 -1.4695944589327475E-01 a      1174     1    20     2    24
 -3.1481757591888410E-01 a      1175     1    20     2    25
  4.8020931683563522E-01 a      1176     1    21     2     1
 -9.2460742550108485E-02 a      1177     1    21     2     2
 -7.6838243887846639E-03 a      1178     1    21     2     3
 -4.1893741238457638E-01 a      1179     1    21     2     4
 -2.6100709917257880E-01 a      1180     1    21     2     5
  5.7970497528420850E-01 a      1181     1    21     2     6
  4.1743050738330768E-02 a      1182     1    21     2     7
  7.4631053949040252E-02 a      1183     1    21     2     8
  2.4542773437510165E-01 a      1184     1    21     2     9
  6.6692816716013195E-02 a      1185     1    21     2    10
 -8.5356187758681857E-03 a      1186     1    21     2    11
  1.4386637946950461E-02 a      1187     1    21     2    12
  1.2915699053594526E-02 a      1188     1    21     2    13
  1.9552699205652826E-01 a      1189     1    21     2    14
  7.1073142988749938E-01 a      1190     1    21     2    15
 -2.1043916698438861E-01 a      1191     1    21     2    16
 -5.0260029702170328E-01 a      1192     1    21     2    17
 -2.4806578264289927E-01 a      1193     1    21     2    18
 -1.8651394398039822E-01 a      1194     1    21     2    19
  3.3051306867592389E-01 a      1195     1    21     2    20
 -5.9629456828258831E-01 a      1196     1    21     2    21
  2.4769598008190472E-01 a      1197     1    21     2    22
 -6.5731299470233456E-02 a      1198     1    21     2    23
  5.9506602315899326E-01 a      1199     1    21     2    24
  4.6465798702407130E-01 a      1200     1    21     2    25
  4.1110233130296236E-01 a      1201     1    22     2     1
 -7.4781860456693006E-01 a      1202     1    22     2     2
  3.6523182781543866E-02 a      1203     1    22     2     3
  1.2410359884071037E-01 a      1204     1    22     2     4
  3.8596989925264014E-01 a      1205     1    22     2     5
  5.8523336474456311E-01 a      1206     1    22     2     6
 -5.7645535425243133E-01 a      1207     1    22     2     7
  4.0215635014613349E-01 a      1208     1    22     2     8
 -1.0978104671536950E+00 a      1209     1    22     2     9
  2.4407453485716199E-01 a      1210     1    22     2    10
  4.4338457786102575E-03 a      1211     1    22     2    11
 -1.7330371584243376E-01 a      1212     1    22     2    12
  1.0961185058936658E+00 a      1213     1    22     2    13
 -5.7059175193676592E-01 a      1214     1    22     2    14
 -6.7725549615737335E-01 a      1215     1    22     2    15
 -3.0989755853734768E-01 a      1216     1    22     2    16
 -4.0332890061972915E-01 a      1217     1    22     2    17
 -1.1078079618772234E-01 a      1218     1    22     2    18
  3.0627119289162685E-01 a      1219     1    22     2    19
 -1.0554817103339671E+00 a      1220     1    22     2    20
  5.7608687462338759E-01 a      1221     1    22     2    21
 -1.9826795112185630E-01 a      1222     1    22     2    22
  4.9121817513812510E-01 a      1223     1    22     2    23
  1.2898147668197575E+00 a      1224     1    22     2    24
 -1.4922682033686735E-01 a      1225     1    22     2    25
  9.6363764552880260E-02 a      1226     1    23     2     1
  1.7621466168240515E-01 a      1227     1    23     2     2
 -1.3048409219563593E-02 a      1228     1    23     2     3
  2.8860819031174956E-01 a      1229     1    23     2     4
  7.4906881259988134E-01 a      1230     1    23     2     5
 -2.9306588966730823E-01 a      1231     1    23     2     6
 -7.8499137122392637E-01 a      1232     1    23     2     7
 -2.3883913841285540E-01 a      1233     1    23     2     8
 -2.8936771200153000E-01 a      1234     1    23     2     9
  2.3535426573255866E-01 a      1235     1    23     2    10
  3.2120708072576865E-01 a      1236     1    23     2    11
  3.6645352356744693E-01 a      1237     1    23     2    12
 -8.7559290315250282E-01 a      1238     1    23     2    13
 -9.9310524611178286E-02 a      1239     1    23     2    14
 -3.9917225758645081E-01 a      1240     1    23     2    15
  1.0201498874367925E+00 a      1241     1    23     2    16
  4.8340679275681997E-01 a      1242     1    23     2    17
  6.9323199781511669E-01 a      1243     1    23     2    18
  3.0410337525395237E-01 a      1244     1    23     2    19
  2.9808463929101631E-01 a      1245     1    23     2    20
  7.8567701958356495E-01 a      1246     1    23     2    21
  1.4389348970352175E-01 a      1247     1    23     2    22
 -3.2146163494336494E-02 a      1248     1    23     2    23
 -5.9028423345630932E-01 a      1249     1    23     2    24
 -2.2168545360330758E-01 a      1250     1    23     2    25
  6.5520130937762677E-01 a      1251     1    24     2     1
  7.4734188696771520E-01 a      1252     1    24     2     2
 -3.2043749136830307E-01 a      1253     1    24     2     3
  3.0804427603321421E-01 a      1254     1    24     2     4
  9.0205560816224318E-03 a      1255     1    24     2     5
 -1.6478750576636023E-01 a      1256     1    24     2     6
 -7.3380078639217738E-01 a      1257     1    24     2     7
 -8.3635811857338926E-01 a      1258     1    24     2     8
 -2.5270015384114924E-01 a      1259     1    24     2     9
 -3.2616609102231131E-01 a      1260     1    24     2    10
  2.1447165232033927E-02 a      1261     1    24     2    11
  1.7293705949470398E-01 a      1262     1    24     2    12
 -5.3390002473401488E-01 a      1263     1    24     2    13
  2.7652894820225837E-01 a      1264     1    24     2    14
 -1.6346131189778704E-01 a      1265     1    24     2    15
 -1.1207692747357632E+00 a      1266     1    24     2    16
 -4.6113036726959533E-01 a      1267     1    24     2    17
  8.4356550113678119E-01 a      1268     1    24     2    18
  4.6315878979407749E-01 a      1269     1    24     2    19
 -5.6552212615664377E-01 a      1270     1    24     2    20
 -2.6813595582437749E-01 a      1271     1    24     2    21
  3.9817469456499099E-01 a      1272     1    24     2    22
  3.1327588528216560E-01 a      1273     1    24     2    23
 -2.9732662101131496E-01 a      1274     1    24     2    24
 -5.1592263033514962E-01 a      1275     1    24     2    25
 -7.0523986821717011E-02 a      1276     1    25     2     1
 -2.2363066773978299E-01 a      1277     1    25     2     2
  7.8348583441590486E-02 a      1278     1    25     2     3
  1.1424632297068066E-01 a      1279     1    25     2     4
  7.8937373940710553E-01 a      1280     1    25     2     5
  2.9882714914386121E-01 a      1281     1    25     2     6
 -6.5802616686606830E-01 a      1282     1    25     2     7
 -8.6706109466689760E-02 a      1283     1    25     2     8
  4.7486317798120092E-01 a      1284     1    25     2     9
 -6.1687750545664988E-01 a      1285     1    25     2    10
 -1.7713483439660024E-01 a      1286     1    25     2    11
 -2.9274684817705526E-01 a      1287     1    25     2    12
  5.1691824059518288E-01 a      1288     1    25     2    13
  1.7499638701509161E-02 a      1289     1    25     2    14
 -5.0588061062634204E-01 a      1290     1    25     2    15
  1.3543184205391853E-01 a      1291     1    25     2    16
 -6.8971581375165092E-01 a      1292     1    25     2    17
 -2.0878161148307267E-01 a      1293     1    25     2    18
  1.3757296990412438E-01 a      1294     1    25     2    19
 -5.3323142153136091E-02 a      1295     1    25     2    20
  2.8953368738959656E-01 a      1296     1    25     2    21
  9.6506121811460080E-02 a      1297     1    25     2    22
 -3.7124087520036053E-01 a      1298     1    25     2    23
  1.0078560162617997E-01 a      1299     1    25     2    24
 -1.1966125619771806E-01 a      1300     1    25     2    25
 -2.8880503252976902E-01 b      1301     2     1
  4.6759240234466631E-01 b      1302     2     2
 -6.1418811361445225E-01 b      1303     2     3
 -2.2881016726571832E-01 b      1304     2     4
  2.5176345559964725E-01 b      1305     2     5
  1.9311920142264397E-01 b      1306     2     6
 -1.8641047966450322E-01 b      1307     2     7
  2.6621381901223318E-02 b      1308     2     8
  2.2428540509708811E-01 b      1309     2     9
 -1.5284915662370330E-01 b      1310     2    10
  9.7545143651311417E-01 b      1311     2    11
  1.2011475895461965E+00 b      1312     2    12
  3.3262516595608048E-02 b      1313     2    13
 -3.4880837014682919E-01 b      1314     2    14
 -3.3665619130164935E-02 b      1315     2    15
  6.8136831718192925E-01 b      1316     2    16
  1.1775654432788968E-02 b      1317     2    17
  4.0426658442657276E-01 b      1318     2    18
  3.2759770210976413E-01 b      1319     2    19
  3.5782375357701746E-01 b      1320     2    20
 -5.9407714354388885E-01 b      1321     2    21
 -4.1654110829615726E-01 b      1322     2    22
 -2.0713057177305502E-01 b      1323     2    23
 -5.7512229375650892E-01 b      1324     2    24
  4.9020166325882958E-01 b      1325     2    25
  2.3856165777339172E-01 a      1326     2     1     3     1
 -3.2486438808017926E-01 a      1327     2     2     3     1
  3.7881218370863834E-01 a      1328     2     3     3     1
  3.4051248100722387E-01 a      1329     2     4     3     1
 -2.4381597887158490E-01 a      1330     2     5     3     1
 -1.8455930132356768E-01 a      1331     2     6     3     1
  6.7994717158936860E-02 a      1332     2     7     3     1
  1.4141100561883667E-02 a      1333     2     8     3     1
  8.6650764376436720E-02 a      1334     2     9     3     1
  2.2972775399294437E-01 a      1335     2    10     3     1
 -6.8744800253313132E-01 a      1336     2    11     3     1
 -1.0886949447522269E+00 a      1337     2    12     3     1
 -2.2391077089066599E-01 a      1338     2    13     3     1
 -1.2679011491951420E-01 a      1339     2    14     3     1
 -2.0911528731312967E-01 a      1340     2    15     3     1
  2.0684105984491819E-02 a      1341     2    16     3     1
 -1.2553166510179883E-01 a      1342     2    17     3     1
 -2.8478207658422428E-01 a      1343     2    18     3     1
  1.9655058124673039E-01 a      1344     2    19     3     1
  4.4476773971264205E-02 a      1345     2    20     3     1
 -7.9523336788570570E-02 a      1346     2    21     3     1
  2.3092521367654825E-01 a      1347     2    22     3     1
  1.1791947696294873E-01 a      1348     2    23     3     1
 -1.9778797627845370E-02 a      1349     2    24     3     1
 -1.4613367165814450E-01 a      1350     2    25     3     1
 -8.4247994892091138E-01 b      1351     3     1
