################################################################################
# Neural network connection values (weights and biases).
################################################################################
# Col  Name       Description
################################################################################
# 1    connection Neural network connection value.
# 2    t          Connection type (a = weight, b = bias).
# 3    index      Index enumerating weights.
# 4    l_s        Starting point layer (end point layer for biases).
# 5    n_s        Starting point neuron in starting layer (end point neuron for biases).
# 6    l_e        End point layer.
# 7    n_e        End point neuron in end layer.
################################################################################
#                      1 2         3     4     5     6     7
#             connection t     index   l_s   n_s   l_e   n_e
############################################################
 -1.4945875378991708E-01 a         1     0     1     1     1
 -1.1173892670545102E-01 a         2     0     1     1     2
  2.8100769298533885E+00 a         3     0     1     1     3
 -6.1293190271150499E-01 a         4     0     1     1     4
  1.7573504781838318E+00 a         5     0     1     1     5
  9.3992752531270274E-01 a         6     0     1     1     6
  4.5139926007420463E+00 a         7     0     1     1     7
  2.3457048748581483E-01 a         8     0     1     1     8
  4.5581359438524671E-01 a         9     0     1     1     9
  1.9103787837226660E-01 a        10     0     1     1    10
  3.3833784391555888E-01 a        11     0     1     1    11
  3.8603916403968930E-01 a        12     0     1     1    12
  1.2737470278020513E+00 a        13     0     1     1    13
 -6.9649078043513424E-01 a        14     0     1     1    14
  1.1336966191998206E+00 a        15     0     1     1    15
  4.9184363949924753E-01 a        16     0     1     1    16
 -1.4338200936768501E+00 a        17     0     1     1    17
 -5.6053020724128233E-01 a        18     0     1     1    18
 -1.9944623985103582E+00 a        19     0     1     1    19
  1.0394115705974120E-02 a        20     0     1     1    20
 -1.1610834561584285E+00 a        21     0     1     1    21
 -9.6032413805983707E-01 a        22     0     1     1    22
 -7.8229953394993584E-02 a        23     0     1     1    23
 -7.6077876550291537E-02 a        24     0     1     1    24
  1.3953240391838377E+00 a        25     0     1     1    25
  4.7067634456703766E-01 a        26     0     2     1     1
 -2.6660497649887654E-01 a        27     0     2     1     2
 -1.0728882234703787E+00 a        28     0     2     1     3
  2.7183026063636212E-01 a        29     0     2     1     4
 -7.7601646216506304E-01 a        30     0     2     1     5
  4.7010404945270617E-02 a        31     0     2     1     6
 -9.9155152340480468E-01 a        32     0     2     1     7
  3.8798251743314349E-01 a        33     0     2     1     8
  9.6134955405385095E-02 a        34     0     2     1     9
 -7.8776892903071960E-01 a        35     0     2     1    10
  6.7762585195834363E-02 a        36     0     2     1    11
  1.0358712353689863E-01 a        37     0     2     1    12
  6.5596610954560641E-01 a        38     0     2     1    13
 -4.3585688213776580E-01 a        39     0     2     1    14
 -2.0876452437858900E-01 a        40     0     2     1    15
  3.5323104767504715E-01 a        41     0     2     1    16
  4.3992627649574667E-01 a        42     0     2     1    17
  3.7205788060962941E-01 a        43     0     2     1    18
  6.8986296639911937E-01 a        44     0     2     1    19
  5.9727561013559172E-01 a        45     0     2     1    20
 -3.1818236920743198E-01 a        46     0     2     1    21
 -7.2340205197100105E-02 a        47     0     2     1    22
  2.7843122290152961E-01 a        48     0     2     1    23
 -2.1353504487073943E-01 a        49     0     2     1    24
 -7.2011891378613843E-02 a        50     0     2     1    25
  3.3300266932847288E-02 a        51     0     3     1     1
 -8.0191215575641905E-01 a        52     0     3     1     2
 -2.9647921894933713E+00 a        53     0     3     1     3
  9.9820838976587867E-01 a        54     0     3     1     4
 -2.2724907466023216E+00 a        55     0     3     1     5
 -1.3291775904092711E+00 a        56     0     3     1     6
 -4.1095298557605986E+00 a        57     0     3     1     7
  5.3456565408130907E-01 a        58     0     3     1     8
 -1.7747049084711605E-01 a        59     0     3     1     9
 -1.0163914855729503E+00 a        60     0     3     1    10
  2.0224816740755341E-01 a        61     0     3     1    11
  1.0321407949724692E-02 a        62     0     3     1    12
  3.5919565282851595E-01 a        63     0     3     1    13
 -9.3424723420042199E-01 a        64     0     3     1    14
 -9.6346314857764281E-01 a        65     0     3     1    15
  9.3090236008517391E-01 a        66     0     3     1    16
  7.0799346306512012E-01 a        67     0     3     1    17
  6.1711473774316705E-01 a        68     0     3     1    18
  1.6710790507523940E+00 a        69     0     3     1    19
  9.3828619466940910E-01 a        70     0     3     1    20
  1.7338225720695022E-01 a        71     0     3     1    21
  4.9214677874332180E-01 a        72     0     3     1    22
  5.8790193051811775E-02 a        73     0     3     1    23
 -3.3205753765520057E-01 a        74     0     3     1    24
 -4.7978371841105205E-01 a        75     0     3     1    25
 -4.2139338085333256E-01 a        76     0     4     1     1
  1.3339554272695835E+00 a        77     0     4     1     2
  1.7459536256856989E-01 a        78     0     4     1     3
 -4.5660873016298759E-01 a        79     0     4     1     4
  7.1105651679321691E-01 a        80     0     4     1     5
  7.7951134694831656E-02 a        81     0     4     1     6
 -4.2297372845184072E-01 a        82     0     4     1     7
 -5.9095665722846180E-01 a        83     0     4     1     8
 -1.0488189550714206E+00 a        84     0     4     1     9
  6.2202826386300503E-01 a        85     0     4     1    10
 -9.3171342065786988E-01 a        86     0     4     1    11
 -1.0258165174594100E+00 a        87     0     4     1    12
 -1.7089961948326460E+00 a        88     0     4     1    13
  1.8571898549358503E+00 a        89     0     4     1    14
  1.4366543748667810E+00 a        90     0     4     1    15
 -1.6621288405818591E-01 a        91     0     4     1    16
  9.0074507129805026E-01 a        92     0     4     1    17
  1.7652780968171117E-01 a        93     0     4     1    18
  2.0133107134123163E-01 a        94     0     4     1    19
 -5.5796221008392766E-01 a        95     0     4     1    20
  1.5842527264956947E+00 a        96     0     4     1    21
  9.4202032728397211E-01 a        97     0     4     1    22
  5.7855331466446547E-01 a        98     0     4     1    23
  1.0483280756880631E+00 a        99     0     4     1    24
 -2.0734393645145435E+00 a       100     0     4     1    25
 -1.9490565445586134E+00 a       101     0     5     1     1
 -4.7696437482266396E-01 a       102     0     5     1     2
  1.2610486128696314E+00 a       103     0     5     1     3
 -1.8410364038190421E+00 a       104     0     5     1     4
  1.2465097011025357E+00 a       105     0     5     1     5
  6.1289490540568514E-01 a       106     0     5     1     6
  2.0936443138640284E+00 a       107     0     5     1     7
 -1.2709685618861317E+00 a       108     0     5     1     8
  3.6730377107406686E-01 a       109     0     5     1     9
  1.8650920348267561E+00 a       110     0     5     1    10
 -1.7861464311151927E+00 a       111     0     5     1    11
  3.3620351985715047E-01 a       112     0     5     1    12
 -3.0828993753243222E-01 a       113     0     5     1    13
  2.7311197902335171E-02 a       114     0     5     1    14
 -1.5356504362360455E+00 a       115     0     5     1    15
 -1.0414263230073044E+00 a       116     0     5     1    16
 -8.2371474652033816E-01 a       117     0     5     1    17
 -6.1430542553811951E-01 a       118     0     5     1    18
 -1.1646381249134936E+00 a       119     0     5     1    19
 -1.5637662941911070E+00 a       120     0     5     1    20
 -7.5779113091833517E-01 a       121     0     5     1    21
 -2.2956477778575968E+00 a       122     0     5     1    22
 -1.4491288194256242E+00 a       123     0     5     1    23
  1.2871520192882860E-01 a       124     0     5     1    24
  1.7618592297574245E+00 a       125     0     5     1    25
  1.8706495512498538E+00 a       126     0     6     1     1
  9.3648347734570303E-01 a       127     0     6     1     2
 -6.3941651178045433E-01 a       128     0     6     1     3
  1.9924959176501273E+00 a       129     0     6     1     4
 -1.3245024725881429E+00 a       130     0     6     1     5
 -2.8699961349476927E-01 a       131     0     6     1     6
 -1.7279108834530057E+00 a       132     0     6     1     7
  1.1919501514104311E+00 a       133     0     6     1     8
  5.3646937461487187E-01 a       134     0     6     1     9
 -1.9135660907210597E+00 a       135     0     6     1    10
  1.7420957554802532E+00 a       136     0     6     1    11
  3.8062158733136892E-01 a       137     0     6     1    12
  1.8317848498263525E-01 a       138     0     6     1    13
  1.7099604325945612E-02 a       139     0     6     1    14
  4.2526693762153606E-01 a       140     0     6     1    15
  1.2503343928366171E+00 a       141     0     6     1    16
 -9.7400707227114261E-02 a       142     0     6     1    17
  5.3993802300962090E-01 a       143     0     6     1    18
  8.1064851671154381E-01 a       144     0     6     1    19
  1.0788363202619073E+00 a       145     0     6     1    20
  6.2203280779867176E-01 a       146     0     6     1    21
  1.5634904342771272E+00 a       147     0     6     1    22
  8.8536090097921727E-01 a       148     0     6     1    23
 -3.3367424005652163E-01 a       149     0     6     1    24
 -1.5315271193228000E-01 a       150     0     6     1    25
 -7.0469318756651111E-01 a       151     0     7     1     1
 -6.1173229901406356E-01 a       152     0     7     1     2
  1.9597549459603708E-01 a       153     0     7     1     3
 -5.5206440377129662E-01 a       154     0     7     1     4
  2.9031181870125572E-01 a       155     0     7     1     5
 -2.1765747647672147E-02 a       156     0     7     1     6
  7.0256007661140907E-01 a       157     0     7     1     7
 -4.2023446885287252E-01 a       158     0     7     1     8
 -3.9297605781237477E-01 a       159     0     7     1     9
  4.7975699925789034E-01 a       160     0     7     1    10
 -4.1156220871381122E-01 a       161     0     7     1    11
 -1.3636808055301050E-01 a       162     0     7     1    12
 -2.8453965612274749E-02 a       163     0     7     1    13
  1.2240355494470198E-01 a       164     0     7     1    14
 -1.1647011602033483E-01 a       165     0     7     1    15
 -3.9780457012286230E-01 a       166     0     7     1    16
  2.4106743240939879E-02 a       167     0     7     1    17
 -4.9034671639362461E-02 a       168     0     7     1    18
 -3.0123797683237952E-01 a       169     0     7     1    19
 -3.0882538667750226E-01 a       170     0     7     1    20
 -1.5499282941825965E-01 a       171     0     7     1    21
 -3.6775031213709913E-01 a       172     0     7     1    22
 -1.7717149658759215E-01 a       173     0     7     1    23
 -9.8517513670922773E-03 a       174     0     7     1    24
 -1.2422095978289379E-02 a       175     0     7     1    25
  3.2101506421005052E-02 a       176     0     8     1     1
  1.1898757541894908E-01 a       177     0     8     1     2
  1.7113058481316567E-02 a       178     0     8     1     3
  9.5400953035133115E-02 a       179     0     8     1     4
 -3.4917238477336479E-02 a       180     0     8     1     5
  1.6264943940102974E-01 a       181     0     8     1     6
 -4.6821836100045408E-02 a       182     0     8     1     7
  1.3407042597259838E-02 a       183     0     8     1     8
  1.0457855156131182E-01 a       184     0     8     1     9
  6.2669278767769898E-02 a       185     0     8     1    10
  1.0307998492547511E-01 a       186     0     8     1    11
 -9.6832514954924235E-03 a       187     0     8     1    12
 -4.4106259176953287E-02 a       188     0     8     1    13
  1.5269029377314218E-02 a       189     0     8     1    14
 -5.7714504089509009E-03 a       190     0     8     1    15
  9.2127650130742783E-02 a       191     0     8     1    16
  7.6253198233736996E-02 a       192     0     8     1    17
  8.6388420128619248E-02 a       193     0     8     1    18
 -1.7087654338080589E-02 a       194     0     8     1    19
 -9.5411094199019886E-02 a       195     0     8     1    20
  1.4293301713180620E-01 a       196     0     8     1    21
 -6.0607371798987911E-02 a       197     0     8     1    22
  1.1686595840691530E-01 a       198     0     8     1    23
  7.0360917758676977E-03 a       199     0     8     1    24
  3.7146949300740022E-02 a       200     0     8     1    25
  1.7429493253059750E-01 a       201     0     9     1     1
 -1.0699899396392654E-01 a       202     0     9     1     2
 -3.9844078766580843E-01 a       203     0     9     1     3
 -1.8913339565825977E+00 a       204     0     9     1     4
  2.0886851192000044E+00 a       205     0     9     1     5
  2.1746740800598157E+00 a       206     0     9     1     6
 -1.7815660209513889E-01 a       207     0     9     1     7
 -5.9884052633860829E-01 a       208     0     9     1     8
 -1.3618513171778632E+00 a       209     0     9     1     9
  3.1022838292305539E+00 a       210     0     9     1    10
 -2.5442921320726968E+00 a       211     0     9     1    11
 -3.0694054543844029E-01 a       212     0     9     1    12
  1.8086980667871642E-02 a       213     0     9     1    13
  6.9630459019122837E-01 a       214     0     9     1    14
  2.5749128211449041E-01 a       215     0     9     1    15
 -1.1025167063079113E+00 a       216     0     9     1    16
  6.0556012391739777E+00 a       217     0     9     1    17
  1.4219216217639383E+00 a       218     0     9     1    18
  1.2377738396367379E+00 a       219     0     9     1    19
 -1.1352992723527426E+00 a       220     0     9     1    20
  3.0404095571227137E+00 a       221     0     9     1    21
  4.0040066219765968E-01 a       222     0     9     1    22
  2.6959323000619388E+00 a       223     0     9     1    23
  1.9483242482434882E-01 a       224     0     9     1    24
 -2.7395160528861799E+00 a       225     0     9     1    25
 -6.0809060129617443E-01 a       226     0    10     1     1
  4.4466492006978420E-01 a       227     0    10     1     2
 -2.5286774761509516E+00 a       228     0    10     1     3
  1.4408289726729238E+00 a       229     0    10     1     4
 -2.5818039950853535E+00 a       230     0    10     1     5
 -8.2134652254902694E+00 a       231     0    10     1     6
 -7.3705523812116658E+00 a       232     0    10     1     7
 -5.3600372994224799E-01 a       233     0    10     1     8
  1.9200163285946964E-01 a       234     0    10     1     9
 -6.2792951440276190E-01 a       235     0    10     1    10
  1.0515721606779276E+00 a       236     0    10     1    11
 -5.6113755341588367E-01 a       237     0    10     1    12
  3.2280918343386290E-02 a       238     0    10     1    13
  8.9988489499921623E-02 a       239     0    10     1    14
 -2.5590986603797183E-01 a       240     0    10     1    15
 -1.4845329200409649E-01 a       241     0    10     1    16
 -8.8754975491557602E+00 a       242     0    10     1    17
 -7.0451473473285864E-01 a       243     0    10     1    18
 -2.2563930239361402E-01 a       244     0    10     1    19
 -5.1788046425425463E-02 a       245     0    10     1    20
  2.6694672599858954E-01 a       246     0    10     1    21
  1.1716204486594921E-01 a       247     0    10     1    22
 -5.9041083361826292E+00 a       248     0    10     1    23
 -3.9844302919812891E-01 a       249     0    10     1    24
  6.0615175639534080E-01 a       250     0    10     1    25
 -6.2182499922810586E-01 a       251     0    11     1     1
  4.8982761718020074E-01 a       252     0    11     1     2
  3.4638411519820549E+00 a       253     0    11     1     3
  1.8647262832594780E+00 a       254     0    11     1     4
  7.0553990221788065E-01 a       255     0    11     1     5
  6.1949750818373115E+00 a       256     0    11     1     6
  7.3624021631236101E+00 a       257     0    11     1     7
  7.6736152614324427E-01 a       258     0    11     1     8
  1.5249415896837917E+00 a       259     0    11     1     9
 -2.0531561995482224E+00 a       260     0    11     1    10
  2.2935503347960458E+00 a       261     0    11     1    11
  5.2810227614959160E-01 a       262     0    11     1    12
 -4.9197904134056686E-01 a       263     0    11     1    13
  3.8614053858444652E-01 a       264     0    11     1    14
 -1.3677224763141287E+00 a       265     0    11     1    15
  7.8268248504134230E-01 a       266     0    11     1    16
  2.9561970832231221E+00 a       267     0    11     1    17
 -9.3268537363517079E-01 a       268     0    11     1    18
 -2.7399745820749071E+00 a       269     0    11     1    19
 -3.3330841447977744E-01 a       270     0    11     1    20
 -2.9528515170539316E+00 a       271     0    11     1    21
 -5.5390580207969364E-01 a       272     0    11     1    22
  2.2573182577805970E+00 a       273     0    11     1    23
  1.3687234986867287E+00 a       274     0    11     1    24
  2.2388560486804550E+00 a       275     0    11     1    25
 -2.3409642942600168E+00 a       276     0    12     1     1
  1.2435814230517668E+00 a       277     0    12     1     2
  1.9292139420794803E+00 a       278     0    12     1     3
 -1.6783741644562880E+00 a       279     0    12     1     4
 -2.0333259472209559E+00 a       280     0    12     1     5
  8.7454757772708680E-01 a       281     0    12     1     6
  5.2634615203215880E+00 a       282     0    12     1     7
 -1.9465905945094557E+00 a       283     0    12     1     8
 -3.4876576568232298E-01 a       284     0    12     1     9
  7.1710539545252264E-02 a       285     0    12     1    10
  2.8976683480918441E-01 a       286     0    12     1    11
  2.8170159223524910E-01 a       287     0    12     1    12
 -1.7059278365626622E+00 a       288     0    12     1    13
  1.8914259215435760E+00 a       289     0    12     1    14
  1.7181541156307290E-01 a       290     0    12     1    15
  1.0763490926270056E+00 a       291     0    12     1    16
 -4.8760487793915548E+00 a       292     0    12     1    17
 -2.0520835326633624E+00 a       293     0    12     1    18
 -1.4066442289581547E+00 a       294     0    12     1    19
  9.1402694815559249E-01 a       295     0    12     1    20
 -3.0189097259605826E+00 a       296     0    12     1    21
 -1.1395198599884440E+00 a       297     0    12     1    22
 -1.7277989624657524E+00 a       298     0    12     1    23
  1.5548750455548259E+00 a       299     0    12     1    24
  1.5377575598756519E+00 a       300     0    12     1    25
  1.0543444910662549E+00 a       301     0    13     1     1
  2.5648628899534825E-02 a       302     0    13     1     2
  1.0273577711092250E+00 a       303     0    13     1     3
 -1.4268385810561663E+00 a       304     0    13     1     4
  1.9102705045312822E+00 a       305     0    13     1     5
  5.4459530876162576E+00 a       306     0    13     1     6
  4.0014008602892925E+00 a       307     0    13     1     7
  7.1396034876166525E-01 a       308     0    13     1     8
 -1.9835299959494782E-01 a       309     0    13     1     9
 -2.7753896275383760E-01 a       310     0    13     1    10
 -9.0887035501900215E-01 a       311     0    13     1    11
 -2.0515981763080457E-01 a       312     0    13     1    12
 -1.0043389605919826E+00 a       313     0    13     1    13
 -6.7555726056155618E-01 a       314     0    13     1    14
  2.6780958094936319E-01 a       315     0    13     1    15
 -6.7876262303070745E-01 a       316     0    13     1    16
  7.9376050684358459E+00 a       317     0    13     1    17
  1.3136164669429415E+00 a       318     0    13     1    18
  1.5818332758919860E+00 a       319     0    13     1    19
 -4.5851691327667315E-01 a       320     0    13     1    20
  4.3328288314700253E-01 a       321     0    13     1    21
 -3.5398197435483926E-02 a       322     0    13     1    22
  4.8881477834400862E+00 a       323     0    13     1    23
 -7.9428135332301175E-01 a       324     0    13     1    24
 -9.7216148160100202E-01 a       325     0    13     1    25
  3.4434148698642275E+00 a       326     0    14     1     1
 -5.1570514015260505E-01 a       327     0    14     1     2
 -4.6388077304694901E+00 a       328     0    14     1     3
  1.0181228360909018E+00 a       329     0    14     1     4
  1.7388402142993105E+00 a       330     0    14     1     5
 -8.4260258973429050E+00 a       331     0    14     1     6
 -1.0619066076908076E+01 a       332     0    14     1     7
  1.9090594082604284E+00 a       333     0    14     1     8
  7.7471418453217900E-01 a       334     0    14     1     9
 -5.3743261586938496E-01 a       335     0    14     1    10
 -2.6692596027057136E-01 a       336     0    14     1    11
 -2.1059941931701114E+00 a       337     0    14     1    12
  6.1806093309406140E-01 a       338     0    14     1    13
 -1.8728625710481170E+00 a       339     0    14     1    14
  7.3830304956084281E-01 a       340     0    14     1    15
 -3.4966328295103608E+00 a       341     0    14     1    16
 -3.0200441196560983E+00 a       342     0    14     1    17
  1.3041287288279013E+00 a       343     0    14     1    18
  3.9307159045062003E+00 a       344     0    14     1    19
  5.3053946785717265E-01 a       345     0    14     1    20
  3.1106541157336434E+00 a       346     0    14     1    21
  1.5694360247440551E+00 a       347     0    14     1    22
 -1.8804680306846806E+00 a       348     0    14     1    23
 -4.5890561119616242E+00 a       349     0    14     1    24
 -2.3875683298498060E+00 a       350     0    14     1    25
 -1.7776998275224156E+00 a       351     0    15     1     1
 -1.5265930318049752E+00 a       352     0    15     1     2
  3.0075012520810356E+00 a       353     0    15     1     3
 -3.1596809591978618E+00 a       354     0    15     1     4
  2.6965642236672256E+00 a       355     0    15     1     5
  7.6530481324048774E+00 a       356     0    15     1     6
  5.5126280846981697E+00 a       357     0    15     1     7
 -1.4922387945309190E+00 a       358     0    15     1     8
  1.5916136062635780E+00 a       359     0    15     1     9
  8.3212443696307747E-01 a       360     0    15     1    10
 -3.2738584509047670E+00 a       361     0    15     1    11
  1.6818650975620300E+00 a       362     0    15     1    12
 -2.5676571694727111E+00 a       363     0    15     1    13
  4.7284053570039880E-01 a       364     0    15     1    14
  3.8125456647081218E-01 a       365     0    15     1    15
  1.3705734309110671E+00 a       366     0    15     1    16
  2.4668717033717389E+00 a       367     0    15     1    17
 -9.1237120997098664E-01 a       368     0    15     1    18
  5.6379461216393832E-02 a       369     0    15     1    19
 -1.7631029735588544E+00 a       370     0    15     1    20
  1.6156706652036473E-01 a       371     0    15     1    21
 -8.3585555509049184E-02 a       372     0    15     1    22
  2.2417119927256515E+00 a       373     0    15     1    23
  1.5770604140085511E+00 a       374     0    15     1    24
  1.3882088264768782E+00 a       375     0    15     1    25
  7.1504725504734870E-02 a       376     0    16     1     1
 -3.8419147530298216E-02 a       377     0    16     1     2
 -2.3059862596285328E+00 a       378     0    16     1     3
  6.7663192621779689E-01 a       379     0    16     1     4
 -1.8835770662061198E+00 a       380     0    16     1     5
 -7.6074356614199727E+00 a       381     0    16     1     6
 -6.1913936673790921E+00 a       382     0    16     1     7
 -4.4945324186619345E-01 a       383     0    16     1     8
 -3.4991404974473547E-02 a       384     0    16     1     9
 -5.7611639827271799E-01 a       385     0    16     1    10
  5.4432482324758236E-01 a       386     0    16     1    11
 -8.4070386554677157E-01 a       387     0    16     1    12
  1.4187169896147267E-01 a       388     0    16     1    13
 -7.9828551815052703E-02 a       389     0    16     1    14
  9.9134661937601343E-01 a       390     0    16     1    15
 -2.9103982689795327E-01 a       391     0    16     1    16
 -8.8615941208765960E+00 a       392     0    16     1    17
 -8.6129919193712690E-01 a       393     0    16     1    18
  2.9130924722384627E-01 a       394     0    16     1    19
  7.1639303044336777E-01 a       395     0    16     1    20
  2.8244834547689740E-01 a       396     0    16     1    21
 -1.9545831420484108E-01 a       397     0    16     1    22
 -5.5028276400582570E+00 a       398     0    16     1    23
 -1.0268589169792102E+00 a       399     0    16     1    24
  2.2575277147527484E-01 a       400     0    16     1    25
  2.5069587393583821E+00 a       401     0    17     1     1
  8.6033339486375449E-01 a       402     0    17     1     2
 -7.0526512713674738E-01 a       403     0    17     1     3
  1.4337974882291167E+00 a       404     0    17     1     4
 -1.0899528241187277E+00 a       405     0    17     1     5
  7.0485091142312828E-02 a       406     0    17     1     6
  7.8110833729382889E-01 a       407     0    17     1     7
  2.2565350073926007E+00 a       408     0    17     1     8
 -1.6315381030616980E+00 a       409     0    17     1     9
 -4.0292434621808898E-01 a       410     0    17     1    10
  2.5173652947450660E+00 a       411     0    17     1    11
 -7.0564954961388116E-01 a       412     0    17     1    12
  2.6650149622112491E+00 a       413     0    17     1    13
 -9.6503203062009002E-01 a       414     0    17     1    14
 -4.4413314585580371E-01 a       415     0    17     1    15
 -1.0264811158368110E+00 a       416     0    17     1    16
  6.2884138994628547E+00 a       417     0    17     1    17
  1.8957298365814803E+00 a       418     0    17     1    18
  9.4568261926656061E-01 a       419     0    17     1    19
  1.8487409319701604E+00 a       420     0    17     1    20
 -3.4267931365128440E-01 a       421     0    17     1    21
  6.3477410608518725E-01 a       422     0    17     1    22
  4.0720207061099796E+00 a       423     0    17     1    23
 -1.6164611776611379E+00 a       424     0    17     1    24
 -1.7596943112755636E+00 a       425     0    17     1    25
 -1.2170332067241336E+00 a       426     0    18     1     1
  9.7229878667669944E-01 a       427     0    18     1     2
  1.4975123787275109E+00 a       428     0    18     1     3
  3.7257928055570768E+00 a       429     0    18     1     4
 -3.5271463282676581E+00 a       430     0    18     1     5
 -2.4009810481728731E+00 a       431     0    18     1     6
 -3.5259247252502384E+00 a       432     0    18     1     7
  3.5095746235005221E-01 a       433     0    18     1     8
 -3.0074523337047969E+00 a       434     0    18     1     9
 -2.3333225042806154E+00 a       435     0    18     1    10
 -1.3093082452251373E-01 a       436     0    18     1    11
  1.3510007928356246E-01 a       437     0    18     1    12
  7.9988691113643251E-01 a       438     0    18     1    13
  8.7307579766195553E-01 a       439     0    18     1    14
  7.6631234862960851E-01 a       440     0    18     1    15
  1.0019102871023107E+00 a       441     0    18     1    16
 -1.8643128969128517E-01 a       442     0    18     1    17
  8.4480913086756004E-01 a       443     0    18     1    18
 -1.0809372604669949E+00 a       444     0    18     1    19
  8.5871557067377213E-01 a       445     0    18     1    20
  1.4191727773277513E-01 a       446     0    18     1    21
  4.9609309848668515E-01 a       447     0    18     1    22
 -1.5859495973591680E+00 a       448     0    18     1    23
  3.0813368739961000E-01 a       449     0    18     1    24
  2.1203619985696509E-01 a       450     0    18     1    25
 -6.2794997878336012E-01 a       451     0    19     1     1
 -8.5602878169763008E-01 a       452     0    19     1     2
  1.2894926285682977E+00 a       453     0    19     1     3
  1.4218602007219150E+00 a       454     0    19     1     4
 -4.3110588433782397E-02 a       455     0    19     1     5
  6.1174779677829250E-01 a       456     0    19     1     6
  7.8957506586033932E-01 a       457     0    19     1     7
 -5.2881493678645974E-01 a       458     0    19     1     8
  2.4572805075715375E-02 a       459     0    19     1     9
  5.4146022239665324E-02 a       460     0    19     1    10
  6.3183040122569056E-01 a       461     0    19     1    11
  1.4882585902999139E+00 a       462     0    19     1    12
  9.7496476331255366E-01 a       463     0    19     1    13
  4.3300746428819603E-01 a       464     0    19     1    14
 -1.0714461252205522E-01 a       465     0    19     1    15
  1.3583955311746312E+00 a       466     0    19     1    16
 -3.2308674651582375E-01 a       467     0    19     1    17
 -4.8429645200367688E-01 a       468     0    19     1    18
 -2.1262234398468491E+00 a       469     0    19     1    19
 -7.3248663269523562E-01 a       470     0    19     1    20
 -3.2845709625366198E-01 a       471     0    19     1    21
 -1.6708442533470960E-01 a       472     0    19     1    22
 -1.1771845715925926E+00 a       473     0    19     1    23
  1.8144053134425395E+00 a       474     0    19     1    24
  1.0023736190055221E+00 a       475     0    19     1    25
 -3.5358317170384862E-01 a       476     0    20     1     1
 -2.5168957868413955E+00 a       477     0    20     1     2
 -4.8955251540177031E-01 a       478     0    20     1     3
 -1.1144573035666994E+00 a       479     0    20     1     4
  1.5974598563281370E+00 a       480     0    20     1     5
  4.0406512688311729E+00 a       481     0    20     1     6
  5.6247960651666791E+00 a       482     0    20     1     7
 -1.6910295506501649E+00 a       483     0    20     1     8
  2.8773675521124469E+00 a       484     0    20     1     9
  3.7388910468811649E+00 a       485     0    20     1    10
  5.8442907965759372E-01 a       486     0    20     1    11
  2.5055094104109807E+00 a       487     0    20     1    12
  1.3308668282661258E+00 a       488     0    20     1    13
 -2.0083404364554908E-01 a       489     0    20     1    14
 -2.8089910868799319E+00 a       490     0    20     1    15
  1.8050718200756086E+00 a       491     0    20     1    16
  1.0882929707516300E+00 a       492     0    20     1    17
 -1.5763456583405997E+00 a       493     0    20     1    18
 -2.1403963766191563E+00 a       494     0    20     1    19
 -1.6351063312964114E+00 a       495     0    20     1    20
 -8.7727341131725023E-01 a       496     0    20     1    21
 -6.4791397883181856E-01 a       497     0    20     1    22
  8.0270423771078914E-01 a       498     0    20     1    23
  3.5843939791535600E+00 a       499     0    20     1    24
  1.6219220492455251E+00 a       500     0    20     1    25
  2.0233747000252995E+00 a       501     0    21     1     1
  1.9112812906666721E+00 a       502     0    21     1     2
 -2.5406426710134156E-01 a       503     0    21     1     3
 -2.7549251540602926E+00 a       504     0    21     1     4
  4.4472075351325637E+00 a       505     0    21     1     5
  4.0444000031867455E+00 a       506     0    21     1     6
  8.2293708003920840E-01 a       507     0    21     1     7
  5.9051512559872332E-01 a       508     0    21     1     8
 -6.6651349408014848E-01 a       509     0    21     1     9
  5.6814573762506262E+00 a       510     0    21     1    10
  8.5603786643588620E-01 a       511     0    21     1    11
 -3.6231930585936864E-02 a       512     0    21     1    12
  6.4565698219927192E-01 a       513     0    21     1    13
 -1.3324526774200858E+00 a       514     0    21     1    14
  8.4878172324366585E-01 a       515     0    21     1    15
 -1.5760588903951564E-01 a       516     0    21     1    16
  3.4575495915513912E+00 a       517     0    21     1    17
  1.6143431220834337E+00 a       518     0    21     1    18
  1.1717787002416666E+00 a       519     0    21     1    19
 -1.8866853332792946E+00 a       520     0    21     1    20
  2.0065606594674223E-01 a       521     0    21     1    21
  1.3766391048292126E+00 a       522     0    21     1    22
  2.3764456420166922E+00 a       523     0    21     1    23
 -7.7757607219823077E-01 a       524     0    21     1    24
 -8.5784392446257407E-01 a       525     0    21     1    25
  1.3245281097553438E-01 a       526     0    22     1     1
  1.0667023043180996E+00 a       527     0    22     1     2
 -1.0584313650632240E+00 a       528     0    22     1     3
 -4.3428486427689261E-01 a       529     0    22     1     4
 -5.0846366863803150E-01 a       530     0    22     1     5
 -4.9101339520472997E+00 a       531     0    22     1     6
 -4.0092732873481793E+00 a       532     0    22     1     7
  4.7152344776592070E-01 a       533     0    22     1     8
 -5.7034002883377799E-01 a       534     0    22     1     9
 -3.3230341110600653E-01 a       535     0    22     1    10
  4.9579662450738460E-01 a       536     0    22     1    11
 -1.0611092784004035E+00 a       537     0    22     1    12
 -2.6686560247658538E-02 a       538     0    22     1    13
 -2.1900135532897466E-01 a       539     0    22     1    14
  8.9670644178503323E-01 a       540     0    22     1    15
 -6.6139818272573581E-01 a       541     0    22     1    16
 -6.2136750793422602E+00 a       542     0    22     1    17
 -1.7733625103515238E-01 a       543     0    22     1    18
  2.8386245002530473E-02 a       544     0    22     1    19
  3.4554818397215381E-01 a       545     0    22     1    20
 -3.6165573978547007E-02 a       546     0    22     1    21
 -2.1224087314508164E-01 a       547     0    22     1    22
 -3.2849205464768518E+00 a       548     0    22     1    23
 -1.1713167502191535E+00 a       549     0    22     1    24
 -2.5350532618149912E-01 a       550     0    22     1    25
 -1.1860414501708234E+00 a       551     0    23     1     1
 -1.7718884425221200E+00 a       552     0    23     1     2
  4.8796548384559463E-01 a       553     0    23     1     3
  1.2407758097678723E+00 a       554     0    23     1     4
 -3.2121007788654832E+00 a       555     0    23     1     5
  3.5470585260843579E-01 a       556     0    23     1     6
  1.7386365856597510E+00 a       557     0    23     1     7
 -3.1533409772531626E-03 a       558     0    23     1     8
  9.5196313495091966E-01 a       559     0    23     1     9
 -5.9371565939305917E+00 a       560     0    23     1    10
 -1.5450292798051055E+00 a       561     0    23     1    11
 -6.9123761854382315E-01 a       562     0    23     1    12
 -1.5895423185890158E+00 a       563     0    23     1    13
  8.3959970503263293E-01 a       564     0    23     1    14
 -3.6159367970191747E-01 a       565     0    23     1    15
 -1.0665764518410523E+00 a       566     0    23     1    16
  2.1861806168167126E+00 a       567     0    23     1    17
 -9.6898820913225980E-01 a       568     0    23     1    18
  6.3525441394235826E-01 a       569     0    23     1    19
  2.4560733409288082E+00 a       570     0    23     1    20
 -2.1623435366593549E-01 a       571     0    23     1    21
 -9.7685556780772731E-01 a       572     0    23     1    22
  1.5800653931382491E+00 a       573     0    23     1    23
 -2.2245941228423921E-01 a       574     0    23     1    24
 -1.6660829299641469E-01 a       575     0    23     1    25
 -7.2927126598023739E-01 a       576     0    24     1     1
  2.9525251077229508E-01 a       577     0    24     1     2
 -2.5184387583210452E+00 a       578     0    24     1     3
  4.7310132189777598E-01 a       579     0    24     1     4
 -1.3652352113036021E+00 a       580     0    24     1     5
  7.8767240780420766E-01 a       581     0    24     1     6
 -6.7197386660051439E-01 a       582     0    24     1     7
  9.2145715063072883E-02 a       583     0    24     1     8
  9.1729009023321078E-03 a       584     0    24     1     9
  9.4623406410426369E-01 a       585     0    24     1    10
 -1.4694433733824297E+00 a       586     0    24     1    11
  3.4351952871224606E-01 a       587     0    24     1    12
 -1.9657812118584547E-01 a       588     0    24     1    13
 -1.0030939664409739E+00 a       589     0    24     1    14
 -1.1712004003704396E-01 a       590     0    24     1    15
  1.8353634288953108E-01 a       591     0    24     1    16
  1.5813816428888312E+00 a       592     0    24     1    17
  1.1995661762203039E-01 a       593     0    24     1    18
  5.3483636159927439E-01 a       594     0    24     1    19
  1.4294444309065293E+00 a       595     0    24     1    20
  3.4979934039362437E-01 a       596     0    24     1    21
  2.8585977942025664E-01 a       597     0    24     1    22
  4.4974989813883398E-01 a       598     0    24     1    23
  6.3140314394565489E-01 a       599     0    24     1    24
 -1.2991590857221804E+00 a       600     0    24     1    25
  9.2996931663099369E-01 a       601     0    25     1     1
 -4.0377658845781561E-01 a       602     0    25     1     2
  4.2121918188404406E+00 a       603     0    25     1     3
 -1.3957521589028672E+00 a       604     0    25     1     4
  3.0375608512179415E+00 a       605     0    25     1     5
 -1.2026083728243144E+00 a       606     0    25     1     6
  1.4229186753470215E+00 a       607     0    25     1     7
 -4.5062810131492664E-01 a       608     0    25     1     8
 -7.1159247799534042E-01 a       609     0    25     1     9
 -9.6222583126053796E-01 a       610     0    25     1    10
  2.2225582841077740E+00 a       611     0    25     1    11
 -5.0826620913491394E-01 a       612     0    25     1    12
  4.1484988455889098E-02 a       613     0    25     1    13
  1.3238167543918613E+00 a       614     0    25     1    14
 -1.3128347770852943E-02 a       615     0    25     1    15
 -7.2323373275716629E-01 a       616     0    25     1    16
 -2.6839823937203091E+00 a       617     0    25     1    17
 -4.8927168409809602E-01 a       618     0    25     1    18
 -9.1399541951440877E-01 a       619     0    25     1    19
 -2.7623284724570087E+00 a       620     0    25     1    20
 -6.2712121271228305E-01 a       621     0    25     1    21
 -9.3369822799098801E-01 a       622     0    25     1    22
 -1.0175600919656043E+00 a       623     0    25     1    23
 -9.3412492592145080E-01 a       624     0    25     1    24
  2.1635616975434822E+00 a       625     0    25     1    25
 -2.9264741155806767E-01 a       626     0    26     1     1
  1.4291878866476129E-01 a       627     0    26     1     2
 -1.7860040364054686E+00 a       628     0    26     1     3
  8.7971345890408537E-01 a       629     0    26     1     4
 -1.5704952336757094E+00 a       630     0    26     1     5
  4.0829648601346485E-01 a       631     0    26     1     6
 -7.2338903683261624E-01 a       632     0    26     1     7
  2.8811795081993241E-01 a       633     0    26     1     8
  5.9263253013987427E-01 a       634     0    26     1     9
  2.0976315126318743E-01 a       635     0    26     1    10
 -8.8754538754930423E-01 a       636     0    26     1    11
  1.8509924415318552E-01 a       637     0    26     1    12
  1.5838516532679139E-01 a       638     0    26     1    13
 -4.5200231778970484E-01 a       639     0    26     1    14
  1.3314250409613462E-01 a       640     0    26     1    15
  4.4850497605879036E-01 a       641     0    26     1    16
  1.2001651621346905E+00 a       642     0    26     1    17
  2.9500330784423656E-01 a       643     0    26     1    18
  3.5617574853016798E-01 a       644     0    26     1    19
  1.3098187673215165E+00 a       645     0    26     1    20
  2.1878559083809535E-01 a       646     0    26     1    21
  5.8906552931874834E-01 a       647     0    26     1    22
  5.2780552083920962E-01 a       648     0    26     1    23
  4.0128212745198449E-01 a       649     0    26     1    24
 -9.6480570662140419E-01 a       650     0    26     1    25
  7.5987752070890147E-02 b       651     1     1
  5.5982760132636387E-02 b       652     1     2
 -2.9529270513494815E-01 b       653     1     3
  2.8090744318619340E-02 b       654     1     4
  1.5849912131944638E-01 b       655     1     5
 -1.9866483228035747E-01 b       656     1     6
  1.1909626583200780E-01 b       657     1     7
  7.0442914654749070E-02 b       658     1     8
  1.1983371694264103E-01 b       659     1     9
  2.8447060651501738E-01 b       660     1    10
 -7.5720414802763383E-02 b       661     1    11
 -1.9227715270859921E-02 b       662     1    12
  6.7139196570653092E-02 b       663     1    13
 -5.6090876533696453E-02 b       664     1    14
 -9.6977135318182056E-02 b       665     1    15
 -1.0014980470090251E-01 b       666     1    16
 -4.1013644180565911E-01 b       667     1    17
 -1.5487041650099287E-01 b       668     1    18
  3.7094868212787785E-01 b       669     1    19
 -3.9198746150111222E-02 b       670     1    20
 -6.4302357669091967E-02 b       671     1    21
  1.0325570000242977E-02 b       672     1    22
 -6.2331954863567268E-02 b       673     1    23
 -3.0901047445765634E-03 b       674     1    24
 -1.4620806621580701E-01 b       675     1    25
 -3.2445551496943342E-01 a       676     1     1     2     1
  3.0263244858886379E-01 a       677     1     1     2     2
  3.4241212633429696E-01 a       678     1     1     2     3
 -3.2586208945949224E-01 a       679     1     1     2     4
  2.5937686332975518E-01 a       680     1     1     2     5
  1.7455756775513403E-02 a       681     1     1     2     6
 -3.9331279657347212E-01 a       682     1     1     2     7
 -3.8677714795288032E-01 a       683     1     1     2     8
 -4.2478584724570301E-01 a       684     1     1     2     9
 -5.4627416028270648E-01 a       685     1     1     2    10
  4.2884583876488587E-02 a       686     1     1     2    11
  2.3906521538617184E-01 a       687     1     1     2    12
  6.2623604218696324E-02 a       688     1     1     2    13
  1.8695389611373525E-01 a       689     1     1     2    14
 -3.5048488572710389E-02 a       690     1     1     2    15
  5.3639374927924498E-02 a       691     1     1     2    16
 -2.4596232918803204E-01 a       692     1     1     2    17
 -1.6676457232021999E-01 a       693     1     1     2    18
 -8.1193498936491235E-02 a       694     1     1     2    19
 -4.7798976020033961E-02 a       695     1     1     2    20
 -3.7818726297908467E-01 a       696     1     1     2    21
  2.8733986813850670E-01 a       697     1     1     2    22
 -9.8837012726470691E-02 a       698     1     1     2    23
 -5.2546459537059964E-01 a       699     1     1     2    24
  9.9336043602004459E-02 a       700     1     1     2    25
 -3.2107957132653592E-01 a       701     1     2     2     1
 -2.5590012266113799E-01 a       702     1     2     2     2
  4.6811389295322725E-01 a       703     1     2     2     3
 -2.0553639905553184E-01 a       704     1     2     2     4
 -1.8475379128341038E-01 a       705     1     2     2     5
 -3.6205415919024396E-02 a       706     1     2     2     6
 -4.9853022609503717E-01 a       707     1     2     2     7
  5.9590187903306269E-01 a       708     1     2     2     8
 -1.0665609325190424E-01 a       709     1     2     2     9
  8.9403944448914541E-01 a       710     1     2     2    10
  9.7552756063941065E-02 a       711     1     2     2    11
 -4.1853424378549805E-03 a       712     1     2     2    12
 -6.4003569632761104E-01 a       713     1     2     2    13
  2.3093394237889428E-01 a       714     1     2     2    14
  5.6912798176137125E-01 a       715     1     2     2    15
  1.2783276030726987E-01 a       716     1     2     2    16
 -7.1940628982715485E-02 a       717     1     2     2    17
 -6.0950547324669202E-01 a       718     1     2     2    18
  8.2401904418567273E-01 a       719     1     2     2    19
 -3.4512816988717790E-02 a       720     1     2     2    20
  4.3659046468336188E-01 a       721     1     2     2    21
  3.0903205316672300E-01 a       722     1     2     2    22
  1.1868395960473342E-01 a       723     1     2     2    23
 -3.1896447313393106E-01 a       724     1     2     2    24
 -1.3981700095874278E-01 a       725     1     2     2    25
 -3.0317036000009051E-01 a       726     1     3     2     1
 -6.0659732765678313E-02 a       727     1     3     2     2
  5.3724751153728545E-01 a       728     1     3     2     3
  1.7238541639038654E-01 a       729     1     3     2     4
  4.5022610588824945E-02 a       730     1     3     2     5
  2.4740056297030463E-01 a       731     1     3     2     6
  1.6553476400419313E-02 a       732     1     3     2     7
 -2.5649062394210570E-01 a       733     1     3     2     8
 -6.9443782435052492E-01 a       734     1     3     2     9
  4.0112165280381484E-01 a       735     1     3     2    10
 -3.3167268995790905E-01 a       736     1     3     2    11
  2.5044508749172317E-01 a       737     1     3     2    12
  2.4842473450198244E-01 a       738     1     3     2    13
 -4.7047850917121166E-02 a       739     1     3     2    14
 -4.5064133538015189E-01 a       740     1     3     2    15
 -3.3259734856107304E-01 a       741     1     3     2    16
  6.7180251921452258E-02 a       742     1     3     2    17
  1.5913571730922991E+00 a       743     1     3     2    18
 -1.2968826392755814E-01 a       744     1     3     2    19
  2.2814285641282142E-01 a       745     1     3     2    20
 -9.4247013331314050E-02 a       746     1     3     2    21
  8.6140727853479504E-01 a       747     1     3     2    22
 -4.0736802319062770E-01 a       748     1     3     2    23
  7.1105164902282275E-02 a       749     1     3     2    24
 -1.0917696369300681E-01 a       750     1     3     2    25
 -3.0373039330771640E-01 a       751     1     4     2     1
 -5.6777387365904641E-01 a       752     1     4     2     2
 -9.7536660382707130E-01 a       753     1     4     2     3
 -4.3763970058450230E-03 a       754     1     4     2     4
  2.6870164542971503E-01 a       755     1     4     2     5
 -3.7711405819397914E-01 a       756     1     4     2     6
  1.0006204518658239E+00 a       757     1     4     2     7
 -3.8320945502068909E-01 a       758     1     4     2     8
  5.7166382342388145E-01 a       759     1     4     2     9
 -2.3989237863712420E-01 a       760     1     4     2    10
  1.3979843003485443E-01 a       761     1     4     2    11
 -2.0536292388790620E-01 a       762     1     4     2    12
 -3.7451442228629206E-01 a       763     1     4     2    13
 -7.4347426484302037E-01 a       764     1     4     2    14
  6.2321408415412516E-01 a       765     1     4     2    15
 -1.6493499573873988E-01 a       766     1     4     2    16
  1.3712507254941339E-01 a       767     1     4     2    17
 -4.4266228160298954E-01 a       768     1     4     2    18
 -1.7390414190866246E-01 a       769     1     4     2    19
  7.4703184825164681E-01 a       770     1     4     2    20
 -4.4244295200270939E-01 a       771     1     4     2    21
  4.3237979446509853E-02 a       772     1     4     2    22
 -4.0324620175654291E-01 a       773     1     4     2    23
 -6.2289293616005259E-01 a       774     1     4     2    24
 -6.5194879090911317E-01 a       775     1     4     2    25
 -2.8073948389280950E-01 a       776     1     5     2     1
  9.0158891396218983E-03 a       777     1     5     2     2
  4.5335558681525595E-01 a       778     1     5     2     3
 -5.7425157071005005E-02 a       779     1     5     2     4
  2.2359380922790936E-01 a       780     1     5     2     5
  2.6666809114597018E-01 a       781     1     5     2     6
 -5.5420223544515357E-01 a       782     1     5     2     7
  3.3666806986900089E-01 a       783     1     5     2     8
  1.0503715847371536E-01 a       784     1     5     2     9
 -5.2994963068091250E-01 a       785     1     5     2    10
  6.2202986132227966E-02 a       786     1     5     2    11
 -1.3440908896970990E-03 a       787     1     5     2    12
  1.5382893424202346E-01 a       788     1     5     2    13
  6.5400714493019999E-02 a       789     1     5     2    14
  5.5879582075643885E-01 a       790     1     5     2    15
 -3.5507341105135010E-02 a       791     1     5     2    16
 -1.1346412863458327E-01 a       792     1     5     2    17
 -2.6273243746535763E-01 a       793     1     5     2    18
 -4.8975620357676652E-01 a       794     1     5     2    19
 -9.5289007525050984E-02 a       795     1     5     2    20
  1.8253592017315724E-02 a       796     1     5     2    21
 -4.5819313838693859E-01 a       797     1     5     2    22
 -2.9710028967042651E-01 a       798     1     5     2    23
  9.5406375681049449E-01 a       799     1     5     2    24
  1.0827457694594693E-01 a       800     1     5     2    25
 -5.3845014347625253E-01 a       801     1     6     2     1
 -1.1202470367771479E-01 a       802     1     6     2     2
  1.4116635670033353E-01 a       803     1     6     2     3
  6.0768199790187133E-02 a       804     1     6     2     4
  2.7358815255964404E-02 a       805     1     6     2     5
  1.3625810614411227E-01 a       806     1     6     2     6
  1.6990279699898947E-01 a       807     1     6     2     7
  1.0235050997306401E+00 a       808     1     6     2     8
  3.7214363745539863E-01 a       809     1     6     2     9
  3.0876342317459915E-01 a       810     1     6     2    10
 -2.1893589076081416E-01 a       811     1     6     2    11
 -2.1885210479042624E-01 a       812     1     6     2    12
  4.9224719490408941E-01 a       813     1     6     2    13
 -9.1991258812386040E-02 a       814     1     6     2    14
 -6.5057162407644997E-01 a       815     1     6     2    15
  3.1176468754890704E-02 a       816     1     6     2    16
  8.8423363250038869E-02 a       817     1     6     2    17
 -2.9592457853664483E-01 a       818     1     6     2    18
  4.1611681800482514E-01 a       819     1     6     2    19
  1.2094297803368925E-01 a       820     1     6     2    20
  6.0012720534177000E-01 a       821     1     6     2    21
 -4.7640820796998740E-01 a       822     1     6     2    22
 -1.2342806655843067E-01 a       823     1     6     2    23
  9.0528577927554199E-01 a       824     1     6     2    24
  4.8774090210425204E-02 a       825     1     6     2    25
 -2.4560114104405747E-01 a       826     1     7     2     1
 -4.0454734261201702E-01 a       827     1     7     2     2
 -2.5884498495236146E-02 a       828     1     7     2     3
 -3.4457759523745185E-01 a       829     1     7     2     4
 -1.9185684683209009E-01 a       830     1     7     2     5
 -3.6686610339309672E-01 a       831     1     7     2     6
 -2.8155203882974905E-01 a       832     1     7     2     7
  5.3638249154142337E-01 a       833     1     7     2     8
  6.6408910120858766E-01 a       834     1     7     2     9
  1.6482443879992803E-01 a       835     1     7     2    10
  9.0737623698370434E-02 a       836     1     7     2    11
 -6.6338522039407252E-02 a       837     1     7     2    12
  6.9084450282074231E-02 a       838     1     7     2    13
  6.7656451686693445E-02 a       839     1     7     2    14
 -2.9237130300531394E-01 a       840     1     7     2    15
 -1.5686794200631499E-01 a       841     1     7     2    16
  4.3064726024601258E-01 a       842     1     7     2    17
 -6.9090799159136698E-02 a       843     1     7     2    18
 -4.4817477944806838E-02 a       844     1     7     2    19
 -3.3634731167660004E-01 a       845     1     7     2    20
  2.3249775342841153E-01 a       846     1     7     2    21
  1.0074662192080903E+00 a       847     1     7     2    22
 -3.9630625029696065E-01 a       848     1     7     2    23
 -2.9788364789221605E-01 a       849     1     7     2    24
 -7.9212373505389205E-02 a       850     1     7     2    25
 -6.2330153673546806E-01 a       851     1     8     2     1
  2.1026005911738199E-02 a       852     1     8     2     2
  1.2591140623285096E-01 a       853     1     8     2     3
  1.3281543237980195E-01 a       854     1     8     2     4
  1.4324089543847490E-01 a       855     1     8     2     5
  3.3764051335969353E-01 a       856     1     8     2     6
 -2.8621045151700314E-01 a       857     1     8     2     7
  1.1110909876100701E-01 a       858     1     8     2     8
  1.3515253108002126E-01 a       859     1     8     2     9
  1.2582239446324098E-01 a       860     1     8     2    10
 -1.8773163075410323E-01 a       861     1     8     2    11
  2.1488987288561537E-01 a       862     1     8     2    12
  5.0489014727083992E-01 a       863     1     8     2    13
  9.1328146585955144E-02 a       864     1     8     2    14
 -3.9506188526474323E-01 a       865     1     8     2    15
 -1.2439310699143420E-01 a       866     1     8     2    16
  1.6347747360200821E-01 a       867     1     8     2    17
 -1.8466178746900569E-01 a       868     1     8     2    18
 -5.5468682441003414E-01 a       869     1     8     2    19
 -3.2519660624157382E-01 a       870     1     8     2    20
  4.1593005970376140E-01 a       871     1     8     2    21
 -1.5051385814830791E+00 a       872     1     8     2    22
 -5.8684806702194492E-01 a       873     1     8     2    23
  1.9228045243655653E-01 a       874     1     8     2    24
  5.1284766734331400E-01 a       875     1     8     2    25
  2.7070605722322427E-01 a       876     1     9     2     1
  3.6496544449397628E-01 a       877     1     9     2     2
 -1.5506764968082831E-01 a       878     1     9     2     3
 -1.1605940619647166E-01 a       879     1     9     2     4
  2.9840800048416094E-01 a       880     1     9     2     5
 -2.4993667315721607E-01 a       881     1     9     2     6
  3.4462441816060552E-01 a       882     1     9     2     7
 -2.9540038149125358E-01 a       883     1     9     2     8
  1.7996210280976288E-01 a       884     1     9     2     9
 -7.2435451569471843E-01 a       885     1     9     2    10
 -9.6095109396196671E-02 a       886     1     9     2    11
 -2.0898451524710501E-01 a       887     1     9     2    12
  4.6903124779005469E-02 a       888     1     9     2    13
 -4.1352586397588903E-01 a       889     1     9     2    14
 -7.6092028205519274E-02 a       890     1     9     2    15
 -3.4780699994253442E-02 a       891     1     9     2    16
  1.2283946558729729E-01 a       892     1     9     2    17
  4.5317754368917523E-01 a       893     1     9     2    18
  8.1949302268207957E-02 a       894     1     9     2    19
 -2.2202132652259665E-01 a       895     1     9     2    20
 -2.1117758013527987E-01 a       896     1     9     2    21
  9.0822671740812966E-01 a       897     1     9     2    22
  1.0990839077746380E-01 a       898     1     9     2    23
  8.1090106321633915E-01 a       899     1     9     2    24
  1.4867844960161042E-01 a       900     1     9     2    25
 -1.5383528837504701E-01 a       901     1    10     2     1
  2.2349548054379195E-01 a       902     1    10     2     2
 -2.4135654806376924E-01 a       903     1    10     2     3
 -1.6862551998831737E-01 a       904     1    10     2     4
 -1.0638577853759534E-01 a       905     1    10     2     5
  2.0480658678543584E-01 a       906     1    10     2     6
  3.8901603035557064E-01 a       907     1    10     2     7
  2.0152200231044479E-01 a       908     1    10     2     8
  1.9066859670815489E-01 a       909     1    10     2     9
  1.1263108633325304E-01 a       910     1    10     2    10
  6.1679651113472367E-01 a       911     1    10     2    11
 -2.5539045296332741E-01 a       912     1    10     2    12
  1.7435657054936943E-01 a       913     1    10     2    13
  4.6358102137600159E-02 a       914     1    10     2    14
  4.4131270599190792E-01 a       915     1    10     2    15
  1.7842817533750355E-01 a       916     1    10     2    16
 -2.9683451690795987E-01 a       917     1    10     2    17
 -5.2343273371656618E-01 a       918     1    10     2    18
  4.7274439774742472E-01 a       919     1    10     2    19
  1.0053979301085306E-01 a       920     1    10     2    20
  9.5057459354511112E-02 a       921     1    10     2    21
 -4.4826885991513854E-01 a       922     1    10     2    22
  6.5890474874801888E-02 a       923     1    10     2    23
  1.3249097735668017E-01 a       924     1    10     2    24
  2.8825842258546280E-01 a       925     1    10     2    25
 -2.8927178853544538E-01 a       926     1    11     2     1
 -4.8683870116505501E-01 a       927     1    11     2     2
  4.3904651473854145E-01 a       928     1    11     2     3
  2.5222345894768242E-02 a       929     1    11     2     4
 -3.6792303668272763E-01 a       930     1    11     2     5
 -2.8021056941858896E-01 a       931     1    11     2     6
 -5.2451022054608187E-01 a       932     1    11     2     7
 -3.6273874541070222E-01 a       933     1    11     2     8
  5.4774244301736563E-01 a       934     1    11     2     9
  4.9089133932764366E-02 a       935     1    11     2    10
  1.6309578504632460E-01 a       936     1    11     2    11
 -2.8664483428513726E-01 a       937     1    11     2    12
 -3.7968094072507029E-02 a       938     1    11     2    13
  1.5681198050450548E-01 a       939     1    11     2    14
  1.5647477455187138E-02 a       940     1    11     2    15
  2.5629762124591215E-01 a       941     1    11     2    16
 -3.4466501901936686E-01 a       942     1    11     2    17
 -2.0117622325095380E-01 a       943     1    11     2    18
  5.3311642274933213E-01 a       944     1    11     2    19
 -5.6202626132003879E-02 a       945     1    11     2    20
 -5.6164165061886573E-01 a       946     1    11     2    21
  9.0145570576023772E-03 a       947     1    11     2    22
  1.7012774736610706E-01 a       948     1    11     2    23
 -8.6846298081918794E-01 a       949     1    11     2    24
 -9.3558520430505956E-02 a       950     1    11     2    25
 -3.0965978399785882E-01 a       951     1    12     2     1
  2.3372827857510370E-01 a       952     1    12     2     2
  1.2616993885797875E-01 a       953     1    12     2     3
  2.2038724064687301E-01 a       954     1    12     2     4
  8.7264918417282095E-02 a       955     1    12     2     5
  2.4926236303395138E-01 a       956     1    12     2     6
  3.0232040394194665E-01 a       957     1    12     2     7
  4.3903622905366702E-01 a       958     1    12     2     8
 -1.5969323323249898E-01 a       959     1    12     2     9
  2.7012388706572954E-01 a       960     1    12     2    10
 -1.5841808239726790E-01 a       961     1    12     2    11
  4.8897338795606600E-02 a       962     1    12     2    12
  1.9524669787387341E-02 a       963     1    12     2    13
  7.3750860418555897E-01 a       964     1    12     2    14
  5.6340284525975871E-02 a       965     1    12     2    15
 -7.8195501894829170E-02 a       966     1    12     2    16
  1.1583856497647091E-01 a       967     1    12     2    17
  2.4752030524477570E-01 a       968     1    12     2    18
  3.4010920066544453E-01 a       969     1    12     2    19
  1.3607215076502280E-01 a       970     1    12     2    20
  6.3750849576161106E-01 a       971     1    12     2    21
  2.7169031002471128E-01 a       972     1    12     2    22
 -4.1279829660321893E-01 a       973     1    12     2    23
  2.3119085839370698E-01 a       974     1    12     2    24
 -1.0124914123947566E-01 a       975     1    12     2    25
  4.8861193791624152E-02 a       976     1    13     2     1
 -1.3613369144901979E-01 a       977     1    13     2     2
  2.9766300579251248E-01 a       978     1    13     2     3
 -7.4049891431662157E-02 a       979     1    13     2     4
  8.8607498843501539E-02 a       980     1    13     2     5
 -1.1905369400610008E-01 a       981     1    13     2     6
 -1.8322051630242894E-01 a       982     1    13     2     7
 -2.2036478925430592E-01 a       983     1    13     2     8
  1.3022214713445480E-02 a       984     1    13     2     9
 -5.4397582033335434E-01 a       985     1    13     2    10
  1.3348876061801737E-01 a       986     1    13     2    11
 -3.3640204792082823E-02 a       987     1    13     2    12
 -4.2315437489698443E-01 a       988     1    13     2    13
  5.0300341851844191E-03 a       989     1    13     2    14
 -9.4344942536844237E-02 a       990     1    13     2    15
  1.7116531986779440E-01 a       991     1    13     2    16
 -2.3752760489557570E-01 a       992     1    13     2    17
 -7.5666853161343861E-02 a       993     1    13     2    18
  4.7586552431495799E-01 a       994     1    13     2    19
 -1.3988779672942908E-01 a       995     1    13     2    20
 -4.2715836837889554E-01 a       996     1    13     2    21
  5.0592060373085046E-01 a       997     1    13     2    22
  1.6479685320847132E-01 a       998     1    13     2    23
 -3.2637070896365650E-01 a       999     1    13     2    24
  9.9377596063303611E-02 a      1000     1    13     2    25
  6.9700465780479448E-01 a      1001     1    14     2     1
 -1.0966701479842245E-01 a      1002     1    14     2     2
 -1.4047903259707728E-01 a      1003     1    14     2     3
  1.0959330429382871E-01 a      1004     1    14     2     4
  2.6092905381184264E-02 a      1005     1    14     2     5
 -1.4905075766101969E-01 a      1006     1    14     2     6
  1.4102934804101527E-01 a      1007     1    14     2     7
  8.9466217531810976E-01 a      1008     1    14     2     8
  6.2403128886307957E-01 a      1009     1    14     2     9
 -3.8938394290818185E-01 a      1010     1    14     2    10
  5.1331270605688595E-01 a      1011     1    14     2    11
  5.8625147590420965E-02 a      1012     1    14     2    12
  5.4326271918018076E-01 a      1013     1    14     2    13
 -9.3535122674448601E-01 a      1014     1    14     2    14
 -4.5182844511755915E-01 a      1015     1    14     2    15
 -1.3092648399894338E-01 a      1016     1    14     2    16
  1.8993427288369127E-01 a      1017     1    14     2    17
 -4.3079814035861297E-01 a      1018     1    14     2    18
 -3.7442930934892915E-01 a      1019     1    14     2    19
 -1.0300287598261555E+00 a      1020     1    14     2    20
  6.6945384862663437E-01 a      1021     1    14     2    21
  2.3000018990642826E-01 a      1022     1    14     2    22
 -9.4478177439545785E-02 a      1023     1    14     2    23
 -3.7353118245848427E-01 a      1024     1    14     2    24
  5.0960074782507392E-01 a      1025     1    14     2    25
 -4.8182375645060849E-01 a      1026     1    15     2     1
 -3.5575483474610387E-01 a      1027     1    15     2     2
  4.1941319320788728E-01 a      1028     1    15     2     3
 -3.0319591229625192E-01 a      1029     1    15     2     4
 -4.6919786886978448E-01 a      1030     1    15     2     5
  7.6417187937004347E-02 a      1031     1    15     2     6
 -9.0718597413300878E-02 a      1032     1    15     2     7
 -3.9956575740472650E-01 a      1033     1    15     2     8
  5.2471798938521205E-02 a      1034     1    15     2     9
  1.2035583840800546E+00 a      1035     1    15     2    10
 -4.6061304422044952E-02 a      1036     1    15     2    11
 -7.5791740517853002E-03 a      1037     1    15     2    12
 -9.0952683325156847E-01 a      1038     1    15     2    13
  1.9414783739480346E-01 a      1039     1    15     2    14
  4.2601061520346434E-01 a      1040     1    15     2    15
  6.8731456719452202E-02 a      1041     1    15     2    16
 -1.7975630177889207E-01 a      1042     1    15     2    17
 -1.3007409998801017E-01 a      1043     1    15     2    18
  7.6037307454664937E-01 a      1044     1    15     2    19
 -2.4115521326182057E-01 a      1045     1    15     2    20
 -3.3235746143592632E-01 a      1046     1    15     2    21
 -1.1771983249290437E-01 a      1047     1    15     2    22
  1.3740391473175304E-01 a      1048     1    15     2    23
 -9.8866216068800383E-01 a      1049     1    15     2    24
 -1.9139004451862346E-01 a      1050     1    15     2    25
 -3.3439057992150756E-01 a      1051     1    16     2     1
 -2.3089795398438634E-01 a      1052     1    16     2     2
  3.5656868878636372E-01 a      1053     1    16     2     3
  5.3609133348387669E-02 a      1054     1    16     2     4
 -5.9871628195102819E-02 a      1055     1    16     2     5
 -4.0197222480255083E-02 a      1056     1    16     2     6
 -5.5149909285773224E-01 a      1057     1    16     2     7
  5.4909520399922251E-01 a      1058     1    16     2     8
 -1.0317093259733763E-01 a      1059     1    16     2     9
 -3.1410851702465332E-02 a      1060     1    16     2    10
  1.6301862033915485E-01 a      1061     1    16     2    11
 -1.4439793013036492E-01 a      1062     1    16     2    12
  6.7118679352449706E-01 a      1063     1    16     2    13
 -2.7693078329583093E-01 a      1064     1    16     2    14
  1.4750083120284771E-01 a      1065     1    16     2    15
  3.3442890665503017E-01 a      1066     1    16     2    16
 -1.9949260113388549E-03 a      1067     1    16     2    17
 -4.4694151654772379E-01 a      1068     1    16     2    18
 -1.3874199685414568E-01 a      1069     1    16     2    19
 -3.8302115987188740E-01 a      1070     1    16     2    20
  4.0252924254258177E-01 a      1071     1    16     2    21
  2.8018332484401248E-01 a      1072     1    16     2    22
 -2.4365349881047303E-02 a      1073     1    16     2    23
  2.2382967323971967E-01 a      1074     1    16     2    24
  2.6245423513329391E-01 a      1075     1    16     2    25
  2.6302630392097809E-01 a      1076     1    17     2     1
  2.9496668913449003E-01 a      1077     1    17     2     2
  6.1909191342925085E-01 a      1078     1    17     2     3
  3.1694008326922268E-01 a      1079     1    17     2     4
  4.7380324357773884E-01 a      1080     1    17     2     5
 -1.0578676011435838E-01 a      1081     1    17     2     6
 -3.9722502304754698E-01 a      1082     1    17     2     7
  9.4209200931707565E-02 a      1083     1    17     2     8
 -3.7099162065874203E-01 a      1084     1    17     2     9
 -2.7560711245023939E-01 a      1085     1    17     2    10
 -4.8325121463893167E-01 a      1086     1    17     2    11
 -6.7830979265493280E-02 a      1087     1    17     2    12
  3.1420435683040326E-01 a      1088     1    17     2    13
  3.9071011072544143E-01 a      1089     1    17     2    14
 -5.8965222988481547E-01 a      1090     1    17     2    15
 -3.8783470142923010E-01 a      1091     1    17     2    16
 -2.0376599869104731E-01 a      1092     1    17     2    17
 -3.5187646993196814E-01 a      1093     1    17     2    18
 -7.6859570396774934E-02 a      1094     1    17     2    19
 -1.1420176769457525E-01 a      1095     1    17     2    20
 -9.8915742504701296E-02 a      1096     1    17     2    21
 -1.1424228319173502E-01 a      1097     1    17     2    22
 -4.4350301899452749E-01 a      1098     1    17     2    23
 -5.4620201615706812E-02 a      1099     1    17     2    24
  4.1913386737544583E-01 a      1100     1    17     2    25
 -4.1409707894135889E-01 a      1101     1    18     2     1
  5.1111475126683381E-01 a      1102     1    18     2     2
  2.1643692103231981E-02 a      1103     1    18     2     3
 -1.3460824366749011E-01 a      1104     1    18     2     4
  2.1340560013525064E-01 a      1105     1    18     2     5
  1.5972334162387070E-01 a      1106     1    18     2     6
 -1.4290003936677798E-01 a      1107     1    18     2     7
 -2.1422401084621016E-02 a      1108     1    18     2     8
 -2.9430681199506061E-02 a      1109     1    18     2     9
 -7.2176876339785270E-02 a      1110     1    18     2    10
 -1.7207346989887465E-01 a      1111     1    18     2    11
  3.1812450065207276E-02 a      1112     1    18     2    12
 -6.4708211330277121E-01 a      1113     1    18     2    13
  6.5279657798932711E-01 a      1114     1    18     2    14
 -4.1390819146461988E-01 a      1115     1    18     2    15
 -3.3495087283965796E-01 a      1116     1    18     2    16
 -1.7357709458220949E-01 a      1117     1    18     2    17
 -1.2310664400746926E-01 a      1118     1    18     2    18
  3.3778844341244768E-01 a      1119     1    18     2    19
  2.5107546604740849E-01 a      1120     1    18     2    20
 -5.1981827271577290E-02 a      1121     1    18     2    21
 -1.0175288846568267E+00 a      1122     1    18     2    22
 -1.9146052216510265E-01 a      1123     1    18     2    23
 -8.0593061504713903E-01 a      1124     1    18     2    24
  5.4156049115633723E-02 a      1125     1    18     2    25
  8.1392803196912486E-02 a      1126     1    19     2     1
  2.4909678876935903E-02 a      1127     1    19     2     2
 -1.2481694291241707E-01 a      1128     1    19     2     3
  1.3895851078791974E-02 a      1129     1    19     2     4
 -1.9524139197215881E-01 a      1130     1    19     2     5
 -7.7901344752034613E-02 a      1131     1    19     2     6
  4.4210264450196504E-02 a      1132     1    19     2     7
 -9.8836699398600944E-02 a      1133     1    19     2     8
 -3.8306621086120388E-02 a      1134     1    19     2     9
  4.2371109670287599E-01 a      1135     1    19     2    10
  3.1900307947745912E-02 a      1136     1    19     2    11
 -1.3828726230224211E-02 a      1137     1    19     2    12
 -3.6355975802330520E-01 a      1138     1    19     2    13
 -2.0539521689570342E-01 a      1139     1    19     2    14
 -7.9404350057878964E-02 a      1140     1    19     2    15
  1.5940254590587841E-01 a      1141     1    19     2    16
 -1.6838664388212840E-01 a      1142     1    19     2    17
 -3.8851585221083523E-01 a      1143     1    19     2    18
  5.5445112445038924E-01 a      1144     1    19     2    19
 -4.9499969308917195E-02 a      1145     1    19     2    20
 -1.4767854753861345E-01 a      1146     1    19     2    21
  6.4724489119455131E-01 a      1147     1    19     2    22
  2.1263707913971747E-01 a      1148     1    19     2    23
  1.9313269518994862E-02 a      1149     1    19     2    24
  2.4947258303907498E-03 a      1150     1    19     2    25
  1.8413418323832487E-01 a      1151     1    20     2     1
 -4.7812119674473630E-01 a      1152     1    20     2     2
 -2.8472646814048042E-01 a      1153     1    20     2     3
  3.4857193414014567E-02 a      1154     1    20     2     4
 -1.9165900899718513E-01 a      1155     1    20     2     5
 -5.0690204344313539E-01 a      1156     1    20     2     6
  5.4275472319910112E-01 a      1157     1    20     2     7
  1.2429881313123050E-02 a      1158     1    20     2     8
  9.0562134791809212E-01 a      1159     1    20     2     9
  4.5283528619890828E-01 a      1160     1    20     2    10
  4.6375267031348734E-02 a      1161     1    20     2    11
 -4.2280229503299310E-01 a      1162     1    20     2    12
  3.1619841071113364E-01 a      1163     1    20     2    13
 -1.4293568815386537E+00 a      1164     1    20     2    14
 -2.2020672261696075E-01 a      1165     1    20     2    15
 -1.2997158886218907E-01 a      1166     1    20     2    16
 -1.5560088080362902E-01 a      1167     1    20     2    17
  1.1088781771124695E-01 a      1168     1    20     2    18
 -1.0264356318659004E-01 a      1169     1    20     2    19
 -6.9598865192797998E-01 a      1170     1    20     2    20
 -3.0640722581052815E-01 a      1171     1    20     2    21
  5.5903263536801924E-02 a      1172     1    20     2    22
 -4.7169528732451255E-02 a      1173     1    20     2    23
 -7.4111325650276505E-01 a      1174     1    20     2    24
  3.3727767114763352E-01 a      1175     1    20     2    25
 -2.1753653752453323E-02 a      1176     1    21     2     1
 -1.5680053407310787E-01 a      1177     1    21     2     2
  1.7707808538706962E-01 a      1178     1    21     2     3
 -1.4405178749209852E-01 a      1179     1    21     2     4
 -4.1376820621068033E-01 a      1180     1    21     2     5
  1.1248422263213588E-01 a      1181     1    21     2     6
  2.0610077424718168E-01 a      1182     1    21     2     7
 -3.4875817059773440E-01 a      1183     1    21     2     8
 -1.5325797913362832E-01 a      1184     1    21     2     9
  9.2389829453969119E-02 a      1185     1    21     2    10
  4.5622217719421557E-02 a      1186     1    21     2    11
  1.5070041223197678E-01 a      1187     1    21     2    12
 -6.1693120216364927E-01 a      1188     1    21     2    13
 -1.5190976941734205E-02 a      1189     1    21     2    14
  1.2785590632282945E-01 a      1190     1    21     2    15
  8.0552426711895317E-02 a      1191     1    21     2    16
 -3.0412920136528587E-01 a      1192     1    21     2    17
 -1.4929682422794158E-01 a      1193     1    21     2    18
  1.2710878264939104E-01 a      1194     1    21     2    19
 -2.4502226129357541E-01 a      1195     1    21     2    20
 -1.9205996341931705E-01 a      1196     1    21     2    21
  3.5150283548125172E-01 a      1197     1    21     2    22
  4.0392902598534419E-01 a      1198     1    21     2    23
 -6.0769215289883505E-01 a      1199     1    21     2    24
  4.4844361211991653E-02 a      1200     1    21     2    25
  4.6890704755689044E-02 a      1201     1    22     2     1
  2.5526203711805717E-01 a      1202     1    22     2     2
 -6.6375894541806024E-01 a      1203     1    22     2     3
  1.1947875848991425E-01 a      1204     1    22     2     4
  3.0454886402368353E-01 a      1205     1    22     2     5
  1.1896167677774053E-01 a      1206     1    22     2     6
  3.1406465872239431E-01 a      1207     1    22     2     7
  5.7568361508383703E-01 a      1208     1    22     2     8
 -1.9968362032649728E-01 a      1209     1    22     2     9
 -3.1422632789195942E-01 a      1210     1    22     2    10
  3.0593840809019135E-01 a      1211     1    22     2    11
  6.7957121390489511E-02 a      1212     1    22     2    12
 -1.1306344036720812E+00 a      1213     1    22     2    13
  3.2849164241631978E-01 a      1214     1    22     2    14
 -2.8752868163399381E-01 a      1215     1    22     2    15
 -1.5775836279156613E-01 a      1216     1    22     2    16
  1.7902973745016892E-01 a      1217     1    22     2    17
 -9.9084598388551576E-02 a      1218     1    22     2    18
  7.0363442568029200E-01 a      1219     1    22     2    19
  2.9606776314224886E-01 a      1220     1    22     2    20
  4.7568693204838469E-01 a      1221     1    22     2    21
 -1.4292708503071302E-01 a      1222     1    22     2    22
  2.7785685428102714E-02 a      1223     1    22     2    23
  2.2248587677649910E-03 a      1224     1    22     2    24
 -2.6977594286456119E-01 a      1225     1    22     2    25
 -7.6847070894941927E-01 a      1226     1    23     2     1
 -2.5697443494917599E-01 a      1227     1    23     2     2
 -5.2685802428072692E-01 a      1228     1    23     2     3
 -3.5427790811037008E-01 a      1229     1    23     2     4
  4.5638208984285539E-01 a      1230     1    23     2     5
  1.0588392889407598E-01 a      1231     1    23     2     6
  4.3963034203595305E-02 a      1232     1    23     2     7
 -9.9676551301597444E-02 a      1233     1    23     2     8
 -1.3557955299985763E-01 a      1234     1    23     2     9
 -4.9916536444220216E-01 a      1235     1    23     2    10
  8.0334970820448728E-02 a      1236     1    23     2    11
  8.7128910332581799E-02 a      1237     1    23     2    12
 -2.7243973424844442E-01 a      1238     1    23     2    13
 -9.4972352755932954E-01 a      1239     1    23     2    14
 -3.5336098734896432E-02 a      1240     1    23     2    15
  1.0499109248758569E-02 a      1241     1    23     2    16
  7.6800353058024934E-02 a      1242     1    23     2    17
 -9.9174786911756727E-02 a      1243     1    23     2    18
  1.9187327011843353E-02 a      1244     1    23     2    19
  3.0301194826237227E-01 a      1245     1    23     2    20
 -1.7462772121746137E-01 a      1246     1    23     2    21
 -1.6531755529597629E+00 a      1247     1    23     2    22
 -2.7630522425552384E-01 a      1248     1    23     2    23
 -3.6958703360092215E-02 a      1249     1    23     2    24
 -1.0742736984728356E-01 a      1250     1    23     2    25
  1.6375182274494693E-01 a      1251     1    24     2     1
  1.8789484559988912E-01 a      1252     1    24     2     2
  1.6799800048306926E-01 a      1253     1    24     2     3
 -1.9539649233065159E-01 a      1254     1    24     2     4
 -1.7833038067654414E-01 a      1255     1    24     2     5
 -2.8559864928473639E-02 a      1256     1    24     2     6
 -8.6129481590847734E-01 a      1257     1    24     2     7
 -2.5235784255903332E-01 a      1258     1    24     2     8
 -2.8136255012809874E-01 a      1259     1    24     2     9
  1.1062500936019987E-01 a      1260     1    24     2    10
 -4.6534556236667968E-02 a      1261     1    24     2    11
 -1.7017652635886560E-01 a      1262     1    24     2    12
 -5.1100774596251841E-01 a      1263     1    24     2    13
 -4.4496842697939250E-02 a      1264     1    24     2    14
 -7.9058650016661769E-01 a      1265     1    24     2    15
  2.2222785677201215E-01 a      1266     1    24     2    16
  1.4091766188932392E-01 a      1267     1    24     2    17
  2.3323060053888139E-01 a      1268     1    24     2    18
  9.0165518770008612E-02 a      1269     1    24     2    19
 -6.0253130496412066E-01 a      1270     1    24     2    20
 -2.4458339424111969E-01 a      1271     1    24     2    21
  1.8588738322326109E-01 a      1272     1    24     2    22
  5.0165995771672178E-01 a      1273     1    24     2    23
  1.2153854327619741E-01 a      1274     1    24     2    24
  2.3162080734575047E-01 a      1275     1    24     2    25
  1.3866668805607763E-02 a      1276     1    25     2     1
  6.2797970046098980E-02 a      1277     1    25     2     2
  3.7359284360272282E-01 a      1278     1    25     2     3
 -5.0616877438798918E-02 a      1279     1    25     2     4
  4.7398054365113007E-01 a      1280     1    25     2     5
  2.7683959269790046E-02 a      1281     1    25     2     6
 -3.7935168055555052E-01 a      1282     1    25     2     7
 -1.8797385154215412E-01 a      1283     1    25     2     8
 -4.2590231879461427E-01 a      1284     1    25     2     9
 -6.2711494776420990E-02 a      1285     1    25     2    10
 -3.7353210172219437E-01 a      1286     1    25     2    11
 -1.0129457236386416E-01 a      1287     1    25     2    12
 -3.1795361146562734E-01 a      1288     1    25     2    13
  7.2769464729788902E-01 a      1289     1    25     2    14
  6.2281490697137076E-01 a      1290     1    25     2    15
  1.3672646715094672E-01 a      1291     1    25     2    16
 -1.4935112029219249E-02 a      1292     1    25     2    17
 -2.7432907378411370E-01 a      1293     1    25     2    18
  1.4642292484797373E-01 a      1294     1    25     2    19
  3.4915047804523269E-01 a      1295     1    25     2    20
 -6.0884269024229576E-01 a      1296     1    25     2    21
  5.4758991679527302E-01 a      1297     1    25     2    22
  1.1779555637939790E-02 a      1298     1    25     2    23
  6.5889224860321061E-01 a      1299     1    25     2    24
 -7.2060582476068702E-01 a      1300     1    25     2    25
  2.6544163575871854E-01 b      1301     2     1
  3.4216519124476380E-01 b      1302     2     2
  3.7195327779228093E-01 b      1303     2     3
  7.9912692725020229E-01 b      1304     2     4
  1.3522233353492238E-01 b      1305     2     5
 -9.8738383124054674E-01 b      1306     2     6
 -2.7130094860015974E-01 b      1307     2     7
 -1.4748501683441880E-02 b      1308     2     8
 -5.2922208394259096E-01 b      1309     2     9
  2.1082821672985830E-01 b      1310     2    10
  7.3542371318871813E-01 b      1311     2    11
  6.3949180166801434E-01 b      1312     2    12
  2.4424179083555234E-01 b      1313     2    13
  1.9489122156184194E-01 b      1314     2    14
 -3.4318178196050569E-01 b      1315     2    15
  2.2284860147216820E-01 b      1316     2    16
  3.1517556560297888E-01 b      1317     2    17
  2.5572364098395151E-01 b      1318     2    18
 -1.7688187255658502E-01 b      1319     2    19
 -1.4956797496932894E-01 b      1320     2    20
  7.2107197933321448E-03 b      1321     2    21
 -2.3784081885320142E-02 b      1322     2    22
 -1.0166574085433988E-01 b      1323     2    23
  6.5540799886732878E-02 b      1324     2    24
  1.2501326090770271E-01 b      1325     2    25
  2.5938757424460096E-01 a      1326     2     1     3     1
 -4.7295376620470675E-01 a      1327     2     2     3     1
 -3.4322249879278965E-01 a      1328     2     3     3     1
 -7.8422811562131678E-01 a      1329     2     4     3     1
 -3.1543959951763312E-01 a      1330     2     5     3     1
  8.3394159326256789E-01 a      1331     2     6     3     1
 -1.3092347918241418E-01 a      1332     2     7     3     1
 -1.2312399126309807E-01 a      1333     2     8     3     1
 -3.0317290834799326E-01 a      1334     2     9     3     1
 -2.0676469126925720E-01 a      1335     2    10     3     1
 -1.0744952760476980E+00 a      1336     2    11     3     1
 -6.1726738072676657E-01 a      1337     2    12     3     1
  2.1275564681449508E-01 a      1338     2    13     3     1
  5.6022682261890951E-02 a      1339     2    14     3     1
 -1.3954308856297484E-01 a      1340     2    15     3     1
 -5.9387204849934783E-01 a      1341     2    16     3     1
 -4.5241119901559157E-01 a      1342     2    17     3     1
 -1.0761281695560794E-01 a      1343     2    18     3     1
  2.7989536628090039E-01 a      1344     2    19     3     1
 -1.3142394028753371E-01 a      1345     2    20     3     1
  2.2988651825559381E-01 a      1346     2    21     3     1
  5.7722142475745515E-03 a      1347     2    22     3     1
 -3.6171798085619711E-01 a      1348     2    23     3     1
  8.4833808450639273E-02 a      1349     2    24     3     1
 -1.7370330885543211E-01 a      1350     2    25     3     1
 -4.5900980164752087E-01 b      1351     3     1
