################################################################################
# Neural network connection values (weights and biases).
################################################################################
# Col  Name       Description
################################################################################
# 1    connection Neural network connection value.
# 2    t          Connection type (a = weight, b = bias).
# 3    index      Index enumerating weights.
# 4    l_s        Starting point layer (end point layer for biases).
# 5    n_s        Starting point neuron in starting layer (end point neuron for biases).
# 6    l_e        End point layer.
# 7    n_e        End point neuron in end layer.
################################################################################
#                      1 2         3     4     5     6     7
#             connection t     index   l_s   n_s   l_e   n_e
############################################################
 -2.3049506284408125E-01 a         1     0     1     1     1
  3.1619270218373856E+00 a         2     0     1     1     2
 -4.9961323742044552E+00 a         3     0     1     1     3
  4.5919104976001419E+00 a         4     0     1     1     4
  2.2048135170836387E+00 a         5     0     1     1     5
 -2.5215393204835218E-01 a         6     0     1     1     6
 -2.5001133398749200E+00 a         7     0     1     1     7
 -7.7189434235614662E+00 a         8     0     1     1     8
 -3.5239617261154915E-01 a         9     0     1     1     9
  2.3242238852879744E+00 a        10     0     1     1    10
  9.9920150187454385E-02 a        11     0     1     1    11
  1.0037016214607613E+00 a        12     0     1     1    12
 -1.8435393172412895E+00 a        13     0     1     1    13
 -2.4645125313907648E+00 a        14     0     1     1    14
 -1.0962151173541439E+00 a        15     0     1     1    15
  2.8580879024902988E+00 a        16     0     1     1    16
 -1.2028360086919005E+00 a        17     0     1     1    17
  1.0371001455068519E+01 a        18     0     1     1    18
  1.9599862471229945E-01 a        19     0     1     1    19
  5.1941802989015926E+00 a        20     0     1     1    20
  7.2398277416948531E+00 a        21     0     1     1    21
 -1.8083575202216879E+00 a        22     0     1     1    22
  5.6090383794907450E-01 a        23     0     1     1    23
  2.5021122288866859E+00 a        24     0     1     1    24
 -6.4488218318815829E+00 a        25     0     1     1    25
  1.4114176320850766E+00 a        26     0     2     1     1
 -7.8739557188207882E-02 a        27     0     2     1     2
  1.1503706365078452E+00 a        28     0     2     1     3
 -2.3698904144904738E+00 a        29     0     2     1     4
  1.0257432820626762E+00 a        30     0     2     1     5
  6.1227827925404855E-02 a        31     0     2     1     6
 -5.4211614797434426E-01 a        32     0     2     1     7
  2.0568304187528796E+00 a        33     0     2     1     8
 -2.6957110472732998E-01 a        34     0     2     1     9
  1.5473186870244073E+00 a        35     0     2     1    10
  2.7079557277949784E-01 a        36     0     2     1    11
 -4.2742214378546722E-01 a        37     0     2     1    12
  9.6871685357439319E-01 a        38     0     2     1    13
  8.7867961583637810E-01 a        39     0     2     1    14
 -1.3569600239610065E+00 a        40     0     2     1    15
 -1.5890479760089751E+00 a        41     0     2     1    16
  1.5338510668541774E-01 a        42     0     2     1    17
 -2.6023808879214991E+00 a        43     0     2     1    18
 -9.7400230737467719E-01 a        44     0     2     1    19
 -8.8740745156904277E-01 a        45     0     2     1    20
 -1.6441498408840594E+00 a        46     0     2     1    21
  1.2844049350419953E-01 a        47     0     2     1    22
  1.6941502670502512E-01 a        48     0     2     1    23
 -6.3214310506924931E-01 a        49     0     2     1    24
 -2.4943837148933332E-01 a        50     0     2     1    25
  1.5331921018011367E+00 a        51     0     3     1     1
 -1.2911211529972741E+00 a        52     0     3     1     2
  3.9762816386469608E+00 a        53     0     3     1     3
 -5.2054755584561887E+00 a        54     0     3     1     4
  7.5478080797350822E-01 a        55     0     3     1     5
  3.6356761092391654E-01 a        56     0     3     1     6
  6.0314235975326225E-01 a        57     0     3     1     7
  6.4721595579461626E+00 a        58     0     3     1     8
 -3.0340546892126385E-01 a        59     0     3     1     9
  1.2628013577926798E+00 a        60     0     3     1    10
  1.3215010599964569E-01 a        61     0     3     1    11
 -1.0332203550698520E+00 a        62     0     3     1    12
  3.0619682811928870E+00 a        63     0     3     1    13
  2.0201063260912377E+00 a        64     0     3     1    14
 -2.1894175111623371E+00 a        65     0     3     1    15
 -3.3423362300035331E+00 a        66     0     3     1    16
  3.3994487371332505E-01 a        67     0     3     1    17
 -9.5480169536331516E+00 a        68     0     3     1    18
 -1.1631003373643432E+00 a        69     0     3     1    19
 -3.9748038036928408E+00 a        70     0     3     1    20
 -5.6421204829630547E+00 a        71     0     3     1    21
  7.7182998415057147E-01 a        72     0     3     1    22
 -3.2845469410544531E-01 a        73     0     3     1    23
 -1.8962830630851379E+00 a        74     0     3     1    24
  2.6690717799290682E+00 a        75     0     3     1    25
 -1.8778863799965706E+00 a        76     0     4     1     1
 -7.0150071179715290E-01 a        77     0     4     1     2
  3.1102597341979243E+00 a        78     0     4     1     3
  4.6931594923852265E+00 a        79     0     4     1     4
 -2.1884124494610173E+00 a        80     0     4     1     5
 -1.0710661002630879E+00 a        81     0     4     1     6
  2.6068189528068513E+00 a        82     0     4     1     7
  2.7458040921051943E+00 a        83     0     4     1     8
  6.7032805052831312E-01 a        84     0     4     1     9
 -7.5192765940037409E-01 a        85     0     4     1    10
 -1.6017397497510848E-02 a        86     0     4     1    11
  1.5693050939346807E+00 a        87     0     4     1    12
 -1.2755026389729238E+00 a        88     0     4     1    13
 -2.0282481657486713E+00 a        89     0     4     1    14
 -9.1212387031728115E-01 a        90     0     4     1    15
 -1.4911263303162714E+00 a        91     0     4     1    16
  2.7898159241713345E+00 a        92     0     4     1    17
  9.7561695119185388E-01 a        93     0     4     1    18
  7.0891659954531461E-01 a        94     0     4     1    19
 -4.3088946951817917E+00 a        95     0     4     1    20
 -3.4914812533175863E+00 a        96     0     4     1    21
 -8.2333438626635480E-01 a        97     0     4     1    22
 -2.3885490496866266E+00 a        98     0     4     1    23
  6.3669343166941550E-01 a        99     0     4     1    24
  5.7407549769431796E+00 a       100     0     4     1    25
 -1.6112951568683831E+00 a       101     0     5     1     1
 -2.4034446991205800E+00 a       102     0     5     1     2
 -4.0368007410759459E+00 a       103     0     5     1     3
 -9.7686962350113049E-01 a       104     0     5     1     4
  2.4668119692169226E+00 a       105     0     5     1     5
  1.0110794176159077E+00 a       106     0     5     1     6
 -2.7815064615141064E-03 a       107     0     5     1     7
 -3.6432848511649989E+00 a       108     0     5     1     8
 -3.7865277476686476E-01 a       109     0     5     1     9
 -3.9747353811670055E-01 a       110     0     5     1    10
  1.3162477128327357E+00 a       111     0     5     1    11
 -7.7157319260685675E-01 a       112     0     5     1    12
 -1.0521125760356462E+00 a       113     0     5     1    13
  2.3236659244287226E+00 a       114     0     5     1    14
  2.9506806084675645E+00 a       115     0     5     1    15
  5.1135206778907962E+00 a       116     0     5     1    16
 -7.8314025917957331E-01 a       117     0     5     1    17
  4.9908959030023708E-01 a       118     0     5     1    18
  2.5074655439887219E+00 a       119     0     5     1    19
  3.4955198026817924E+00 a       120     0     5     1    20
  6.7344906366577986E+00 a       121     0     5     1    21
 -1.5099991435515567E+00 a       122     0     5     1    22
  1.6520032337403718E+00 a       123     0     5     1    23
 -6.4851625450303624E-02 a       124     0     5     1    24
 -2.8170332365635020E+00 a       125     0     5     1    25
  1.7396817669761284E+00 a       126     0     6     1     1
  1.6345390561226918E+00 a       127     0     6     1     2
  1.5583341521512966E+00 a       128     0     6     1     3
 -1.2277146450742686E+00 a       129     0     6     1     4
 -1.5593076466607054E+00 a       130     0     6     1     5
  1.4402614826681617E-01 a       131     0     6     1     6
 -1.9866843512233498E-01 a       132     0     6     1     7
  1.1595327697511479E+00 a       133     0     6     1     8
 -3.6073936745406110E-01 a       134     0     6     1     9
  6.9064471598261168E-01 a       135     0     6     1    10
 -2.6561017236472945E-01 a       136     0     6     1    11
 -7.5314162077091268E-02 a       137     0     6     1    12
  9.6235186703459707E-01 a       138     0     6     1    13
  1.4587143585486123E-01 a       139     0     6     1    14
 -7.5555583032378626E-01 a       140     0     6     1    15
 -2.0146518271324241E+00 a       141     0     6     1    16
  1.0417985702107209E-01 a       142     0     6     1    17
 -1.8794141731515895E-01 a       143     0     6     1    18
 -1.8492776159923257E+00 a       144     0     6     1    19
 -5.2464042276858198E-02 a       145     0     6     1    20
 -3.6392427738944537E+00 a       146     0     6     1    21
  1.4399725225625899E+00 a       147     0     6     1    22
 -5.4695447142434561E-01 a       148     0     6     1    23
 -1.2716365670757704E-01 a       149     0     6     1    24
  2.5909300546367103E-01 a       150     0     6     1    25
 -4.1068470057066386E-01 a       151     0     7     1     1
 -2.7513122380325106E-01 a       152     0     7     1     2
 -1.6166238920945197E-01 a       153     0     7     1     3
  3.7494484001969625E-01 a       154     0     7     1     4
 -5.2887941247848928E-03 a       155     0     7     1     5
 -2.7673666882456233E-01 a       156     0     7     1     6
 -1.5164362136932889E-02 a       157     0     7     1     7
 -1.7674697115192881E-01 a       158     0     7     1     8
  2.9585910584262444E-02 a       159     0     7     1     9
 -8.8027659008935305E-02 a       160     0     7     1    10
 -2.4988875311149858E-01 a       161     0     7     1    11
  2.8442097186393095E-01 a       162     0     7     1    12
 -1.1500458849363682E-01 a       163     0     7     1    13
 -2.8439937714817570E-01 a       164     0     7     1    14
  2.1373854038374673E-01 a       165     0     7     1    15
  3.5096197990103750E-01 a       166     0     7     1    16
  1.3240181840630891E-01 a       167     0     7     1    17
 -7.0242034928411079E-02 a       168     0     7     1    18
  2.2321836700721698E-01 a       169     0     7     1    19
 -2.2283606409663786E-01 a       170     0     7     1    20
  9.3507644112927102E-01 a       171     0     7     1    21
 -5.1243127390205534E-01 a       172     0     7     1    22
  1.0044832360617767E-01 a       173     0     7     1    23
  1.2498958889126965E-01 a       174     0     7     1    24
 -7.3533399822568093E-03 a       175     0     7     1    25
 -3.4222930232495376E-02 a       176     0     8     1     1
  3.3485362821745496E-02 a       177     0     8     1     2
 -8.5020832834859311E-02 a       178     0     8     1     3
  7.1438361143019671E-02 a       179     0     8     1     4
  1.4071653693283548E-01 a       180     0     8     1     5
  1.8633891489834259E-01 a       181     0     8     1     6
  7.2793456944644716E-02 a       182     0     8     1     7
 -7.6772461370854250E-02 a       183     0     8     1     8
  1.1754836932426829E-01 a       184     0     8     1     9
  4.8576675099407107E-02 a       185     0     8     1    10
  1.7007947362685882E-01 a       186     0     8     1    11
 -4.5296344528201013E-02 a       187     0     8     1    12
 -8.2446291230799634E-02 a       188     0     8     1    13
 -4.4189994802037889E-03 a       189     0     8     1    14
 -7.4200089813840589E-02 a       190     0     8     1    15
  3.2487485887281321E-02 a       191     0     8     1    16
 -5.6077884302594555E-02 a       192     0     8     1    17
  9.2297393522024887E-02 a       193     0     8     1    18
 -4.8341213532890840E-03 a       194     0     8     1    19
  7.8911455207556672E-02 a       195     0     8     1    20
  1.2983400064300033E-02 a       196     0     8     1    21
  7.6022546823181339E-02 a       197     0     8     1    22
 -4.9999989401182957E-02 a       198     0     8     1    23
 -1.3938685791026006E-01 a       199     0     8     1    24
 -4.5524607510359826E-02 a       200     0     8     1    25
 -1.1237508908228990E+00 a       201     0     9     1     1
 -1.4365308978085733E+00 a       202     0     9     1     2
 -1.8553013661947174E-01 a       203     0     9     1     3
  2.6269238514017617E+00 a       204     0     9     1     4
  4.3960952219640745E+00 a       205     0     9     1     5
 -1.1785543465580146E+00 a       206     0     9     1     6
 -5.1792834089439654E-01 a       207     0     9     1     7
 -4.9838461902523074E-01 a       208     0     9     1     8
  1.3256328309629353E-01 a       209     0     9     1     9
 -1.8003294775003880E+00 a       210     0     9     1    10
 -3.3567657463584029E+00 a       211     0     9     1    11
  2.1014743535915423E+00 a       212     0     9     1    12
 -2.6560962796706522E+00 a       213     0     9     1    13
  2.8049393804844507E+00 a       214     0     9     1    14
  4.9425771087748647E+00 a       215     0     9     1    15
  4.7257146298317920E+00 a       216     0     9     1    16
  1.6321672941413614E+00 a       217     0     9     1    17
  2.5924955211205414E+00 a       218     0     9     1    18
  2.4966293189323179E+00 a       219     0     9     1    19
 -1.6909736446849444E+00 a       220     0     9     1    20
  7.5530315386531761E+00 a       221     0     9     1    21
  4.4806810798722402E-01 a       222     0     9     1    22
  2.5660606133241783E+00 a       223     0     9     1    23
  4.4700466716999893E-01 a       224     0     9     1    24
  4.5611236352127813E+00 a       225     0     9     1    25
  1.3131089538626641E+00 a       226     0    10     1     1
 -2.0000725158015604E+00 a       227     0    10     1     2
  1.7707125717520393E+00 a       228     0    10     1     3
 -4.2679801718964816E+00 a       229     0    10     1     4
 -4.0311238811076572E-01 a       230     0    10     1     5
  7.9413757354269399E-01 a       231     0    10     1     6
  1.7215837961356906E+00 a       232     0    10     1     7
  3.7734715471278411E+00 a       233     0    10     1     8
 -1.0027214949992144E-02 a       234     0    10     1     9
 -2.0836915913927898E+00 a       235     0    10     1    10
  5.3807914382065403E-01 a       236     0    10     1    11
 -1.2975743538905202E+00 a       237     0    10     1    12
  1.3312650314917229E+00 a       238     0    10     1    13
  3.1728936524381566E+00 a       239     0    10     1    14
  4.0245807128423750E-01 a       240     0    10     1    15
 -1.0432099699716275E+00 a       241     0    10     1    16
 -9.3409608424223767E-01 a       242     0    10     1    17
 -6.2679874231679147E+00 a       243     0    10     1    18
 -5.9633768144330679E-01 a       244     0    10     1    19
 -2.2808020861032992E+00 a       245     0    10     1    20
 -3.3134361636625078E+00 a       246     0    10     1    21
  9.1678748664712562E-01 a       247     0    10     1    22
 -1.2168405250579584E+00 a       248     0    10     1    23
 -1.7810953970159480E+00 a       249     0    10     1    24
  8.8259812199987042E-01 a       250     0    10     1    25
  5.3574939927818865E-01 a       251     0    11     1     1
  8.3194617252523195E-01 a       252     0    11     1     2
 -1.6419632501971890E+00 a       253     0    11     1     3
  1.6674862169674034E+00 a       254     0    11     1     4
 -4.4939210585779614E+00 a       255     0    11     1     5
  2.4045781505375001E+00 a       256     0    11     1     6
  1.6211439579436249E+00 a       257     0    11     1     7
 -3.6549960694648291E+00 a       258     0    11     1     8
 -4.0673834443849199E-01 a       259     0    11     1     9
 -1.0968744312831018E+00 a       260     0    11     1    10
  5.0372287182819093E+00 a       261     0    11     1    11
 -4.9890545032976541E-01 a       262     0    11     1    12
  3.8046719000987389E-01 a       263     0    11     1    13
 -3.3419614599578491E+00 a       264     0    11     1    14
 -3.6606331331635249E+00 a       265     0    11     1    15
 -2.8503054183815557E+00 a       266     0    11     1    16
 -3.1418855604883613E+00 a       267     0    11     1    17
  5.0121424526069678E+00 a       268     0    11     1    18
 -1.7009499092405893E+00 a       269     0    11     1    19
  3.2256078965765766E+00 a       270     0    11     1    20
 -4.0184171472220180E+00 a       271     0    11     1    21
  5.3355808362897404E-02 a       272     0    11     1    22
 -2.8533496572535273E+00 a       273     0    11     1    23
  1.5492752069499724E+00 a       274     0    11     1    24
 -5.6858305941564362E+00 a       275     0    11     1    25
 -5.0876183406299722E+00 a       276     0    12     1     1
  1.8285327104258819E+00 a       277     0    12     1     2
 -6.1664879825505210E+00 a       278     0    12     1     3
 -1.8311458584145988E+00 a       279     0    12     1     4
 -3.7573624367837346E+00 a       280     0    12     1     5
 -1.3016813889674148E-01 a       281     0    12     1     6
  4.3441856357077102E-01 a       282     0    12     1     7
 -9.6967334456138019E+00 a       283     0    12     1     8
 -9.2469817153783135E-02 a       284     0    12     1     9
  2.5107992695122903E+00 a       285     0    12     1    10
  1.4081803214961588E+00 a       286     0    12     1    11
 -1.2191535973778826E+00 a       287     0    12     1    12
 -3.0250696687261187E+00 a       288     0    12     1    13
 -3.5813087129079482E+00 a       289     0    12     1    14
 -2.0810498258026318E+00 a       290     0    12     1    15
  4.1993422011484782E-01 a       291     0    12     1    16
  2.3872545456657885E+00 a       292     0    12     1    17
 -1.6437135290343350E+00 a       293     0    12     1    18
  6.6210033415614183E-02 a       294     0    12     1    19
  6.6730865644216530E+00 a       295     0    12     1    20
 -1.0212721972175212E+00 a       296     0    12     1    21
 -4.6407185930199493E+00 a       297     0    12     1    22
 -5.2338288526123593E+00 a       298     0    12     1    23
  1.1502111661452763E+00 a       299     0    12     1    24
 -6.2238026134165692E+00 a       300     0    12     1    25
 -9.8110686748593509E-02 a       301     0    13     1     1
  7.1428967750635852E-01 a       302     0    13     1     2
  7.5762807802694043E-01 a       303     0    13     1     3
  1.0390286049746347E+00 a       304     0    13     1     4
 -1.8856125606459602E+00 a       305     0    13     1     5
 -1.9240883740131607E+00 a       306     0    13     1     6
  8.8221185429445348E-01 a       307     0    13     1     7
  2.6791642791718004E+00 a       308     0    13     1     8
  1.2330765121654725E+00 a       309     0    13     1     9
  2.0907926392835310E+00 a       310     0    13     1    10
 -3.6872153644022870E-01 a       311     0    13     1    11
  9.0932972787686239E-01 a       312     0    13     1    12
  8.9782024302089602E-01 a       313     0    13     1    13
 -4.7114452642211979E-01 a       314     0    13     1    14
 -1.8783319305007564E+00 a       315     0    13     1    15
  1.2649313036473127E+00 a       316     0    13     1    16
  4.7944014812195210E-03 a       317     0    13     1    17
  1.8749582472722021E-01 a       318     0    13     1    18
 -6.2925302121829885E-01 a       319     0    13     1    19
 -1.2575054740409910E+00 a       320     0    13     1    20
 -1.4450096548764100E+00 a       321     0    13     1    21
  1.4153120543648956E-01 a       322     0    13     1    22
  7.4881602686808668E-01 a       323     0    13     1    23
  5.7366255505592068E-01 a       324     0    13     1    24
  1.8461184596728650E+00 a       325     0    13     1    25
  4.2423070614974545E+00 a       326     0    14     1     1
 -1.0866057083044898E+00 a       327     0    14     1     2
  7.2805340175916813E+00 a       328     0    14     1     3
  3.9809177596563217E+00 a       329     0    14     1     4
 -5.3500343111937115E-03 a       330     0    14     1     5
 -3.4929300623611406E+00 a       331     0    14     1     6
  2.4813959355277952E+00 a       332     0    14     1     7
  1.5111831296030006E+01 a       333     0    14     1     8
  2.0252444456101912E+00 a       334     0    14     1     9
  1.6947415872766311E-01 a       335     0    14     1    10
 -3.4205972469393906E+00 a       336     0    14     1    11
  1.6775549377031709E+00 a       337     0    14     1    12
  6.5160677654594812E+00 a       338     0    14     1    13
  2.8761631027093291E+00 a       339     0    14     1    14
 -5.7612582886321073E-01 a       340     0    14     1    15
  1.1442300638588101E+00 a       341     0    14     1    16
 -2.0671813722387160E+00 a       342     0    14     1    17
 -1.2096483515723538E-01 a       343     0    14     1    18
 -1.1232718532758470E+00 a       344     0    14     1    19
 -9.1771808837201032E+00 a       345     0    14     1    20
 -3.1919994748252329E+00 a       346     0    14     1    21
  5.3361779378142593E+00 a       347     0    14     1    22
  4.6221811072546073E+00 a       348     0    14     1    23
 -2.1594312509623776E+00 a       349     0    14     1    24
  8.1496792658602288E+00 a       350     0    14     1    25
 -5.8123456389451604E+00 a       351     0    15     1     1
 -1.5798463826112541E+00 a       352     0    15     1     2
  1.1314733849398655E+00 a       353     0    15     1     3
  7.2486289011035276E-01 a       354     0    15     1     4
 -7.9957608870245112E-01 a       355     0    15     1     5
  5.1134720787159060E-01 a       356     0    15     1     6
 -6.1518982293471467E+00 a       357     0    15     1     7
 -5.6482101700674923E+00 a       358     0    15     1     8
  2.3774362017580914E+00 a       359     0    15     1     9
 -1.0224051401962270E-01 a       360     0    15     1    10
  3.7009886799244454E+00 a       361     0    15     1    11
  1.5951368243877662E+00 a       362     0    15     1    12
 -3.7228985881774346E+00 a       363     0    15     1    13
 -3.4538235419564662E+00 a       364     0    15     1    14
  4.2514844962413818E+00 a       365     0    15     1    15
  8.3129996958467589E-01 a       366     0    15     1    16
  3.7177140272937859E+00 a       367     0    15     1    17
 -1.8190701735322103E+00 a       368     0    15     1    18
  1.1890182967735099E+00 a       369     0    15     1    19
  5.9171648761544891E+00 a       370     0    15     1    20
 -7.4039275342748245E-01 a       371     0    15     1    21
 -3.3588358365699853E+00 a       372     0    15     1    22
  4.0511116086168855E+00 a       373     0    15     1    23
 -1.4816106450010080E-01 a       374     0    15     1    24
  5.2630334853330831E+00 a       375     0    15     1    25
  3.6621189173259866E-01 a       376     0    16     1     1
  1.6530064985804704E-01 a       377     0    16     1     2
  7.2503123232368683E-01 a       378     0    16     1     3
 -2.6066819065300066E+00 a       379     0    16     1     4
 -2.4335109383360418E-01 a       380     0    16     1     5
 -3.2510809838018961E-01 a       381     0    16     1     6
 -1.5746112248134361E-01 a       382     0    16     1     7
  2.4154108319903602E+00 a       383     0    16     1     8
 -7.1512979340595237E-02 a       384     0    16     1     9
 -4.9423414447340797E-01 a       385     0    16     1    10
 -1.3220567122511766E+00 a       386     0    16     1    11
 -1.0815309815171745E+00 a       387     0    16     1    12
  1.2858998656046630E+00 a       388     0    16     1    13
  3.6324852065318575E-01 a       389     0    16     1    14
  2.1227785855867848E-01 a       390     0    16     1    15
 -9.8561693463713029E-01 a       391     0    16     1    16
  1.1391180518312982E-01 a       392     0    16     1    17
 -4.5572177830880021E+00 a       393     0    16     1    18
 -8.1868590484177151E-01 a       394     0    16     1    19
 -8.1822980445129179E-01 a       395     0    16     1    20
 -2.1090574254317223E+00 a       396     0    16     1    21
 -9.3643055223518401E-02 a       397     0    16     1    22
 -3.0906991804220102E-01 a       398     0    16     1    23
 -1.6535804944686372E+00 a       399     0    16     1    24
  3.3733449898016893E-01 a       400     0    16     1    25
  4.9435214636572047E+00 a       401     0    17     1     1
  3.4151954400380333E+00 a       402     0    17     1     2
 -1.9662870452941024E+00 a       403     0    17     1     3
  1.9976498813841834E+00 a       404     0    17     1     4
  2.8475703489573623E-01 a       405     0    17     1     5
 -1.5325546813900721E+00 a       406     0    17     1     6
  3.5182488840989659E+00 a       407     0    17     1     7
  2.5111732162874834E+00 a       408     0    17     1     8
 -1.5614256588457613E+00 a       409     0    17     1     9
  2.0408480519430934E+00 a       410     0    17     1    10
 -4.7617861065291098E+00 a       411     0    17     1    11
 -1.0475722192883976E+00 a       412     0    17     1    12
  2.4621607818155411E+00 a       413     0    17     1    13
  2.3965025205585305E-01 a       414     0    17     1    14
 -4.0209923112218853E+00 a       415     0    17     1    15
 -8.8794597118060603E-01 a       416     0    17     1    16
 -2.6617813064466436E+00 a       417     0    17     1    17
  5.6834595726450319E+00 a       418     0    17     1    18
 -9.7034745296649039E-01 a       419     0    17     1    19
 -4.4876561602076022E+00 a       420     0    17     1    20
  2.8738833475417831E+00 a       421     0    17     1    21
  2.9235223874639331E+00 a       422     0    17     1    22
 -1.9406073044253398E+00 a       423     0    17     1    23
  1.4460592109690855E+00 a       424     0    17     1    24
 -5.3450855523908594E+00 a       425     0    17     1    25
  9.0466500532479843E-01 a       426     0    18     1     1
  3.9473795767559912E+00 a       427     0    18     1     2
 -1.3248963123035427E+00 a       428     0    18     1     3
  1.8122847866454117E+00 a       429     0    18     1     4
  2.0549781913444889E+00 a       430     0    18     1     5
  2.4502459433896311E+00 a       431     0    18     1     6
  3.7472872492331359E+00 a       432     0    18     1     7
  1.5135616034856376E+00 a       433     0    18     1     8
 -4.8074407279969416E+00 a       434     0    18     1     9
 -1.4826368546988622E+00 a       435     0    18     1    10
 -8.8032484801796129E-01 a       436     0    18     1    11
 -2.4353965571324219E+00 a       437     0    18     1    12
 -4.4332120311229212E-01 a       438     0    18     1    13
 -1.6694064331670313E+00 a       439     0    18     1    14
  1.6608465605433542E+00 a       440     0    18     1    15
 -7.2511416869899181E-01 a       441     0    18     1    16
  3.6882519719988288E-01 a       442     0    18     1    17
  9.5683878589187010E+00 a       443     0    18     1    18
 -1.7110534010891076E+00 a       444     0    18     1    19
 -2.2617694431890980E+00 a       445     0    18     1    20
  4.1984178703154429E+00 a       446     0    18     1    21
  5.1251316181914486E-01 a       447     0    18     1    22
 -2.5808226959999354E+00 a       448     0    18     1    23
 -2.9635488372768686E+00 a       449     0    18     1    24
  6.5137527501421788E-01 a       450     0    18     1    25
 -1.5701215769520063E-01 a       451     0    19     1     1
 -7.2146108989956981E-01 a       452     0    19     1     2
 -4.1270455490178060E-01 a       453     0    19     1     3
 -2.5871156961480142E+00 a       454     0    19     1     4
  1.9545394869668029E+00 a       455     0    19     1     5
  2.5822558150314094E+00 a       456     0    19     1     6
 -8.1633854850464505E-01 a       457     0    19     1     7
 -3.4554953981027756E+00 a       458     0    19     1     8
 -1.1577544748242261E+00 a       459     0    19     1     9
 -2.8473340856464748E+00 a       460     0    19     1    10
  7.9891072087451387E-01 a       461     0    19     1    11
 -3.4908022710352804E-01 a       462     0    19     1    12
 -1.7822435243193933E+00 a       463     0    19     1    13
  5.2297163531057922E-01 a       464     0    19     1    14
  2.6074580129168496E+00 a       465     0    19     1    15
 -9.2844595888122861E-01 a       466     0    19     1    16
 -2.5311390288114155E-01 a       467     0    19     1    17
 -1.0705904191463804E-01 a       468     0    19     1    18
  7.8592851146565912E-01 a       469     0    19     1    19
  1.4898443747331349E+00 a       470     0    19     1    20
  2.5972152975778839E+00 a       471     0    19     1    21
  2.0910898156159630E-01 a       472     0    19     1    22
 -2.4088634108525775E-01 a       473     0    19     1    23
  1.9393352812016174E-01 a       474     0    19     1    24
 -1.5188024820997224E+00 a       475     0    19     1    25
 -8.4360266843013254E-01 a       476     0    20     1     1
 -5.4884433247138951E+00 a       477     0    20     1     2
  2.0332912506546150E-01 a       478     0    20     1     3
 -4.0930354053217730E+00 a       479     0    20     1     4
  2.0586282005999039E+00 a       480     0    20     1     5
  2.6895193420306214E+00 a       481     0    20     1     6
 -6.8632805809406463E+00 a       482     0    20     1     7
 -1.0752556676488448E+01 a       483     0    20     1     8
  2.8102354103561051E+00 a       484     0    20     1     9
 -2.7333109128197046E+00 a       485     0    20     1    10
  2.3229506533617483E+00 a       486     0    20     1    11
  1.8842004901207410E+00 a       487     0    20     1    12
 -4.0317861021597450E+00 a       488     0    20     1    13
  6.0967372335035208E-01 a       489     0    20     1    14
  3.5995596146758460E+00 a       490     0    20     1    15
 -6.5022551697974751E-01 a       491     0    20     1    16
 -9.7835245931285075E-01 a       492     0    20     1    17
 -6.5226039862011271E+00 a       493     0    20     1    18
  3.8519263077900754E+00 a       494     0    20     1    19
  6.5926823250248390E+00 a       495     0    20     1    20
  1.3584783188408094E+00 a       496     0    20     1    21
 -2.1539450053220813E-01 a       497     0    20     1    22
  1.6359489901585298E+00 a       498     0    20     1    23
  3.5671610469035411E+00 a       499     0    20     1    24
 -2.7696975828937025E+00 a       500     0    20     1    25
 -6.4100358928502894E+00 a       501     0    21     1     1
  2.8278050523807079E+00 a       502     0    21     1     2
 -3.6118132864925836E+00 a       503     0    21     1     3
 -6.2857218364172518E-01 a       504     0    21     1     4
  3.1680923987663268E+00 a       505     0    21     1     5
  1.0564510005399392E+00 a       506     0    21     1     6
 -3.4580086347074612E+00 a       507     0    21     1     7
 -1.8153872649237960E-02 a       508     0    21     1     8
 -5.8835217691578146E-01 a       509     0    21     1     9
  4.3783267866618507E+00 a       510     0    21     1    10
  6.7488962468516016E+00 a       511     0    21     1    11
 -2.6022390223577760E+00 a       512     0    21     1    12
  3.0323152850835364E+00 a       513     0    21     1    13
  7.7693429505245319E+00 a       514     0    21     1    14
  3.2536837619829226E+00 a       515     0    21     1    15
  5.0767922189079240E-01 a       516     0    21     1    16
  2.1451337899363046E-01 a       517     0    21     1    17
  1.3619060377741746E-01 a       518     0    21     1    18
  2.7377180238299434E+00 a       519     0    21     1    19
  1.8791893088694558E+00 a       520     0    21     1    20
  5.3979932929802921E+00 a       521     0    21     1    21
 -3.1620457613694071E+00 a       522     0    21     1    22
  4.8696649435040245E+00 a       523     0    21     1    23
  3.1350004647110103E+00 a       524     0    21     1    24
 -2.6161141057372657E+00 a       525     0    21     1    25
  6.4110720869887072E-01 a       526     0    22     1     1
 -2.3877267930539270E-01 a       527     0    22     1     2
  8.9297903414025415E-01 a       528     0    22     1     3
 -2.7030091659482465E+00 a       529     0    22     1     4
 -9.7812088702850186E-02 a       530     0    22     1     5
 -1.2423676150532830E+00 a       531     0    22     1     6
  1.2915018014431070E+00 a       532     0    22     1     7
  3.5675782814187538E+00 a       533     0    22     1     8
  7.2264407347091289E-02 a       534     0    22     1     9
  1.4625520397054595E-01 a       535     0    22     1    10
 -3.2963111582727062E-01 a       536     0    22     1    11
 -1.2233190698701712E+00 a       537     0    22     1    12
  1.6077331471424776E+00 a       538     0    22     1    13
  2.6053990260872157E+00 a       539     0    22     1    14
 -1.0091313915734503E+00 a       540     0    22     1    15
 -5.3199129915513710E-01 a       541     0    22     1    16
 -1.4564443768225777E-01 a       542     0    22     1    17
 -5.5288324748633197E+00 a       543     0    22     1    18
 -7.5903375353559288E-01 a       544     0    22     1    19
 -1.6483952100448815E+00 a       545     0    22     1    20
 -2.3886958513804095E+00 a       546     0    22     1    21
 -2.4359803449103309E-01 a       547     0    22     1    22
 -4.1400572588905199E-01 a       548     0    22     1    23
 -9.0746628194392520E-01 a       549     0    22     1    24
 -1.1317774422682311E-01 a       550     0    22     1    25
  5.6312198190696616E+00 a       551     0    23     1     1
 -1.5357257508691555E+00 a       552     0    23     1     2
  2.2261965389063358E+00 a       553     0    23     1     3
  4.7371036270226297E+00 a       554     0    23     1     4
 -4.1232088163738769E+00 a       555     0    23     1     5
 -2.6814468929809325E+00 a       556     0    23     1     6
  3.1269473877657203E+00 a       557     0    23     1     7
  1.5223731810926462E+00 a       558     0    23     1     8
  1.4909083206239200E+00 a       559     0    23     1     9
 -1.8665510201282278E+00 a       560     0    23     1    10
 -6.7156975015238665E+00 a       561     0    23     1    11
  3.2353312456925023E+00 a       562     0    23     1    12
 -2.0444043925353572E+00 a       563     0    23     1    13
 -9.2636488868995528E+00 a       564     0    23     1    14
 -5.8810596436805618E+00 a       565     0    23     1    15
  1.3445408069207515E-01 a       566     0    23     1    16
 -4.6089363843434644E-01 a       567     0    23     1    17
  3.7793424233468333E+00 a       568     0    23     1    18
 -3.1383707885199752E+00 a       569     0    23     1    19
 -2.0060985605400705E+00 a       570     0    23     1    20
 -6.1201300898138440E+00 a       571     0    23     1    21
  2.2212701743254595E+00 a       572     0    23     1    22
 -3.6925052582036919E+00 a       573     0    23     1    23
 -2.4510762489313285E+00 a       574     0    23     1    24
  3.2357995114153471E+00 a       575     0    23     1    25
 -1.4500604857811590E+00 a       576     0    24     1     1
  6.0502286694842877E-01 a       577     0    24     1     2
 -7.7264336814530177E-01 a       578     0    24     1     3
  2.3837111629712626E+00 a       579     0    24     1     4
  3.8113429115173485E+00 a       580     0    24     1     5
  1.3897914157429905E+00 a       581     0    24     1     6
 -1.8968800462540147E+00 a       582     0    24     1     7
 -2.0164944553094133E-01 a       583     0    24     1     8
  2.8051836633870845E-02 a       584     0    24     1     9
  2.2092725802675051E+00 a       585     0    24     1    10
 -6.4415988874086794E-01 a       586     0    24     1    11
  2.5458239079022271E+00 a       587     0    24     1    12
  1.1706845350850263E+00 a       588     0    24     1    13
 -6.1632656721516899E-01 a       589     0    24     1    14
  1.3198997265096676E-01 a       590     0    24     1    15
 -1.9726553079150726E+00 a       591     0    24     1    16
  1.3124634350707025E+00 a       592     0    24     1    17
 -6.4000862900119493E-01 a       593     0    24     1    18
  2.8462653057641809E+00 a       594     0    24     1    19
 -1.8966923056522740E+00 a       595     0    24     1    20
 -1.6297265436713779E-01 a       596     0    24     1    21
 -8.8451150965018266E-02 a       597     0    24     1    22
 -2.1337928571245279E-01 a       598     0    24     1    23
  3.3656737194193365E-01 a       599     0    24     1    24
  4.0044707665570911E+00 a       600     0    24     1    25
  1.7571335152909597E+00 a       601     0    25     1     1
 -1.4939054144134156E+00 a       602     0    25     1     2
  1.6559776322671351E+00 a       603     0    25     1     3
 -3.9143009724153206E+00 a       604     0    25     1     4
 -5.2134230184717438E+00 a       605     0    25     1     5
 -2.2008100786563896E+00 a       606     0    25     1     6
  3.6053727185100142E+00 a       607     0    25     1     7
  5.6589519260171606E-01 a       608     0    25     1     8
  7.8427845558195164E-01 a       609     0    25     1     9
 -3.4159841746166215E+00 a       610     0    25     1    10
  2.2504311188880508E+00 a       611     0    25     1    11
 -4.1280302376611688E+00 a       612     0    25     1    12
 -2.4801967073697400E+00 a       613     0    25     1    13
  1.3293684686173377E+00 a       614     0    25     1    14
 -1.0101216957657557E+00 a       615     0    25     1    15
  4.3617886067497151E+00 a       616     0    25     1    16
 -2.6577576729433496E+00 a       617     0    25     1    17
  1.2457683575447320E+00 a       618     0    25     1    18
 -4.6360766169041892E+00 a       619     0    25     1    19
  3.2921602115851041E+00 a       620     0    25     1    20
  6.2380457701338365E-01 a       621     0    25     1    21
 -2.1552464685045753E-02 a       622     0    25     1    22
 -1.0644367864039488E-01 a       623     0    25     1    23
 -5.3959524629177569E-01 a       624     0    25     1    24
 -7.1183972194630210E+00 a       625     0    25     1    25
 -4.5758214475740894E-01 a       626     0    26     1     1
  8.6681442509544049E-01 a       627     0    26     1     2
 -9.2752306472754409E-01 a       628     0    26     1     3
  1.6459936252755545E+00 a       629     0    26     1     4
  1.7186808572805852E+00 a       630     0    26     1     5
  9.4376872497794673E-01 a       631     0    26     1     6
 -1.7448918376014000E+00 a       632     0    26     1     7
 -3.2336487388503604E-01 a       633     0    26     1     8
 -7.4877862446863164E-01 a       634     0    26     1     9
  1.2094796305404059E+00 a       635     0    26     1    10
 -1.5114455520052761E+00 a       636     0    26     1    11
  1.6965468323188082E+00 a       637     0    26     1    12
  1.2250662423630774E+00 a       638     0    26     1    13
 -6.9498484625437962E-01 a       639     0    26     1    14
  7.9866035769381016E-01 a       640     0    26     1    15
 -2.3562269959218121E+00 a       641     0    26     1    16
  1.3536502410472697E+00 a       642     0    26     1    17
 -6.0487532718693116E-01 a       643     0    26     1    18
  1.9962975509002612E+00 a       644     0    26     1    19
 -1.4574333488432805E+00 a       645     0    26     1    20
 -4.6789431087149641E-01 a       646     0    26     1    21
  1.1163246274251423E-01 a       647     0    26     1    22
  2.9041007824648668E-01 a       648     0    26     1    23
  1.9087039321553190E-01 a       649     0    26     1    24
  3.1684286675176541E+00 a       650     0    26     1    25
 -4.5436192788029302E-02 b       651     1     1
 -3.4166074607999858E-01 b       652     1     2
  1.8756353774859946E-01 b       653     1     3
 -9.9375217513315156E-02 b       654     1     4
 -1.0609252713415876E-01 b       655     1     5
  8.4586265689456652E-02 b       656     1     6
 -7.4381816219292893E-02 b       657     1     7
  1.9092389908243787E-02 b       658     1     8
  2.6719240182032122E-01 b       659     1     9
 -1.5319192813717103E-01 b       660     1    10
  2.1893445746584996E-02 b       661     1    11
  6.3718955591642701E-02 b       662     1    12
  1.9378624512763815E-01 b       663     1    13
  3.3696538982761925E-01 b       664     1    14
  2.3934068537469916E-01 b       665     1    15
  1.8921700358312440E-01 b       666     1    16
 -3.9511902760170442E-01 b       667     1    17
 -4.0347155128832574E-01 b       668     1    18
 -1.2018433134754168E-01 b       669     1    19
  2.8278882232926728E-01 b       670     1    20
  2.4682404357489030E-01 b       671     1    21
  1.0057848228559904E-01 b       672     1    22
 -1.0360508845408951E-01 b       673     1    23
 -6.0621340680465638E-02 b       674     1    24
 -1.9474819295955978E-01 b       675     1    25
 -1.3155528384044610E-01 a       676     1     1     2     1
  1.1217862483220563E-01 a       677     1     1     2     2
  7.2112670520994349E-02 a       678     1     1     2     3
 -2.7968880361800480E-01 a       679     1     1     2     4
 -1.1836891440982801E-01 a       680     1     1     2     5
 -1.8119233566029117E-01 a       681     1     1     2     6
  8.0402072826241644E-01 a       682     1     1     2     7
 -1.3180856458307991E-01 a       683     1     1     2     8
  6.1952613043552096E-01 a       684     1     1     2     9
  1.8729317540195927E+00 a       685     1     1     2    10
  1.8539549784997955E-01 a       686     1     1     2    11
 -1.8445314023185294E-01 a       687     1     1     2    12
  7.9937002153086434E-01 a       688     1     1     2    13
  2.7360157384900614E-02 a       689     1     1     2    14
  4.7055314502925200E-01 a       690     1     1     2    15
 -1.3610272649933788E-01 a       691     1     1     2    16
  8.5211087289532028E-02 a       692     1     1     2    17
 -2.5066132423488326E-02 a       693     1     1     2    18
 -6.2562530482254985E-01 a       694     1     1     2    19
  5.4751526394956074E-01 a       695     1     1     2    20
  1.6623845139780530E-01 a       696     1     1     2    21
  2.8543700329618410E-01 a       697     1     1     2    22
 -3.2026397802460871E-01 a       698     1     1     2    23
  4.0486867226340767E-01 a       699     1     1     2    24
 -1.1586944726060039E-01 a       700     1     1     2    25
  6.1057616839744422E-01 a       701     1     2     2     1
  7.0938595971072671E-01 a       702     1     2     2     2
 -2.4218244395753144E-01 a       703     1     2     2     3
 -1.6845826953951834E-01 a       704     1     2     2     4
  5.1918321728402363E-02 a       705     1     2     2     5
 -5.0642674317646974E-01 a       706     1     2     2     6
  1.0400978793763203E+00 a       707     1     2     2     7
  6.9576695757450024E-01 a       708     1     2     2     8
  1.0382800233754214E-01 a       709     1     2     2     9
 -6.7573361060415360E-01 a       710     1     2     2    10
  1.8334795657444258E-01 a       711     1     2     2    11
  1.1978159486273217E+00 a       712     1     2     2    12
 -4.1933224789683116E-01 a       713     1     2     2    13
 -1.5177222850221128E-01 a       714     1     2     2    14
  1.9115607662483441E-01 a       715     1     2     2    15
 -1.4931819110945863E-01 a       716     1     2     2    16
  4.5680937712009967E-01 a       717     1     2     2    17
  2.1490489855561037E-01 a       718     1     2     2    18
  5.4360045346686892E-01 a       719     1     2     2    19
  3.8957177952707395E-01 a       720     1     2     2    20
 -1.2989021993794267E-02 a       721     1     2     2    21
 -2.5849514187730227E-01 a       722     1     2     2    22
 -1.3220364000979049E-01 a       723     1     2     2    23
  1.3856558797880134E-01 a       724     1     2     2    24
 -2.4124117614354779E-01 a       725     1     2     2    25
 -2.4160734231272560E-01 a       726     1     3     2     1
 -4.2453186598472020E-01 a       727     1     3     2     2
 -4.1021615192228644E-01 a       728     1     3     2     3
 -1.7688537668347418E-01 a       729     1     3     2     4
  1.9304221054750317E-01 a       730     1     3     2     5
  9.3157713947515361E-02 a       731     1     3     2     6
 -9.6421141234658458E-01 a       732     1     3     2     7
 -2.3082251140087859E-01 a       733     1     3     2     8
 -1.4160603191548671E-01 a       734     1     3     2     9
 -5.8908214150007465E-01 a       735     1     3     2    10
 -9.3361459462504903E-02 a       736     1     3     2    11
  1.6853615860363796E-01 a       737     1     3     2    12
 -1.5539060698838767E+00 a       738     1     3     2    13
 -5.2975756574336863E-01 a       739     1     3     2    14
  4.3615851035857617E-01 a       740     1     3     2    15
 -2.9459081124516440E-01 a       741     1     3     2    16
  1.5886467832002943E-01 a       742     1     3     2    17
 -6.0536429043916144E-02 a       743     1     3     2    18
  4.5114644321286557E-01 a       744     1     3     2    19
 -1.9667587619557853E-01 a       745     1     3     2    20
 -3.2634374703227775E-01 a       746     1     3     2    21
  1.1935668965562218E-01 a       747     1     3     2    22
  3.4414246480337196E-01 a       748     1     3     2    23
 -1.0768883566702601E-01 a       749     1     3     2    24
 -1.1636321910707846E-02 a       750     1     3     2    25
 -2.5914416195549317E-01 a       751     1     4     2     1
  2.3271394438967277E-01 a       752     1     4     2     2
  2.8546375991506351E-01 a       753     1     4     2     3
 -2.6776968222086051E-01 a       754     1     4     2     4
 -7.4337175582450829E-02 a       755     1     4     2     5
 -3.8802427609145396E-01 a       756     1     4     2     6
  4.3237951000067838E-02 a       757     1     4     2     7
  2.0370378832216648E-01 a       758     1     4     2     8
 -2.2116698369777177E-01 a       759     1     4     2     9
  7.2604779790084195E-01 a       760     1     4     2    10
  3.6107797443711126E-01 a       761     1     4     2    11
 -8.2858148183267111E-01 a       762     1     4     2    12
 -8.5041223969846702E-01 a       763     1     4     2    13
  1.6080236693215602E-01 a       764     1     4     2    14
  3.0363627338542371E-01 a       765     1     4     2    15
  9.4470002804132609E-03 a       766     1     4     2    16
 -1.4441894535138738E-01 a       767     1     4     2    17
 -4.3622601746054568E-01 a       768     1     4     2    18
 -1.8452498140157947E-01 a       769     1     4     2    19
  4.3541947824154414E-01 a       770     1     4     2    20
  1.8175521424981789E-01 a       771     1     4     2    21
 -1.7584087699381734E-01 a       772     1     4     2    22
 -4.9438261263647515E-01 a       773     1     4     2    23
  1.5395439709836986E-01 a       774     1     4     2    24
 -7.7869234578563140E-01 a       775     1     4     2    25
 -9.1440464624097351E-01 a       776     1     5     2     1
 -5.1966569244718364E-01 a       777     1     5     2     2
  1.2259669738992389E+00 a       778     1     5     2     3
  4.6272556416403826E-01 a       779     1     5     2     4
 -2.9363578086496267E-01 a       780     1     5     2     5
  1.0750152285287982E-01 a       781     1     5     2     6
 -5.5113627902340145E-01 a       782     1     5     2     7
 -2.2966833540335960E-01 a       783     1     5     2     8
 -3.9224215472231566E-01 a       784     1     5     2     9
  9.5598737115538823E-01 a       785     1     5     2    10
  6.5994480319044968E-01 a       786     1     5     2    11
  4.7982477682066366E-01 a       787     1     5     2    12
 -1.1131548762942478E-01 a       788     1     5     2    13
 -4.1979242722399757E-01 a       789     1     5     2    14
  7.8222705787558577E-02 a       790     1     5     2    15
  9.8912966795474999E-01 a       791     1     5     2    16
 -4.4915551615799632E-01 a       792     1     5     2    17
  2.1012877085930032E-01 a       793     1     5     2    18
 -4.9058978172717627E-01 a       794     1     5     2    19
  3.2880249275307444E-01 a       795     1     5     2    20
 -3.7408708428277754E-01 a       796     1     5     2    21
 -3.2215465742627747E-01 a       797     1     5     2    22
 -6.2312704335198943E-01 a       798     1     5     2    23
 -2.1416403329910680E-01 a       799     1     5     2    24
  6.5828062566449763E-01 a       800     1     5     2    25
  1.6940662220467589E-01 a       801     1     6     2     1
  2.2165833960766160E-01 a       802     1     6     2     2
  3.2792158514108949E-01 a       803     1     6     2     3
  1.4095821746318959E-01 a       804     1     6     2     4
  1.5643283840643329E-01 a       805     1     6     2     5
 -3.4231691794042962E-01 a       806     1     6     2     6
  2.5492779238761687E-01 a       807     1     6     2     7
 -2.8548252562344045E-01 a       808     1     6     2     8
 -2.2177862539511889E-01 a       809     1     6     2     9
 -2.6292034782227236E-01 a       810     1     6     2    10
  4.7999564312653464E-01 a       811     1     6     2    11
 -2.2320415921772205E-01 a       812     1     6     2    12
 -6.6324791490777787E-02 a       813     1     6     2    13
  4.6146741994644408E-01 a       814     1     6     2    14
 -4.4140332873772947E-02 a       815     1     6     2    15
 -1.0806037575524316E-01 a       816     1     6     2    16
  1.7517843857385615E-01 a       817     1     6     2    17
 -4.1373564276648173E-01 a       818     1     6     2    18
 -3.7261294066626566E-01 a       819     1     6     2    19
  1.6443605984232387E-01 a       820     1     6     2    20
 -7.3164416159837098E-02 a       821     1     6     2    21
 -1.5057099111489497E-01 a       822     1     6     2    22
  2.2400838905888187E-01 a       823     1     6     2    23
 -5.1340299645308542E-02 a       824     1     6     2    24
 -4.1154415644711606E-01 a       825     1     6     2    25
 -3.2904783814287752E-01 a       826     1     7     2     1
  6.1971693711298725E-01 a       827     1     7     2     2
  2.1330288080765239E-01 a       828     1     7     2     3
  1.4511878522837060E-01 a       829     1     7     2     4
 -3.5790568240567727E-01 a       830     1     7     2     5
  4.6879259823643427E-01 a       831     1     7     2     6
  3.9626839236164552E-01 a       832     1     7     2     7
  2.0147457355636200E-01 a       833     1     7     2     8
  3.1886616168579890E-01 a       834     1     7     2     9
 -3.4637847798597571E-01 a       835     1     7     2    10
  1.4436256756935836E-01 a       836     1     7     2    11
  2.1839194328988407E+00 a       837     1     7     2    12
 -4.5834454128318580E-01 a       838     1     7     2    13
 -1.9326228201959714E-01 a       839     1     7     2    14
 -2.8437639805426818E-03 a       840     1     7     2    15
  2.2088575893331036E-01 a       841     1     7     2    16
 -1.9538160516150516E+00 a       842     1     7     2    17
 -1.4955075878749255E-01 a       843     1     7     2    18
  1.1573015711711949E+00 a       844     1     7     2    19
  6.5818709572988421E-01 a       845     1     7     2    20
  3.7248902612831220E-01 a       846     1     7     2    21
  2.9878831309592463E-01 a       847     1     7     2    22
 -1.9009690373180801E-01 a       848     1     7     2    23
  1.8635182555420276E-02 a       849     1     7     2    24
  1.0489497871151177E+00 a       850     1     7     2    25
 -1.5849237790674015E-01 a       851     1     8     2     1
 -3.6072976648102023E-01 a       852     1     8     2     2
  5.4042162160191753E-01 a       853     1     8     2     3
 -3.5825972197781247E-01 a       854     1     8     2     4
  2.6065928368850450E-01 a       855     1     8     2     5
  2.7165148221060675E-01 a       856     1     8     2     6
 -9.4842672875886783E-02 a       857     1     8     2     7
  2.7733217241447133E-01 a       858     1     8     2     8
  1.0600412393101571E-01 a       859     1     8     2     9
 -6.9502646899949805E-01 a       860     1     8     2    10
  1.8929595804097826E-01 a       861     1     8     2    11
  4.7024214216630156E-01 a       862     1     8     2    12
  5.5230235592968036E-01 a       863     1     8     2    13
 -1.2718856083921710E+00 a       864     1     8     2    14
  8.7127737939567101E-02 a       865     1     8     2    15
  4.8110309162590786E-01 a       866     1     8     2    16
 -5.9278098369112597E-01 a       867     1     8     2    17
 -3.0660728099703849E-01 a       868     1     8     2    18
 -1.4434208586876687E+00 a       869     1     8     2    19
  4.3698600303956177E-02 a       870     1     8     2    20
  4.7329600493544227E-01 a       871     1     8     2    21
 -8.9019526419613346E-02 a       872     1     8     2    22
 -2.5985992473610847E-01 a       873     1     8     2    23
 -1.9653967078393095E-01 a       874     1     8     2    24
  1.4884559761962146E-01 a       875     1     8     2    25
  4.2531094261494234E-01 a       876     1     9     2     1
 -6.0738035283274661E-01 a       877     1     9     2     2
  5.4516516233554624E-01 a       878     1     9     2     3
 -1.5064236537557174E-01 a       879     1     9     2     4
  1.5476557878314243E-01 a       880     1     9     2     5
  1.8344129226839254E-01 a       881     1     9     2     6
 -3.4439035963465536E-01 a       882     1     9     2     7
  1.4957514044734663E-01 a       883     1     9     2     8
 -4.6080143976318816E-01 a       884     1     9     2     9
  4.3033515758998275E-02 a       885     1     9     2    10
  1.1252055494550259E-02 a       886     1     9     2    11
 -1.1408891574941146E-01 a       887     1     9     2    12
 -2.4834567284936038E-02 a       888     1     9     2    13
 -6.1511282757774954E-01 a       889     1     9     2    14
 -2.0369646592052376E-01 a       890     1     9     2    15
 -2.3515801536882630E-01 a       891     1     9     2    16
  4.2102562481540545E-01 a       892     1     9     2    17
 -4.5259869018731652E-01 a       893     1     9     2    18
 -6.3316100935257691E-01 a       894     1     9     2    19
 -5.9357923234388010E-01 a       895     1     9     2    20
  7.5416056227644446E-01 a       896     1     9     2    21
 -2.1642211904911327E-01 a       897     1     9     2    22
  4.7790667945819476E-01 a       898     1     9     2    23
  4.0799010586001361E-01 a       899     1     9     2    24
  1.5883557106286936E-01 a       900     1     9     2    25
  2.7036788665404926E-01 a       901     1    10     2     1
  2.0364491866389892E-01 a       902     1    10     2     2
 -6.3193893825871983E-01 a       903     1    10     2     3
  1.1327164360092347E-01 a       904     1    10     2     4
 -1.0165170415215519E-02 a       905     1    10     2     5
  3.4581962897857688E-01 a       906     1    10     2     6
 -1.1765001712096077E+00 a       907     1    10     2     7
 -3.0319876060226469E-01 a       908     1    10     2     8
 -7.0878964087140936E-02 a       909     1    10     2     9
 -8.8115498533276904E-01 a       910     1    10     2    10
 -2.2272656504150987E-02 a       911     1    10     2    11
 -4.6244964262552340E-01 a       912     1    10     2    12
 -4.4426527666607007E-01 a       913     1    10     2    13
 -8.5549506644049766E-01 a       914     1    10     2    14
  1.5784969413460770E-01 a       915     1    10     2    15
  9.4111034588561446E-02 a       916     1    10     2    16
  5.7761799801220259E-01 a       917     1    10     2    17
  2.3732938665199327E-01 a       918     1    10     2    18
 -3.7065654052248681E-01 a       919     1    10     2    19
  5.7755162687424555E-01 a       920     1    10     2    20
  2.4386529512744209E-01 a       921     1    10     2    21
 -2.4935884059782118E-01 a       922     1    10     2    22
  1.5935906497967417E-01 a       923     1    10     2    23
  2.2027160420153910E-01 a       924     1    10     2    24
 -7.1340401489746930E-01 a       925     1    10     2    25
  8.0685845620942565E-01 a       926     1    11     2     1
 -2.4841309162429004E-01 a       927     1    11     2     2
 -2.7400011352156889E-02 a       928     1    11     2     3
 -5.2704759205769547E-01 a       929     1    11     2     4
  6.5240868075846925E-01 a       930     1    11     2     5
 -1.6199718635036903E-01 a       931     1    11     2     6
  2.8161791383951864E+00 a       932     1    11     2     7
  2.9005542885155727E-01 a       933     1    11     2     8
  1.6511818248020935E-01 a       934     1    11     2     9
  9.8430621813779973E-01 a       935     1    11     2    10
  3.9863985874466719E-02 a       936     1    11     2    11
  4.1190700627636195E-01 a       937     1    11     2    12
  1.0651935923623548E+00 a       938     1    11     2    13
 -1.3257110592275880E-02 a       939     1    11     2    14
 -8.6912672063781060E-02 a       940     1    11     2    15
 -2.5215939446701602E-01 a       941     1    11     2    16
  1.6236779970532822E+00 a       942     1    11     2    17
  7.0149801473458162E-01 a       943     1    11     2    18
 -5.1182863545241164E-01 a       944     1    11     2    19
 -1.3326432988140111E+00 a       945     1    11     2    20
 -1.0073775229186310E+00 a       946     1    11     2    21
 -1.4882025430772297E-01 a       947     1    11     2    22
 -3.2520197747379735E-02 a       948     1    11     2    23
  1.3941911685279831E-01 a       949     1    11     2    24
  4.1156309331188845E-01 a       950     1    11     2    25
  4.3613932413726225E-01 a       951     1    12     2     1
  5.9278138166249262E-03 a       952     1    12     2     2
 -9.6691805115553209E-01 a       953     1    12     2     3
 -1.5122541376186188E-02 a       954     1    12     2     4
  8.9886619772238760E-02 a       955     1    12     2     5
  9.8147883522775994E-02 a       956     1    12     2     6
 -1.0593349111833378E-01 a       957     1    12     2     7
  4.0355332119013682E-02 a       958     1    12     2     8
  3.0695384096387845E-01 a       959     1    12     2     9
 -4.0365581827397368E-01 a       960     1    12     2    10
 -1.3384414554145216E-01 a       961     1    12     2    11
  9.7366799173968135E-02 a       962     1    12     2    12
  5.8339185932800824E-02 a       963     1    12     2    13
  2.7953569459355676E-01 a       964     1    12     2    14
 -1.1537653167446696E-01 a       965     1    12     2    15
  9.6596479397717136E-02 a       966     1    12     2    16
  1.6682398677754817E-01 a       967     1    12     2    17
  4.3263961980906185E-01 a       968     1    12     2    18
 -1.2702419444619610E+00 a       969     1    12     2    19
  1.0551910768969168E-01 a       970     1    12     2    20
 -1.3236863540420013E-01 a       971     1    12     2    21
  4.5779572792271489E-02 a       972     1    12     2    22
 -1.4073790834246283E-01 a       973     1    12     2    23
  1.5362884529261255E-02 a       974     1    12     2    24
  1.3876365476641969E-01 a       975     1    12     2    25
  3.4298891849880803E-02 a       976     1    13     2     1
  2.3503135440034434E-01 a       977     1    13     2     2
  3.2560688808729865E-01 a       978     1    13     2     3
  5.4058051685314479E-01 a       979     1    13     2     4
  4.9394815345104565E-02 a       980     1    13     2     5
 -1.5134974446548530E-02 a       981     1    13     2     6
  1.9918839566556570E+00 a       982     1    13     2     7
  2.3758930005718290E-01 a       983     1    13     2     8
 -5.8689561860573658E-01 a       984     1    13     2     9
  3.1304778360380725E-01 a       985     1    13     2    10
  1.6117319869006991E-01 a       986     1    13     2    11
  5.4239129054772239E-01 a       987     1    13     2    12
 -3.9413355875862971E-01 a       988     1    13     2    13
 -8.1883776898592789E-02 a       989     1    13     2    14
  1.0966619131316740E-01 a       990     1    13     2    15
 -2.7439574314634885E-01 a       991     1    13     2    16
 -7.6199708410029132E-01 a       992     1    13     2    17
  2.2299332316309270E-01 a       993     1    13     2    18
  1.3251116388348754E+00 a       994     1    13     2    19
  5.1383847290377083E-01 a       995     1    13     2    20
 -2.3492737566507330E-01 a       996     1    13     2    21
 -2.3798959412249984E-01 a       997     1    13     2    22
  2.7491987769187698E-01 a       998     1    13     2    23
 -3.5232548398198610E-01 a       999     1    13     2    24
  2.5698627429972176E-01 a      1000     1    13     2    25
  8.0331264224945700E-02 a      1001     1    14     2     1
  8.3800016326192578E-02 a      1002     1    14     2     2
 -4.8328677181763362E-02 a      1003     1    14     2     3
  5.5830401260275531E-01 a      1004     1    14     2     4
  3.7987132046306854E-01 a      1005     1    14     2     5
  1.1721157019876298E-01 a      1006     1    14     2     6
  2.2930116060841735E-01 a      1007     1    14     2     7
  6.5509039836862001E-02 a      1008     1    14     2     8
  4.4430036195159665E-02 a      1009     1    14     2     9
  4.6137635181857028E-01 a      1010     1    14     2    10
 -9.1774138168378205E-02 a      1011     1    14     2    11
 -7.3048530315431515E-01 a      1012     1    14     2    12
  1.3069573493290212E+00 a      1013     1    14     2    13
  8.7801487445183468E-01 a      1014     1    14     2    14
 -3.0218842035759014E-01 a      1015     1    14     2    15
 -3.4351124967579527E-01 a      1016     1    14     2    16
  3.8507602589435747E-01 a      1017     1    14     2    17
  2.2911832719162925E-01 a      1018     1    14     2    18
 -4.7794896434070966E-01 a      1019     1    14     2    19
 -9.4858004263297335E-01 a      1020     1    14     2    20
  1.0317381711762903E-01 a      1021     1    14     2    21
  1.1129888482620222E-01 a      1022     1    14     2    22
  3.7463359190845547E-01 a      1023     1    14     2    23
 -2.5590723379205222E-02 a      1024     1    14     2    24
  1.7282190368046332E-01 a      1025     1    14     2    25
 -3.5511809722264842E-01 a      1026     1    15     2     1
 -8.0951762373097114E-01 a      1027     1    15     2     2
  1.1650830749931671E+00 a      1028     1    15     2     3
  9.1404121963574950E-03 a      1029     1    15     2     4
  7.9748257723606242E-01 a      1030     1    15     2     5
  1.8399077407672729E-01 a      1031     1    15     2     6
 -5.0606503483550325E-01 a      1032     1    15     2     7
  1.1972914820685648E-01 a      1033     1    15     2     8
 -2.2238629641352123E-01 a      1034     1    15     2     9
  1.2932400817990615E+00 a      1035     1    15     2    10
 -3.5025553528115734E-03 a      1036     1    15     2    11
  1.1513960165504857E+00 a      1037     1    15     2    12
 -1.2573184798756067E+00 a      1038     1    15     2    13
 -1.9772622732996956E+00 a      1039     1    15     2    14
  1.3236209047460074E-01 a      1040     1    15     2    15
 -5.9421086303597670E-01 a      1041     1    15     2    16
 -6.5750410745001753E-01 a      1042     1    15     2    17
 -1.3228736906571856E-01 a      1043     1    15     2    18
 -1.1827944675509297E-01 a      1044     1    15     2    19
 -1.2820353906131421E+00 a      1045     1    15     2    20
 -8.5185921698531869E-02 a      1046     1    15     2    21
  1.3304407707655797E-01 a      1047     1    15     2    22
 -6.5148299842254187E-01 a      1048     1    15     2    23
  6.0025595948301216E-02 a      1049     1    15     2    24
  4.8993962003774788E-01 a      1050     1    15     2    25
  1.8243010979626123E-01 a      1051     1    16     2     1
 -2.5936804577710604E-01 a      1052     1    16     2     2
  8.7713684056205565E-01 a      1053     1    16     2     3
 -2.3212837022718649E-01 a      1054     1    16     2     4
 -3.3047620962231777E-01 a      1055     1    16     2     5
  9.3658155438409385E-02 a      1056     1    16     2     6
  1.0024661531815790E-01 a      1057     1    16     2     7
 -1.3434205399315832E-01 a      1058     1    16     2     8
 -2.7268000752775117E-02 a      1059     1    16     2     9
  7.8083776143641082E-01 a      1060     1    16     2    10
 -1.6266991555355079E-01 a      1061     1    16     2    11
  8.5914316281414625E-03 a      1062     1    16     2    12
  2.1992835315927201E-01 a      1063     1    16     2    13
 -7.9784902889860732E-01 a      1064     1    16     2    14
 -3.4790248282636126E-02 a      1065     1    16     2    15
  3.8314623978872370E-01 a      1066     1    16     2    16
 -5.7925331606174979E-01 a      1067     1    16     2    17
  7.0516950734901690E-02 a      1068     1    16     2    18
 -8.0251188436310728E-01 a      1069     1    16     2    19
  1.0789165949145327E-01 a      1070     1    16     2    20
 -3.0200986115583417E-02 a      1071     1    16     2    21
  4.5421165700879555E-02 a      1072     1    16     2    22
 -1.2173139054907550E-01 a      1073     1    16     2    23
  1.9119236172862325E-01 a      1074     1    16     2    24
  9.1016214962371578E-01 a      1075     1    16     2    25
 -1.6232053708569236E-01 a      1076     1    17     2     1
 -8.5420762070806366E-01 a      1077     1    17     2     2
  4.2721532217294345E-01 a      1078     1    17     2     3
 -5.7474497773905575E-01 a      1079     1    17     2     4
  3.3629698134997120E-03 a      1080     1    17     2     5
  3.6837234893332502E-02 a      1081     1    17     2     6
  2.6544114007863817E-01 a      1082     1    17     2     7
  3.6899264323840897E-01 a      1083     1    17     2     8
 -1.6082682386314448E-01 a      1084     1    17     2     9
 -7.4161860046086092E-01 a      1085     1    17     2    10
  1.9047804230979387E-01 a      1086     1    17     2    11
  1.2119776177395471E-01 a      1087     1    17     2    12
  1.4988123147531218E+00 a      1088     1    17     2    13
 -3.3552286907716716E-01 a      1089     1    17     2    14
 -7.4154557637871232E-01 a      1090     1    17     2    15
  9.0027982168734544E-01 a      1091     1    17     2    16
  4.3939179550227486E-01 a      1092     1    17     2    17
 -1.2932236011307158E-01 a      1093     1    17     2    18
 -4.2606071474657603E-01 a      1094     1    17     2    19
 -6.6604611974921379E-01 a      1095     1    17     2    20
  1.9083750007137432E-01 a      1096     1    17     2    21
 -4.6331275204523076E-01 a      1097     1    17     2    22
 -1.3731159826807138E-01 a      1098     1    17     2    23
 -4.7358822073743029E-01 a      1099     1    17     2    24
 -5.6157337878991054E-01 a      1100     1    17     2    25
 -5.0660013733184583E-01 a      1101     1    18     2     1
 -5.3534062481933831E-01 a      1102     1    18     2     2
 -5.8808964037380596E-01 a      1103     1    18     2     3
 -1.1496713738287592E-01 a      1104     1    18     2     4
 -2.9799887800388020E-01 a      1105     1    18     2     5
  2.1889625513235067E-01 a      1106     1    18     2     6
 -8.7752807484086914E-01 a      1107     1    18     2     7
 -3.0795946366752341E-01 a      1108     1    18     2     8
 -3.3346017945240625E-01 a      1109     1    18     2     9
  6.3167771502501646E-01 a      1110     1    18     2    10
  3.9501625317835742E-01 a      1111     1    18     2    11
  3.0545451775074128E-01 a      1112     1    18     2    12
 -2.2480838509486403E-01 a      1113     1    18     2    13
 -2.5350096395449517E-01 a      1114     1    18     2    14
  1.9601159261711418E-01 a      1115     1    18     2    15
 -1.0618675345864333E-01 a      1116     1    18     2    16
  7.1489293726199288E-01 a      1117     1    18     2    17
 -7.9648854562133709E-01 a      1118     1    18     2    18
 -1.4412970094899455E-01 a      1119     1    18     2    19
  1.1873427223138620E+00 a      1120     1    18     2    20
  6.0785930969834956E-01 a      1121     1    18     2    21
 -2.9174584427154376E-01 a      1122     1    18     2    22
 -2.1085637525705924E-02 a      1123     1    18     2    23
  2.7223186937602928E-01 a      1124     1    18     2    24
  5.4029303572752641E-01 a      1125     1    18     2    25
  6.7672942577618189E-02 a      1126     1    19     2     1
 -1.0350059533852592E-01 a      1127     1    19     2     2
  4.3451003557871515E-01 a      1128     1    19     2     3
  1.8180390670837602E-02 a      1129     1    19     2     4
  3.0341099268705146E-01 a      1130     1    19     2     5
 -5.1487979064855527E-02 a      1131     1    19     2     6
 -1.7201103496313104E-03 a      1132     1    19     2     7
  2.2519330174872409E-02 a      1133     1    19     2     8
  1.8188160659762304E-01 a      1134     1    19     2     9
 -6.6218839668305085E-01 a      1135     1    19     2    10
  3.1362002439828390E-01 a      1136     1    19     2    11
  5.2642531263573389E-01 a      1137     1    19     2    12
 -1.1068985858959386E+00 a      1138     1    19     2    13
 -4.4900705481771913E-01 a      1139     1    19     2    14
  1.3247086756936863E-01 a      1140     1    19     2    15
 -6.7189559315668046E-01 a      1141     1    19     2    16
 -5.5417743207314206E-02 a      1142     1    19     2    17
  1.0908614442989439E-02 a      1143     1    19     2    18
  1.0427345214311470E+00 a      1144     1    19     2    19
 -6.7177224256536397E-02 a      1145     1    19     2    20
 -1.2746229916851029E-01 a      1146     1    19     2    21
 -5.5623203475628921E-02 a      1147     1    19     2    22
  1.0522724479831857E-02 a      1148     1    19     2    23
 -1.3392188870071504E-02 a      1149     1    19     2    24
 -1.4432300275696404E-02 a      1150     1    19     2    25
 -4.6449277618733242E-01 a      1151     1    20     2     1
 -4.0405646633076542E-01 a      1152     1    20     2     2
 -1.3446307786978412E-01 a      1153     1    20     2     3
 -6.9805811101161419E-01 a      1154     1    20     2     4
 -5.9669052989751070E-01 a      1155     1    20     2     5
 -1.7278037987975264E-02 a      1156     1    20     2     6
 -4.3094704903410741E-01 a      1157     1    20     2     7
  5.8073138772531940E-01 a      1158     1    20     2     8
 -3.6210171460348256E-01 a      1159     1    20     2     9
 -7.1979680103186805E-01 a      1160     1    20     2    10
  6.8978977932126395E-01 a      1161     1    20     2    11
  1.2930976759502890E+00 a      1162     1    20     2    12
 -1.0813446198743442E+00 a      1163     1    20     2    13
 -1.7949361532987071E-01 a      1164     1    20     2    14
 -1.1364297706003121E-02 a      1165     1    20     2    15
  2.5665022814425054E-01 a      1166     1    20     2    16
  2.5777805693437511E-01 a      1167     1    20     2    17
 -1.0414741598460644E+00 a      1168     1    20     2    18
  2.4072697787052524E-01 a      1169     1    20     2    19
  1.2005646862004360E+00 a      1170     1    20     2    20
  1.3890076945418861E-01 a      1171     1    20     2    21
 -1.4573579856704602E-01 a      1172     1    20     2    22
 -7.0757946579104766E-02 a      1173     1    20     2    23
  1.4562958001314108E-01 a      1174     1    20     2    24
  5.3858670068408154E-01 a      1175     1    20     2    25
 -6.6807099041002549E-01 a      1176     1    21     2     1
 -1.3119429077044809E-01 a      1177     1    21     2     2
 -4.4588898549850861E-02 a      1178     1    21     2     3
 -1.7310643344305079E-01 a      1179     1    21     2     4
 -2.3431612084167042E-01 a      1180     1    21     2     5
  2.7166309839985814E-01 a      1181     1    21     2     6
  8.9694049011619936E-01 a      1182     1    21     2     7
  1.2539390372101281E-01 a      1183     1    21     2     8
  2.0501874373441115E-01 a      1184     1    21     2     9
  3.5673131302763356E-01 a      1185     1    21     2    10
  1.4489991103188790E-01 a      1186     1    21     2    11
  2.1999527096546143E-01 a      1187     1    21     2    12
  5.0600021446509391E-01 a      1188     1    21     2    13
 -6.3446086124779855E-01 a      1189     1    21     2    14
 -4.0073864428918388E-02 a      1190     1    21     2    15
 -5.1352732250513893E-02 a      1191     1    21     2    16
  5.1957104376031493E-01 a      1192     1    21     2    17
  2.1959443455182442E-01 a      1193     1    21     2    18
  1.1028329603459943E+00 a      1194     1    21     2    19
  8.0193782527051427E-01 a      1195     1    21     2    20
  3.6791348382546074E-01 a      1196     1    21     2    21
  3.1545025145993083E-01 a      1197     1    21     2    22
 -2.0585602821823823E-01 a      1198     1    21     2    23
 -1.4474324499005806E-01 a      1199     1    21     2    24
  3.4683565731329513E-01 a      1200     1    21     2    25
 -2.9384850378774546E-01 a      1201     1    22     2     1
  5.6958306245671508E-01 a      1202     1    22     2     2
 -1.5026581743092726E-01 a      1203     1    22     2     3
  7.7184160352926223E-01 a      1204     1    22     2     4
 -3.8767365465276393E-01 a      1205     1    22     2     5
  1.2204911676198928E-01 a      1206     1    22     2     6
 -5.7349486082929158E-01 a      1207     1    22     2     7
 -2.2248501142300744E-01 a      1208     1    22     2     8
  7.6642775507021976E-02 a      1209     1    22     2     9
  4.3862562498970886E-01 a      1210     1    22     2    10
  8.0533506323449949E-03 a      1211     1    22     2    11
 -7.0506915825448380E-01 a      1212     1    22     2    12
  1.4652647654652409E-01 a      1213     1    22     2    13
  3.7020178337025605E-01 a      1214     1    22     2    14
  4.3055629267711670E-01 a      1215     1    22     2    15
  2.5330290656182736E-01 a      1216     1    22     2    16
 -7.1696391964830919E-01 a      1217     1    22     2    17
  4.0526897962540315E-01 a      1218     1    22     2    18
 -6.6744645368646360E-01 a      1219     1    22     2    19
  8.1051760216348578E-01 a      1220     1    22     2    20
  4.8004898084802856E-02 a      1221     1    22     2    21
 -2.8953237320599193E-02 a      1222     1    22     2    22
  1.6292872933588842E-02 a      1223     1    22     2    23
  1.1282116017381694E-01 a      1224     1    22     2    24
  2.9553485194105567E-01 a      1225     1    22     2    25
  8.3055579626918852E-01 a      1226     1    23     2     1
 -1.8337887412184345E-01 a      1227     1    23     2     2
  2.1080691093770313E-02 a      1228     1    23     2     3
 -7.5884555116086327E-02 a      1229     1    23     2     4
 -4.1515699477402568E-01 a      1230     1    23     2     5
  7.7811219917684471E-01 a      1231     1    23     2     6
  3.5163057159517919E-01 a      1232     1    23     2     7
 -8.5023645913269907E-01 a      1233     1    23     2     8
 -6.7856669499931188E-01 a      1234     1    23     2     9
 -1.7403125191481694E-01 a      1235     1    23     2    10
 -1.1438299850897776E-01 a      1236     1    23     2    11
  1.2105020756969891E+00 a      1237     1    23     2    12
  1.1191592654028821E+00 a      1238     1    23     2    13
  6.8110106969771572E-02 a      1239     1    23     2    14
 -5.9058407269710185E-02 a      1240     1    23     2    15
  1.1556305358961543E+00 a      1241     1    23     2    16
  7.1467469640968329E-01 a      1242     1    23     2    17
  9.2694013711739398E-01 a      1243     1    23     2    18
 -9.3955228680684011E-01 a      1244     1    23     2    19
  9.1723694094185038E-01 a      1245     1    23     2    20
  1.1535976960108385E-01 a      1246     1    23     2    21
 -5.5529423928130728E-01 a      1247     1    23     2    22
  4.9980871277136590E-01 a      1248     1    23     2    23
  1.3602296409005415E-01 a      1249     1    23     2    24
  1.5039160686527122E+00 a      1250     1    23     2    25
 -4.1040255127314955E-02 a      1251     1    24     2     1
  3.8094984157657663E-01 a      1252     1    24     2     2
  4.3576590094084833E-01 a      1253     1    24     2     3
 -4.9831938964804628E-01 a      1254     1    24     2     4
 -4.4486845453337603E-01 a      1255     1    24     2     5
 -3.5959040964608396E-01 a      1256     1    24     2     6
  1.8238323628430721E-02 a      1257     1    24     2     7
  5.7753717377874514E-01 a      1258     1    24     2     8
  2.6790995322682792E-02 a      1259     1    24     2     9
  2.7806529461258211E-01 a      1260     1    24     2    10
  6.4642282108530602E-01 a      1261     1    24     2    11
  8.4281176846046679E-01 a      1262     1    24     2    12
  1.2014359587654250E-01 a      1263     1    24     2    13
  6.7973526263496109E-01 a      1264     1    24     2    14
 -1.9620146554049425E-01 a      1265     1    24     2    15
  4.1647823938544704E-01 a      1266     1    24     2    16
  3.1114149640357525E-01 a      1267     1    24     2    17
 -9.1220662543093844E-01 a      1268     1    24     2    18
 -3.0531200759417637E-01 a      1269     1    24     2    19
  1.3678998408607947E+00 a      1270     1    24     2    20
  5.5765887291340821E-01 a      1271     1    24     2    21
 -3.1597288700355852E-01 a      1272     1    24     2    22
 -3.6799769860815079E-01 a      1273     1    24     2    23
  3.1899249368519422E-01 a      1274     1    24     2    24
  2.3113939580596493E-01 a      1275     1    24     2    25
 -5.6058793409601772E-02 a      1276     1    25     2     1
 -1.7947432541685820E-01 a      1277     1    25     2     2
  5.6429127375116805E-01 a      1278     1    25     2     3
  9.5608837874405442E-03 a      1279     1    25     2     4
 -2.3529230362126985E-01 a      1280     1    25     2     5
  2.3460740507184624E-01 a      1281     1    25     2     6
 -4.3279105445789989E-01 a      1282     1    25     2     7
 -2.9148769730499707E-01 a      1283     1    25     2     8
  1.1592615183609931E-01 a      1284     1    25     2     9
 -2.0302513532684602E-02 a      1285     1    25     2    10
  8.2087056432088426E-02 a      1286     1    25     2    11
 -1.2380338945032110E+00 a      1287     1    25     2    12
 -3.1046823094206738E-01 a      1288     1    25     2    13
 -7.9076904694065453E-01 a      1289     1    25     2    14
  2.1721194262012716E-01 a      1290     1    25     2    15
  5.8094450577583501E-01 a      1291     1    25     2    16
 -5.5855566640164933E-01 a      1292     1    25     2    17
 -2.8162122694297592E-01 a      1293     1    25     2    18
 -5.8148018469939644E-01 a      1294     1    25     2    19
 -1.6757715681636801E-01 a      1295     1    25     2    20
  2.6116182477911964E-01 a      1296     1    25     2    21
 -3.4954931534343053E-01 a      1297     1    25     2    22
 -1.0697650396229059E-01 a      1298     1    25     2    23
 -7.5991902049921151E-02 a      1299     1    25     2    24
  2.2094902404487513E-01 a      1300     1    25     2    25
 -2.4824002373928022E-02 b      1301     2     1
  1.1093041324824009E-01 b      1302     2     2
  2.5058634637084093E-01 b      1303     2     3
 -4.3115174084449669E-02 b      1304     2     4
  3.1725293225384715E-01 b      1305     2     5
  1.9301799297103081E-01 b      1306     2     6
 -3.3911288233889531E-02 b      1307     2     7
  7.7840684596570259E-02 b      1308     2     8
 -1.0266360754604528E-01 b      1309     2     9
 -1.6466901979828036E-01 b      1310     2    10
  8.4531313023672394E-02 b      1311     2    11
  3.9566784642389224E-01 b      1312     2    12
 -4.8610612443334345E-01 b      1313     2    13
  5.0145640106714857E-02 b      1314     2    14
  8.3499229642011752E-01 b      1315     2    15
  4.8971579902919704E-01 b      1316     2    16
 -4.7459430455801632E-01 b      1317     2    17
 -2.5272140678713578E-01 b      1318     2    18
 -3.6805133892825692E-01 b      1319     2    19
  1.0140713236569612E-01 b      1320     2    20
 -2.3428906862634419E-01 b      1321     2    21
  4.6325272006980334E-01 b      1322     2    22
  1.8628575135878309E-01 b      1323     2    23
 -5.3461416100379633E-01 b      1324     2    24
  4.8207392727966883E-02 b      1325     2    25
 -2.5548877748017590E-01 a      1326     2     1     3     1
  1.7251045266591072E-01 a      1327     2     2     3     1
 -1.3785961380910378E-01 a      1328     2     3     3     1
 -2.8949307100735316E-01 a      1329     2     4     3     1
 -3.6258052370476906E-01 a      1330     2     5     3     1
 -3.2360344282369014E-01 a      1331     2     6     3     1
  1.8366313627356939E-02 a      1332     2     7     3     1
 -2.7489162319786992E-01 a      1333     2     8     3     1
 -2.7214714404008478E-01 a      1334     2     9     3     1
 -9.8825574825804008E-02 a      1335     2    10     3     1
  1.7856454197061278E-01 a      1336     2    11     3     1
 -7.0186987535303710E-02 a      1337     2    12     3     1
  4.9180563698278052E-03 a      1338     2    13     3     1
 -7.2976342916267686E-02 a      1339     2    14     3     1
 -5.1371370351710799E-01 a      1340     2    15     3     1
 -3.6370292531833504E-01 a      1341     2    16     3     1
 -5.7872760888383876E-02 a      1342     2    17     3     1
  2.8973713331922013E-01 a      1343     2    18     3     1
 -2.5372316325954550E-02 a      1344     2    19     3     1
 -1.3310183676191101E-01 a      1345     2    20     3     1
  1.8099831177943934E-01 a      1346     2    21     3     1
 -5.6838989782560201E-01 a      1347     2    22     3     1
 -2.9425199327999768E-01 a      1348     2    23     3     1
  3.1586637370534887E-01 a      1349     2    24     3     1
  1.6512458282000622E-01 a      1350     2    25     3     1
 -1.7441497078418828E+00 b      1351     3     1
