################################################################################
# Neural network connection values (weights and biases).
################################################################################
# Col  Name       Description
################################################################################
# 1    connection Neural network connection value.
# 2    t          Connection type (a = weight, b = bias).
# 3    index      Index enumerating weights.
# 4    l_s        Starting point layer (end point layer for biases).
# 5    n_s        Starting point neuron in starting layer (end point neuron for biases).
# 6    l_e        End point layer.
# 7    n_e        End point neuron in end layer.
################################################################################
#                      1 2         3     4     5     6     7
#             connection t     index   l_s   n_s   l_e   n_e
############################################################
 -1.1453066671740311E+00 a         1     0     1     1     1
  8.5782251316475904E+00 a         2     0     1     1     2
 -8.1815886615249600E-01 a         3     0     1     1     3
  2.6479046035030316E+00 a         4     0     1     1     4
 -1.6407216412207906E+00 a         5     0     1     1     5
 -9.3372423657296111E-01 a         6     0     1     1     6
 -5.4262635574146090E-01 a         7     0     1     1     7
  1.9202917540265709E+00 a         8     0     1     1     8
  5.5886786470517142E+00 a         9     0     1     1     9
 -1.2955539920505328E+00 a        10     0     1     1    10
 -3.7305179796264354E+00 a        11     0     1     1    11
  1.2321286730359307E+00 a        12     0     1     1    12
  3.6274519878852556E+00 a        13     0     1     1    13
  2.7405697189431302E+00 a        14     0     1     1    14
 -2.5911029011753457E+00 a        15     0     1     1    15
  2.7358499163420409E+00 a        16     0     1     1    16
 -4.5926976125930628E+00 a        17     0     1     1    17
  1.0488532630542539E-01 a        18     0     1     1    18
 -9.9143360098451154E+00 a        19     0     1     1    19
 -2.8161977437967689E-01 a        20     0     1     1    20
 -5.7253459649189358E+00 a        21     0     1     1    21
  2.0736888939296660E+00 a        22     0     1     1    22
 -3.5921860197910154E+00 a        23     0     1     1    23
  6.4066582793038052E+00 a        24     0     1     1    24
  2.8480938493999677E+00 a        25     0     1     1    25
 -2.9586434371986658E-01 a        26     0     2     1     1
 -2.0780024767307328E+00 a        27     0     2     1     2
 -4.5416956777406242E-01 a        28     0     2     1     3
 -1.3230029827927912E+00 a        29     0     2     1     4
  1.0849809313918859E+00 a        30     0     2     1     5
 -1.6200081793698669E+00 a        31     0     2     1     6
 -1.3275982539537967E-01 a        32     0     2     1     7
 -2.1625307085581436E-01 a        33     0     2     1     8
 -1.4758482993161384E+00 a        34     0     2     1     9
  2.2866427932936939E-01 a        35     0     2     1    10
  9.4756282453444174E-01 a        36     0     2     1    11
 -2.8815100932315155E-02 a        37     0     2     1    12
 -9.0121291721058761E-01 a        38     0     2     1    13
 -3.1529596915927649E-01 a        39     0     2     1    14
  2.8648454775583515E-01 a        40     0     2     1    15
 -1.3423990792451257E-01 a        41     0     2     1    16
 -1.5749133611170363E-04 a        42     0     2     1    17
  2.9717033782593699E-01 a        43     0     2     1    18
  1.9840106824959463E+00 a        44     0     2     1    19
 -8.8525047311816107E-01 a        45     0     2     1    20
  1.8513584300761745E+00 a        46     0     2     1    21
 -1.1009939480064435E+00 a        47     0     2     1    22
  3.1814247550702535E-01 a        48     0     2     1    23
 -1.5519880739039649E+00 a        49     0     2     1    24
 -1.6209790873847838E+00 a        50     0     2     1    25
  3.1388793620316785E-01 a        51     0     3     1     1
 -7.3837643077077528E+00 a        52     0     3     1     2
 -2.0168164293138924E-01 a        53     0     3     1     3
 -2.8258652433724363E+00 a        54     0     3     1     4
  2.7005034069966753E+00 a        55     0     3     1     5
 -1.6808484591793307E+00 a        56     0     3     1     6
  1.6798262748060974E-01 a        57     0     3     1     7
 -1.4492367967507735E+00 a        58     0     3     1     8
 -4.1385497261303197E+00 a        59     0     3     1     9
  9.2489094969868124E-01 a        60     0     3     1    10
  2.9236883444717967E+00 a        61     0     3     1    11
 -3.5576638574522139E-02 a        62     0     3     1    12
 -3.1066573048238566E+00 a        63     0     3     1    13
 -1.1190421545703115E+00 a        64     0     3     1    14
  2.1979021869797468E+00 a        65     0     3     1    15
 -1.2448905112342485E+00 a        66     0     3     1    16
  2.8032937197147350E+00 a        67     0     3     1    17
  6.7442436980505649E-01 a        68     0     3     1    18
  7.9634842139580817E+00 a        69     0     3     1    19
 -1.1271878154814887E+00 a        70     0     3     1    20
  5.2293568317804597E+00 a        71     0     3     1    21
 -2.9552885711743815E+00 a        72     0     3     1    22
  2.6339286489579101E+00 a        73     0     3     1    23
 -5.7896373902614329E+00 a        74     0     3     1    24
 -3.6602838544593270E+00 a        75     0     3     1    25
 -1.9637201008074009E-01 a        76     0     4     1     1
  1.2443671722858194E+00 a        77     0     4     1     2
 -1.5881255139157624E+00 a        78     0     4     1     3
 -1.3333348334720789E+00 a        79     0     4     1     4
 -3.9967246518781012E+00 a        80     0     4     1     5
  1.3744896899067998E+00 a        81     0     4     1     6
 -1.4001092327994067E+00 a        82     0     4     1     7
 -1.0594555057948749E+00 a        83     0     4     1     8
  1.4609118461292325E+00 a        84     0     4     1     9
 -6.6070323921326990E-01 a        85     0     4     1    10
  1.0126907997718546E+00 a        86     0     4     1    11
 -1.2806190469142469E+00 a        87     0     4     1    12
 -1.6772704953939104E+00 a        88     0     4     1    13
 -3.6209448587423707E+00 a        89     0     4     1    14
  2.2593024977937182E+00 a        90     0     4     1    15
 -2.1096044976307819E+00 a        91     0     4     1    16
  2.7819617893155746E+00 a        92     0     4     1    17
 -6.1077032463070735E-01 a        93     0     4     1    18
  3.5447891585862776E+00 a        94     0     4     1    19
  3.5602903766582013E+00 a        95     0     4     1    20
  2.3461949258806993E+00 a        96     0     4     1    21
 -1.3551702260292340E+00 a        97     0     4     1    22
  4.0691253030451673E+00 a        98     0     4     1    23
 -3.7441462061036948E+00 a        99     0     4     1    24
 -2.2513052876684317E-01 a       100     0     4     1    25
  1.1755196839168858E+00 a       101     0     5     1     1
 -4.8595435600559411E-01 a       102     0     5     1     2
  2.0481645664185733E+00 a       103     0     5     1     3
  3.5493251432725401E+00 a       104     0     5     1     4
  2.3362036884373101E+00 a       105     0     5     1     5
  8.3552145406091960E-04 a       106     0     5     1     6
 -1.3930184492862499E-01 a       107     0     5     1     7
  7.9472798828549029E-01 a       108     0     5     1     8
 -1.7494596144058512E+00 a       109     0     5     1     9
  6.6197677309130981E-02 a       110     0     5     1    10
 -3.4673731593087544E+00 a       111     0     5     1    11
  1.5922873836561247E+00 a       112     0     5     1    12
  3.4713927327361978E+00 a       113     0     5     1    13
  3.1366925845726432E+00 a       114     0     5     1    14
 -4.1568227317327437E+00 a       115     0     5     1    15
  1.3385528585653561E+00 a       116     0     5     1    16
  3.4303421298000991E-01 a       117     0     5     1    17
 -8.7868678131296574E-01 a       118     0     5     1    18
 -4.9783173919514221E+00 a       119     0     5     1    19
 -2.2052503563387571E+00 a       120     0     5     1    20
 -3.7842156203780308E+00 a       121     0     5     1    21
  4.7930232473671177E+00 a       122     0     5     1    22
 -4.8019549389185032E+00 a       123     0     5     1    23
  6.7456503876518132E+00 a       124     0     5     1    24
  4.2375013962044550E+00 a       125     0     5     1    25
 -6.1607686275995888E-01 a       126     0     6     1     1
 -2.9550575794481337E-01 a       127     0     6     1     2
 -7.3186030778540490E-01 a       128     0     6     1     3
 -1.5505191642084795E+00 a       129     0     6     1     4
 -1.6981631143308595E-01 a       130     0     6     1     5
  5.8860726611108061E-01 a       131     0     6     1     6
  7.0105984041633951E-01 a       132     0     6     1     7
 -4.3329489861668830E-01 a       133     0     6     1     8
  6.4251733209145601E-01 a       134     0     6     1     9
  8.0410969986892200E-01 a       135     0     6     1    10
  2.0698618676727483E+00 a       136     0     6     1    11
 -7.5153683736394938E-01 a       137     0     6     1    12
 -2.1162602380985653E+00 a       138     0     6     1    13
 -7.7021988660447638E-01 a       139     0     6     1    14
  1.7694897515845551E+00 a       140     0     6     1    15
 -2.2827806108758802E-01 a       141     0     6     1    16
 -1.5346987867483461E+00 a       142     0     6     1    17
  9.0876089736203181E-01 a       143     0     6     1    18
  2.1224541139480331E+00 a       144     0     6     1    19
  2.1662316215982413E-01 a       145     0     6     1    20
  5.3794622548230042E-01 a       146     0     6     1    21
 -2.9584961756538535E+00 a       147     0     6     1    22
  9.8240230347574098E-01 a       148     0     6     1    23
 -3.3050347709574281E+00 a       149     0     6     1    24
 -2.7563075398630508E+00 a       150     0     6     1    25
  1.0992587648352437E-01 a       151     0     7     1     1
  9.7773955396493556E-02 a       152     0     7     1     2
 -1.7623600736755066E-01 a       153     0     7     1     3
  3.8652367452734904E-01 a       154     0     7     1     4
  2.7253260598821754E-02 a       155     0     7     1     5
 -4.2860459269784812E-01 a       156     0     7     1     6
 -2.1388764671530847E-01 a       157     0     7     1     7
  5.2519688457874488E-03 a       158     0     7     1     8
 -9.8143505777579160E-02 a       159     0     7     1     9
 -5.1230950585445889E-01 a       160     0     7     1    10
 -5.4289001696200045E-01 a       161     0     7     1    11
  3.7213037397910997E-01 a       162     0     7     1    12
  5.5637075665036761E-01 a       163     0     7     1    13
  8.5865229828748349E-02 a       164     0     7     1    14
 -2.2343930611264004E-01 a       165     0     7     1    15
 -8.1818380728288578E-02 a       166     0     7     1    16
  3.4274456333583075E-01 a       167     0     7     1    17
 -1.9895191778969898E-01 a       168     0     7     1    18
 -5.2840612113197449E-01 a       169     0     7     1    19
  5.2387741488320490E-02 a       170     0     7     1    20
  2.1661928271124778E-01 a       171     0     7     1    21
  4.7548237102675089E-01 a       172     0     7     1    22
  1.7775356336938126E-02 a       173     0     7     1    23
  6.7558715835145766E-01 a       174     0     7     1    24
  5.5561705767503500E-01 a       175     0     7     1    25
  1.6314175277341379E-02 a       176     0     8     1     1
  3.6614634662857831E-02 a       177     0     8     1     2
  1.9818932681273854E-01 a       178     0     8     1     3
  2.6958603081531991E-03 a       179     0     8     1     4
 -1.2108454499952059E-01 a       180     0     8     1     5
  1.4726370344643369E-01 a       181     0     8     1     6
  7.4556331632387923E-02 a       182     0     8     1     7
  7.8933900093356935E-02 a       183     0     8     1     8
  4.9517157922964850E-02 a       184     0     8     1     9
 -3.4175535802561038E-03 a       185     0     8     1    10
  1.0075926837434988E-01 a       186     0     8     1    11
 -1.2796874763252569E-01 a       187     0     8     1    12
  1.8993728576792272E-02 a       188     0     8     1    13
  5.0343233070206756E-03 a       189     0     8     1    14
 -1.0434089335587182E-01 a       190     0     8     1    15
  3.4908817017097111E-03 a       191     0     8     1    16
 -6.1752855220737396E-02 a       192     0     8     1    17
 -9.5025323009446244E-02 a       193     0     8     1    18
  1.8319395245933359E-02 a       194     0     8     1    19
  1.1835971279736957E-01 a       195     0     8     1    20
 -7.8411278194313663E-02 a       196     0     8     1    21
  8.0673054203413933E-02 a       197     0     8     1    22
 -1.3014136856458500E-01 a       198     0     8     1    23
  7.2401355392203964E-02 a       199     0     8     1    24
  4.2182429317283769E-02 a       200     0     8     1    25
  3.3476939422093017E+00 a       201     0     9     1     1
 -3.7907133523356964E+00 a       202     0     9     1     2
  8.4038755944412713E-01 a       203     0     9     1     3
  6.8888369521650938E+00 a       204     0     9     1     4
 -2.7872836607503144E+00 a       205     0     9     1     5
  1.9271745981355441E+00 a       206     0     9     1     6
  1.4050900173300793E+00 a       207     0     9     1     7
  2.4824722426082659E+00 a       208     0     9     1     8
  3.3551053305721514E+00 a       209     0     9     1     9
  1.0872752475920062E+00 a       210     0     9     1    10
 -1.1038696073033181E+00 a       211     0     9     1    11
  6.2287025045297276E-02 a       212     0     9     1    12
  1.0337610318288084E+01 a       213     0     9     1    13
  1.3400447715077934E+00 a       214     0     9     1    14
  3.1255520881316485E+00 a       215     0     9     1    15
  9.4245170230634345E-01 a       216     0     9     1    16
  8.8791153748374352E-01 a       217     0     9     1    17
 -1.8194550484246530E+00 a       218     0     9     1    18
 -1.5074164477168970E+00 a       219     0     9     1    19
 -4.8252510689149997E+00 a       220     0     9     1    20
 -6.8241714960831798E-02 a       221     0     9     1    21
  4.2400091298942293E+00 a       222     0     9     1    22
  5.9174094225927662E-02 a       223     0     9     1    23
  3.4417610436508279E+00 a       224     0     9     1    24
  5.2630622474392261E+00 a       225     0     9     1    25
  3.0731434220289200E-01 a       226     0    10     1     1
 -5.2715819606600061E+00 a       227     0    10     1     2
  1.6179477194434277E+00 a       228     0    10     1     3
 -1.6464245963074118E+00 a       229     0    10     1     4
  2.9887418090246163E+00 a       230     0    10     1     5
 -5.3141130204226228E-01 a       231     0    10     1     6
  1.2407554376872008E+00 a       232     0    10     1     7
 -1.3689851203570600E+00 a       233     0    10     1     8
 -4.0545792044585118E+00 a       234     0    10     1     9
  8.2870731331938363E-01 a       235     0    10     1    10
  1.4404012827345876E+00 a       236     0    10     1    11
 -3.6685182069338612E-01 a       237     0    10     1    12
 -2.9745592648460026E+00 a       238     0    10     1    13
 -7.7342744712138678E-01 a       239     0    10     1    14
 -3.0775763100104281E-01 a       240     0    10     1    15
 -1.3364531222818818E+00 a       241     0    10     1    16
  3.3505578583511846E+00 a       242     0    10     1    17
  6.3051138432698983E-01 a       243     0    10     1    18
  5.5145116371244702E+00 a       244     0    10     1    19
 -1.4981818467365107E+00 a       245     0    10     1    20
  2.8352677359467706E+00 a       246     0    10     1    21
 -1.8470017047974512E+00 a       247     0    10     1    22
 -4.4552713893013990E-01 a       248     0    10     1    23
 -2.7133383721734434E+00 a       249     0    10     1    24
 -2.5620265848456794E+00 a       250     0    10     1    25
 -3.3693860232179427E+00 a       251     0    11     1     1
  9.8872467456989277E+00 a       252     0    11     1     2
  9.3469882938328419E-01 a       253     0    11     1     3
 -5.4785355274631922E+00 a       254     0    11     1     4
 -6.1278805798713110E-01 a       255     0    11     1     5
 -1.2098303760347366E+00 a       256     0    11     1     6
  1.0125483005217161E-02 a       257     0    11     1     7
 -2.3645737882603748E+00 a       258     0    11     1     8
 -1.1241317870202387E+00 a       259     0    11     1     9
 -1.1264875432934141E+00 a       260     0    11     1    10
 -6.5177823523651435E-01 a       261     0    11     1    11
 -3.0678861536936025E-01 a       262     0    11     1    12
 -1.0414164604629242E+01 a       263     0    11     1    13
 -1.5184176788528025E+00 a       264     0    11     1    14
 -4.6978276969442110E+00 a       265     0    11     1    15
  4.0160995038638098E-01 a       266     0    11     1    16
 -1.4720775162429480E+00 a       267     0    11     1    17
  3.0483262468379618E-01 a       268     0    11     1    18
 -5.3937815354031358E+00 a       269     0    11     1    19
  6.9767947459734643E+00 a       270     0    11     1    20
 -2.1061272563210709E+00 a       271     0    11     1    21
 -8.7309291094096020E-01 a       272     0    11     1    22
 -1.8753087600125571E+00 a       273     0    11     1    23
 -9.5196817266632461E-01 a       274     0    11     1    24
 -1.5479288494639591E+00 a       275     0    11     1    25
 -2.9328807771499408E+00 a       276     0    12     1     1
  6.3980551249200897E+00 a       277     0    12     1     2
 -2.1592185957915784E+00 a       278     0    12     1     3
 -7.4499299106260952E-01 a       279     0    12     1     4
  2.2177385015747664E+00 a       280     0    12     1     5
 -4.9355471533979134E-01 a       281     0    12     1     6
 -3.1368658937293317E+00 a       282     0    12     1     7
  5.6047034595639067E-01 a       283     0    12     1     8
 -8.1020804988155581E-01 a       284     0    12     1     9
 -7.8144608630151948E+00 a       285     0    12     1    10
 -1.8362735676997040E+00 a       286     0    12     1    11
  2.9202102311375433E+00 a       287     0    12     1    12
 -4.6477503233284789E+00 a       288     0    12     1    13
  5.4084458375293369E+00 a       289     0    12     1    14
 -4.5279908210339501E+00 a       290     0    12     1    15
 -2.5650973570059468E+00 a       291     0    12     1    16
 -5.7263678891655116E+00 a       292     0    12     1    17
  3.6254746913203664E+00 a       293     0    12     1    18
 -2.8608806383163512E+00 a       294     0    12     1    19
  5.2872799466002052E+00 a       295     0    12     1    20
 -8.0450183627290563E+00 a       296     0    12     1    21
 -9.3137241302552010E-01 a       297     0    12     1    22
 -3.3370384524326715E+00 a       298     0    12     1    23
  8.0618608752384606E+00 a       299     0    12     1    24
  3.1993155645642046E+00 a       300     0    12     1    25
 -3.7784024043029074E-01 a       301     0    13     1     1
 -5.7575141371105720E-01 a       302     0    13     1     2
 -1.6011310231590514E+00 a       303     0    13     1     3
  5.0116170035629992E-01 a       304     0    13     1     4
 -1.1108784977048485E+00 a       305     0    13     1     5
  1.0483297259605897E+00 a       306     0    13     1     6
 -2.4046477680827469E+00 a       307     0    13     1     7
 -1.3365017848153129E+00 a       308     0    13     1     8
  1.5854495646487166E+00 a       309     0    13     1     9
  2.4206432128238642E-01 a       310     0    13     1    10
  4.7222982581414047E-01 a       311     0    13     1    11
 -6.1104335878795712E-01 a       312     0    13     1    12
 -1.3250278777337657E-01 a       313     0    13     1    13
 -1.6849374550490448E+00 a       314     0    13     1    14
  1.5021773232958535E+00 a       315     0    13     1    15
 -5.8343832149751407E-01 a       316     0    13     1    16
 -5.1874900113840439E-01 a       317     0    13     1    17
  1.1592248930735576E+00 a       318     0    13     1    18
  1.5015993665355198E+00 a       319     0    13     1    19
  1.1277151634573448E+00 a       320     0    13     1    20
  3.0548085869010229E+00 a       321     0    13     1    21
  6.2551163710766511E-01 a       322     0    13     1    22
  1.2029336928686234E+00 a       323     0    13     1    23
 -1.6601786169629191E+00 a       324     0    13     1    24
 -2.3387146922612392E-01 a       325     0    13     1    25
  2.2780640057441017E+00 a       326     0    14     1     1
 -8.9393978239215208E+00 a       327     0    14     1     2
 -6.9090441947705961E-01 a       328     0    14     1     3
  1.1829383519600105E+00 a       329     0    14     1     4
 -2.6137666495646967E+00 a       330     0    14     1     5
  2.3678362791343779E+00 a       331     0    14     1     6
 -1.5194066038690197E+00 a       332     0    14     1     7
 -4.1779045721958363E+00 a       333     0    14     1     8
  1.7751564598099689E+00 a       334     0    14     1     9
  7.5215212440311996E+00 a       335     0    14     1    10
  3.0544680338763932E+00 a       336     0    14     1    11
 -3.2317501519368594E+00 a       337     0    14     1    12
  2.5517819634098626E+00 a       338     0    14     1    13
 -7.8768295912620019E+00 a       339     0    14     1    14
  6.0717182170109840E+00 a       340     0    14     1    15
  4.4708629982630993E-01 a       341     0    14     1    16
  5.7557265601272354E+00 a       342     0    14     1    17
 -8.5881639025107925E-02 a       343     0    14     1    18
  7.2626285709807350E+00 a       344     0    14     1    19
 -2.7383267080434739E+00 a       345     0    14     1    20
  1.3881485499657915E+01 a       346     0    14     1    21
  1.0470491910475526E+00 a       347     0    14     1    22
  6.1141062937332711E+00 a       348     0    14     1    23
 -1.1789120641058027E+01 a       349     0    14     1    24
 -3.3983477935840911E+00 a       350     0    14     1    25
  2.4215691222761655E+00 a       351     0    15     1     1
  2.2584199522149566E+00 a       352     0    15     1     2
 -9.5662198250586528E-01 a       353     0    15     1     3
 -8.8850585229199763E-01 a       354     0    15     1     4
  7.5054635358924437E-01 a       355     0    15     1     5
  2.9298879607163011E+00 a       356     0    15     1     6
 -1.5064870223665396E+00 a       357     0    15     1     7
 -7.0877070028641664E-01 a       358     0    15     1     8
 -1.5504997029222709E+00 a       359     0    15     1     9
  1.8223421237611732E+00 a       360     0    15     1    10
 -3.3704455575148407E+00 a       361     0    15     1    11
 -1.5457355146489011E+00 a       362     0    15     1    12
  5.1301527842082448E+00 a       363     0    15     1    13
  3.0784389518520658E+00 a       364     0    15     1    14
  3.8113163338774508E-01 a       365     0    15     1    15
  1.2322054540903111E+00 a       366     0    15     1    16
  1.5447539324644848E+00 a       367     0    15     1    17
 -2.4250830534209862E+00 a       368     0    15     1    18
  8.2641648167970994E-01 a       369     0    15     1    19
  2.7066337016270756E+00 a       370     0    15     1    20
 -1.4511038121988364E+01 a       371     0    15     1    21
 -7.7970895472367618E-01 a       372     0    15     1    22
  2.1112745690419117E+00 a       373     0    15     1    23
  2.7582973029700724E+00 a       374     0    15     1    24
 -7.7836182839261070E-01 a       375     0    15     1    25
 -2.1557697649315404E-02 a       376     0    16     1     1
 -3.0334221464379536E+00 a       377     0    16     1     2
 -2.7188199787184258E-01 a       378     0    16     1     3
 -1.1608555162388023E+00 a       379     0    16     1     4
  2.0582457402204226E+00 a       380     0    16     1     5
  1.0241214752561795E-01 a       381     0    16     1     6
  1.7583807581974333E-02 a       382     0    16     1     7
  6.7180213221951210E-02 a       383     0    16     1     8
 -1.2124668284089275E+00 a       384     0    16     1     9
  3.3221264069840351E-01 a       385     0    16     1    10
  6.9035925599539938E-01 a       386     0    16     1    11
 -1.4933597178898858E-01 a       387     0    16     1    12
 -5.6567114333771810E-02 a       388     0    16     1    13
  4.2960512760455434E-02 a       389     0    16     1    14
  5.5837858388052142E-01 a       390     0    16     1    15
 -7.6603806657644680E-01 a       391     0    16     1    16
  2.6031556676934553E-01 a       392     0    16     1    17
  7.7413456793590907E-01 a       393     0    16     1    18
  3.1099239748265175E+00 a       394     0    16     1    19
 -1.2340463620584856E+00 a       395     0    16     1    20
  9.4785468610675527E-01 a       396     0    16     1    21
 -1.9098087905725520E+00 a       397     0    16     1    22
  5.0573349855009708E-01 a       398     0    16     1    23
 -1.3786756749290277E+00 a       399     0    16     1    24
 -1.8240141774719576E+00 a       400     0    16     1    25
 -1.6185259848712850E+00 a       401     0    17     1     1
  7.1656434015482418E-01 a       402     0    17     1     2
 -3.9892064194218074E-01 a       403     0    17     1     3
  2.7440738511547624E+00 a       404     0    17     1     4
 -2.5121342833554317E+00 a       405     0    17     1     5
 -2.7824996891477141E+00 a       406     0    17     1     6
  1.1000127372123765E+00 a       407     0    17     1     7
  1.8458894090864697E+00 a       408     0    17     1     8
  4.2460769104558977E+00 a       409     0    17     1     9
 -2.4655232851912716E+00 a       410     0    17     1    10
  3.1221570841056936E+00 a       411     0    17     1    11
  8.5605900566119109E-01 a       412     0    17     1    12
 -2.2820372775216553E+00 a       413     0    17     1    13
 -2.0320964653565756E+00 a       414     0    17     1    14
  6.0553886987366479E-01 a       415     0    17     1    15
 -5.2357623993104363E-01 a       416     0    17     1    16
 -4.0992430880652622E+00 a       417     0    17     1    17
  1.7945547785956493E+00 a       418     0    17     1    18
 -3.4026240729969870E+00 a       419     0    17     1    19
 -1.8664811466970250E+00 a       420     0    17     1    20
  1.2254516091954128E+01 a       421     0    17     1    21
  1.6878589370161960E+00 a       422     0    17     1    22
 -3.9595557841881573E-01 a       423     0    17     1    23
 -6.2744619768452181E-01 a       424     0    17     1    24
  1.9272002694964692E+00 a       425     0    17     1    25
  2.0969161719521008E+00 a       426     0    18     1     1
  5.5640048887895843E-01 a       427     0    18     1     2
  1.9105462703701650E+00 a       428     0    18     1     3
 -2.3931542376139352E+00 a       429     0    18     1     4
 -3.1477451727302483E+00 a       430     0    18     1     5
 -1.8943010251984869E+00 a       431     0    18     1     6
  4.7066166648260399E+00 a       432     0    18     1     7
  2.2486020989270523E+00 a       433     0    18     1     8
  1.9995304460266419E+00 a       434     0    18     1     9
 -1.1102076531788960E+00 a       435     0    18     1    10
  3.7069072301538539E+00 a       436     0    18     1    11
  3.5957796480464137E+00 a       437     0    18     1    12
 -1.6015756336669087E+00 a       438     0    18     1    13
 -6.7866810000214239E-01 a       439     0    18     1    14
 -1.7136139899378953E+00 a       440     0    18     1    15
  8.2394654427452152E-01 a       441     0    18     1    16
 -4.6153719217506257E+00 a       442     0    18     1    17
 -2.4028949540903044E+00 a       443     0    18     1    18
 -5.7153988413379837E+00 a       444     0    18     1    19
  2.0076209992824019E+00 a       445     0    18     1    20
  4.4333231484670854E+00 a       446     0    18     1    21
  3.5604679268322195E+00 a       447     0    18     1    22
 -9.3036886450253009E-01 a       448     0    18     1    23
  4.7214135143393343E-01 a       449     0    18     1    24
  4.0058217671359131E+00 a       450     0    18     1    25
  3.6144642363859592E-01 a       451     0    19     1     1
  3.9206232926518175E-01 a       452     0    19     1     2
  2.0481274367826927E+00 a       453     0    19     1     3
 -6.4454591254814542E-01 a       454     0    19     1     4
  1.3286309385139554E+00 a       455     0    19     1     5
 -6.8080285621092673E-01 a       456     0    19     1     6
  3.2258030152887094E+00 a       457     0    19     1     7
  1.8166873073752092E+00 a       458     0    19     1     8
 -1.9607838613943951E+00 a       459     0    19     1     9
  2.1697752931992481E-01 a       460     0    19     1    10
 -9.5417959849401129E-02 a       461     0    19     1    11
  3.3590148629257394E-01 a       462     0    19     1    12
  1.2948638812128510E+00 a       463     0    19     1    13
  1.7149544875269465E+00 a       464     0    19     1    14
 -1.0408646761092621E+00 a       465     0    19     1    15
  1.4350057300328263E+00 a       466     0    19     1    16
 -6.4991121310523328E-02 a       467     0    19     1    17
 -2.5386846164364676E+00 a       468     0    19     1    18
 -2.4382874338130640E+00 a       469     0    19     1    19
 -2.0168863890528943E+00 a       470     0    19     1    20
 -3.7338664218452302E+00 a       471     0    19     1    21
 -2.7314485027795077E-01 a       472     0    19     1    22
 -2.1310226184682843E+00 a       473     0    19     1    23
  2.5480551494417734E+00 a       474     0    19     1    24
 -1.5278622609492856E-01 a       475     0    19     1    25
 -7.1435107335953407E-01 a       476     0    20     1     1
  3.0313891587820301E+00 a       477     0    20     1     2
  2.0317599008707647E+00 a       478     0    20     1     3
  2.0022650428868962E+00 a       479     0    20     1     4
  3.3830042836945555E+00 a       480     0    20     1     5
  5.3364467239640456E-01 a       481     0    20     1     6
  1.5062898358259451E+00 a       482     0    20     1     7
  2.7628174207945793E+00 a       483     0    20     1     8
 -4.1359699549337261E+00 a       484     0    20     1     9
  9.5346006356573410E-01 a       485     0    20     1    10
 -5.0830345413486526E+00 a       486     0    20     1    11
 -1.5567665068826673E+00 a       487     0    20     1    12
  4.5562511728808817E+00 a       488     0    20     1    13
  5.2009340272896996E+00 a       489     0    20     1    14
  4.4496871025954482E-01 a       490     0    20     1    15
  2.4910837723701866E+00 a       491     0    20     1    16
  2.8842101023817937E+00 a       492     0    20     1    17
 -3.1325229179778873E+00 a       493     0    20     1    18
 -7.7687147670882784E-01 a       494     0    20     1    19
 -4.0183974442968324E+00 a       495     0    20     1    20
 -1.3436325575039247E+01 a       496     0    20     1    21
 -4.0437996240628529E+00 a       497     0    20     1    22
 -2.1738242815383479E+00 a       498     0    20     1    23
  5.7226201809250119E+00 a       499     0    20     1    24
 -2.2561013764845019E+00 a       500     0    20     1    25
 -3.2061114355706803E+00 a       501     0    21     1     1
  2.6941171239585893E-01 a       502     0    21     1     2
 -4.2273509487124983E+00 a       503     0    21     1     3
 -1.3709292132401261E+00 a       504     0    21     1     4
  9.3360940052071095E-01 a       505     0    21     1     5
  6.2723845299727996E+00 a       506     0    21     1     6
 -2.2253426752679109E+00 a       507     0    21     1     7
  2.6057371470980581E+00 a       508     0    21     1     8
  5.7748365614093551E+00 a       509     0    21     1     9
  1.9009485800226196E+00 a       510     0    21     1    10
 -2.9663455509535583E+00 a       511     0    21     1    11
  9.9577551466067860E-01 a       512     0    21     1    12
  5.7782409575076947E+00 a       513     0    21     1    13
 -1.7295548008679351E+00 a       514     0    21     1    14
 -6.3164291654932043E+00 a       515     0    21     1    15
 -1.9897773255991286E-01 a       516     0    21     1    16
  6.4127013092093650E+00 a       517     0    21     1    17
  1.0177309173548004E+00 a       518     0    21     1    18
 -1.7149938924392505E+00 a       519     0    21     1    19
 -6.2172258242600016E+00 a       520     0    21     1    20
 -2.2121426574499310E+00 a       521     0    21     1    21
  2.1648941865207960E+00 a       522     0    21     1    22
 -3.9556459629640526E+00 a       523     0    21     1    23
  1.7212489780300109E+00 a       524     0    21     1    24
 -2.7223803511328208E+00 a       525     0    21     1    25
 -6.2795102113215573E-01 a       526     0    22     1     1
 -3.3959904791973434E+00 a       527     0    22     1     2
 -1.4920429943353836E-01 a       528     0    22     1     3
 -8.4541326281484841E-01 a       529     0    22     1     4
  2.2802367233711447E+00 a       530     0    22     1     5
 -3.7707163527572640E-01 a       531     0    22     1     6
 -1.1766817935866642E+00 a       532     0    22     1     7
 -1.0827913519029642E+00 a       533     0    22     1     8
 -1.4627506540348216E+00 a       534     0    22     1     9
  4.5459944891892597E-02 a       535     0    22     1    10
  4.1165490478548605E-01 a       536     0    22     1    11
 -4.3490726108152622E-01 a       537     0    22     1    12
 -1.3369605887685754E+00 a       538     0    22     1    13
 -7.0563066690966214E-01 a       539     0    22     1    14
 -5.3014172885155897E-01 a       540     0    22     1    15
 -1.3655280411674329E+00 a       541     0    22     1    16
  2.0774095192752791E+00 a       542     0    22     1    17
  2.2287565065297468E+00 a       543     0    22     1    18
  3.8433882635231131E+00 a       544     0    22     1    19
 -1.4411856911207699E+00 a       545     0    22     1    20
  2.3359805234434652E+00 a       546     0    22     1    21
 -1.4547918807978162E+00 a       547     0    22     1    22
 -3.5650547543760752E-01 a       548     0    22     1    23
 -1.9683374929102324E+00 a       549     0    22     1    24
 -2.1953398168654110E+00 a       550     0    22     1    25
  2.3435743356038574E+00 a       551     0    23     1     1
  1.8395605572473754E+00 a       552     0    23     1     2
  1.8799264768003963E+00 a       553     0    23     1     3
  2.2685174285539249E+00 a       554     0    23     1     4
 -3.3221168362692874E+00 a       555     0    23     1     5
 -5.4565628181638788E+00 a       556     0    23     1     6
 -9.1699952702843845E-01 a       557     0    23     1     7
 -3.4971626482578135E+00 a       558     0    23     1     8
 -2.9244525199510547E+00 a       559     0    23     1     9
 -2.2112099975614474E+00 a       560     0    23     1    10
  2.4670423104388717E+00 a       561     0    23     1    11
 -8.8866537036022875E-01 a       562     0    23     1    12
 -6.1000505231733246E+00 a       563     0    23     1    13
  3.1556250843555783E-01 a       564     0    23     1    14
  6.5935682181098692E+00 a       565     0    23     1    15
 -8.7885554590337056E-01 a       566     0    23     1    16
 -6.7553454573787981E+00 a       567     0    23     1    17
  1.0949182710350331E+00 a       568     0    23     1    18
  1.5603872547561213E+00 a       569     0    23     1    19
  8.4087456222997865E+00 a       570     0    23     1    20
  4.4794191062760378E+00 a       571     0    23     1    21
 -4.1764498108842946E-01 a       572     0    23     1    22
  6.2571081227793828E+00 a       573     0    23     1    23
 -3.1277146648954850E+00 a       574     0    23     1    24
  3.6778467739179224E+00 a       575     0    23     1    25
 -6.4582136031416004E-01 a       576     0    24     1     1
  4.8005023001628988E-01 a       577     0    24     1     2
 -3.2935934142754236E-01 a       578     0    24     1     3
  1.1907948335172036E+00 a       579     0    24     1     4
 -2.3818708343246087E+00 a       580     0    24     1     5
  2.0125047486987953E+00 a       581     0    24     1     6
 -5.5886188287942606E-01 a       582     0    24     1     7
  2.1237998736691219E+00 a       583     0    24     1     8
  8.2248460565760051E-01 a       584     0    24     1     9
  8.2295835973743581E-01 a       585     0    24     1    10
 -5.1914985114413181E-01 a       586     0    24     1    11
  1.1658183547934162E+00 a       587     0    24     1    12
  1.2400562824183747E+00 a       588     0    24     1    13
 -1.7978515418081149E+00 a       589     0    24     1    14
  1.7932980517504955E+00 a       590     0    24     1    15
 -2.3855365500478856E-01 a       591     0    24     1    16
  3.1307894916115613E+00 a       592     0    24     1    17
 -2.2483583009274750E+00 a       593     0    24     1    18
  2.5034599744460402E+00 a       594     0    24     1    19
 -1.1698185494377106E-01 a       595     0    24     1    20
 -2.7378103122139497E-01 a       596     0    24     1    21
  1.7442014003333175E+00 a       597     0    24     1    22
  2.3491192807578862E+00 a       598     0    24     1    23
 -9.0585089417873155E-01 a       599     0    24     1    24
  1.8890186193556000E+00 a       600     0    24     1    25
  1.1017037629171935E+00 a       601     0    25     1     1
 -5.2285675311079494E-01 a       602     0    25     1     2
  1.1752979798456245E+00 a       603     0    25     1     3
 -2.6792950620418008E+00 a       604     0    25     1     4
  4.2171129426600986E+00 a       605     0    25     1     5
 -3.3456524998798836E+00 a       606     0    25     1     6
  8.6540104973177101E-01 a       607     0    25     1     7
 -3.9619753254828169E+00 a       608     0    25     1     8
 -1.2887562307621567E+00 a       609     0    25     1     9
 -2.1379315469770375E+00 a       610     0    25     1    10
  1.0589053816850915E+00 a       611     0    25     1    11
 -2.1489934164818720E+00 a       612     0    25     1    12
 -1.1431205408068663E+00 a       613     0    25     1    13
  2.8193062317744668E+00 a       614     0    25     1    14
 -3.1812236203789794E+00 a       615     0    25     1    15
  7.0989621298813643E-01 a       616     0    25     1    16
 -4.5667153375700389E+00 a       617     0    25     1    17
  3.2389323052012915E+00 a       618     0    25     1    18
 -4.2992049802663432E+00 a       619     0    25     1    19
  8.2137259173203325E-01 a       620     0    25     1    20
  4.7358932505024119E-02 a       621     0    25     1    21
 -2.2246845235759567E+00 a       622     0    25     1    22
 -4.6593826687385924E+00 a       623     0    25     1    23
  1.5028620469223837E+00 a       624     0    25     1    24
 -3.0994595727558343E+00 a       625     0    25     1    25
 -5.0909967540540291E-01 a       626     0    26     1     1
  1.3041125416017954E-01 a       627     0    26     1     2
 -7.8611614608659586E-01 a       628     0    26     1     3
  1.4250153109231463E+00 a       629     0    26     1     4
 -1.8634986908012610E+00 a       630     0    26     1     5
  1.3989244767752675E+00 a       631     0    26     1     6
 -2.9568537075478957E-01 a       632     0    26     1     7
  1.8790785528168392E+00 a       633     0    26     1     8
  4.9666500929904517E-01 a       634     0    26     1     9
  1.2868912732800151E+00 a       635     0    26     1    10
 -5.8085139140216357E-01 a       636     0    26     1    11
  1.0009263559082089E+00 a       637     0    26     1    12
  9.1970322605770746E-02 a       638     0    26     1    13
 -1.0734626715913547E+00 a       639     0    26     1    14
  1.4634110845183537E+00 a       640     0    26     1    15
 -3.6299104207887511E-01 a       641     0    26     1    16
  1.6830088861123020E+00 a       642     0    26     1    17
 -1.1495289422013084E+00 a       643     0    26     1    18
  1.8445642707331447E+00 a       644     0    26     1    19
 -6.8097551640897602E-01 a       645     0    26     1    20
  1.6312332077864830E-01 a       646     0    26     1    21
  6.4070319538394183E-01 a       647     0    26     1    22
  2.2376898426983960E+00 a       648     0    26     1    23
 -6.5070956135394442E-01 a       649     0    26     1    24
  1.3689049393130768E+00 a       650     0    26     1    25
 -1.7015191705395977E-01 b       651     1     1
 -1.1289266062391518E-01 b       652     1     2
 -2.9147091810535529E-03 b       653     1     3
 -2.7540023505851230E-01 b       654     1     4
  2.1591748428916166E-01 b       655     1     5
  2.2942034140731093E-01 b       656     1     6
  1.5715041952319581E-01 b       657     1     7
  2.3872854785448780E-01 b       658     1     8
 -1.5769349524044124E-01 b       659     1     9
 -3.8177124687966474E-03 b       660     1    10
  2.3748855333665327E-02 b       661     1    11
  1.0063010794525625E-02 b       662     1    12
  1.3424440178224592E-01 b       663     1    13
 -3.6326579459360443E-02 b       664     1    14
 -3.6452491339378022E-02 b       665     1    15
 -5.2582417274103399E-02 b       666     1    16
  5.2657950770722134E-02 b       667     1    17
 -3.2294649057591823E-01 b       668     1    18
  1.9184470866399914E-01 b       669     1    19
 -5.7422183458954767E-01 b       670     1    20
 -3.8982244419555639E-01 b       671     1    21
  8.1527066286995062E-02 b       672     1    22
 -4.2284889778543522E-01 b       673     1    23
  1.9037739215141955E-01 b       674     1    24
 -4.9621044959976135E-01 b       675     1    25
 -2.3738585580739535E-01 a       676     1     1     2     1
  9.2413818024451766E-01 a       677     1     1     2     2
  1.4435762349703134E+00 a       678     1     1     2     3
  2.3556461529094155E-01 a       679     1     1     2     4
 -1.5527523693712669E-01 a       680     1     1     2     5
 -1.1607601611615488E+00 a       681     1     1     2     6
  2.2004580490861680E-02 a       682     1     1     2     7
 -7.6164249835463738E-01 a       683     1     1     2     8
  4.3963958997258579E-02 a       684     1     1     2     9
  1.2255007959097632E-01 a       685     1     1     2    10
 -1.7848039605963370E-01 a       686     1     1     2    11
 -1.2810615898929051E-01 a       687     1     1     2    12
 -4.6348904396620605E-01 a       688     1     1     2    13
  2.0078586591370043E-01 a       689     1     1     2    14
  3.0085021294557861E-02 a       690     1     1     2    15
  4.4682492123743964E-02 a       691     1     1     2    16
 -2.2892699347805501E-01 a       692     1     1     2    17
  4.1056938627586428E-02 a       693     1     1     2    18
  6.9875228418922020E-02 a       694     1     1     2    19
 -2.2473935874754256E-01 a       695     1     1     2    20
  3.6911992825794174E-02 a       696     1     1     2    21
  4.0189993320010903E-01 a       697     1     1     2    22
  5.1620265851813306E-02 a       698     1     1     2    23
 -4.2710729777514872E-01 a       699     1     1     2    24
 -4.3649950603250559E-01 a       700     1     1     2    25
  1.0787167348895552E+00 a       701     1     2     2     1
 -5.1942721054550356E-01 a       702     1     2     2     2
 -1.4092928277031849E+00 a       703     1     2     2     3
 -1.5706097904379568E-01 a       704     1     2     2     4
  4.8251756737107537E-01 a       705     1     2     2     5
  1.4969437010008211E+00 a       706     1     2     2     6
 -2.1312345121628481E-01 a       707     1     2     2     7
 -1.5836414897472179E-01 a       708     1     2     2     8
  3.2367323520995350E-01 a       709     1     2     2     9
  1.8920830438398664E-02 a       710     1     2     2    10
 -1.2542291238133710E-01 a       711     1     2     2    11
  4.7355448448266602E-01 a       712     1     2     2    12
 -1.0174651558068616E-01 a       713     1     2     2    13
  2.1453844998587526E-01 a       714     1     2     2    14
 -2.6230430897554996E-01 a       715     1     2     2    15
  1.7106535843413810E-02 a       716     1     2     2    16
 -1.2715121833774110E-01 a       717     1     2     2    17
  4.5724696841333501E-01 a       718     1     2     2    18
  1.4962510912931981E-01 a       719     1     2     2    19
 -3.8212661182578328E-01 a       720     1     2     2    20
  3.3732961937485911E-01 a       721     1     2     2    21
 -1.3000661299111964E+00 a       722     1     2     2    22
 -2.3558609087636070E-01 a       723     1     2     2    23
  6.7407912080669641E-01 a       724     1     2     2    24
 -4.4639397843801787E-01 a       725     1     2     2    25
 -1.1756286141125839E-01 a       726     1     3     2     1
 -3.8831673356836155E-02 a       727     1     3     2     2
 -7.6741380782274127E-01 a       728     1     3     2     3
 -2.5811689191793463E-01 a       729     1     3     2     4
  2.6577679915250574E-01 a       730     1     3     2     5
  3.9722769282498871E-01 a       731     1     3     2     6
 -7.9253259646078392E-02 a       732     1     3     2     7
 -2.1388043764639350E-01 a       733     1     3     2     8
  2.9152689967476114E-01 a       734     1     3     2     9
 -4.9188639900190850E-01 a       735     1     3     2    10
  2.8586846024759188E-01 a       736     1     3     2    11
  2.5468577167254806E-02 a       737     1     3     2    12
  3.2568986782995690E-01 a       738     1     3     2    13
 -2.4768934035876897E-01 a       739     1     3     2    14
  2.6528119223798258E-01 a       740     1     3     2    15
 -4.0080687892568467E-01 a       741     1     3     2    16
  1.6746269495824370E-01 a       742     1     3     2    17
 -5.1129596679780187E-01 a       743     1     3     2    18
 -1.3527360433204161E-01 a       744     1     3     2    19
  5.3997804741703714E-01 a       745     1     3     2    20
  3.5902782807549793E-01 a       746     1     3     2    21
  7.6309251151303081E-01 a       747     1     3     2    22
 -9.6776054916123316E-02 a       748     1     3     2    23
  6.4624512517815502E-01 a       749     1     3     2    24
 -9.9645674948757379E-01 a       750     1     3     2    25
 -3.2078789493114052E-01 a       751     1     4     2     1
  1.0939005594012565E+00 a       752     1     4     2     2
  4.3575435454314593E-01 a       753     1     4     2     3
 -4.7650274312453217E-01 a       754     1     4     2     4
  4.5295751008257701E-01 a       755     1     4     2     5
 -3.7663531573408415E-01 a       756     1     4     2     6
 -4.2798260886952759E-02 a       757     1     4     2     7
  4.0289047360610251E-02 a       758     1     4     2     8
 -1.9772599262050838E-01 a       759     1     4     2     9
  8.4033922927677751E-01 a       760     1     4     2    10
  8.6170882825449435E-02 a       761     1     4     2    11
  5.7445492430440712E-02 a       762     1     4     2    12
 -6.3600413290777058E-01 a       763     1     4     2    13
  2.2273274875634333E-01 a       764     1     4     2    14
  1.2793618046551028E-01 a       765     1     4     2    15
 -1.6625397465594013E-01 a       766     1     4     2    16
  6.4401292989394732E-02 a       767     1     4     2    17
 -2.4940900108704767E-01 a       768     1     4     2    18
  4.3964153172621889E-01 a       769     1     4     2    19
 -5.5575906519364104E-01 a       770     1     4     2    20
 -7.2822311538769335E-02 a       771     1     4     2    21
  5.5928166264888189E-02 a       772     1     4     2    22
  3.9922325293213790E-01 a       773     1     4     2    23
  8.2218960582022760E-01 a       774     1     4     2    24
  4.7020870829389515E-02 a       775     1     4     2    25
 -4.6877165835334228E-01 a       776     1     5     2     1
 -6.4367945275586380E-01 a       777     1     5     2     2
 -7.0701109665247064E-01 a       778     1     5     2     3
  1.7219472879936437E-01 a       779     1     5     2     4
  6.3918531799586800E-02 a       780     1     5     2     5
  8.5428370993286629E-01 a       781     1     5     2     6
 -1.7282473099583320E-01 a       782     1     5     2     7
 -2.4858336868383707E-01 a       783     1     5     2     8
  5.9908432100212583E-01 a       784     1     5     2     9
 -8.5267859328928364E-01 a       785     1     5     2    10
 -1.6604310872652006E-01 a       786     1     5     2    11
 -3.4736735362332649E-01 a       787     1     5     2    12
  4.8332954580605558E-01 a       788     1     5     2    13
  2.1958615594521860E-01 a       789     1     5     2    14
 -9.4958151156960144E-02 a       790     1     5     2    15
  2.7751763172538014E-02 a       791     1     5     2    16
  3.0833622501793234E-01 a       792     1     5     2    17
  2.5734195429268475E-01 a       793     1     5     2    18
 -2.9632065508336120E-01 a       794     1     5     2    19
  2.1085676921432150E-01 a       795     1     5     2    20
  1.1415110329739463E-01 a       796     1     5     2    21
  3.4064930933098481E-02 a       797     1     5     2    22
  2.9822855113056734E-01 a       798     1     5     2    23
  8.1991999452411590E-01 a       799     1     5     2    24
 -5.9540914945968759E-01 a       800     1     5     2    25
  5.8601761952225861E-01 a       801     1     6     2     1
 -2.5797723791909144E-01 a       802     1     6     2     2
  2.3271381326547666E-01 a       803     1     6     2     3
 -7.1818536735239094E-02 a       804     1     6     2     4
 -2.3314391564403142E-01 a       805     1     6     2     5
  9.6198619321525847E-01 a       806     1     6     2     6
 -3.7410617796107165E-01 a       807     1     6     2     7
  3.3154367737216903E-02 a       808     1     6     2     8
 -5.5629902078016746E-01 a       809     1     6     2     9
 -1.8113459997888487E-01 a       810     1     6     2    10
  1.9045748002048746E-01 a       811     1     6     2    11
 -1.8325874162874825E-01 a       812     1     6     2    12
  4.0043800572644361E-01 a       813     1     6     2    13
 -2.4998985871222792E-01 a       814     1     6     2    14
  2.3518035947131630E-01 a       815     1     6     2    15
  2.9941409368148608E-01 a       816     1     6     2    16
  8.5688066626834508E-02 a       817     1     6     2    17
 -1.6899509627087786E-01 a       818     1     6     2    18
  3.4435960871314031E-01 a       819     1     6     2    19
 -2.4972439092072049E-01 a       820     1     6     2    20
  6.5786223603654004E-01 a       821     1     6     2    21
 -1.8264316033933770E+00 a       822     1     6     2    22
  7.7961229253515375E-03 a       823     1     6     2    23
  1.0455881091024390E+00 a       824     1     6     2    24
  8.6547959916478368E-01 a       825     1     6     2    25
 -7.0319216037847271E-02 a       826     1     7     2     1
  3.6670591130497920E-01 a       827     1     7     2     2
  1.2145319932762635E+00 a       828     1     7     2     3
  1.6052138560958543E-01 a       829     1     7     2     4
  4.7286646191999226E-01 a       830     1     7     2     5
 -9.5105575922101149E-01 a       831     1     7     2     6
  2.3445636346646700E-01 a       832     1     7     2     7
 -7.7228186394042286E-01 a       833     1     7     2     8
 -2.4132796757319255E-01 a       834     1     7     2     9
  3.7395862280978520E-01 a       835     1     7     2    10
  1.0920831332816956E+00 a       836     1     7     2    11
 -2.0193227639249342E-01 a       837     1     7     2    12
 -1.8325141892542127E-01 a       838     1     7     2    13
  5.2424138827227085E-01 a       839     1     7     2    14
  2.1862053037750509E-01 a       840     1     7     2    15
  3.6797439636880952E-01 a       841     1     7     2    16
 -1.8336215726741142E-01 a       842     1     7     2    17
 -6.5518079760553669E-02 a       843     1     7     2    18
 -1.2212096159640520E-01 a       844     1     7     2    19
 -5.4977771037399292E-01 a       845     1     7     2    20
 -3.0016047055502276E-01 a       846     1     7     2    21
  4.1022949771713491E-01 a       847     1     7     2    22
  2.5175945571438929E-01 a       848     1     7     2    23
 -8.7620156099534474E-01 a       849     1     7     2    24
  2.5801913132742410E-01 a       850     1     7     2    25
 -3.6527751975646527E-01 a       851     1     8     2     1
  9.0176195766753475E-01 a       852     1     8     2     2
  5.0087115368023638E-01 a       853     1     8     2     3
  6.3331565880745966E-01 a       854     1     8     2     4
 -5.7084561507605236E-01 a       855     1     8     2     5
 -5.9673585082084435E-01 a       856     1     8     2     6
 -2.1835169365800289E-01 a       857     1     8     2     7
  8.0153475898226312E-01 a       858     1     8     2     8
 -4.3881927783042612E-01 a       859     1     8     2     9
  5.3896687241940366E-01 a       860     1     8     2    10
  2.7793621841075078E-01 a       861     1     8     2    11
  1.4145355827624195E-01 a       862     1     8     2    12
 -1.4333387868939709E+00 a       863     1     8     2    13
  3.6866065122550479E-01 a       864     1     8     2    14
  1.7552767368799799E-01 a       865     1     8     2    15
  2.2825981754509786E-01 a       866     1     8     2    16
 -6.3501123031223988E-02 a       867     1     8     2    17
  2.5173749863882144E-01 a       868     1     8     2    18
 -5.7115356275110885E-02 a       869     1     8     2    19
 -1.4592638114164689E+00 a       870     1     8     2    20
  4.8445730461816683E-01 a       871     1     8     2    21
  7.7490251378290076E-01 a       872     1     8     2    22
  3.5614274947554148E-01 a       873     1     8     2    23
 -2.1004290359540906E-01 a       874     1     8     2    24
 -5.3185481642365073E-01 a       875     1     8     2    25
 -3.3800914995540859E-01 a       876     1     9     2     1
 -5.0004608030515008E-01 a       877     1     9     2     2
 -6.7602956193626251E-01 a       878     1     9     2     3
  8.5684368359943155E-02 a       879     1     9     2     4
 -1.1450943478188019E-01 a       880     1     9     2     5
  4.0100886478104830E-01 a       881     1     9     2     6
 -2.4712239864085508E-01 a       882     1     9     2     7
 -8.7149128238308407E-02 a       883     1     9     2     8
 -2.5691836434701293E-01 a       884     1     9     2     9
 -4.7916302149481360E-01 a       885     1     9     2    10
 -7.7525013949657706E-01 a       886     1     9     2    11
  3.9421597896211308E-01 a       887     1     9     2    12
 -6.7297529075792117E-01 a       888     1     9     2    13
 -6.4993798105468770E-01 a       889     1     9     2    14
 -6.1835505463177132E-01 a       890     1     9     2    15
  2.2004799600173122E-01 a       891     1     9     2    16
  7.3703617620419853E-02 a       892     1     9     2    17
  5.6058099756075030E-01 a       893     1     9     2    18
  3.1497660523476195E-01 a       894     1     9     2    19
  6.1064700240430736E-01 a       895     1     9     2    20
  5.6631922687933579E-02 a       896     1     9     2    21
 -7.2293148627589110E-01 a       897     1     9     2    22
 -1.0812036313354876E-02 a       898     1     9     2    23
  2.5199583765625616E-01 a       899     1     9     2    24
  2.0385817523167091E-01 a       900     1     9     2    25
  5.8339643333073365E-01 a       901     1    10     2     1
  5.0690794556359364E-01 a       902     1    10     2     2
  9.6346087257164370E-01 a       903     1    10     2     3
  1.0238818543859797E-01 a       904     1    10     2     4
 -7.3860959821763872E-01 a       905     1    10     2     5
 -8.1023299166854712E-01 a       906     1    10     2     6
 -1.0221737980390620E-01 a       907     1    10     2     7
 -8.6218646306014035E-01 a       908     1    10     2     8
  2.2782772213784883E-01 a       909     1    10     2     9
 -4.8611463083489220E-01 a       910     1    10     2    10
  8.3751161617410319E-01 a       911     1    10     2    11
  2.2639009782792877E-02 a       912     1    10     2    12
 -6.7877717046374991E-02 a       913     1    10     2    13
  1.5483130491643426E-01 a       914     1    10     2    14
  4.8977903326877917E-02 a       915     1    10     2    15
  4.1851565658380369E-01 a       916     1    10     2    16
 -1.9134813857421670E-01 a       917     1    10     2    17
 -1.3329447510245807E-01 a       918     1    10     2    18
  1.6784046727640550E-01 a       919     1    10     2    19
 -3.2691521733907608E-01 a       920     1    10     2    20
  4.1265207157768441E-01 a       921     1    10     2    21
 -5.8541743074455266E-01 a       922     1    10     2    22
  4.1170746984210421E-01 a       923     1    10     2    23
  3.9743545539987596E-01 a       924     1    10     2    24
 -1.7380720250670531E-01 a       925     1    10     2    25
 -6.6044972760375342E-01 a       926     1    11     2     1
  1.2986675971828472E+00 a       927     1    11     2     2
  2.1917077632555215E+00 a       928     1    11     2     3
  2.5279311921964470E-01 a       929     1    11     2     4
 -8.3339987894698861E-02 a       930     1    11     2     5
  1.2449038439463920E+00 a       931     1    11     2     6
 -3.2211816355401388E-03 a       932     1    11     2     7
  1.5645012610932249E-01 a       933     1    11     2     8
 -1.1920343418504789E-01 a       934     1    11     2     9
  4.5618956793200555E-01 a       935     1    11     2    10
  7.6116930561282756E-02 a       936     1    11     2    11
  4.2468985360574246E-01 a       937     1    11     2    12
  1.0978308755956319E+00 a       938     1    11     2    13
 -7.8205801767039909E-02 a       939     1    11     2    14
  6.5508273867420863E-01 a       940     1    11     2    15
 -1.1579893786650766E-01 a       941     1    11     2    16
 -5.5858152727221819E-02 a       942     1    11     2    17
 -7.6449926202450869E-01 a       943     1    11     2    18
 -1.5596753009145534E-01 a       944     1    11     2    19
 -3.9754117287468188E-01 a       945     1    11     2    20
 -2.9622005536205276E-01 a       946     1    11     2    21
  9.7423337708394597E-01 a       947     1    11     2    22
  1.1512495759501873E-01 a       948     1    11     2    23
 -7.7705196638499285E-01 a       949     1    11     2    24
 -8.7489836718453395E-01 a       950     1    11     2    25
  3.6213310563711498E-01 a       951     1    12     2     1
  3.1788151600684694E-01 a       952     1    12     2     2
  9.7597081045655976E-01 a       953     1    12     2     3
  3.5559393966452219E-01 a       954     1    12     2     4
  8.6567115469128444E-02 a       955     1    12     2     5
  1.1887827164108040E+00 a       956     1    12     2     6
 -3.0387916343982779E-01 a       957     1    12     2     7
  2.7972737240641943E-01 a       958     1    12     2     8
 -7.3775352609170605E-02 a       959     1    12     2     9
  2.3710636421867676E-01 a       960     1    12     2    10
  1.0051343169995380E-01 a       961     1    12     2    11
 -2.5175526184163501E-02 a       962     1    12     2    12
  9.5221155824052911E-02 a       963     1    12     2    13
  2.9764519635049175E-01 a       964     1    12     2    14
 -4.4822736221838066E-01 a       965     1    12     2    15
  1.2741751365680934E-01 a       966     1    12     2    16
  1.1378119554725492E-03 a       967     1    12     2    17
  1.4047255950110348E-02 a       968     1    12     2    18
 -1.5101020808616730E-01 a       969     1    12     2    19
 -2.5005400690191965E-01 a       970     1    12     2    20
  2.9076498680009766E-01 a       971     1    12     2    21
 -1.4559107626627449E-01 a       972     1    12     2    22
  7.6825664991930398E-01 a       973     1    12     2    23
 -6.4521052041950666E-01 a       974     1    12     2    24
 -6.5487969410786695E-01 a       975     1    12     2    25
 -9.0925476436202454E-02 a       976     1    13     2     1
  5.8973779484283284E-01 a       977     1    13     2     2
  1.4240325533880902E+00 a       978     1    13     2     3
  1.9582109011625215E-01 a       979     1    13     2     4
 -6.5754712777900448E-01 a       980     1    13     2     5
 -3.3614883696153541E-01 a       981     1    13     2     6
  6.0990685512052847E-02 a       982     1    13     2     7
 -5.8826645456287119E-01 a       983     1    13     2     8
 -1.0416004240422001E-01 a       984     1    13     2     9
 -3.8987759865193472E-01 a       985     1    13     2    10
 -1.4717987177147066E-01 a       986     1    13     2    11
  2.7003537718535295E-02 a       987     1    13     2    12
 -1.9451269751817285E-01 a       988     1    13     2    13
  1.0576787652440344E-02 a       989     1    13     2    14
  3.5850457218039522E-01 a       990     1    13     2    15
  3.7866692958837989E-01 a       991     1    13     2    16
  2.3248414223052422E-02 a       992     1    13     2    17
 -1.3123969586745055E-01 a       993     1    13     2    18
  4.4369539002681763E-01 a       994     1    13     2    19
 -6.3781873977437964E-01 a       995     1    13     2    20
  5.6197591156812843E-01 a       996     1    13     2    21
 -8.0297891909747110E-01 a       997     1    13     2    22
  8.5328099955148992E-02 a       998     1    13     2    23
  2.0167176342129187E-01 a       999     1    13     2    24
  2.1736047254268606E-01 a      1000     1    13     2    25
 -8.6831059740889560E-02 a      1001     1    14     2     1
  4.2141963067573018E-01 a      1002     1    14     2     2
  1.6033066262582265E+00 a      1003     1    14     2     3
  3.3658478185640228E-01 a      1004     1    14     2     4
 -3.1657089781016479E-01 a      1005     1    14     2     5
 -1.2925019713611954E-01 a      1006     1    14     2     6
  1.5882104577022261E-02 a      1007     1    14     2     7
 -4.6682882644070411E-01 a      1008     1    14     2     8
 -2.3525148337697863E-01 a      1009     1    14     2     9
 -1.6133001787051918E-01 a      1010     1    14     2    10
  3.8610362901765444E-01 a      1011     1    14     2    11
  3.1293836519329793E-01 a      1012     1    14     2    12
 -9.7944684081826594E-01 a      1013     1    14     2    13
 -1.0413171274436151E-02 a      1014     1    14     2    14
  1.9365922423624068E-01 a      1015     1    14     2    15
 -2.6466379061884915E-01 a      1016     1    14     2    16
  1.8799127995943685E-01 a      1017     1    14     2    17
 -5.2864842391402977E-01 a      1018     1    14     2    18
  4.0299535577226991E-01 a      1019     1    14     2    19
 -3.7027490035517259E-02 a      1020     1    14     2    20
 -1.7177240398213495E-01 a      1021     1    14     2    21
  8.3596870621021990E-01 a      1022     1    14     2    22
 -3.8047963211863606E-01 a      1023     1    14     2    23
  6.2512456972726116E-02 a      1024     1    14     2    24
 -4.2929338437069875E-01 a      1025     1    14     2    25
 -4.6215501697947736E-01 a      1026     1    15     2     1
  2.8262999088430246E-01 a      1027     1    15     2     2
  8.5275024880618788E-01 a      1028     1    15     2     3
  1.6860371576974253E-01 a      1029     1    15     2     4
  8.8790643650367027E-02 a      1030     1    15     2     5
 -1.8257798598501110E-01 a      1031     1    15     2     6
 -1.7375681690249534E-01 a      1032     1    15     2     7
  6.7940834966484431E-01 a      1033     1    15     2     8
 -4.8207621310156523E-01 a      1034     1    15     2     9
  3.0838928212898928E-03 a      1035     1    15     2    10
 -3.5055730313364028E-03 a      1036     1    15     2    11
  2.2840396467579946E-02 a      1037     1    15     2    12
 -2.3604217594862772E-01 a      1038     1    15     2    13
 -3.5583292864129906E-01 a      1039     1    15     2    14
  6.2719266890153014E-01 a      1040     1    15     2    15
 -4.5648142180813789E-01 a      1041     1    15     2    16
  8.2529723786911674E-02 a      1042     1    15     2    17
 -4.5734908613449010E-01 a      1043     1    15     2    18
 -4.7537429348062982E-01 a      1044     1    15     2    19
 -1.0437089380579054E-01 a      1045     1    15     2    20
 -3.2123012674490153E-01 a      1046     1    15     2    21
  8.8533745331196634E-01 a      1047     1    15     2    22
 -2.7629820891719575E-01 a      1048     1    15     2    23
 -2.7421460356308025E-01 a      1049     1    15     2    24
  8.7539079199218994E-02 a      1050     1    15     2    25
 -9.4939299320237730E-02 a      1051     1    16     2     1
  8.7919457241730037E-01 a      1052     1    16     2     2
 -1.2526336137905700E+00 a      1053     1    16     2     3
 -3.7522392040086872E-01 a      1054     1    16     2     4
 -9.7418965692141632E-02 a      1055     1    16     2     5
 -2.7966139693357223E-01 a      1056     1    16     2     6
 -2.9495302144054217E-02 a      1057     1    16     2     7
 -6.8060292932103805E-01 a      1058     1    16     2     8
  8.4504019615819048E-01 a      1059     1    16     2     9
  3.5183804345565513E-02 a      1060     1    16     2    10
  6.0058895407048840E-01 a      1061     1    16     2    11
 -3.5268863762129288E-01 a      1062     1    16     2    12
  3.3477078072387206E-01 a      1063     1    16     2    13
  2.9436462992584395E-01 a      1064     1    16     2    14
 -1.0069316792998941E-02 a      1065     1    16     2    15
 -1.7574881370271947E-01 a      1066     1    16     2    16
 -2.4888295684200933E-02 a      1067     1    16     2    17
 -6.4047060287027235E-01 a      1068     1    16     2    18
 -2.9591890419899243E-02 a      1069     1    16     2    19
 -2.8326996356194301E-01 a      1070     1    16     2    20
  2.8265361466330718E-01 a      1071     1    16     2    21
 -3.0761702409307135E-01 a      1072     1    16     2    22
 -1.2514008412894104E-01 a      1073     1    16     2    23
  5.8284498002030882E-01 a      1074     1    16     2    24
 -1.0812550518353441E-03 a      1075     1    16     2    25
 -2.6004616972487227E-01 a      1076     1    17     2     1
  5.8468573013239844E-01 a      1077     1    17     2     2
  2.8440039475726970E+00 a      1078     1    17     2     3
  4.7545671586798027E-01 a      1079     1    17     2     4
 -9.2911835215886518E-01 a      1080     1    17     2     5
 -1.7494782523239962E+00 a      1081     1    17     2     6
  1.9885416490551039E-01 a      1082     1    17     2     7
  1.3399261715940411E-01 a      1083     1    17     2     8
 -9.7037798611439952E-01 a      1084     1    17     2     9
  4.2614058688952072E-01 a      1085     1    17     2    10
  7.8082032656789468E-01 a      1086     1    17     2    11
 -1.7092769018324568E-02 a      1087     1    17     2    12
  3.1072511365758859E-01 a      1088     1    17     2    13
 -4.8637626199458556E-01 a      1089     1    17     2    14
  2.8540746964669633E-01 a      1090     1    17     2    15
  9.3763886592452439E-02 a      1091     1    17     2    16
  4.5685470604254252E-01 a      1092     1    17     2    17
 -3.3768643713072816E-01 a      1093     1    17     2    18
 -2.6855440817468768E-01 a      1094     1    17     2    19
  6.0764082467488922E-01 a      1095     1    17     2    20
  3.3376155170532307E-01 a      1096     1    17     2    21
 -1.0623078346717878E+00 a      1097     1    17     2    22
 -1.6452226505906231E-01 a      1098     1    17     2    23
 -6.2538810122832811E-01 a      1099     1    17     2    24
  5.1643291044119000E-01 a      1100     1    17     2    25
  2.2525538000425147E-01 a      1101     1    18     2     1
  5.4991164925769398E-01 a      1102     1    18     2     2
  7.7136402023557982E-01 a      1103     1    18     2     3
  5.1795336193085663E-02 a      1104     1    18     2     4
  1.7152873728395393E-01 a      1105     1    18     2     5
  1.0498722113801204E+00 a      1106     1    18     2     6
  6.1880249192911560E-02 a      1107     1    18     2     7
 -9.3060287589217772E-01 a      1108     1    18     2     8
 -5.6057720158582036E-01 a      1109     1    18     2     9
 -2.0600301263677939E-01 a      1110     1    18     2    10
 -5.9735556766476672E-01 a      1111     1    18     2    11
 -4.0525748197718779E-02 a      1112     1    18     2    12
 -9.0066638099594476E-01 a      1113     1    18     2    13
  1.6417971891460048E-01 a      1114     1    18     2    14
  2.2368504534271980E-01 a      1115     1    18     2    15
  2.6357773585933419E-01 a      1116     1    18     2    16
 -2.0269165416274174E-01 a      1117     1    18     2    17
 -3.5626789053686964E-01 a      1118     1    18     2    18
  8.1794083719681276E-01 a      1119     1    18     2    19
 -4.4043743685125297E-01 a      1120     1    18     2    20
  6.6785770568918559E-02 a      1121     1    18     2    21
 -1.0353791512459938E+00 a      1122     1    18     2    22
  2.8233170851249390E-01 a      1123     1    18     2    23
  5.5104202315891770E-01 a      1124     1    18     2    24
  7.2136064895548940E-02 a      1125     1    18     2    25
 -3.4248755523935487E-01 a      1126     1    19     2     1
  2.9812846127564868E-01 a      1127     1    19     2     2
 -5.1864684654268822E-01 a      1128     1    19     2     3
 -3.0817980389102917E-01 a      1129     1    19     2     4
 -2.5797550921105905E-01 a      1130     1    19     2     5
 -4.7095156894271129E-01 a      1131     1    19     2     6
  4.7665445059245422E-02 a      1132     1    19     2     7
 -3.3825983255853459E-01 a      1133     1    19     2     8
 -5.6641085082432729E-01 a      1134     1    19     2     9
  9.9460257673750130E-01 a      1135     1    19     2    10
  4.6328503419341177E-01 a      1136     1    19     2    11
  6.1970912693903768E-01 a      1137     1    19     2    12
 -1.0135545360417919E+00 a      1138     1    19     2    13
 -2.4720434240120964E-01 a      1139     1    19     2    14
 -2.5829326193115359E-01 a      1140     1    19     2    15
  1.5505254969568322E-01 a      1141     1    19     2    16
  5.4251698900152842E-02 a      1142     1    19     2    17
  4.0004138160159036E-01 a      1143     1    19     2    18
  7.5498584192392679E-02 a      1144     1    19     2    19
 -4.0049847114213100E-01 a      1145     1    19     2    20
 -2.5940594814256430E-02 a      1146     1    19     2    21
  1.0123909960875284E+00 a      1147     1    19     2    22
  3.7702325749655080E-01 a      1148     1    19     2    23
 -1.3397742863306664E-01 a      1149     1    19     2    24
  2.1267837916524227E-01 a      1150     1    19     2    25
  4.8437844999109203E-01 a      1151     1    20     2     1
  3.6289309785590772E-02 a      1152     1    20     2     2
 -2.7767594586733411E-02 a      1153     1    20     2     3
  9.9370973036362509E-01 a      1154     1    20     2     4
  1.1756320358082385E-01 a      1155     1    20     2     5
 -2.6261550150957880E-01 a      1156     1    20     2     6
 -1.0404127205587227E-01 a      1157     1    20     2     7
 -2.8070344273461956E-01 a      1158     1    20     2     8
  5.4518813612327843E-01 a      1159     1    20     2     9
  3.6013964849352270E-01 a      1160     1    20     2    10
 -1.7833678653131457E-02 a      1161     1    20     2    11
 -4.2445402984191821E-01 a      1162     1    20     2    12
 -2.3582641268844373E-01 a      1163     1    20     2    13
  5.4077064991608959E-01 a      1164     1    20     2    14
  1.8050160221122480E-01 a      1165     1    20     2    15
 -1.9776781907700901E-02 a      1166     1    20     2    16
 -3.6813876113118182E-01 a      1167     1    20     2    17
 -2.5872615622351713E-01 a      1168     1    20     2    18
 -4.1423432230385493E-01 a      1169     1    20     2    19
 -5.5440170788511633E-01 a      1170     1    20     2    20
 -2.7173770701460448E-01 a      1171     1    20     2    21
  3.2292109593769096E-02 a      1172     1    20     2    22
  5.6361038107282280E-01 a      1173     1    20     2    23
 -3.3376277243165670E-01 a      1174     1    20     2    24
  4.1282836858546074E-01 a      1175     1    20     2    25
 -1.2415338449922895E+00 a      1176     1    21     2     1
  1.0109735600399148E+00 a      1177     1    21     2     2
 -1.5026861118343868E+00 a      1178     1    21     2     3
  2.2974223460361906E-01 a      1179     1    21     2     4
  1.5056097588472436E-01 a      1180     1    21     2     5
  1.8066375108717619E-01 a      1181     1    21     2     6
 -7.8828071530707242E-02 a      1182     1    21     2     7
  5.4987506469299829E-01 a      1183     1    21     2     8
 -1.0022349313929737E+00 a      1184     1    21     2     9
  2.2414464995687913E-01 a      1185     1    21     2    10
  1.2186286726206317E+00 a      1186     1    21     2    11
  8.7848820096921021E-02 a      1187     1    21     2    12
 -1.2912583909511546E+00 a      1188     1    21     2    13
  1.1475792590871275E-01 a      1189     1    21     2    14
  8.9922567281246057E-01 a      1190     1    21     2    15
  1.6077462851180865E-01 a      1191     1    21     2    16
  9.5415647113951216E-02 a      1192     1    21     2    17
 -7.6264564237373011E-01 a      1193     1    21     2    18
 -4.4663033189997696E-02 a      1194     1    21     2    19
 -1.3466752832144808E+00 a      1195     1    21     2    20
  1.1577947083006442E-01 a      1196     1    21     2    21
  5.9746341257859892E-01 a      1197     1    21     2    22
 -3.2283219250585432E-01 a      1198     1    21     2    23
  3.7919824679755798E-02 a      1199     1    21     2    24
 -1.0628473926587401E+00 a      1200     1    21     2    25
 -6.7411806952437758E-02 a      1201     1    22     2     1
  5.2787567070345409E-01 a      1202     1    22     2     2
  5.8708892498350573E-01 a      1203     1    22     2     3
  2.5906456272517098E-01 a      1204     1    22     2     4
 -1.1262704930669856E-02 a      1205     1    22     2     5
  8.5520317831316284E-01 a      1206     1    22     2     6
 -1.0786644704388203E-01 a      1207     1    22     2     7
  2.4415982470590730E-01 a      1208     1    22     2     8
 -1.8552335908494302E-01 a      1209     1    22     2     9
  4.0792898911589642E-01 a      1210     1    22     2    10
  1.9575709549466649E-01 a      1211     1    22     2    11
 -2.9165754087887752E-01 a      1212     1    22     2    12
 -1.0386951579093948E+00 a      1213     1    22     2    13
 -5.6319481232300489E-02 a      1214     1    22     2    14
 -1.4573908459370731E-02 a      1215     1    22     2    15
 -5.3980694173026672E-02 a      1216     1    22     2    16
 -1.8879556643377951E-01 a      1217     1    22     2    17
 -1.9029954777127736E-01 a      1218     1    22     2    18
  5.5730621400398805E-01 a      1219     1    22     2    19
  2.4303532830500107E-01 a      1220     1    22     2    20
  3.1566744091648190E-02 a      1221     1    22     2    21
  2.6317645834390047E-01 a      1222     1    22     2    22
  1.3828035880863274E-01 a      1223     1    22     2    23
  4.2825153105622327E-01 a      1224     1    22     2    24
 -2.8839181305996026E-01 a      1225     1    22     2    25
  1.1970888189013122E-01 a      1226     1    23     2     1
  4.1529012707141932E-01 a      1227     1    23     2     2
  7.3936430708842338E-01 a      1228     1    23     2     3
  2.5438297088439862E-02 a      1229     1    23     2     4
 -2.4326946477587141E-01 a      1230     1    23     2     5
 -2.3503124979298537E-01 a      1231     1    23     2     6
 -3.2717599392831304E-01 a      1232     1    23     2     7
 -3.1100941128434351E-01 a      1233     1    23     2     8
  2.8819812304824127E-01 a      1234     1    23     2     9
 -1.3195332126596621E-01 a      1235     1    23     2    10
  1.0727059917912626E-01 a      1236     1    23     2    11
 -1.4563142081521888E-01 a      1237     1    23     2    12
  1.4816272538940771E+00 a      1238     1    23     2    13
 -4.0304363815131479E-02 a      1239     1    23     2    14
 -1.0852302994067574E-01 a      1240     1    23     2    15
 -2.3587187528212350E-01 a      1241     1    23     2    16
 -1.6410723134513783E-01 a      1242     1    23     2    17
 -4.1763558702029900E-03 a      1243     1    23     2    18
 -2.0433297683089902E-01 a      1244     1    23     2    19
 -3.6062227920070273E-03 a      1245     1    23     2    20
  4.7971637099371071E-02 a      1246     1    23     2    21
 -7.3050129543252329E-01 a      1247     1    23     2    22
  3.0340735190490520E-01 a      1248     1    23     2    23
  2.5874683078411698E-01 a      1249     1    23     2    24
 -2.1859196905313436E-01 a      1250     1    23     2    25
 -6.6144045075478464E-01 a      1251     1    24     2     1
 -2.6256252482249604E-01 a      1252     1    24     2     2
  4.7995181405041076E-01 a      1253     1    24     2     3
  1.8339811358499068E-02 a      1254     1    24     2     4
 -5.3258751298096263E-01 a      1255     1    24     2     5
 -4.9579782826959157E-02 a      1256     1    24     2     6
  3.3362236975354571E-02 a      1257     1    24     2     7
 -2.0160925386788436E-01 a      1258     1    24     2     8
  2.2999545206574198E-01 a      1259     1    24     2     9
 -1.2228462136524010E-02 a      1260     1    24     2    10
  4.9812310396798992E-01 a      1261     1    24     2    11
  8.3949554104233211E-03 a      1262     1    24     2    12
  9.9769100962315682E-01 a      1263     1    24     2    13
 -4.5608062346460684E-02 a      1264     1    24     2    14
 -3.8405739014160956E-01 a      1265     1    24     2    15
 -5.2467654187155865E-01 a      1266     1    24     2    16
  2.8753412344197665E-01 a      1267     1    24     2    17
  5.7071359177214021E-01 a      1268     1    24     2    18
 -2.8866076981330013E-01 a      1269     1    24     2    19
  4.8591231151991898E-01 a      1270     1    24     2    20
 -9.9569553645622047E-02 a      1271     1    24     2    21
 -7.4049795694774712E-01 a      1272     1    24     2    22
 -9.0390960741841753E-01 a      1273     1    24     2    23
 -7.3662399402009382E-01 a      1274     1    24     2    24
 -5.6512548689904263E-01 a      1275     1    24     2    25
  8.5478269699709505E-03 a      1276     1    25     2     1
 -1.7323172607312781E-01 a      1277     1    25     2     2
  1.2064552083347717E+00 a      1278     1    25     2     3
 -2.6055382311713565E-01 a      1279     1    25     2     4
  1.4593602403298084E-01 a      1280     1    25     2     5
 -7.5546747784437362E-01 a      1281     1    25     2     6
 -3.6538074277660226E-01 a      1282     1    25     2     7
  1.3206066342426692E-01 a      1283     1    25     2     8
 -7.7138593159958313E-01 a      1284     1    25     2     9
  3.6207614583296954E-01 a      1285     1    25     2    10
 -7.1607653769801949E-01 a      1286     1    25     2    11
  5.3846577808286233E-01 a      1287     1    25     2    12
  1.0242170785877727E+00 a      1288     1    25     2    13
 -3.8735269240372565E-02 a      1289     1    25     2    14
  3.9563426703211602E-01 a      1290     1    25     2    15
  2.4687838644567070E-02 a      1291     1    25     2    16
  8.0610003227979413E-02 a      1292     1    25     2    17
  1.9334515532192292E-01 a      1293     1    25     2    18
 -1.8649059454197847E-01 a      1294     1    25     2    19
  2.6652091671367362E-01 a      1295     1    25     2    20
  2.4249603724842381E-01 a      1296     1    25     2    21
  1.1495907098147942E+00 a      1297     1    25     2    22
  1.0492886465307982E+00 a      1298     1    25     2    23
 -5.1981043168390556E-02 a      1299     1    25     2    24
  1.3968974687721675E-01 a      1300     1    25     2    25
  5.8425624047284197E-01 b      1301     2     1
  4.3668545699820593E-02 b      1302     2     2
 -1.3390292214998412E-01 b      1303     2     3
  2.4560768692519228E-01 b      1304     2     4
  4.1011780125995473E-01 b      1305     2     5
  4.4843007540748142E-01 b      1306     2     6
  9.0317286723762424E-01 b      1307     2     7
 -4.3596217817369276E-01 b      1308     2     8
 -2.6341090841396275E-01 b      1309     2     9
  8.8995693835299261E-02 b      1310     2    10
 -4.4699369956490975E-01 b      1311     2    11
 -1.5343998920549135E-01 b      1312     2    12
 -3.2979339663513590E-01 b      1313     2    13
 -4.1870567762642991E-01 b      1314     2    14
  1.8227669962967219E-01 b      1315     2    15
  4.7444447104439424E-01 b      1316     2    16
  1.1225278480195604E+00 b      1317     2    17
 -1.7496116621090155E-01 b      1318     2    18
  8.9670463265498171E-02 b      1319     2    19
  6.2199681955752567E-02 b      1320     2    20
 -2.8503476708246506E-01 b      1321     2    21
 -4.7849336972446488E-01 b      1322     2    22
  1.3577094976414628E-01 b      1323     2    23
  4.6707834865432268E-01 b      1324     2    24
  7.8138918149057244E-03 b      1325     2    25
 -1.5906908955951635E-01 a      1326     2     1     3     1
  6.8699568971546651E-02 a      1327     2     2     3     1
  4.8325446185849231E-03 a      1328     2     3     3     1
  1.8282473191843049E-01 a      1329     2     4     3     1
  1.5790534195707817E-01 a      1330     2     5     3     1
 -3.1815229538300460E-02 a      1331     2     6     3     1
 -6.5046974369422106E-01 a      1332     2     7     3     1
  9.1991944089156411E-02 a      1333     2     8     3     1
  1.4319196091542735E-01 a      1334     2     9     3     1
 -5.0468164602515277E-02 a      1335     2    10     3     1
  7.8889947319531056E-02 a      1336     2    11     3     1
  2.8312233496607692E-01 a      1337     2    12     3     1
  2.3438976900731517E-02 a      1338     2    13     3     1
  2.9418383994163083E-01 a      1339     2    14     3     1
  8.4872469761196973E-02 a      1340     2    15     3     1
 -3.3032932744016147E-01 a      1341     2    16     3     1
 -1.0069210288616892E+00 a      1342     2    17     3     1
  1.4910853510851119E-01 a      1343     2    18     3     1
  2.6994038111030216E-01 a      1344     2    19     3     1
  1.4103716123895146E-01 a      1345     2    20     3     1
  2.9569453691116671E-01 a      1346     2    21     3     1
 -1.5269238701692481E-02 a      1347     2    22     3     1
 -5.9092374898676900E-02 a      1348     2    23     3     1
 -7.6241857999518534E-02 a      1349     2    24     3     1
  1.7655656091748631E-01 a      1350     2    25     3     1
 -1.2546898001263853E+00 b      1351     3     1
