################################################################################
# Neural network connection values (weights and biases).
################################################################################
# Col  Name       Description
################################################################################
# 1    connection Neural network connection value.
# 2    t          Connection type (a = weight, b = bias).
# 3    index      Index enumerating weights.
# 4    l_s        Starting point layer (end point layer for biases).
# 5    n_s        Starting point neuron in starting layer (end point neuron for biases).
# 6    l_e        End point layer.
# 7    n_e        End point neuron in end layer.
################################################################################
#                      1 2         3     4     5     6     7
#             connection t     index   l_s   n_s   l_e   n_e
############################################################
 -2.0782639768766273E+00 a         1     0     1     1     1
  2.5992875471766803E+00 a         2     0     1     1     2
  2.9237630851967431E+00 a         3     0     1     1     3
  5.3184481492213624E+00 a         4     0     1     1     4
 -2.8124481359430420E+00 a         5     0     1     1     5
 -2.5501352194568172E+00 a         6     0     1     1     6
  8.4892196040032275E-01 a         7     0     1     1     7
  9.9038032349965532E-01 a         8     0     1     1     8
  4.2576867063186059E+00 a         9     0     1     1     9
  2.5330618021760953E+00 a        10     0     1     1    10
  5.8953095126506794E-01 a        11     0     1     1    11
 -1.4733740081187538E-01 a        12     0     1     1    12
  1.0741926839119731E+00 a        13     0     1     1    13
 -4.2690854164785247E-01 a        14     0     1     1    14
 -9.9078654686582102E+00 a        15     0     1     1    15
  3.4345671750030564E+00 a        16     0     1     1    16
 -5.4604040137352072E-01 a        17     0     1     1    17
  1.6985189868703558E-02 a        18     0     1     1    18
  8.8854174459530633E+00 a        19     0     1     1    19
 -5.7539808668200072E+00 a        20     0     1     1    20
 -5.5434117096754432E-01 a        21     0     1     1    21
 -2.4098665794112053E+00 a        22     0     1     1    22
 -1.0453430790698146E+00 a        23     0     1     1    23
  1.5906171609466382E+00 a        24     0     1     1    24
  4.4036784869351073E-02 a        25     0     1     1    25
  5.0272731578467886E-02 a        26     0     2     1     1
 -2.7229632681296362E-01 a        27     0     2     1     2
 -2.4000886349055747E-01 a        28     0     2     1     3
 -1.1042305015459406E+00 a        29     0     2     1     4
 -3.8976519569994206E-01 a        30     0     2     1     5
  3.6330374713144653E-01 a        31     0     2     1     6
 -1.8950505173723095E-01 a        32     0     2     1     7
  3.5291699706952462E-01 a        33     0     2     1     8
 -8.1715215867485891E-01 a        34     0     2     1     9
 -1.0245857290409148E+00 a        35     0     2     1    10
 -7.9577421327390852E-01 a        36     0     2     1    11
 -4.9627782820742600E-01 a        37     0     2     1    12
  1.0382967500604876E+00 a        38     0     2     1    13
 -1.0924283303528025E-01 a        39     0     2     1    14
  1.7382089256673992E+00 a        40     0     2     1    15
 -1.3104472967929786E+00 a        41     0     2     1    16
  5.4697515267794494E-01 a        42     0     2     1    17
 -5.1537468360335126E-01 a        43     0     2     1    18
 -2.5966824558734207E+00 a        44     0     2     1    19
  3.5299075057521584E-01 a        45     0     2     1    20
  1.3225062951351044E-01 a        46     0     2     1    21
  5.2080909916842855E-01 a        47     0     2     1    22
  5.8077206338379206E-01 a        48     0     2     1    23
 -1.2983509459482481E+00 a        49     0     2     1    24
  7.8646304086408514E-01 a        50     0     2     1    25
  5.7584176098602280E-01 a        51     0     3     1     1
 -1.2598318321757862E+00 a        52     0     3     1     2
 -1.5282201053677857E+00 a        53     0     3     1     3
 -3.7391168760787172E+00 a        54     0     3     1     4
  1.1349439519632227E+00 a        55     0     3     1     5
  2.2458428672235531E+00 a        56     0     3     1     6
 -4.9695989848691480E-01 a        57     0     3     1     7
 -3.3653900132868181E-01 a        58     0     3     1     8
 -2.6828940271411694E+00 a        59     0     3     1     9
 -1.8572914993843956E+00 a        60     0     3     1    10
 -8.2880145480374168E-01 a        61     0     3     1    11
 -5.8545595879946355E-01 a        62     0     3     1    12
  7.1358808251909767E-01 a        63     0     3     1    13
 -4.6795866344497433E-01 a        64     0     3     1    14
  7.8406303882994353E+00 a        65     0     3     1    15
 -3.6085781071354672E+00 a        66     0     3     1    16
  1.1981959969402762E+00 a        67     0     3     1    17
 -5.8892702665655972E-01 a        68     0     3     1    18
 -7.8614791759107856E+00 a        69     0     3     1    19
  3.9183081530795554E+00 a        70     0     3     1    20
  2.3760407670857114E-01 a        71     0     3     1    21
  2.0161392940872163E+00 a        72     0     3     1    22
  1.0393189055811038E+00 a        73     0     3     1    23
 -2.1432208248147875E+00 a        74     0     3     1    24
  1.3902244897514417E+00 a        75     0     3     1    25
  2.6147624256099777E-01 a        76     0     4     1     1
 -2.2420027430710641E+00 a        77     0     4     1     2
 -6.7939072251912958E-01 a        78     0     4     1     3
 -3.8585833556767453E+00 a        79     0     4     1     4
  1.9264579346752810E+00 a        80     0     4     1     5
 -1.8514641469263924E+00 a        81     0     4     1     6
 -4.3312000744595125E-01 a        82     0     4     1     7
 -6.2929711273510680E-01 a        83     0     4     1     8
 -2.9526605115534386E+00 a        84     0     4     1     9
 -2.4682805157464474E+00 a        85     0     4     1    10
  3.5551202247455795E+00 a        86     0     4     1    11
  1.1126195472208986E+00 a        87     0     4     1    12
 -4.6765646589624810E+00 a        88     0     4     1    13
 -2.6940030173815743E-02 a        89     0     4     1    14
  6.7280474856090091E+00 a        90     0     4     1    15
 -9.8920238674515548E-01 a        91     0     4     1    16
 -1.7436111604989242E+00 a        92     0     4     1    17
  1.8945146069612693E+00 a        93     0     4     1    18
 -1.5130303241790681E+00 a        94     0     4     1    19
  4.1972214328714363E+00 a        95     0     4     1    20
 -6.5665290245943664E-01 a        96     0     4     1    21
  2.5347352856018817E+00 a        97     0     4     1    22
  2.2059809030598529E+00 a        98     0     4     1    23
  2.4544356644491101E+00 a        99     0     4     1    24
 -3.7168705612366066E+00 a       100     0     4     1    25
  1.6314802590377282E+00 a       101     0     5     1     1
  9.0715533462729092E-01 a       102     0     5     1     2
 -1.0875568307680374E+00 a       103     0     5     1     3
  4.5493808229550865E+00 a       104     0     5     1     4
 -3.5060406259641047E-01 a       105     0     5     1     5
  2.7556219191945130E+00 a       106     0     5     1     6
  1.0391010549044315E+00 a       107     0     5     1     7
  9.1369840000742442E-02 a       108     0     5     1     8
  3.0286975399548619E+00 a       109     0     5     1     9
  5.9587173089599261E+00 a       110     0     5     1    10
 -3.3897035040114081E+00 a       111     0     5     1    11
  3.7748681583376364E-01 a       112     0     5     1    12
  2.4168928376626400E+00 a       113     0     5     1    13
  1.1819451189965415E+00 a       114     0     5     1    14
 -1.0289940103909784E+01 a       115     0     5     1    15
  1.9188610198303042E+00 a       116     0     5     1    16
  2.5510970429873869E-01 a       117     0     5     1    17
 -1.1658389102963842E+00 a       118     0     5     1    18
  4.1825913876366503E+00 a       119     0     5     1    19
 -3.6108541643494698E+00 a       120     0     5     1    20
 -7.9274328999401844E-01 a       121     0     5     1    21
 -4.4830775634008706E+00 a       122     0     5     1    22
 -3.8381103800204390E+00 a       123     0     5     1    23
 -9.4275084830706446E-01 a       124     0     5     1    24
  1.7807164479790236E+00 a       125     0     5     1    25
 -1.4134050686587545E+00 a       126     0     6     1     1
  3.2408604297454757E-01 a       127     0     6     1     2
  6.7816111176481486E-01 a       128     0     6     1     3
 -1.8860010534978431E+00 a       129     0     6     1     4
 -5.1088060795723134E-01 a       130     0     6     1     5
 -1.9676323932689097E+00 a       131     0     6     1     6
 -5.6627165127253387E-01 a       132     0     6     1     7
  3.9382809675341419E-02 a       133     0     6     1     8
 -8.0124334232668459E-01 a       134     0     6     1     9
 -3.7789889155954408E+00 a       135     0     6     1    10
  1.5125544227193231E+00 a       136     0     6     1    11
 -1.4060925238689752E+00 a       137     0     6     1    12
  9.2735941336732505E-02 a       138     0     6     1    13
 -7.5797766212122608E-01 a       139     0     6     1    14
  4.1473780251117152E+00 a       140     0     6     1    15
 -5.9207505121601123E-01 a       141     0     6     1    16
  2.2256343972464962E-01 a       142     0     6     1    17
  2.1657704662347221E-01 a       143     0     6     1    18
 -2.2911459608679161E+00 a       144     0     6     1    19
  1.2547784384143446E+00 a       145     0     6     1    20
  6.7968887736234662E-01 a       146     0     6     1    21
  2.0067449866248701E+00 a       147     0     6     1    22
  1.6491117261665622E+00 a       148     0     6     1    23
  1.7256937719122106E-01 a       149     0     6     1    24
  2.5360936908290932E-01 a       150     0     6     1    25
  1.1869083363478249E-01 a       151     0     7     1     1
 -4.2937611167473977E-01 a       152     0     7     1     2
 -1.9181429913288922E-01 a       153     0     7     1     3
  2.5763100495267865E-01 a       154     0     7     1     4
 -2.1427016164907337E-01 a       155     0     7     1     5
  2.8050744196740107E-01 a       156     0     7     1     6
  5.5061087346950567E-02 a       157     0     7     1     7
  4.1426019410217126E-02 a       158     0     7     1     8
  3.4103864845187698E-01 a       159     0     7     1     9
  9.6207063146699334E-01 a       160     0     7     1    10
 -3.0236485074864661E-01 a       161     0     7     1    11
  4.8750062236323183E-01 a       162     0     7     1    12
 -1.7399859880390189E-01 a       163     0     7     1    13
  2.9154536787570184E-01 a       164     0     7     1    14
 -7.9817346975393577E-01 a       165     0     7     1    15
 -4.6161202427877988E-02 a       166     0     7     1    16
 -3.5752748025935276E-02 a       167     0     7     1    17
 -3.2252918303368572E-02 a       168     0     7     1    18
  5.4931916746817644E-01 a       169     0     7     1    19
 -1.5896329028926823E-01 a       170     0     7     1    20
 -1.1936032054919533E-02 a       171     0     7     1    21
 -3.3405443143210145E-01 a       172     0     7     1    22
 -3.8581132680690583E-01 a       173     0     7     1    23
 -1.7842534246698144E-01 a       174     0     7     1    24
 -1.3075156628558257E-01 a       175     0     7     1    25
  1.5891939898586883E-02 a       176     0     8     1     1
  2.0509174950563608E-01 a       177     0     8     1     2
 -6.2023826966387328E-02 a       178     0     8     1     3
  8.3397713367044601E-02 a       179     0     8     1     4
  1.4272804319981292E-01 a       180     0     8     1     5
 -4.3944709135558910E-02 a       181     0     8     1     6
  3.8252320887981660E-02 a       182     0     8     1     7
 -1.3235663898682867E-01 a       183     0     8     1     8
 -4.8477305855814529E-03 a       184     0     8     1     9
 -1.5025467591130461E-02 a       185     0     8     1    10
  7.4626346663347456E-02 a       186     0     8     1    11
  6.9926979394141237E-04 a       187     0     8     1    12
  9.6395356347109051E-02 a       188     0     8     1    13
 -1.7292995755416884E-02 a       189     0     8     1    14
  5.8979327031886894E-02 a       190     0     8     1    15
  7.0771030481475788E-02 a       191     0     8     1    16
 -2.5601127428331014E-02 a       192     0     8     1    17
 -5.5088370484239008E-02 a       193     0     8     1    18
  4.0198299561209329E-02 a       194     0     8     1    19
 -1.0172451787911897E-01 a       195     0     8     1    20
 -2.6626682665193351E-02 a       196     0     8     1    21
 -1.9803906114450095E-02 a       197     0     8     1    22
  1.0744250583129139E-01 a       198     0     8     1    23
  7.9604315844547455E-02 a       199     0     8     1    24
 -4.4301969068117820E-02 a       200     0     8     1    25
  5.2402961824399421E+00 a       201     0     9     1     1
 -1.6644605843005200E-01 a       202     0     9     1     2
 -3.6205338595084782E+00 a       203     0     9     1     3
  3.3409963898816430E+00 a       204     0     9     1     4
 -1.6511696603303729E+00 a       205     0     9     1     5
 -6.8413966524903258E-01 a       206     0     9     1     6
  1.8854138295489160E+00 a       207     0     9     1     7
 -4.0013773753268694E-01 a       208     0     9     1     8
  2.6238463432817198E+00 a       209     0     9     1     9
  3.5275865693878501E+00 a       210     0     9     1    10
  1.7663037175723031E+00 a       211     0     9     1    11
  1.0383490155617972E+00 a       212     0     9     1    12
 -1.1731808618276756E+00 a       213     0     9     1    13
  1.3115101808153162E+00 a       214     0     9     1    14
 -2.4012490671830292E-01 a       215     0     9     1    15
  2.0017107606580584E+00 a       216     0     9     1    16
 -3.0656635684974036E+00 a       217     0     9     1    17
  6.0583392398236482E+00 a       218     0     9     1    18
  5.7661438138734022E-01 a       219     0     9     1    19
 -2.5401554196571978E+00 a       220     0     9     1    20
  9.2659544232896254E-03 a       221     0     9     1    21
  3.6050601087519968E-01 a       222     0     9     1    22
 -3.2952868517060128E+00 a       223     0     9     1    23
  4.1416047596855208E+00 a       224     0     9     1    24
 -1.3845630682637726E+00 a       225     0     9     1    25
  1.5829230672505890E+00 a       226     0    10     1     1
 -1.9009411285960933E+00 a       227     0    10     1     2
 -1.4955990880909908E+00 a       228     0    10     1     3
 -4.8933384408223937E+00 a       229     0    10     1     4
  1.7239592330096210E+00 a       230     0    10     1     5
  2.5672252407112244E+00 a       231     0    10     1     6
 -1.9033799986323507E+00 a       232     0    10     1     7
  1.8292887506139580E-01 a       233     0    10     1     8
 -2.2219943761875123E+00 a       234     0    10     1     9
 -1.0291754902051429E+00 a       235     0    10     1    10
 -2.2393428876593684E+00 a       236     0    10     1    11
 -2.2465291533412630E+00 a       237     0    10     1    12
  1.6679030292340002E+00 a       238     0    10     1    13
  1.4751226046751951E+00 a       239     0    10     1    14
  1.8280980716553439E+00 a       240     0    10     1    15
 -3.2327550958377884E+00 a       241     0    10     1    16
  1.0692958989894790E+00 a       242     0    10     1    17
 -1.9319965041824019E+00 a       243     0    10     1    18
 -6.9675887801045349E+00 a       244     0    10     1    19
  3.2835451974715859E+00 a       245     0    10     1    20
  1.3600668737824197E-02 a       246     0    10     1    21
  7.2491143571856986E-01 a       247     0    10     1    22
  1.3023990017962808E-01 a       248     0    10     1    23
 -1.8729984889790559E+00 a       249     0    10     1    24
  3.6983312023802304E+00 a       250     0    10     1    25
 -5.8148461084780543E+00 a       251     0    11     1     1
  2.2563779543299769E+00 a       252     0    11     1     2
  5.0334237966098261E+00 a       253     0    11     1     3
  3.1645276581757931E-01 a       254     0    11     1     4
  8.7933359244057463E-01 a       255     0    11     1     5
  7.0833073962008464E-01 a       256     0    11     1     6
 -2.2700672345410502E+00 a       257     0    11     1     7
 -1.5572317477042011E-01 a       258     0    11     1     8
 -1.1710368201888879E+00 a       259     0    11     1     9
 -3.6024197003862186E+00 a       260     0    11     1    10
  8.2363889629981879E-01 a       261     0    11     1    11
  1.8503205107440266E+00 a       262     0    11     1    12
  1.1205698030777842E+00 a       263     0    11     1    13
 -2.8805251584836578E-01 a       264     0    11     1    14
 -4.4858787675438689E+00 a       265     0    11     1    15
 -2.1756965983328921E-02 a       266     0    11     1    16
  2.1066310011622931E+00 a       267     0    11     1    17
 -4.9960222621003831E+00 a       268     0    11     1    18
  8.8075611032452450E+00 a       269     0    11     1    19
  1.2719529046556290E+00 a       270     0    11     1    20
 -1.3377880732091478E+00 a       271     0    11     1    21
 -8.8411686827516378E-01 a       272     0    11     1    22
  3.8852576401739833E+00 a       273     0    11     1    23
 -3.1310487032549110E+00 a       274     0    11     1    24
 -2.7226644145732992E+00 a       275     0    11     1    25
 -2.9424203867864986E+00 a       276     0    12     1     1
  3.1621552349863964E+00 a       277     0    12     1     2
  2.5298437706285646E+00 a       278     0    12     1     3
 -1.9669469027241364E+00 a       279     0    12     1     4
 -2.4074383447636407E+00 a       280     0    12     1     5
 -3.8349964302554014E+00 a       281     0    12     1     6
  9.8764381957443068E-02 a       282     0    12     1     7
 -1.4786521800333687E+00 a       283     0    12     1     8
 -3.6000109092731741E-01 a       284     0    12     1     9
  2.2322858397329646E+00 a       285     0    12     1    10
 -6.7050742707413731E+00 a       286     0    12     1    11
  9.8305326007079608E-01 a       287     0    12     1    12
 -1.5735272567908534E+00 a       288     0    12     1    13
 -2.0184553599004618E+00 a       289     0    12     1    14
 -7.3969407469615058E+00 a       290     0    12     1    15
  8.5057566730092251E+00 a       291     0    12     1    16
  5.6426508153661314E-01 a       292     0    12     1    17
 -7.5791486929606942E+00 a       293     0    12     1    18
  3.7692495380716005E+00 a       294     0    12     1    19
 -1.5675830409292644E+00 a       295     0    12     1    20
  2.4476865383691075E+00 a       296     0    12     1    21
 -3.7365997326422042E+00 a       297     0    12     1    22
  1.2781684851145783E+00 a       298     0    12     1    23
 -3.1927195330874163E+00 a       299     0    12     1    24
 -1.6047736213375094E+00 a       300     0    12     1    25
 -1.1811163994345224E+00 a       301     0    13     1     1
 -4.4924507292958177E-01 a       302     0    13     1     2
  6.9619199916534436E-01 a       303     0    13     1     3
  6.5964050630998150E-01 a       304     0    13     1     4
 -3.4816800506064360E-01 a       305     0    13     1     5
  6.5056817297195968E-01 a       306     0    13     1     6
  2.5322907218235864E+00 a       307     0    13     1     7
 -1.0974339358037526E+00 a       308     0    13     1     8
 -1.1702374255673789E+00 a       309     0    13     1     9
  1.1283520108957514E-01 a       310     0    13     1    10
  1.2999854181012909E+00 a       311     0    13     1    11
  5.8276355823935011E-01 a       312     0    13     1    12
 -1.8612596802560548E+00 a       313     0    13     1    13
 -4.9124736295997840E-02 a       314     0    13     1    14
  2.9002485350991507E+00 a       315     0    13     1    15
 -2.1987119389442387E+00 a       316     0    13     1    16
 -2.0099759823708965E-01 a       317     0    13     1    17
  1.5793517127872243E+00 a       318     0    13     1    18
  2.3280252988348096E-01 a       319     0    13     1    19
 -2.4566284759882520E-01 a       320     0    13     1    20
  2.9476896490201857E-02 a       321     0    13     1    21
  3.4214604981398949E-01 a       322     0    13     1    22
 -6.3577512686968196E-01 a       323     0    13     1    23
  5.7298412570018842E-01 a       324     0    13     1    24
 -1.5758188475521215E+00 a       325     0    13     1    25
  2.9740504938013568E+00 a       326     0    14     1     1
 -4.9324548881657337E+00 a       327     0    14     1     2
 -1.2628606013478376E+00 a       328     0    14     1     3
  8.2177935113081593E-02 a       329     0    14     1     4
  2.2994863806010017E+00 a       330     0    14     1     5
  6.3521000871841453E+00 a       331     0    14     1     6
  2.8242666494634601E+00 a       332     0    14     1     7
  1.7036246059848492E+00 a       333     0    14     1     8
 -3.2781298198016704E+00 a       334     0    14     1     9
 -1.2210416751767363E+00 a       335     0    14     1    10
  6.5157829499222988E+00 a       336     0    14     1    11
 -1.9353231480343607E+00 a       337     0    14     1    12
 -6.5404384965262172E-02 a       338     0    14     1    13
  1.3679099937670629E+00 a       339     0    14     1    14
  1.2022517523241108E+01 a       340     0    14     1    15
 -1.1180985586717462E+01 a       341     0    14     1    16
  4.3501737411813103E-02 a       342     0    14     1    17
  6.3511484266919727E+00 a       343     0    14     1    18
 -7.9931195185336135E+00 a       344     0    14     1    19
  3.1982328458847040E+00 a       345     0    14     1    20
 -2.4149629019946790E+00 a       346     0    14     1    21
  4.2022026474869172E+00 a       347     0    14     1    22
 -1.8473806960058259E+00 a       348     0    14     1    23
  3.2464087875894405E+00 a       349     0    14     1    24
  2.0814475239710237E+00 a       350     0    14     1    25
 -1.5982297658006566E+00 a       351     0    15     1     1
 -4.9195584968952333E-01 a       352     0    15     1     2
  1.0675994480098037E+00 a       353     0    15     1     3
  3.6585139757856919E+00 a       354     0    15     1     4
  3.3608318716297871E+00 a       355     0    15     1     5
 -4.1472923413920482E+00 a       356     0    15     1     6
 -5.7497617615951302E-01 a       357     0    15     1     7
  1.3435480211761641E+00 a       358     0    15     1     8
  3.7377480282434292E+00 a       359     0    15     1     9
 -1.4150065958292586E+00 a       360     0    15     1    10
  1.9367354314483203E+00 a       361     0    15     1    11
 -5.0229614695952951E-01 a       362     0    15     1    12
 -1.3965679427886191E+00 a       363     0    15     1    13
 -3.0619199279191567E+00 a       364     0    15     1    14
 -1.0981239996254391E+00 a       365     0    15     1    15
  6.6094462032824062E+00 a       366     0    15     1    16
  1.4728398179773874E+00 a       367     0    15     1    17
  1.5173844334420798E+00 a       368     0    15     1    18
  3.1627933199805467E+00 a       369     0    15     1    19
 -2.4222214095523928E-02 a       370     0    15     1    20
  9.8016558962318823E-01 a       371     0    15     1    21
 -1.7424410712082468E+00 a       372     0    15     1    22
 -2.3303847020274913E+00 a       373     0    15     1    23
  2.6621985113696089E+00 a       374     0    15     1    24
 -3.3620283036516242E-02 a       375     0    15     1    25
  5.8486569099583041E-01 a       376     0    16     1     1
 -1.4322947119826583E+00 a       377     0    16     1     2
 -4.5450169548452374E-01 a       378     0    16     1     3
 -2.3317144749851049E+00 a       379     0    16     1     4
  9.6606882007846617E-01 a       380     0    16     1     5
 -3.2170784983764328E-01 a       381     0    16     1     6
 -1.5581317788216961E-01 a       382     0    16     1     7
  5.6608890063157313E-01 a       383     0    16     1     8
 -6.5886070563624377E-01 a       384     0    16     1     9
  2.9493755838180846E-01 a       385     0    16     1    10
 -1.2534786465499017E+00 a       386     0    16     1    11
 -2.0710472085183746E+00 a       387     0    16     1    12
  3.7748288779552586E-01 a       388     0    16     1    13
 -5.0778640339452630E-01 a       389     0    16     1    14
  1.3627085169301807E+00 a       390     0    16     1    15
 -7.4130567477819165E-01 a       391     0    16     1    16
  6.1271041314990123E-02 a       392     0    16     1    17
 -9.9206191403359811E-01 a       393     0    16     1    18
 -5.2080471284764851E+00 a       394     0    16     1    19
  5.0381975340069429E-01 a       395     0    16     1    20
  9.0688710149220608E-01 a       396     0    16     1    21
  1.2003103629196230E-01 a       397     0    16     1    22
  2.1511769160724800E-01 a       398     0    16     1    23
  2.2708248721914473E-01 a       399     0    16     1    24
  3.0258030450836264E+00 a       400     0    16     1    25
  5.4233923673475171E-01 a       401     0    17     1     1
  2.0254975081779723E+00 a       402     0    17     1     2
 -4.4557431084700583E-01 a       403     0    17     1     3
  2.4115282836406834E-02 a       404     0    17     1     4
 -4.3408959444579915E+00 a       405     0    17     1     5
  2.1247062424582310E+00 a       406     0    17     1     6
  2.4752868765978246E+00 a       407     0    17     1     7
 -1.2075629859167436E+00 a       408     0    17     1     8
 -2.2694188197428380E+00 a       409     0    17     1     9
  1.9169951431050358E+00 a       410     0    17     1    10
 -5.7284852101486250E-01 a       411     0    17     1    11
  2.1526869431663953E+00 a       412     0    17     1    12
 -3.7911376124050122E-01 a       413     0    17     1    13
  1.6786116592314959E+00 a       414     0    17     1    14
  2.4629001331724254E+00 a       415     0    17     1    15
 -4.3150385413019521E+00 a       416     0    17     1    16
 -1.5979694762146313E+00 a       417     0    17     1    17
 -3.5626303983115309E-02 a       418     0    17     1    18
  6.6065464039782273E-01 a       419     0    17     1    19
 -2.4199364958046838E+00 a       420     0    17     1    20
 -1.1200668888532803E+00 a       421     0    17     1    21
  1.1111313718295437E+00 a       422     0    17     1    22
  1.6301621001652833E+00 a       423     0    17     1    23
 -2.3370000139803007E+00 a       424     0    17     1    24
 -2.7702541446128786E+00 a       425     0    17     1    25
 -2.4173145125535314E+00 a       426     0    18     1     1
  6.7596246077499877E-01 a       427     0    18     1     2
 -7.8291223243736559E+00 a       428     0    18     1     3
  2.3459136748302862E+00 a       429     0    18     1     4
 -1.6355188759204586E-01 a       430     0    18     1     5
  9.7221023304309206E-01 a       431     0    18     1     6
 -9.2644847844660916E-01 a       432     0    18     1     7
 -4.9988898079356554E+00 a       433     0    18     1     8
  1.5322383495387235E+00 a       434     0    18     1     9
  2.1361369366217016E+00 a       435     0    18     1    10
 -1.5240587145689364E+00 a       436     0    18     1    11
  3.5514380730371418E+00 a       437     0    18     1    12
 -1.4386247635335410E+00 a       438     0    18     1    13
 -2.7524250257342542E-01 a       439     0    18     1    14
 -7.8982896654579471E-01 a       440     0    18     1    15
  9.7085790343550560E-01 a       441     0    18     1    16
  4.4838377629554110E-01 a       442     0    18     1    17
 -2.1093996505954302E+00 a       443     0    18     1    18
  3.1929193308158199E+00 a       444     0    18     1    19
  3.0312312201709162E+00 a       445     0    18     1    20
  5.0237414593867791E-01 a       446     0    18     1    21
 -3.8537543796573198E-01 a       447     0    18     1    22
 -2.0839472400634862E+00 a       448     0    18     1    23
 -3.3581850162850788E+00 a       449     0    18     1    24
 -6.0633595234540980E+00 a       450     0    18     1    25
  6.2377875439252095E-01 a       451     0    19     1     1
  5.8840274949628302E-01 a       452     0    19     1     2
 -3.3733649933983301E-01 a       453     0    19     1     3
  7.4936588567192775E-01 a       454     0    19     1     4
  5.3678172959547321E-01 a       455     0    19     1     5
 -1.2274392749661021E+00 a       456     0    19     1     6
 -2.9613121034293513E+00 a       457     0    19     1     7
  1.0929783886028373E-01 a       458     0    19     1     8
  2.3718326830842287E+00 a       459     0    19     1     9
 -5.1607463788508412E-01 a       460     0    19     1    10
 -1.4254231556190644E+00 a       461     0    19     1    11
  4.7627743472893100E-02 a       462     0    19     1    12
  1.3501631878761593E+00 a       463     0    19     1    13
  1.7455738397224904E-01 a       464     0    19     1    14
 -3.1527339289238654E+00 a       465     0    19     1    15
  2.4176884089837922E+00 a       466     0    19     1    16
 -3.5466682372215236E-01 a       467     0    19     1    17
  5.0324023343141781E-02 a       468     0    19     1    18
  1.3952624716135174E+00 a       469     0    19     1    19
 -8.4184402960723947E-01 a       470     0    19     1    20
  6.6909653625825116E-01 a       471     0    19     1    21
 -5.4973915461756402E-02 a       472     0    19     1    22
 -3.5845825678106780E-01 a       473     0    19     1    23
  7.7614647950123503E-02 a       474     0    19     1    24
  8.5825135073920655E-01 a       475     0    19     1    25
  2.9663973767290819E+00 a       476     0    20     1     1
  1.8356933820685282E+00 a       477     0    20     1     2
  6.6390970865804197E+00 a       478     0    20     1     3
  4.1981210232815136E-01 a       479     0    20     1     4
  2.8167272266052390E-01 a       480     0    20     1     5
 -3.1153612320966144E+00 a       481     0    20     1     6
 -5.0184295037522642E+00 a       482     0    20     1     7
  4.6367933892068338E+00 a       483     0    20     1     8
  4.0955905330941382E+00 a       484     0    20     1     9
 -2.8447084347763743E+00 a       485     0    20     1    10
 -1.2570275456220916E+00 a       486     0    20     1    11
 -1.6640578717595191E+00 a       487     0    20     1    12
  5.1436529664920299E+00 a       488     0    20     1    13
 -3.6276206772912219E-02 a       489     0    20     1    14
 -5.6679538533147147E+00 a       490     0    20     1    15
  5.5378122233317093E+00 a       491     0    20     1    16
  1.6847899930629925E-01 a       492     0    20     1    17
  1.5652226983339297E+00 a       493     0    20     1    18
  1.0587123028636687E+00 a       494     0    20     1    19
 -4.6629784974234747E+00 a       495     0    20     1    20
  9.9811259825168963E-01 a       496     0    20     1    21
 -6.9514193021702775E-01 a       497     0    20     1    22
  2.4130007309604347E+00 a       498     0    20     1    23
  3.9193681549239558E+00 a       499     0    20     1    24
  5.2711548961002306E+00 a       500     0    20     1    25
  4.5591065389282432E+00 a       501     0    21     1     1
  1.8267733164352362E+00 a       502     0    21     1     2
 -2.4811969787539359E+00 a       503     0    21     1     3
  1.2967260897767929E+00 a       504     0    21     1     4
  4.6123469508278764E-01 a       505     0    21     1     5
 -2.3974021058441966E+00 a       506     0    21     1     6
  2.9918567723842382E+00 a       507     0    21     1     7
  7.2953930608459827E-01 a       508     0    21     1     8
  3.4322164785488729E+00 a       509     0    21     1     9
 -1.8624137390608368E+00 a       510     0    21     1    10
  3.7069604883160694E+00 a       511     0    21     1    11
 -2.1496518063746257E+00 a       512     0    21     1    12
 -5.7821712238415168E+00 a       513     0    21     1    13
  2.6461561831522342E+00 a       514     0    21     1    14
 -2.9533555756624286E+00 a       515     0    21     1    15
 -3.2764505635552710E+00 a       516     0    21     1    16
 -4.6689600426864262E+00 a       517     0    21     1    17
  5.9330071893696275E+00 a       518     0    21     1    18
  3.2373256696951409E+00 a       519     0    21     1    19
 -2.8282866591094389E+00 a       520     0    21     1    20
 -4.5077341962668827E-01 a       521     0    21     1    21
  2.7183811792353616E+00 a       522     0    21     1    22
  3.9527074223492727E-02 a       523     0    21     1    23
  6.1858527374134926E+00 a       524     0    21     1    24
  8.5040555259466633E+00 a       525     0    21     1    25
  1.1931135964730926E+00 a       526     0    22     1     1
 -1.5873514145802821E+00 a       527     0    22     1     2
 -1.0907116782589085E-01 a       528     0    22     1     3
 -3.4698575901106863E+00 a       529     0    22     1     4
  5.6373152008860594E-01 a       530     0    22     1     5
  8.2554892805106961E-01 a       531     0    22     1     6
  1.5058797063167428E-01 a       532     0    22     1     7
  2.4371102744149284E-01 a       533     0    22     1     8
 -1.4907779804527228E+00 a       534     0    22     1     9
 -6.8552726683709331E-01 a       535     0    22     1    10
 -3.2753258059626150E-01 a       536     0    22     1    11
 -2.3310941731435695E+00 a       537     0    22     1    12
 -6.1922279296086458E-01 a       538     0    22     1    13
  3.6126190124757424E-01 a       539     0    22     1    14
  1.1120849923828222E+00 a       540     0    22     1    15
 -2.5191705420048631E+00 a       541     0    22     1    16
 -2.3852225464893287E-01 a       542     0    22     1    17
 -8.6653986789185966E-01 a       543     0    22     1    18
 -4.7789417010938777E+00 a       544     0    22     1    19
  6.8929083209984909E-01 a       545     0    22     1    20
  3.0308797929430139E-02 a       546     0    22     1    21
  8.8863765822325269E-01 a       547     0    22     1    22
 -1.1890609725259604E-01 a       548     0    22     1    23
 -2.2893345305841120E-01 a       549     0    22     1    24
  3.7916980665277085E+00 a       550     0    22     1    25
 -5.2501882830086464E+00 a       551     0    23     1     1
 -1.2165524190009296E+00 a       552     0    23     1     2
  2.8557789638438362E+00 a       553     0    23     1     3
  9.2802142031204862E-02 a       554     0    23     1     4
 -1.8910467786367680E+00 a       555     0    23     1     5
  2.6013086251021864E+00 a       556     0    23     1     6
  8.7384538571179615E-02 a       557     0    23     1     7
 -1.0961948206991721E+00 a       558     0    23     1     8
 -5.0549539689098744E+00 a       559     0    23     1     9
  2.6938805901981300E+00 a       560     0    23     1    10
 -1.6442690519146117E+00 a       561     0    23     1    11
  3.2513734679839947E+00 a       562     0    23     1    12
  3.7649646054031329E+00 a       563     0    23     1    13
 -3.1522954499066200E+00 a       564     0    23     1    14
  4.6850303352808105E+00 a       565     0    23     1    15
  2.1477111018086377E+00 a       566     0    23     1    16
  4.6364250073474222E+00 a       567     0    23     1    17
 -4.8104969065673640E+00 a       568     0    23     1    18
 -4.7260594993320698E-01 a       569     0    23     1    19
  2.8494408010692864E+00 a       570     0    23     1    20
  1.1706657666472936E-01 a       571     0    23     1    21
 -2.2224224835627369E+00 a       572     0    23     1    22
  4.1159221244350952E-01 a       573     0    23     1    23
 -6.3497264933782551E+00 a       574     0    23     1    24
 -1.1225922069968977E+01 a       575     0    23     1    25
  4.0534095854834962E-01 a       576     0    24     1     1
  7.1673988053218041E-01 a       577     0    24     1     2
 -2.2966531337362728E+00 a       578     0    24     1     3
 -2.6439195869907467E-01 a       579     0    24     1     4
  9.2542868967953371E-02 a       580     0    24     1     5
  1.6013063628792372E+00 a       581     0    24     1     6
  1.4340340724236487E+00 a       582     0    24     1     7
 -2.5549370859381280E+00 a       583     0    24     1     8
 -1.8047864887255285E+00 a       584     0    24     1     9
  4.2199697376483986E-01 a       585     0    24     1    10
  6.1918648690003841E-01 a       586     0    24     1    11
  1.8043906785753605E+00 a       587     0    24     1    12
 -1.0305865979022260E+00 a       588     0    24     1    13
  2.6437178874245865E-01 a       589     0    24     1    14
  2.0586136625242752E+00 a       590     0    24     1    15
  8.0823119145955602E-01 a       591     0    24     1    16
  3.8657968967778861E-01 a       592     0    24     1    17
  1.2906207143235857E+00 a       593     0    24     1    18
  1.0034686011504950E+00 a       594     0    24     1    19
  2.7135555013447359E+00 a       595     0    24     1    20
  7.9472030591498821E-01 a       596     0    24     1    21
  1.7531475088852089E+00 a       597     0    24     1    22
  5.5041733091819167E-01 a       598     0    24     1    23
  2.1599469064566277E+00 a       599     0    24     1    24
 -2.8547009778527062E+00 a       600     0    24     1    25
  7.1065271768960825E-02 a       601     0    25     1     1
 -1.0235696185273586E+00 a       602     0    25     1     2
  4.1039532108699328E+00 a       603     0    25     1     3
  5.6210748531483012E-01 a       604     0    25     1     4
  2.1554908502529041E-01 a       605     0    25     1     5
 -2.4584872555857449E+00 a       606     0    25     1     6
 -1.9904174767690654E+00 a       607     0    25     1     7
  3.8564863726947132E+00 a       608     0    25     1     8
  2.9272563470691932E+00 a       609     0    25     1     9
 -6.0059477002183881E-01 a       610     0    25     1    10
 -1.2992772136698931E+00 a       611     0    25     1    11
 -2.9692433326133449E+00 a       612     0    25     1    12
  1.9618161373868090E+00 a       613     0    25     1    13
 -7.3941850205623083E-01 a       614     0    25     1    14
 -4.2997309619577857E+00 a       615     0    25     1    15
 -1.1658506000467384E+00 a       616     0    25     1    16
 -9.6809255785203130E-01 a       617     0    25     1    17
 -2.1270592988572981E+00 a       618     0    25     1    18
 -1.6834776952051471E+00 a       619     0    25     1    19
 -4.9294123200656461E+00 a       620     0    25     1    20
 -8.7674704662948999E-01 a       621     0    25     1    21
 -3.7478832976679599E+00 a       622     0    25     1    22
 -1.6503027478972985E+00 a       623     0    25     1    23
 -3.0089689940506235E+00 a       624     0    25     1    24
  4.8756208143214330E+00 a       625     0    25     1    25
 -3.5193583552250096E-01 a       626     0    26     1     1
  3.7097305903924704E-01 a       627     0    26     1     2
 -1.8966333625465850E+00 a       628     0    26     1     3
 -2.7939037165962893E-01 a       629     0    26     1     4
 -1.6078605736410348E-01 a       630     0    26     1     5
  9.8647457224543289E-01 a       631     0    26     1     6
  5.7808046827633008E-01 a       632     0    26     1     7
 -1.4043720086449649E+00 a       633     0    26     1     8
 -1.2346086630201751E+00 a       634     0    26     1     9
  2.2387271977365139E-01 a       635     0    26     1    10
  6.5882724651094859E-01 a       636     0    26     1    11
  1.2439758220189325E+00 a       637     0    26     1    12
 -9.6266643828869558E-01 a       638     0    26     1    13
  4.3856257694267520E-01 a       639     0    26     1    14
  2.1735024137712955E+00 a       640     0    26     1    15
  4.3322917696565377E-01 a       641     0    26     1    16
  4.9703733078207474E-01 a       642     0    26     1    17
  9.0649927257436991E-01 a       643     0    26     1    18
  7.0274009226838585E-01 a       644     0    26     1    19
  2.3131766263451761E+00 a       645     0    26     1    20
  1.4688317284189845E-01 a       646     0    26     1    21
  1.9279827859063112E+00 a       647     0    26     1    22
  1.0586459032993774E+00 a       648     0    26     1    23
  1.0392643612255097E+00 a       649     0    26     1    24
 -2.1684472320227006E+00 a       650     0    26     1    25
 -5.6454866950220159E-02 b       651     1     1
  3.2260912692363260E-02 b       652     1     2
  2.8910412155959953E-01 b       653     1     3
 -8.8935738784081009E-02 b       654     1     4
 -1.0438482238890473E-01 b       655     1     5
 -2.0827388670923888E-01 b       656     1     6
 -2.8045070619571261E-01 b       657     1     7
 -1.3959523590800341E-01 b       658     1     8
 -6.7382664832954367E-02 b       659     1     9
  1.3743393889911309E-02 b       660     1    10
 -1.0346190537360758E-01 b       661     1    11
 -9.4745093133523459E-02 b       662     1    12
 -4.8807402005074746E-02 b       663     1    13
 -1.7302820557178342E-01 b       664     1    14
 -1.6185068675679376E-01 b       665     1    15
 -4.8536390143004586E-02 b       666     1    16
 -1.2786360642648692E-01 b       667     1    17
  2.0235741512182687E-01 b       668     1    18
  9.5152966731639782E-02 b       669     1    19
  3.3289845456620282E-02 b       670     1    20
  1.5442198780414926E-01 b       671     1    21
  8.1809672297019687E-02 b       672     1    22
 -4.1173969570864159E-02 b       673     1    23
  1.9562787141481422E-01 b       674     1    24
  6.7873927227780817E-01 b       675     1    25
 -1.2167993413587146E-02 a       676     1     1     2     1
 -2.0102274662872961E-02 a       677     1     1     2     2
 -4.6727139584196348E-01 a       678     1     1     2     3
  4.4717317737229610E-02 a       679     1     1     2     4
  7.8829321970963950E-01 a       680     1     1     2     5
 -6.0655252903521334E-02 a       681     1     1     2     6
  7.3220830624748567E-01 a       682     1     1     2     7
  1.3940932431255010E-01 a       683     1     1     2     8
  7.2767264664895193E-01 a       684     1     1     2     9
  4.6416282435030259E-01 a       685     1     1     2    10
  9.2483738493566470E-01 a       686     1     1     2    11
  8.1317438105164633E-03 a       687     1     1     2    12
 -5.6835321525950211E-01 a       688     1     1     2    13
  7.8047665616634498E-01 a       689     1     1     2    14
 -4.7140063115174280E-01 a       690     1     1     2    15
 -9.0764692093918228E-02 a       691     1     1     2    16
 -3.4103943819769411E-01 a       692     1     1     2    17
 -1.4044197808622702E-01 a       693     1     1     2    18
 -4.0008703673737772E-01 a       694     1     1     2    19
  4.5314884952834630E-02 a       695     1     1     2    20
 -2.6226120503958855E-01 a       696     1     1     2    21
 -3.1742569873802107E-01 a       697     1     1     2    22
  7.4487868222162912E-02 a       698     1     1     2    23
  5.5872409444868776E-01 a       699     1     1     2    24
 -8.4479063848736199E-02 a       700     1     1     2    25
 -6.9757200458297353E-01 a       701     1     2     2     1
 -1.4164566338061013E-02 a       702     1     2     2     2
 -2.4627282488442212E-01 a       703     1     2     2     3
  9.0067654913718806E-02 a       704     1     2     2     4
  2.9100195196432666E-01 a       705     1     2     2     5
  9.4905267767052784E-02 a       706     1     2     2     6
 -5.2756586846393716E-01 a       707     1     2     2     7
  3.9330158534200577E-01 a       708     1     2     2     8
  1.1718208271497197E-02 a       709     1     2     2     9
  3.0260706954677852E-01 a       710     1     2     2    10
 -7.6620332586492768E-01 a       711     1     2     2    11
 -9.2334800841462131E-02 a       712     1     2     2    12
  1.4444856268603345E-01 a       713     1     2     2    13
 -3.0278637850443914E-02 a       714     1     2     2    14
 -2.0547566966341152E-01 a       715     1     2     2    15
  1.7218296791656937E-01 a       716     1     2     2    16
 -1.4189174103893665E-01 a       717     1     2     2    17
  2.1373484206246085E-01 a       718     1     2     2    18
 -8.9381196757228054E-02 a       719     1     2     2    19
 -1.2021861267575842E-01 a       720     1     2     2    20
  7.9336117533791314E-02 a       721     1     2     2    21
 -1.5552376479012445E-01 a       722     1     2     2    22
  4.0118583113048556E-01 a       723     1     2     2    23
  1.4754787743853630E-02 a       724     1     2     2    24
  5.9717551739967997E-02 a       725     1     2     2    25
 -2.4010314958517134E-01 a       726     1     3     2     1
 -1.9635278469280062E-01 a       727     1     3     2     2
 -3.8800342240653202E-01 a       728     1     3     2     3
  1.8685940420623584E-01 a       729     1     3     2     4
  2.5532446322666880E-01 a       730     1     3     2     5
  7.8956046393563503E-02 a       731     1     3     2     6
 -5.8351657471692540E-02 a       732     1     3     2     7
  1.7515574046043489E-01 a       733     1     3     2     8
 -5.8796601004226623E-01 a       734     1     3     2     9
 -2.1079088258838646E-01 a       735     1     3     2    10
 -5.5240450573463204E-02 a       736     1     3     2    11
  4.3085463038033001E-01 a       737     1     3     2    12
  6.7512452123576960E-01 a       738     1     3     2    13
 -1.2017287461579948E-01 a       739     1     3     2    14
 -4.6123928344523064E-02 a       740     1     3     2    15
 -9.9534006695386856E-01 a       741     1     3     2    16
  7.3660718645083820E-02 a       742     1     3     2    17
  4.2152942174491259E-01 a       743     1     3     2    18
  1.3816324255359629E-02 a       744     1     3     2    19
 -1.0981717934699968E-01 a       745     1     3     2    20
  5.3883251384698738E-01 a       746     1     3     2    21
 -3.4959836043182457E-01 a       747     1     3     2    22
 -1.7309543879365109E-02 a       748     1     3     2    23
  7.3621973810159336E-02 a       749     1     3     2    24
  2.8224131470187253E-01 a       750     1     3     2    25
 -1.5445752547794536E-01 a       751     1     4     2     1
 -1.5175371701487951E-02 a       752     1     4     2     2
  3.9656995692085883E-01 a       753     1     4     2     3
  7.2682420862044517E-02 a       754     1     4     2     4
  1.9823954842644148E-01 a       755     1     4     2     5
  4.9223451536754871E-02 a       756     1     4     2     6
  6.2669635039475646E-01 a       757     1     4     2     7
 -2.7033044959240360E-01 a       758     1     4     2     8
  9.2386994833927039E-02 a       759     1     4     2     9
  5.4891796157683503E-01 a       760     1     4     2    10
  2.7428728016268505E-01 a       761     1     4     2    11
  4.3176747271841914E-01 a       762     1     4     2    12
  3.4314251126003931E-01 a       763     1     4     2    13
  5.7602622339293565E-02 a       764     1     4     2    14
 -4.5246793112448463E-01 a       765     1     4     2    15
 -6.4018119085134662E-01 a       766     1     4     2    16
 -4.2117876029672888E-02 a       767     1     4     2    17
  5.2844525236077855E-02 a       768     1     4     2    18
 -2.9902457314676473E-01 a       769     1     4     2    19
  2.1746055191689321E-02 a       770     1     4     2    20
 -4.2746335008698616E-01 a       771     1     4     2    21
  2.9975578697730310E-01 a       772     1     4     2    22
 -4.7465764257325804E-01 a       773     1     4     2    23
  6.1587852290934081E-02 a       774     1     4     2    24
 -7.0360154321096338E-02 a       775     1     4     2    25
  2.2186166165523377E-01 a       776     1     5     2     1
 -1.3937349962958340E-01 a       777     1     5     2     2
 -6.2039368540632145E-01 a       778     1     5     2     3
 -1.2683861196678514E-01 a       779     1     5     2     4
 -5.0739424384011363E-02 a       780     1     5     2     5
 -1.4922602536256774E-01 a       781     1     5     2     6
  4.6573776036821925E-02 a       782     1     5     2     7
 -3.2020823307410295E-01 a       783     1     5     2     8
  1.6475025892352760E-01 a       784     1     5     2     9
 -3.8489747993073137E-01 a       785     1     5     2    10
  8.8500064864130323E-01 a       786     1     5     2    11
  8.3019943911927432E-03 a       787     1     5     2    12
 -1.8868724451058316E-02 a       788     1     5     2    13
 -2.8857671590509160E-01 a       789     1     5     2    14
  8.3688424304055084E-02 a       790     1     5     2    15
 -1.6760368844914947E-01 a       791     1     5     2    16
  2.8623883068927719E-01 a       792     1     5     2    17
 -2.8953200547336466E-01 a       793     1     5     2    18
  4.3189444770399665E-01 a       794     1     5     2    19
 -8.3096242896271821E-02 a       795     1     5     2    20
  3.1131873184951897E-01 a       796     1     5     2    21
  2.1080595293210189E-01 a       797     1     5     2    22
 -4.7737427838782986E-01 a       798     1     5     2    23
 -5.0798238964105691E-01 a       799     1     5     2    24
  4.2756177590875200E-01 a       800     1     5     2    25
 -2.2323224356105936E-01 a       801     1     6     2     1
  1.0225309492115758E-01 a       802     1     6     2     2
  6.2431458728662959E-01 a       803     1     6     2     3
  3.0551776669377922E-01 a       804     1     6     2     4
 -7.6798120983624030E-01 a       805     1     6     2     5
 -2.6953337312427583E-01 a       806     1     6     2     6
  1.7911737790657789E-01 a       807     1     6     2     7
 -2.6660780464157569E-01 a       808     1     6     2     8
 -2.5964196765653952E-01 a       809     1     6     2     9
 -7.9344131739355395E-02 a       810     1     6     2    10
 -8.8512333723558867E-01 a       811     1     6     2    11
  6.6906822369853858E-01 a       812     1     6     2    12
  1.5181053372479114E-01 a       813     1     6     2    13
 -2.9891255676345846E-01 a       814     1     6     2    14
 -5.5193483732046800E-01 a       815     1     6     2    15
 -2.5098386827248986E-01 a       816     1     6     2    16
 -1.5819621596327958E-02 a       817     1     6     2    17
  2.8087646532195937E-01 a       818     1     6     2    18
 -8.4334348141195947E-02 a       819     1     6     2    19
  1.7811995120640708E-01 a       820     1     6     2    20
  2.3417551295201292E-02 a       821     1     6     2    21
  6.1991591464269546E-01 a       822     1     6     2    22
  5.3105132528574434E-02 a       823     1     6     2    23
  2.6742406223444382E-01 a       824     1     6     2    24
  1.3427712771692957E+00 a       825     1     6     2    25
 -2.3039894590356388E-01 a       826     1     7     2     1
 -1.5511241581118676E-01 a       827     1     7     2     2
 -2.4180325942716077E-01 a       828     1     7     2     3
 -5.8389932932825829E-02 a       829     1     7     2     4
 -7.0639465000561744E-02 a       830     1     7     2     5
  2.9266319618780584E-01 a       831     1     7     2     6
  2.6099840628745014E-01 a       832     1     7     2     7
 -2.1096416402237436E-01 a       833     1     7     2     8
  3.6981458165571879E-01 a       834     1     7     2     9
  1.1245824508681227E-02 a       835     1     7     2    10
  1.6504445376695759E-01 a       836     1     7     2    11
 -1.1420620959742728E-01 a       837     1     7     2    12
 -6.6301303275083268E-02 a       838     1     7     2    13
 -4.6614066514967988E-02 a       839     1     7     2    14
 -1.8742555679805306E-01 a       840     1     7     2    15
 -5.0340568394699074E-02 a       841     1     7     2    16
 -1.3749827901225525E-01 a       842     1     7     2    17
 -2.8217266559815352E-01 a       843     1     7     2    18
 -9.7825388976360408E-02 a       844     1     7     2    19
 -1.8365537737860807E-01 a       845     1     7     2    20
  1.2557835607383894E-01 a       846     1     7     2    21
  6.7566169771011403E-02 a       847     1     7     2    22
  1.1007784506908189E-01 a       848     1     7     2    23
 -1.8715399734935914E-01 a       849     1     7     2    24
 -1.5510930052024799E-01 a       850     1     7     2    25
 -8.5988806064888723E-01 a       851     1     8     2     1
 -2.8745165243600794E-03 a       852     1     8     2     2
 -9.1275656778557923E-01 a       853     1     8     2     3
 -8.9222960943236507E-02 a       854     1     8     2     4
  3.6551553598515661E-02 a       855     1     8     2     5
  8.5328960305908849E-02 a       856     1     8     2     6
  2.0553003261009753E-01 a       857     1     8     2     7
 -1.1621897509230652E+00 a       858     1     8     2     8
 -1.5623959078321747E-01 a       859     1     8     2     9
  6.6972735664116477E-03 a       860     1     8     2    10
 -3.6120732573432379E-01 a       861     1     8     2    11
  1.8524985814382053E-01 a       862     1     8     2    12
 -2.6026582845878199E-01 a       863     1     8     2    13
  5.2222632607126007E-01 a       864     1     8     2    14
  1.4219560972175255E-01 a       865     1     8     2    15
 -5.4587083518891089E-01 a       866     1     8     2    16
 -1.1919746336190158E-01 a       867     1     8     2    17
 -1.1223927442168204E-01 a       868     1     8     2    18
 -4.6672375821503720E-01 a       869     1     8     2    19
  5.5124150274943806E-01 a       870     1     8     2    20
 -1.8332432805325702E-01 a       871     1     8     2    21
 -1.1033447866189791E-01 a       872     1     8     2    22
 -3.8000744802628500E-01 a       873     1     8     2    23
 -5.2504628835568079E-01 a       874     1     8     2    24
  2.3137611155125709E-01 a       875     1     8     2    25
 -3.4188669082911299E-01 a       876     1     9     2     1
 -5.1943709942820840E-02 a       877     1     9     2     2
 -2.2233959707328188E-01 a       878     1     9     2     3
  2.8623459072497121E-01 a       879     1     9     2     4
  2.8889602541639067E-02 a       880     1     9     2     5
  4.6353320295734399E-02 a       881     1     9     2     6
  8.9194113122786112E-01 a       882     1     9     2     7
 -6.5265163856087516E-01 a       883     1     9     2     8
 -1.5939602338034070E-01 a       884     1     9     2     9
  6.1510508190529660E-02 a       885     1     9     2    10
  9.1830984475216182E-01 a       886     1     9     2    11
  1.0392837378452223E-01 a       887     1     9     2    12
  4.2380816012753536E-01 a       888     1     9     2    13
  1.5489225076185664E-01 a       889     1     9     2    14
  1.5223537033477806E-03 a       890     1     9     2    15
 -6.3565571279909905E-01 a       891     1     9     2    16
 -1.3338292425876100E-01 a       892     1     9     2    17
 -1.9815268459998051E-01 a       893     1     9     2    18
 -5.2979630341145623E-01 a       894     1     9     2    19
  2.9668567106198307E-01 a       895     1     9     2    20
  2.5448819010337015E-01 a       896     1     9     2    21
  1.0620870584866882E-02 a       897     1     9     2    22
 -8.5159563366439550E-01 a       898     1     9     2    23
  1.8234119594990791E-01 a       899     1     9     2    24
  3.5686455258091104E-01 a       900     1     9     2    25
 -1.2338727428219150E-01 a       901     1    10     2     1
  2.1575341495074751E-01 a       902     1    10     2     2
 -9.9918004571600105E-02 a       903     1    10     2     3
  2.0463571817699683E-01 a       904     1    10     2     4
  2.5966069733015539E-02 a       905     1    10     2     5
 -2.9976019103267298E-01 a       906     1    10     2     6
 -7.4168094983193766E-01 a       907     1    10     2     7
  4.9112859520559227E-01 a       908     1    10     2     8
  4.5563525624676021E-01 a       909     1    10     2     9
 -3.1389374460774021E-02 a       910     1    10     2    10
  3.5876048765210589E-01 a       911     1    10     2    11
 -1.1132833973248367E-01 a       912     1    10     2    12
 -3.1009354880696971E-01 a       913     1    10     2    13
 -4.9908058032619945E-01 a       914     1    10     2    14
 -9.8058731444207667E-02 a       915     1    10     2    15
  2.6719238414218233E-01 a       916     1    10     2    16
  1.3684427603514648E-01 a       917     1    10     2    17
 -3.2321331037218987E-01 a       918     1    10     2    18
  2.6689818731883197E-01 a       919     1    10     2    19
 -2.0751803474122874E-01 a       920     1    10     2    20
 -1.2068157337422679E-01 a       921     1    10     2    21
 -5.6643898685018479E-01 a       922     1    10     2    22
 -5.9558658731744274E-01 a       923     1    10     2    23
  1.7837394742881006E-02 a       924     1    10     2    24
 -9.8087263029741734E-01 a       925     1    10     2    25
 -1.5747592237592362E-01 a       926     1    11     2     1
  2.8498601671105356E-01 a       927     1    11     2     2
  2.8556672828929885E-01 a       928     1    11     2     3
  4.0962826085476306E-01 a       929     1    11     2     4
 -3.3342585998776586E-01 a       930     1    11     2     5
 -3.3830876017459538E-01 a       931     1    11     2     6
 -4.1256041921638553E-01 a       932     1    11     2     7
 -1.4896689883547687E+00 a       933     1    11     2     8
  3.6643772688435444E-01 a       934     1    11     2     9
  1.3474520647565688E-01 a       935     1    11     2    10
 -7.8238983071695001E-01 a       936     1    11     2    11
  1.0064955997998388E+00 a       937     1    11     2    12
 -2.8875847054272458E-01 a       938     1    11     2    13
 -1.3936959757519099E-01 a       939     1    11     2    14
  2.0728110777311537E-01 a       940     1    11     2    15
 -6.1115301020368573E-01 a       941     1    11     2    16
 -2.7548811457708339E-01 a       942     1    11     2    17
  6.8859686059328948E-02 a       943     1    11     2    18
  6.4830491516989175E-01 a       944     1    11     2    19
  1.1552136301292379E+00 a       945     1    11     2    20
  7.8574711800632885E-02 a       946     1    11     2    21
  2.2633289095303939E-02 a       947     1    11     2    22
  6.4303864712040404E-01 a       948     1    11     2    23
 -7.3155126796872152E-02 a       949     1    11     2    24
  7.3015866717603362E-01 a       950     1    11     2    25
  1.5297297888859862E-01 a       951     1    12     2     1
 -3.6009262711024892E-01 a       952     1    12     2     2
  1.2712250912158757E-01 a       953     1    12     2     3
  1.9458563144911956E-01 a       954     1    12     2     4
  7.2977213265633445E-01 a       955     1    12     2     5
  4.8006284735645594E-01 a       956     1    12     2     6
  7.5471081430705703E-02 a       957     1    12     2     7
 -9.0760240584628157E-02 a       958     1    12     2     8
  1.9927545556329698E-01 a       959     1    12     2     9
 -9.5632518830450750E-02 a       960     1    12     2    10
  1.3163011225669868E-01 a       961     1    12     2    11
 -5.6952898182363809E-01 a       962     1    12     2    12
 -1.9039517838255413E-01 a       963     1    12     2    13
 -1.3374294109516094E-02 a       964     1    12     2    14
 -2.0985018291786547E-01 a       965     1    12     2    15
  3.2533697118946814E-01 a       966     1    12     2    16
 -2.2800765535203946E-01 a       967     1    12     2    17
 -1.3211852926898898E-01 a       968     1    12     2    18
 -4.6519086306228419E-01 a       969     1    12     2    19
  1.9938895795588354E-01 a       970     1    12     2    20
 -7.5368965980629712E-02 a       971     1    12     2    21
 -5.1808272590630344E-01 a       972     1    12     2    22
 -3.2098262519042797E-01 a       973     1    12     2    23
  1.1140307397522213E-02 a       974     1    12     2    24
 -5.5173240323626582E-01 a       975     1    12     2    25
  1.8275593107196678E-01 a       976     1    13     2     1
 -1.8840726661290627E-01 a       977     1    13     2     2
 -6.5484188894633574E-02 a       978     1    13     2     3
  2.5618496442005419E-02 a       979     1    13     2     4
 -3.1947333896794705E-01 a       980     1    13     2     5
 -8.3515345312602782E-02 a       981     1    13     2     6
  1.4213341838706364E-01 a       982     1    13     2     7
  9.7885773896994255E-01 a       983     1    13     2     8
 -1.6347495018276512E-01 a       984     1    13     2     9
 -1.8466821820309445E-01 a       985     1    13     2    10
  6.2101205729182041E-01 a       986     1    13     2    11
  8.3950887120355006E-02 a       987     1    13     2    12
  3.1579023297469827E-01 a       988     1    13     2    13
 -1.0690546840337541E-01 a       989     1    13     2    14
 -4.7819086923254200E-01 a       990     1    13     2    15
 -5.2237952793171283E-01 a       991     1    13     2    16
  4.0003456065604417E-02 a       992     1    13     2    17
  2.3512596290264903E-01 a       993     1    13     2    18
  3.4993170671098285E-02 a       994     1    13     2    19
 -3.4880652992886435E-01 a       995     1    13     2    20
  6.2599296453976494E-02 a       996     1    13     2    21
  5.0971717897939295E-01 a       997     1    13     2    22
 -7.8977195655627364E-01 a       998     1    13     2    23
 -4.8780608390806707E-01 a       999     1    13     2    24
  9.7504288750008694E-01 a      1000     1    13     2    25
 -1.1760846990262036E-01 a      1001     1    14     2     1
 -9.2840480563667702E-03 a      1002     1    14     2     2
 -2.2940893689136960E-01 a      1003     1    14     2     3
 -2.2762297383491958E-01 a      1004     1    14     2     4
  7.1416170408905266E-01 a      1005     1    14     2     5
 -4.6189195305765034E-02 a      1006     1    14     2     6
 -9.1901543905469771E-02 a      1007     1    14     2     7
  2.7433668799904837E-01 a      1008     1    14     2     8
  6.1053788827463741E-02 a      1009     1    14     2     9
  3.8146299118199928E-01 a      1010     1    14     2    10
  1.1410196738101355E-01 a      1011     1    14     2    11
  6.9863104254766140E-01 a      1012     1    14     2    12
 -2.6711406984909647E-01 a      1013     1    14     2    13
  6.6748236080819967E-01 a      1014     1    14     2    14
 -1.6117331158323081E-01 a      1015     1    14     2    15
 -1.9377296785542536E-01 a      1016     1    14     2    16
  1.0516665958291506E-01 a      1017     1    14     2    17
  4.8232925770413493E-02 a      1018     1    14     2    18
  7.6309576178949009E-03 a      1019     1    14     2    19
 -1.8249628408539253E-01 a      1020     1    14     2    20
 -5.1717947976802936E-01 a      1021     1    14     2    21
 -5.5302625183290488E-01 a      1022     1    14     2    22
  3.6781500044897364E-01 a      1023     1    14     2    23
 -4.2486014363640454E-02 a      1024     1    14     2    24
 -5.7394278512389496E-01 a      1025     1    14     2    25
  1.1817884713023021E-01 a      1026     1    15     2     1
 -5.9410139784516092E-01 a      1027     1    15     2     2
  6.6143311779137626E-01 a      1028     1    15     2     3
 -1.6549008935421147E-01 a      1029     1    15     2     4
 -3.7163339360795727E-01 a      1030     1    15     2     5
  1.5643924723641744E-01 a      1031     1    15     2     6
 -9.4410318688471606E-02 a      1032     1    15     2     7
  8.2049429888267800E-01 a      1033     1    15     2     8
  4.2929474903669870E-02 a      1034     1    15     2     9
  8.3320343045154826E-03 a      1035     1    15     2    10
  4.9439513526336237E-01 a      1036     1    15     2    11
  1.8399274204265706E-01 a      1037     1    15     2    12
  9.9892519450319225E-02 a      1038     1    15     2    13
  1.2567348422372485E-01 a      1039     1    15     2    14
 -5.8067632637457300E-01 a      1040     1    15     2    15
  3.6889862327794232E-01 a      1041     1    15     2    16
 -1.2007501935375323E-01 a      1042     1    15     2    17
  1.8151862341560170E-02 a      1043     1    15     2    18
 -4.1681149180199722E-01 a      1044     1    15     2    19
  6.3425940268281367E-01 a      1045     1    15     2    20
  1.2983314923819335E-02 a      1046     1    15     2    21
 -2.9237063099704619E-01 a      1047     1    15     2    22
 -3.1071164151407765E-01 a      1048     1    15     2    23
 -1.2714504353245334E-01 a      1049     1    15     2    24
 -6.3754004177308332E-01 a      1050     1    15     2    25
  1.8913809410062563E-01 a      1051     1    16     2     1
  4.2040209058486300E-01 a      1052     1    16     2     2
 -4.7216678288897734E-01 a      1053     1    16     2     3
 -2.3711145524159696E-01 a      1054     1    16     2     4
 -2.8816904772256891E-01 a      1055     1    16     2     5
 -9.1881196700372605E-02 a      1056     1    16     2     6
 -6.4659222034744401E-01 a      1057     1    16     2     7
  2.4795164645906043E-01 a      1058     1    16     2     8
 -4.8536279571081037E-01 a      1059     1    16     2     9
 -2.5927258867559017E-01 a      1060     1    16     2    10
  5.2777557042355716E-01 a      1061     1    16     2    11
  1.2250413427819821E-02 a      1062     1    16     2    12
  4.5494707720830502E-01 a      1063     1    16     2    13
 -5.3991565611625381E-01 a      1064     1    16     2    14
 -9.7984252442151476E-03 a      1065     1    16     2    15
 -5.5112220906579168E-01 a      1066     1    16     2    16
 -1.3557914614682595E-01 a      1067     1    16     2    17
  2.1946750618316963E-01 a      1068     1    16     2    18
  4.7233683059749809E-01 a      1069     1    16     2    19
  3.0985535595325617E-02 a      1070     1    16     2    20
  2.7030747194479399E-01 a      1071     1    16     2    21
 -5.9315120443384738E-02 a      1072     1    16     2    22
 -2.7793436087339440E-01 a      1073     1    16     2    23
  3.2707379114712670E-01 a      1074     1    16     2    24
  8.9826285149108134E-02 a      1075     1    16     2    25
 -2.1643981520795685E-01 a      1076     1    17     2     1
 -1.1131234951126912E-02 a      1077     1    17     2     2
 -8.4060732789287884E-01 a      1078     1    17     2     3
  7.1280283656050644E-02 a      1079     1    17     2     4
 -1.1665216218603645E-02 a      1080     1    17     2     5
  3.9888250631094080E-01 a      1081     1    17     2     6
 -4.8378707559016326E-01 a      1082     1    17     2     7
  7.4442498684674763E-01 a      1083     1    17     2     8
  4.1484795483014741E-01 a      1084     1    17     2     9
 -2.2962098198975658E-01 a      1085     1    17     2    10
 -2.4275987892228479E-01 a      1086     1    17     2    11
 -4.0145593660829051E-02 a      1087     1    17     2    12
 -8.6828038181893186E-01 a      1088     1    17     2    13
 -3.1859891501088561E-01 a      1089     1    17     2    14
  1.5898775082096750E-02 a      1090     1    17     2    15
 -1.4177896537515475E-02 a      1091     1    17     2    16
  2.1808656122973397E-01 a      1092     1    17     2    17
 -2.2739000381165227E-02 a      1093     1    17     2    18
  1.1310116612139889E-01 a      1094     1    17     2    19
 -4.9410572754149845E-01 a      1095     1    17     2    20
  1.9631389024705712E-01 a      1096     1    17     2    21
  3.5383197849251957E-01 a      1097     1    17     2    22
 -5.5960181042155122E-01 a      1098     1    17     2    23
 -1.6783963574271556E-02 a      1099     1    17     2    24
 -1.9905550877799494E-01 a      1100     1    17     2    25
  3.2894589153551868E-01 a      1101     1    18     2     1
 -4.8640857925863495E-01 a      1102     1    18     2     2
  1.3439799261242150E-01 a      1103     1    18     2     3
  1.7314386405513504E-01 a      1104     1    18     2     4
 -8.7819934216933820E-02 a      1105     1    18     2     5
 -9.9135329225078381E-02 a      1106     1    18     2     6
  4.1568957386902433E-01 a      1107     1    18     2     7
  8.8004694481188972E-01 a      1108     1    18     2     8
  5.4718993291199336E-01 a      1109     1    18     2     9
  1.7144176757980079E-01 a      1110     1    18     2    10
  1.1148982523632991E+00 a      1111     1    18     2    11
 -5.0670515600984713E-02 a      1112     1    18     2    12
  8.2659735999937545E-01 a      1113     1    18     2    13
  1.9342318975488440E-01 a      1114     1    18     2    14
 -7.8058278653028645E-01 a      1115     1    18     2    15
  3.1997399710099933E-01 a      1116     1    18     2    16
 -3.6433726819571932E-01 a      1117     1    18     2    17
 -2.1885654886887820E-01 a      1118     1    18     2    18
 -1.3321290255193582E-01 a      1119     1    18     2    19
  1.2883341936557849E-01 a      1120     1    18     2    20
  2.4944808776045418E-01 a      1121     1    18     2    21
 -4.0245769906648582E-01 a      1122     1    18     2    22
  1.0155569726891789E-01 a      1123     1    18     2    23
  4.1968256361233580E-01 a      1124     1    18     2    24
 -2.7158544652351058E-01 a      1125     1    18     2    25
 -8.3181550916168016E-03 a      1126     1    19     2     1
  1.4398869899479824E-01 a      1127     1    19     2     2
  1.0397064265666796E-01 a      1128     1    19     2     3
 -6.0227430510711388E-01 a      1129     1    19     2     4
 -8.2185840746590411E-02 a      1130     1    19     2     5
  1.7959802487096433E-03 a      1131     1    19     2     6
  3.9863895901160429E-01 a      1132     1    19     2     7
 -4.0006883776766235E-02 a      1133     1    19     2     8
 -4.2218475674434180E-01 a      1134     1    19     2     9
  6.5181218863679535E-01 a      1135     1    19     2    10
 -9.4709014570591821E-01 a      1136     1    19     2    11
 -5.2889263607799342E-01 a      1137     1    19     2    12
  3.0808671034076351E-01 a      1138     1    19     2    13
  1.3672637458803283E-01 a      1139     1    19     2    14
  3.1838216365699518E-01 a      1140     1    19     2    15
  2.1346952861569668E-01 a      1141     1    19     2    16
 -2.3002845727496518E-01 a      1142     1    19     2    17
  2.4459860471159603E-01 a      1143     1    19     2    18
  1.4284805944050333E-01 a      1144     1    19     2    19
  2.1209480971875433E-01 a      1145     1    19     2    20
 -8.8745642340592013E-02 a      1146     1    19     2    21
  3.5414517818505015E-01 a      1147     1    19     2    22
  3.7863202220614800E-01 a      1148     1    19     2    23
 -2.0636033048701052E-01 a      1149     1    19     2    24
  1.0967860196493173E+00 a      1150     1    19     2    25
  1.4511934846905650E-01 a      1151     1    20     2     1
  1.4974294627832807E-01 a      1152     1    20     2     2
 -9.8474279618400565E-02 a      1153     1    20     2     3
 -5.6070371631780823E-02 a      1154     1    20     2     4
  1.7387420460307795E-01 a      1155     1    20     2     5
  1.5910573676308476E-01 a      1156     1    20     2     6
  1.0250949835844193E-01 a      1157     1    20     2     7
 -3.9380996892810133E-01 a      1158     1    20     2     8
 -7.6761139574594753E-02 a      1159     1    20     2     9
 -2.8861206590411359E-01 a      1160     1    20     2    10
  9.3126107287854076E-01 a      1161     1    20     2    11
 -4.5082151918731878E-01 a      1162     1    20     2    12
 -2.9867982292662804E-01 a      1163     1    20     2    13
 -5.3389418208686612E-01 a      1164     1    20     2    14
 -5.2235050558993773E-02 a      1165     1    20     2    15
 -1.3671464420353786E-02 a      1166     1    20     2    16
 -1.2552638027399601E-01 a      1167     1    20     2    17
 -4.7841108000240889E-01 a      1168     1    20     2    18
  3.6040960177324205E-01 a      1169     1    20     2    19
  3.2408757487151024E-01 a      1170     1    20     2    20
  2.1864183192233427E-01 a      1171     1    20     2    21
 -6.4356975624188698E-02 a      1172     1    20     2    22
 -2.9838029904958346E-01 a      1173     1    20     2    23
 -1.8902150183707245E-01 a      1174     1    20     2    24
  7.2048891809821811E-02 a      1175     1    20     2    25
 -3.1309740575224532E-01 a      1176     1    21     2     1
  1.5546225013819867E-01 a      1177     1    21     2     2
 -1.8117375166101299E-01 a      1178     1    21     2     3
  5.8423707211198543E-02 a      1179     1    21     2     4
 -3.0588640135535955E-01 a      1180     1    21     2     5
  3.1203533220146301E-01 a      1181     1    21     2     6
  6.6841360801267125E-02 a      1182     1    21     2     7
 -1.5115239015743509E+00 a      1183     1    21     2     8
  2.1165887233253633E-01 a      1184     1    21     2     9
 -4.1200174005596729E-01 a      1185     1    21     2    10
  1.9236218553192649E-01 a      1186     1    21     2    11
 -3.3710075594797334E-01 a      1187     1    21     2    12
 -4.1320919077152773E-01 a      1188     1    21     2    13
 -6.8535142969519430E-02 a      1189     1    21     2    14
  4.3575207685321391E-03 a      1190     1    21     2    15
  4.0827495456924096E-01 a      1191     1    21     2    16
  3.3947912410153819E-01 a      1192     1    21     2    17
 -1.0838837008814819E-01 a      1193     1    21     2    18
  2.1673709842101072E-01 a      1194     1    21     2    19
  4.8818675893214392E-01 a      1195     1    21     2    20
  1.6663392757144577E-01 a      1196     1    21     2    21
 -5.0096394812782630E-01 a      1197     1    21     2    22
  5.9302207019082745E-02 a      1198     1    21     2    23
 -5.4075737104946853E-01 a      1199     1    21     2    24
 -4.6126884169076221E-01 a      1200     1    21     2    25
  2.9190979699722247E-01 a      1201     1    22     2     1
  1.8668058377906027E-02 a      1202     1    22     2     2
 -6.2250777584904882E-01 a      1203     1    22     2     3
 -3.8523653558206777E-01 a      1204     1    22     2     4
  1.8136085160110550E-02 a      1205     1    22     2     5
 -4.8861279230086395E-02 a      1206     1    22     2     6
 -5.6394023693616802E-01 a      1207     1    22     2     7
 -7.4187636763940190E-01 a      1208     1    22     2     8
  1.8318222030800008E-01 a      1209     1    22     2     9
  4.8022294199555976E-01 a      1210     1    22     2    10
  1.8135579148231324E+00 a      1211     1    22     2    11
 -6.2438961696590722E-01 a      1212     1    22     2    12
 -2.7064300790805434E-02 a      1213     1    22     2    13
  2.5493690802444055E-02 a      1214     1    22     2    14
 -2.4744836148359900E-01 a      1215     1    22     2    15
  9.0862255172771256E-01 a      1216     1    22     2    16
 -3.3139722390509080E-01 a      1217     1    22     2    17
 -2.6051588679832405E-01 a      1218     1    22     2    18
  3.7251095280936108E-01 a      1219     1    22     2    19
 -7.7794687204883861E-02 a      1220     1    22     2    20
 -3.6380137700870746E-01 a      1221     1    22     2    21
  1.4205289994434966E-02 a      1222     1    22     2    22
  4.7956034105724743E-01 a      1223     1    22     2    23
 -7.3924954556909173E-01 a      1224     1    22     2    24
  8.4725026906576545E-02 a      1225     1    22     2    25
 -2.6926842663370149E-01 a      1226     1    23     2     1
 -7.0270795500399857E-02 a      1227     1    23     2     2
 -1.4484941894025793E-01 a      1228     1    23     2     3
 -2.5145508399283090E-01 a      1229     1    23     2     4
  1.2503387743023411E-01 a      1230     1    23     2     5
  5.0380454561854304E-01 a      1231     1    23     2     6
  5.9334514658957049E-01 a      1232     1    23     2     7
  2.8116349168283605E-01 a      1233     1    23     2     8
  2.2460844662234195E-01 a      1234     1    23     2     9
 -5.3631144696434929E-02 a      1235     1    23     2    10
  5.5805235319476532E-01 a      1236     1    23     2    11
 -9.2159253496393545E-01 a      1237     1    23     2    12
 -2.6976225134391746E-01 a      1238     1    23     2    13
  4.7355655863217849E-01 a      1239     1    23     2    14
 -2.7484556732272769E-01 a      1240     1    23     2    15
  9.0459290332907238E-01 a      1241     1    23     2    16
 -1.3359474086062956E-01 a      1242     1    23     2    17
  1.3377058244999074E-01 a      1243     1    23     2    18
 -7.0740099463550377E-01 a      1244     1    23     2    19
  7.7606224579190072E-02 a      1245     1    23     2    20
  2.9455841882825434E-01 a      1246     1    23     2    21
 -2.7360756146391890E-01 a      1247     1    23     2    22
  1.6906891810007016E-01 a      1248     1    23     2    23
  6.5545729562649557E-01 a      1249     1    23     2    24
 -8.4429060942583656E-01 a      1250     1    23     2    25
 -2.9359318839531112E-01 a      1251     1    24     2     1
 -9.9562652392527193E-02 a      1252     1    24     2     2
 -1.3296044939973684E+00 a      1253     1    24     2     3
 -4.9770789831376794E-01 a      1254     1    24     2     4
 -6.3892662345050630E-02 a      1255     1    24     2     5
 -4.7590635456653091E-01 a      1256     1    24     2     6
 -4.4124776759394946E-01 a      1257     1    24     2     7
  1.0522132949254799E+00 a      1258     1    24     2     8
  6.9490390407056002E-01 a      1259     1    24     2     9
  2.9678557212713293E-02 a      1260     1    24     2    10
 -5.2973010975862311E-01 a      1261     1    24     2    11
  5.0813214032568256E-02 a      1262     1    24     2    12
  2.0534305658578114E-01 a      1263     1    24     2    13
  1.0004906870093573E+00 a      1264     1    24     2    14
 -1.7375376158327882E-01 a      1265     1    24     2    15
  4.5330829964658224E-02 a      1266     1    24     2    16
 -1.3785048540268582E-01 a      1267     1    24     2    17
 -2.5540361486774182E-01 a      1268     1    24     2    18
  4.4395234067037859E-01 a      1269     1    24     2    19
 -5.5629889750136585E-01 a      1270     1    24     2    20
 -5.7995791197202377E-02 a      1271     1    24     2    21
 -6.8540687169754821E-01 a      1272     1    24     2    22
  2.6607017299735947E-01 a      1273     1    24     2    23
 -3.2146163805209382E-01 a      1274     1    24     2    24
 -8.1420518652297880E-01 a      1275     1    24     2    25
 -2.2732046773347112E-01 a      1276     1    25     2     1
 -1.0868060528561212E-01 a      1277     1    25     2     2
  1.9874933663076769E-01 a      1278     1    25     2     3
  2.3684457006612306E-01 a      1279     1    25     2     4
  3.7642386461668353E-01 a      1280     1    25     2     5
 -3.1360108786984148E-01 a      1281     1    25     2     6
  7.4289352357850100E-02 a      1282     1    25     2     7
  4.9365289412247443E-01 a      1283     1    25     2     8
  1.4388709636381089E-01 a      1284     1    25     2     9
 -6.9325130925267164E-01 a      1285     1    25     2    10
 -7.9845588276353063E-01 a      1286     1    25     2    11
 -5.8826370125232463E-01 a      1287     1    25     2    12
  3.3688019473687592E-01 a      1288     1    25     2    13
  2.1994479324662869E-01 a      1289     1    25     2    14
 -2.6998402500993440E-01 a      1290     1    25     2    15
  9.9028506031497765E-02 a      1291     1    25     2    16
  1.3209803808125367E-01 a      1292     1    25     2    17
 -2.6630869613286967E-01 a      1293     1    25     2    18
 -1.2618534965307626E-01 a      1294     1    25     2    19
  1.2384036809356576E-01 a      1295     1    25     2    20
  2.9221063028880445E-01 a      1296     1    25     2    21
 -3.2787420772491326E-02 a      1297     1    25     2    22
 -5.5017323552068753E-01 a      1298     1    25     2    23
 -1.7552166804086516E-01 a      1299     1    25     2    24
  1.8968570629119774E-01 a      1300     1    25     2    25
  1.6878693523096885E-01 b      1301     2     1
  3.4125112393840035E-01 b      1302     2     2
 -2.0773935324979437E-01 b      1303     2     3
  2.0960009821586681E-01 b      1304     2     4
 -9.8908925615593724E-02 b      1305     2     5
 -6.0354867660589384E-01 b      1306     2     6
 -7.1719506834213242E-02 b      1307     2     7
 -5.4863159511795667E-01 b      1308     2     8
 -7.5200405963458214E-02 b      1309     2     9
  1.0645900881562254E-01 b      1310     2    10
  5.1952910754322434E-01 b      1311     2    11
  1.1590793982470697E-01 b      1312     2    12
 -4.6956833493226258E-01 b      1313     2    13
  4.4792573762372095E-01 b      1314     2    14
 -2.7460292996650504E-01 b      1315     2    15
  2.8068728702101167E-02 b      1316     2    16
  7.3153045659236837E-01 b      1317     2    17
 -3.2724572085551412E-01 b      1318     2    18
 -4.8303874587342782E-02 b      1319     2    19
  1.6705556410744379E-01 b      1320     2    20
  8.8631414428687657E-03 b      1321     2    21
  3.6503722101120517E-01 b      1322     2    22
  1.6882076559190187E-01 b      1323     2    23
 -4.9976289392990904E-03 b      1324     2    24
  4.1786005672465459E-01 b      1325     2    25
 -3.7586673569133677E-01 a      1326     2     1     3     1
 -2.3491101841568285E-01 a      1327     2     2     3     1
  1.2563917965301605E-01 a      1328     2     3     3     1
 -4.3531049859384530E-01 a      1329     2     4     3     1
  1.1953484163759123E-01 a      1330     2     5     3     1
  5.4021121337695388E-01 a      1331     2     6     3     1
  8.4767600782034658E-02 a      1332     2     7     3     1
 -7.2341888431952175E-02 a      1333     2     8     3     1
  4.0261977931525628E-01 a      1334     2     9     3     1
 -2.2629290706428892E-01 a      1335     2    10     3     1
  3.4095521278421526E-02 a      1336     2    11     3     1
  1.6907296218450810E-01 a      1337     2    12     3     1
  2.9273619509374310E-01 a      1338     2    13     3     1
 -3.1224538110323474E-01 a      1339     2    14     3     1
  3.5341019424869485E-01 a      1340     2    15     3     1
  1.6320238672963233E-01 a      1341     2    16     3     1
 -7.0093831908163429E-01 a      1342     2    17     3     1
  4.6467616769879272E-01 a      1343     2    18     3     1
  3.1253832960152894E-01 a      1344     2    19     3     1
 -1.2655075250259257E-01 a      1345     2    20     3     1
 -3.8964947316964016E-01 a      1346     2    21     3     1
 -2.3532826538279630E-01 a      1347     2    22     3     1
 -2.5221046337242398E-01 a      1348     2    23     3     1
  2.2716129412359840E-01 a      1349     2    24     3     1
  1.4703599085342103E-01 a      1350     2    25     3     1
 -1.4624666055557627E+00 b      1351     3     1
