################################################################################
# Neural network connection values (weights and biases).
################################################################################
# Col  Name       Description
################################################################################
# 1    connection Neural network connection value.
# 2    t          Connection type (a = weight, b = bias).
# 3    index      Index enumerating weights.
# 4    l_s        Starting point layer (end point layer for biases).
# 5    n_s        Starting point neuron in starting layer (end point neuron for biases).
# 6    l_e        End point layer.
# 7    n_e        End point neuron in end layer.
################################################################################
#                      1 2         3     4     5     6     7
#             connection t     index   l_s   n_s   l_e   n_e
############################################################
 -1.2791426848767338E+00 a         1     0     1     1     1
 -2.4800667363674358E+00 a         2     0     1     1     2
  7.6364066197507654E+00 a         3     0     1     1     3
  1.8298307517134464E+00 a         4     0     1     1     4
 -5.0912178630569986E+00 a         5     0     1     1     5
 -2.3866707334211408E+00 a         6     0     1     1     6
 -1.0100452489432564E-01 a         7     0     1     1     7
 -6.6073340831755205E+00 a         8     0     1     1     8
  8.3853318251913903E-03 a         9     0     1     1     9
 -1.9098968104987235E-01 a        10     0     1     1    10
  1.7531272581342958E+00 a        11     0     1     1    11
  8.7563123877359672E-01 a        12     0     1     1    12
 -2.7522930201593665E+00 a        13     0     1     1    13
  4.4137499142574299E-01 a        14     0     1     1    14
  1.7548150001945395E-01 a        15     0     1     1    15
  2.2846659429206464E+00 a        16     0     1     1    16
 -1.1802568884423081E+00 a        17     0     1     1    17
  5.4338481530494533E+00 a        18     0     1     1    18
  2.4372017758294282E+00 a        19     0     1     1    19
  7.8045939179736257E+00 a        20     0     1     1    20
  2.5355058024139203E+00 a        21     0     1     1    21
 -1.0426207422881995E+00 a        22     0     1     1    22
  1.6850648160018755E+00 a        23     0     1     1    23
  2.9737333790396259E-01 a        24     0     1     1    24
  6.5693550679238488E-01 a        25     0     1     1    25
  8.2385857483157054E-01 a        26     0     2     1     1
 -1.6397223767670571E-01 a        27     0     2     1     2
 -1.0905388876536921E+00 a        28     0     2     1     3
 -8.4347840133567198E-01 a        29     0     2     1     4
  1.0328180872994053E+00 a        30     0     2     1     5
 -1.9991570822131902E-01 a        31     0     2     1     6
 -2.8840599672280944E-02 a        32     0     2     1     7
  1.7746683286482152E+00 a        33     0     2     1     8
  4.3224102930621611E-01 a        34     0     2     1     9
 -3.4472908640937616E-01 a        35     0     2     1    10
 -7.3801590310223886E-01 a        36     0     2     1    11
 -3.5488301783231441E-01 a        37     0     2     1    12
  3.7642443594079075E-02 a        38     0     2     1    13
 -8.7582882816855029E-02 a        39     0     2     1    14
 -3.7699057343490283E-01 a        40     0     2     1    15
 -9.4840248349765466E-01 a        41     0     2     1    16
 -3.1030983920744165E-01 a        42     0     2     1    17
 -1.0824507525708820E+00 a        43     0     2     1    18
 -9.3847500497699987E-01 a        44     0     2     1    19
 -1.2929344915265131E+00 a        45     0     2     1    20
 -1.0269229231104396E-01 a        46     0     2     1    21
  4.8445169733190990E-01 a        47     0     2     1    22
 -3.0630909947911644E-01 a        48     0     2     1    23
  1.9301266995373106E-01 a        49     0     2     1    24
  7.3888638398115725E-01 a        50     0     2     1    25
  1.2852617721098156E+00 a        51     0     3     1     1
  1.2290849535188209E+00 a        52     0     3     1     2
 -5.5381810094653012E+00 a        53     0     3     1     3
 -1.6958075524916734E+00 a        54     0     3     1     4
  4.3688570899571824E+00 a        55     0     3     1     5
  1.0964795294527918E+00 a        56     0     3     1     6
  6.8673520143271896E-02 a        57     0     3     1     7
  5.5313034202107199E+00 a        58     0     3     1     8
  5.3873157825678741E-01 a        59     0     3     1     9
 -2.2562776766331941E-01 a        60     0     3     1    10
 -2.1063288539820566E+00 a        61     0     3     1    11
 -8.5341701783253399E-01 a        62     0     3     1    12
  2.2358771898975234E+00 a        63     0     3     1    13
 -6.7741817083575717E-01 a        64     0     3     1    14
 -1.3305245997889539E+00 a        65     0     3     1    15
 -2.0994228227045406E+00 a        66     0     3     1    16
 -3.6526221571711759E-01 a        67     0     3     1    17
 -5.0565864195563606E+00 a        68     0     3     1    18
 -2.3058776275087847E+00 a        69     0     3     1    19
 -5.8600981698819350E+00 a        70     0     3     1    20
 -1.0755222565206053E+00 a        71     0     3     1    21
  9.1451776603385826E-01 a        72     0     3     1    22
 -1.4512262876968303E+00 a        73     0     3     1    23
  4.9874041131937247E-01 a        74     0     3     1    24
  5.5657880472007881E-01 a        75     0     3     1    25
  1.2325337370601763E+00 a        76     0     4     1     1
 -5.9462433881124910E-01 a        77     0     4     1     2
 -6.7432008827755361E+00 a        78     0     4     1     3
  5.7603090456616513E-01 a        79     0     4     1     4
 -2.1545978224703607E-01 a        80     0     4     1     5
  1.4264893241202405E+00 a        81     0     4     1     6
 -9.3886913466885369E-01 a        82     0     4     1     7
  2.1823086211556646E+00 a        83     0     4     1     8
 -3.1446018708464540E-01 a        84     0     4     1     9
  1.3019183998400954E+00 a        85     0     4     1    10
  3.6801070053751139E-01 a        86     0     4     1    11
  1.4842195308835506E+00 a        87     0     4     1    12
  2.6530520369882336E+00 a        88     0     4     1    13
  1.2777972658162109E+00 a        89     0     4     1    14
  1.0364120665991396E+00 a        90     0     4     1    15
  2.2032311445617536E-01 a        91     0     4     1    16
  1.9213092401063172E+00 a        92     0     4     1    17
 -1.5842926721970574E-01 a        93     0     4     1    18
 -4.9035694225038631E+00 a        94     0     4     1    19
 -4.6063377565263837E+00 a        95     0     4     1    20
 -7.3961133479780916E-01 a        96     0     4     1    21
 -1.9821599819520580E-01 a        97     0     4     1    22
  1.5716088054813080E+00 a        98     0     4     1    23
  4.6259255379363298E+00 a        99     0     4     1    24
 -1.3178379963594193E+00 a       100     0     4     1    25
 -3.3319896472678852E+00 a       101     0     5     1     1
  2.0217797119015675E+00 a       102     0     5     1     2
  8.6125384366159317E+00 a       103     0     5     1     3
 -4.6631028945045794E-01 a       104     0     5     1     4
 -1.2659737716527193E+00 a       105     0     5     1     5
 -2.6460470186374926E-02 a       106     0     5     1     6
  9.7520974141065853E-01 a       107     0     5     1     7
 -3.6166086741533672E+00 a       108     0     5     1     8
  1.5990533280707198E-01 a       109     0     5     1     9
 -1.2443176797440747E+00 a       110     0     5     1    10
  2.6047259614279277E+00 a       111     0     5     1    11
 -2.0953305150108620E-01 a       112     0     5     1    12
 -3.2973936070436851E+00 a       113     0     5     1    13
 -1.6663826515486309E+00 a       114     0     5     1    14
  8.2055240394153639E-01 a       115     0     5     1    15
  1.7846776556175765E+00 a       116     0     5     1    16
  4.8830192783330501E-01 a       117     0     5     1    17
  1.1422959656802356E+00 a       118     0     5     1    18
  5.7586885233672040E+00 a       119     0     5     1    19
  4.9776166390808463E+00 a       120     0     5     1    20
  1.3475231835903885E+00 a       121     0     5     1    21
 -6.6971562633047887E-01 a       122     0     5     1    22
 -2.3209547651336355E+00 a       123     0     5     1    23
 -5.1574644481890157E+00 a       124     0     5     1    24
 -4.5889212579778949E-01 a       125     0     5     1    25
  2.1233712529562023E+00 a       126     0     6     1     1
 -1.2106882278795577E+00 a       127     0     6     1     2
 -3.1143934285275034E+00 a       128     0     6     1     3
  6.5453146054278677E-01 a       129     0     6     1     4
  1.2303017076997496E+00 a       130     0     6     1     5
 -1.8262532654506386E-01 a       131     0     6     1     6
 -5.7235871994993526E-01 a       132     0     6     1     7
  1.6592688402501148E+00 a       133     0     6     1     8
  3.4337108199648941E-02 a       134     0     6     1     9
  2.1818409439196873E-01 a       135     0     6     1    10
 -1.9109166992722353E+00 a       136     0     6     1    11
 -6.9816701607516685E-02 a       137     0     6     1    12
  1.7063037263210992E+00 a       138     0     6     1    13
  1.5871234635185032E+00 a       139     0     6     1    14
 -1.1369302534207133E+00 a       140     0     6     1    15
 -9.1672227258414463E-01 a       141     0     6     1    16
 -1.4198699984563348E+00 a       142     0     6     1    17
 -7.1308571533093457E-01 a       143     0     6     1    18
 -1.5511897938904351E+00 a       144     0     6     1    19
 -1.6035286959964996E+00 a       145     0     6     1    20
 -4.7909253651834433E-01 a       146     0     6     1    21
  5.9855542437256259E-01 a       147     0     6     1    22
  1.0713944596582692E+00 a       148     0     6     1    23
  2.0021804606887970E+00 a       149     0     6     1    24
  8.7974759078063702E-01 a       150     0     6     1    25
 -4.1479714116812982E-01 a       151     0     7     1     1
  5.1490768935144515E-01 a       152     0     7     1     2
  7.9243848726675470E-01 a       153     0     7     1     3
 -3.3224527352924094E-01 a       154     0     7     1     4
 -4.5365063298372693E-01 a       155     0     7     1     5
  1.2432108432080849E-01 a       156     0     7     1     6
  1.2613757411140736E-01 a       157     0     7     1     7
 -3.6182766026712904E-01 a       158     0     7     1     8
  5.3037699817640293E-03 a       159     0     7     1     9
 -1.5377835563986914E-01 a       160     0     7     1    10
  4.8717668859598362E-01 a       161     0     7     1    11
 -3.3387529827924409E-02 a       162     0     7     1    12
 -2.4745807533563294E-01 a       163     0     7     1    13
 -6.3477361772390462E-01 a       164     0     7     1    14
  5.7728606816286876E-01 a       165     0     7     1    15
  3.3977256032107322E-01 a       166     0     7     1    16
  4.8363505435597631E-01 a       167     0     7     1    17
  9.5579349848659692E-02 a       168     0     7     1    18
 -4.5782328428268695E-02 a       169     0     7     1    19
  1.6910959519705979E-01 a       170     0     7     1    20
 -3.6711538587653664E-02 a       171     0     7     1    21
 -2.4713143433447038E-01 a       172     0     7     1    22
 -2.3973939512455264E-01 a       173     0     7     1    23
 -3.3315398072730007E-01 a       174     0     7     1    24
 -2.6048582805421072E-01 a       175     0     7     1    25
 -6.9851000493316787E-02 a       176     0     8     1     1
 -1.3009452275850264E-01 a       177     0     8     1     2
 -1.2095876097394380E-01 a       178     0     8     1     3
  7.7542667443555521E-02 a       179     0     8     1     4
 -5.3185214246021404E-03 a       180     0     8     1     5
 -3.0088384609720804E-02 a       181     0     8     1     6
  2.3313763942805297E-02 a       182     0     8     1     7
 -4.5516247157060728E-02 a       183     0     8     1     8
  3.4590761323831092E-02 a       184     0     8     1     9
  1.0709107094837017E-01 a       185     0     8     1    10
 -5.4718719790275788E-02 a       186     0     8     1    11
 -4.5549060809569275E-02 a       187     0     8     1    12
 -1.4722430982385368E-01 a       188     0     8     1    13
  4.1478794173044363E-02 a       189     0     8     1    14
 -1.1625103701868844E-01 a       190     0     8     1    15
 -4.9440382640522820E-02 a       191     0     8     1    16
 -1.5338763291166277E-02 a       192     0     8     1    17
  8.6163913926012844E-02 a       193     0     8     1    18
  2.8419789606255286E-02 a       194     0     8     1    19
  8.6207706708192056E-02 a       195     0     8     1    20
  8.5560718240091038E-02 a       196     0     8     1    21
  3.5075849291466552E-02 a       197     0     8     1    22
  3.0086548172810965E-02 a       198     0     8     1    23
 -3.3547311291841002E-03 a       199     0     8     1    24
 -3.7336103289722831E-02 a       200     0     8     1    25
 -6.4103126082687412E-01 a       201     0     9     1     1
  1.9155495074780728E+00 a       202     0     9     1     2
 -4.7953655640797521E-01 a       203     0     9     1     3
 -1.2690272603968062E+00 a       204     0     9     1     4
 -3.8996972565989645E+00 a       205     0     9     1     5
 -2.2452429081773921E+00 a       206     0     9     1     6
 -2.2518135406107893E+00 a       207     0     9     1     7
  1.8272001762681127E+00 a       208     0     9     1     8
  3.5686446745119837E-01 a       209     0     9     1     9
  4.9918091638086377E+00 a       210     0     9     1    10
  4.3389857397281695E+00 a       211     0     9     1    11
  1.7182401124758595E+00 a       212     0     9     1    12
 -1.1257508812635699E+00 a       213     0     9     1    13
 -1.7970632759545666E-01 a       214     0     9     1    14
  4.4386442967539557E+00 a       215     0     9     1    15
  9.8428558207183836E-01 a       216     0     9     1    16
  1.5430334485518931E+00 a       217     0     9     1    17
 -1.1301778998599554E+00 a       218     0     9     1    18
  3.9172093855578582E+00 a       219     0     9     1    19
  1.5684066596547741E+00 a       220     0     9     1    20
  3.0324411968217317E+00 a       221     0     9     1    21
  1.7365910411462987E-01 a       222     0     9     1    22
  3.8657190370223393E+00 a       223     0     9     1    23
 -4.8919372182112725E-01 a       224     0     9     1    24
 -2.0484213021653752E+00 a       225     0     9     1    25
  1.9003362368966483E+00 a       226     0    10     1     1
  1.7616742229774482E+00 a       227     0    10     1     2
 -6.3978644289383282E-02 a       228     0    10     1     3
  3.4384585286047181E-02 a       229     0    10     1     4
  3.9129620012039821E+00 a       230     0    10     1     5
  1.1234405912427290E+00 a       231     0    10     1     6
  7.1463503059813938E-01 a       232     0    10     1     7
  4.5055144458540477E+00 a       233     0    10     1     8
  6.8212913026817146E-01 a       234     0    10     1     9
 -3.4966795254332317E-01 a       235     0    10     1    10
 -1.0822552443732207E+00 a       236     0    10     1    11
 -7.9004466189508804E-01 a       237     0    10     1    12
  1.5513024926775563E+00 a       238     0    10     1    13
  4.3294056884843179E-01 a       239     0    10     1    14
 -1.3718192068582324E+00 a       240     0    10     1    15
 -1.1953373621188241E+00 a       241     0    10     1    16
  9.2199748140570770E-01 a       242     0    10     1    17
 -4.3727917355860209E+00 a       243     0    10     1    18
 -9.1038231151658197E-02 a       244     0    10     1    19
 -4.9967204954860538E+00 a       245     0    10     1    20
 -1.1065152247400889E+00 a       246     0    10     1    21
 -7.6253823856209713E-02 a       247     0    10     1    22
 -3.2751047816318004E+00 a       248     0    10     1    23
 -1.1802139166733152E+00 a       249     0    10     1    24
  1.9483395348049778E-01 a       250     0    10     1    25
 -2.1617301295303979E+00 a       251     0    11     1     1
 -9.2168262354813857E-01 a       252     0    11     1     2
  2.2797150902550580E+00 a       253     0    11     1     3
  2.9122437077279577E+00 a       254     0    11     1     4
  1.8932006898285783E+00 a       255     0    11     1     5
  2.7737453036971398E+00 a       256     0    11     1     6
  2.6922625403537190E+00 a       257     0    11     1     7
 -6.1973773315580472E+00 a       258     0    11     1     8
  3.2305901892220978E-01 a       259     0    11     1     9
 -4.0036432033829596E+00 a       260     0    11     1    10
 -2.5618785285444070E+00 a       261     0    11     1    11
 -1.3706407866738698E-01 a       262     0    11     1    12
  5.5650065646599045E-01 a       263     0    11     1    13
 -2.1804348991603710E+00 a       264     0    11     1    14
 -3.8609398905001306E+00 a       265     0    11     1    15
  1.2911462728123229E+00 a       266     0    11     1    16
 -5.8200996576735047E-03 a       267     0    11     1    17
  6.9818233967189149E+00 a       268     0    11     1    18
 -1.7901000326405436E+00 a       269     0    11     1    19
  2.6605751248424041E+00 a       270     0    11     1    20
 -1.5815108054069675E+00 a       271     0    11     1    21
 -2.4266702120561054E-01 a       272     0    11     1    22
 -4.0844295413026712E+00 a       273     0    11     1    23
  9.9143773083795139E-01 a       274     0    11     1    24
  1.9832569534629738E+00 a       275     0    11     1    25
  1.3728109844953782E+00 a       276     0    12     1     1
 -5.5586121880908870E+00 a       277     0    12     1     2
  1.7589371307993493E+00 a       278     0    12     1     3
  2.5936363134836258E+00 a       279     0    12     1     4
 -3.3223529222113336E-02 a       280     0    12     1     5
  1.9780311061198295E+00 a       281     0    12     1     6
  3.5270800747413014E+00 a       282     0    12     1     7
 -1.0987120414390370E+01 a       283     0    12     1     8
  3.4884006208739538E-03 a       284     0    12     1     9
 -7.8033728865153549E+00 a       285     0    12     1    10
 -3.8654027141394156E+00 a       286     0    12     1    11
 -1.7036833132717299E+00 a       287     0    12     1    12
  1.9413585104972060E+00 a       288     0    12     1    13
  4.9209373678347497E+00 a       289     0    12     1    14
 -2.3154477087686383E+00 a       290     0    12     1    15
  1.0738746409187938E+00 a       291     0    12     1    16
 -2.6837148535479867E+00 a       292     0    12     1    17
  2.8354790882099672E+00 a       293     0    12     1    18
 -3.8549237846161682E-01 a       294     0    12     1    19
  4.1010568026159389E+00 a       295     0    12     1    20
 -2.4423040172133894E+00 a       296     0    12     1    21
 -3.2736909290805949E-01 a       297     0    12     1    22
 -3.2561757489403260E+00 a       298     0    12     1    23
 -1.5792464121244805E+00 a       299     0    12     1    24
 -4.2268153673563207E+00 a       300     0    12     1    25
 -4.1815447248332555E-01 a       301     0    13     1     1
 -1.7277582445422185E-02 a       302     0    13     1     2
 -1.9260059626165242E+00 a       303     0    13     1     3
 -2.1007439358716007E+00 a       304     0    13     1     4
 -1.5182216269156890E+00 a       305     0    13     1     5
  7.1489444125344725E-01 a       306     0    13     1     6
 -1.0724137191676257E+00 a       307     0    13     1     7
  1.6346244425342786E+00 a       308     0    13     1     8
 -9.7590247431470367E-01 a       309     0    13     1     9
  6.0730571942301170E-01 a       310     0    13     1    10
  4.6998626053270776E-01 a       311     0    13     1    11
  1.2841001816866968E+00 a       312     0    13     1    12
 -1.5384731090479609E+00 a       313     0    13     1    13
 -5.6749058654286078E-01 a       314     0    13     1    14
  4.3860111653151479E-01 a       315     0    13     1    15
  4.2565749361223898E-01 a       316     0    13     1    16
 -1.5019524694148640E+00 a       317     0    13     1    17
  4.5895158134059383E-01 a       318     0    13     1    18
 -1.5493156462213749E+00 a       319     0    13     1    19
 -1.0775839369488259E-01 a       320     0    13     1    20
 -4.3542053797859226E-01 a       321     0    13     1    21
  9.2299285368560124E-01 a       322     0    13     1    22
  2.1502712142082503E+00 a       323     0    13     1    23
  1.0462719842035570E+00 a       324     0    13     1    24
 -2.7066793864160021E-01 a       325     0    13     1    25
 -1.2052669966695710E+00 a       326     0    14     1     1
  3.7336239054120739E+00 a       327     0    14     1     2
 -4.3351936006327456E+00 a       328     0    14     1     3
 -5.4966996466892946E+00 a       329     0    14     1     4
  1.0583052171495415E+00 a       330     0    14     1     5
  4.2973746435853388E-01 a       331     0    14     1     6
 -4.1033190814402278E+00 a       332     0    14     1     7
  1.6279577976830240E+01 a       333     0    14     1     8
 -1.9118281246620916E+00 a       334     0    14     1     9
  6.0758610232239043E+00 a       335     0    14     1    10
  1.9047988649860954E+00 a       336     0    14     1    11
  2.5714246339956013E+00 a       337     0    14     1    12
 -2.6561579534370123E+00 a       338     0    14     1    13
 -4.4951193734670660E+00 a       339     0    14     1    14
  2.5031726982260509E+00 a       340     0    14     1    15
 -2.7894618114137857E+00 a       341     0    14     1    16
  2.2089831483354225E-01 a       342     0    14     1    17
 -6.1746605716713487E+00 a       343     0    14     1    18
 -2.3147404300350551E+00 a       344     0    14     1    19
 -7.2486049754454003E+00 a       345     0    14     1    20
 -3.8180468956333480E-01 a       346     0    14     1    21
  1.8819257198459920E+00 a       347     0    14     1    22
  3.4323642173341291E+00 a       348     0    14     1    23
  9.9758904293571427E-01 a       349     0    14     1    24
  2.5808643733304235E+00 a       350     0    14     1    25
 -1.4418125944717142E+00 a       351     0    15     1     1
 -1.7705876478780427E+00 a       352     0    15     1     2
  9.0691250653994870E-01 a       353     0    15     1     3
  2.0033464335787090E+00 a       354     0    15     1     4
 -1.7258812257130147E+00 a       355     0    15     1     5
 -2.7075256087388420E+00 a       356     0    15     1     6
  4.5559326001649375E-01 a       357     0    15     1     7
 -7.1859603851560205E+00 a       358     0    15     1     8
 -1.9634437404946030E+00 a       359     0    15     1     9
 -1.5984555650010388E+00 a       360     0    15     1    10
  1.0671652463234358E+00 a       361     0    15     1    11
 -1.0095773755882180E+00 a       362     0    15     1    12
  1.4017483919209393E+00 a       363     0    15     1    13
  3.3972348633878373E+00 a       364     0    15     1    14
 -2.1743087896957186E-01 a       365     0    15     1    15
 -4.2261783455260737E-01 a       366     0    15     1    16
  1.2594571628664528E+00 a       367     0    15     1    17
  5.3525351603958593E-01 a       368     0    15     1    18
  1.9540256203834565E+00 a       369     0    15     1    19
  2.8353965302165616E+00 a       370     0    15     1    20
  1.0616131765932133E+00 a       371     0    15     1    21
 -2.0034680069525455E+00 a       372     0    15     1    22
  3.7270835520879455E+00 a       373     0    15     1    23
 -1.7291602005523166E+00 a       374     0    15     1    24
  2.8486322446043162E+00 a       375     0    15     1    25
  1.8882955389900200E+00 a       376     0    16     1     1
 -7.5429551533662886E-01 a       377     0    16     1     2
 -1.3340035777016584E-01 a       378     0    16     1     3
 -2.9894831024063425E-02 a       379     0    16     1     4
  1.3725936006999067E+00 a       380     0    16     1     5
 -1.0241841180335069E-01 a       381     0    16     1     6
  1.7472641058896943E-01 a       382     0    16     1     7
  2.7601984640822614E+00 a       383     0    16     1     8
 -6.7121010756735577E-01 a       384     0    16     1     9
 -1.0796005098653223E+00 a       385     0    16     1    10
 -1.1590214356976487E+00 a       386     0    16     1    11
 -8.6183377364383973E-01 a       387     0    16     1    12
  5.0925391672755704E-01 a       388     0    16     1    13
  1.4880334196040452E+00 a       389     0    16     1    14
 -5.6816608338862951E-01 a       390     0    16     1    15
 -1.2655587976295719E+00 a       391     0    16     1    16
 -4.3369486191790002E-01 a       392     0    16     1    17
 -3.6281015502062197E+00 a       393     0    16     1    18
 -9.1975311818007266E-01 a       394     0    16     1    19
 -2.3853968462621533E+00 a       395     0    16     1    20
 -8.9727018504452072E-01 a       396     0    16     1    21
 -4.3637407146418622E-01 a       397     0    16     1    22
 -4.5658521536235391E-01 a       398     0    16     1    23
 -8.2507141244651927E-01 a       399     0    16     1    24
  7.8395985638378615E-02 a       400     0    16     1    25
 -5.1247837825357148E-02 a       401     0    17     1     1
  2.6669263340872884E-01 a       402     0    17     1     2
 -2.6131171676805480E+00 a       403     0    17     1     3
 -2.5891313600743127E+00 a       404     0    17     1     4
 -1.2085543375482157E+00 a       405     0    17     1     5
  1.5409050361494752E+00 a       406     0    17     1     6
 -1.0970203698743983E+00 a       407     0    17     1     7
  3.8814058087403946E+00 a       408     0    17     1     8
  1.4420476972205902E+00 a       409     0    17     1     9
  2.4294108591455466E+00 a       410     0    17     1    10
 -6.9177323159884718E-01 a       411     0    17     1    11
  4.8925108607501105E-01 a       412     0    17     1    12
 -3.1047043628580906E+00 a       413     0    17     1    13
 -3.6901452416214031E+00 a       414     0    17     1    14
  1.0696218431001168E+00 a       415     0    17     1    15
  3.5810783634468435E-01 a       416     0    17     1    16
 -1.7982267560273868E+00 a       417     0    17     1    17
  2.2111707823605729E+00 a       418     0    17     1    18
 -1.9037357147356746E+00 a       419     0    17     1    19
  5.0849467415985194E-01 a       420     0    17     1    20
 -5.2855036926077814E-01 a       421     0    17     1    21
  2.4081871757617486E+00 a       422     0    17     1    22
 -1.8908998951395958E-01 a       423     0    17     1    23
  2.1947404428366983E+00 a       424     0    17     1    24
 -3.2524259640617097E+00 a       425     0    17     1    25
 -4.0587965736278333E+00 a       426     0    18     1     1
  3.9454359179273895E+00 a       427     0    18     1     2
 -2.8335653273573826E+00 a       428     0    18     1     3
 -2.0299883187629519E+00 a       429     0    18     1     4
  7.5854451476511742E-01 a       430     0    18     1     5
  4.3165363131434187E-01 a       431     0    18     1     6
  1.6146397609891754E+00 a       432     0    18     1     7
 -3.6235288198842786E+00 a       433     0    18     1     8
  1.5628564733573171E+00 a       434     0    18     1     9
  1.5452017674484484E+00 a       435     0    18     1    10
 -4.8693194613428142E-01 a       436     0    18     1    11
 -4.2223360563700485E+00 a       437     0    18     1    12
  9.5478769567253818E-01 a       438     0    18     1    13
 -4.4414897490854024E+00 a       439     0    18     1    14
  4.4224084388060220E-01 a       440     0    18     1    15
  1.9085824854221440E+00 a       441     0    18     1    16
 -9.9800310559730132E-01 a       442     0    18     1    17
  3.1760685168607790E+00 a       443     0    18     1    18
  7.0607314813173461E-01 a       444     0    18     1    19
  2.9570254075008267E+00 a       445     0    18     1    20
 -1.1149043932554759E+00 a       446     0    18     1    21
  1.4331237274707129E+00 a       447     0    18     1    22
 -6.3112730487606317E-01 a       448     0    18     1    23
 -2.7216784894896882E+00 a       449     0    18     1    24
 -2.2863238591498010E+00 a       450     0    18     1    25
  3.1281741483118262E-02 a       451     0    19     1     1
  1.4124919857657525E+00 a       452     0    19     1     2
  2.5820050386295517E+00 a       453     0    19     1     3
  2.2619374367292377E+00 a       454     0    19     1     4
  2.8397940308723962E-01 a       455     0    19     1     5
 -1.5597764244316585E+00 a       456     0    19     1     6
  6.2598517856612224E-01 a       457     0    19     1     7
 -3.2252841189678900E+00 a       458     0    19     1     8
  1.0207434504276691E+00 a       459     0    19     1     9
  2.9996598263543994E-01 a       460     0    19     1    10
  1.3242337869042355E+00 a       461     0    19     1    11
 -1.1461189341105114E+00 a       462     0    19     1    12
  1.2467931451703715E+00 a       463     0    19     1    13
  1.1570244997562656E-01 a       464     0    19     1    14
 -6.8864516339741284E-03 a       465     0    19     1    15
  5.4872918967801942E-01 a       466     0    19     1    16
  1.0458623526270070E+00 a       467     0    19     1    17
  1.1009202198692858E+00 a       468     0    19     1    18
  1.9424763145264741E+00 a       469     0    19     1    19
  1.3467682694084291E+00 a       470     0    19     1    20
  1.1803428673272696E+00 a       471     0    19     1    21
 -1.3532330139286872E+00 a       472     0    19     1    22
 -1.1801548148280958E+00 a       473     0    19     1    23
 -3.6272908049386343E-01 a       474     0    19     1    24
  5.7797247708685295E-01 a       475     0    19     1    25
  3.3083692285700392E+00 a       476     0    20     1     1
 -2.0362379150928023E+00 a       477     0    20     1     2
  6.9360079786491111E+00 a       478     0    20     1     3
  5.6559716190274418E+00 a       479     0    20     1     4
  7.1385889083982601E-01 a       480     0    20     1     5
 -3.5608771728676341E+00 a       481     0    20     1     6
 -6.1504877814362058E-01 a       482     0    20     1     7
 -5.0194670974307929E+00 a       483     0    20     1     8
  1.0767712107320688E+00 a       484     0    20     1     9
 -9.7068760122500353E-01 a       485     0    20     1    10
  2.0369989949594398E+00 a       486     0    20     1    11
  7.4087720252630040E-01 a       487     0    20     1    12
  1.3219643738655649E+00 a       488     0    20     1    13
  4.1551884038589906E+00 a       489     0    20     1    14
 -7.3719368732766888E-01 a       490     0    20     1    15
 -7.0060418806155744E-01 a       491     0    20     1    16
  2.8115371194816121E+00 a       492     0    20     1    17
  4.2707907663082645E-01 a       493     0    20     1    18
  3.0636876363380572E+00 a       494     0    20     1    19
  1.1568305455981802E+00 a       495     0    20     1    20
  2.6559154716294442E+00 a       496     0    20     1    21
 -3.9316181763813378E+00 a       497     0    20     1    22
 -2.4958664961294197E+00 a       498     0    20     1    23
  1.4746598716817627E+00 a       499     0    20     1    24
  3.5977626906952009E+00 a       500     0    20     1    25
  4.0258032904389198E+00 a       501     0    21     1     1
  1.9003028277841794E+00 a       502     0    21     1     2
  3.8213491822722108E+00 a       503     0    21     1     3
  1.3940071994748633E+00 a       504     0    21     1     4
 -4.4312153677211370E+00 a       505     0    21     1     5
 -2.6112976915107828E+00 a       506     0    21     1     6
  8.1619431461234138E-01 a       507     0    21     1     7
  5.0649710194260269E+00 a       508     0    21     1     8
 -3.7915803040217839E+00 a       509     0    21     1     9
  6.6913997616221712E+00 a       510     0    21     1    10
  3.4386738370643610E+00 a       511     0    21     1    11
  2.0491233066273624E+00 a       512     0    21     1    12
 -4.6674276261275569E+00 a       513     0    21     1    13
  2.8299931409175048E+00 a       514     0    21     1    14
  4.7249564681618619E+00 a       515     0    21     1    15
  9.2320058223322987E-01 a       516     0    21     1    16
 -1.0201249182662837E+00 a       517     0    21     1    17
 -2.0279002571736777E+00 a       518     0    21     1    18
  3.0443600945112945E+00 a       519     0    21     1    19
  2.3691164869805070E+00 a       520     0    21     1    20
  5.4815699464884071E+00 a       521     0    21     1    21
 -1.3894966877191610E+00 a       522     0    21     1    22
  4.7630811527019210E+00 a       523     0    21     1    23
  1.4511189877105679E+00 a       524     0    21     1    24
  2.0362364524649648E+00 a       525     0    21     1    25
  2.6171741656850243E+00 a       526     0    22     1     1
 -2.8530434281158573E-01 a       527     0    22     1     2
  8.5797148551046842E-01 a       528     0    22     1     3
  1.9871147317425314E-01 a       529     0    22     1     4
  9.9430700510455172E-01 a       530     0    22     1     5
  3.9513950487156491E-01 a       531     0    22     1     6
  5.2205774950487405E-01 a       532     0    22     1     7
  4.2245104891769616E+00 a       533     0    22     1     8
 -8.2491412281302334E-01 a       534     0    22     1     9
  6.6922247816085897E-02 a       535     0    22     1    10
 -8.9880127356522399E-01 a       536     0    22     1    11
  7.2376878894963914E-01 a       537     0    22     1    12
  5.3606804691470819E-02 a       538     0    22     1    13
  1.6185071981818500E+00 a       539     0    22     1    14
 -3.9542491952585757E-01 a       540     0    22     1    15
 -8.8015761570149420E-01 a       541     0    22     1    16
 -2.1263559206298599E-01 a       542     0    22     1    17
 -4.0359678207154417E+00 a       543     0    22     1    18
 -4.4846334535725296E-01 a       544     0    22     1    19
 -3.0219582343560671E+00 a       545     0    22     1    20
 -2.4213263142362687E-01 a       546     0    22     1    21
 -1.3272628400498792E-02 a       547     0    22     1    22
 -6.3498967318674426E-01 a       548     0    22     1    23
 -6.6916317270241568E-02 a       549     0    22     1    24
  3.7407126704027727E-01 a       550     0    22     1    25
 -5.6035446905539255E+00 a       551     0    23     1     1
 -2.9108400338032374E+00 a       552     0    23     1     2
 -7.1517094124107894E+00 a       553     0    23     1     3
 -3.1048478565392998E+00 a       554     0    23     1     4
  2.4512282143920268E+00 a       555     0    23     1     5
  3.9973256598562514E+00 a       556     0    23     1     6
 -1.1789009020997676E+00 a       557     0    23     1     7
 -4.2489172170474463E+00 a       558     0    23     1     8
  3.2740601045280053E+00 a       559     0    23     1     9
 -6.0126897630455973E+00 a       560     0    23     1    10
 -3.9406466159395790E+00 a       561     0    23     1    11
 -2.0021818997534271E-01 a       562     0    23     1    12
  3.6515628488954914E+00 a       563     0    23     1    13
 -3.5450177996895471E+00 a       564     0    23     1    14
 -4.5168781952938257E+00 a       565     0    23     1    15
 -3.7332859040712790E-01 a       566     0    23     1    16
  8.3662330694487419E-02 a       567     0    23     1    17
  3.7974782955787183E+00 a       568     0    23     1    18
 -4.2166038269587931E+00 a       569     0    23     1    19
 -1.3980148463387265E+00 a       570     0    23     1    20
 -5.5927874156050272E+00 a       571     0    23     1    21
  2.3757884100475319E+00 a       572     0    23     1    22
 -2.2808359145348480E+00 a       573     0    23     1    23
 -2.7859237525921993E-01 a       574     0    23     1    24
 -2.7247679987240248E+00 a       575     0    23     1    25
 -1.6294089148180253E+00 a       576     0    24     1     1
  5.3953351208203840E-02 a       577     0    24     1     2
 -1.8786900399152502E+00 a       578     0    24     1     3
 -2.4668557535047597E+00 a       579     0    24     1     4
  1.1390621914975378E+00 a       580     0    24     1     5
  9.0372473659448116E-01 a       581     0    24     1     6
 -1.5454109889476961E+00 a       582     0    24     1     7
 -5.4970680400741523E-01 a       583     0    24     1     8
  5.6815828234221510E-01 a       584     0    24     1     9
  3.6822618301842898E+00 a       585     0    24     1    10
  7.8806678782267214E-02 a       586     0    24     1    11
 -3.5391617599048464E-01 a       587     0    24     1    12
 -1.8303568170266074E+00 a       588     0    24     1    13
 -9.4341324536054627E-01 a       589     0    24     1    14
  1.9171950527627597E+00 a       590     0    24     1    15
 -5.8701633979728696E-01 a       591     0    24     1    16
  8.0233990545064349E-01 a       592     0    24     1    17
  1.0642945614241732E+00 a       593     0    24     1    18
 -8.5155329480659503E-01 a       594     0    24     1    19
 -8.1840969740871217E-01 a       595     0    24     1    20
  3.0536161680768575E-01 a       596     0    24     1    21
  4.6691698750180793E-01 a       597     0    24     1    22
  1.8421659274797162E+00 a       598     0    24     1    23
 -7.4095936346161617E-01 a       599     0    24     1    24
 -2.2961206877548395E+00 a       600     0    24     1    25
  2.7326437227096227E+00 a       601     0    25     1     1
 -6.1020643822654663E-01 a       602     0    25     1     2
  3.3608822110847898E+00 a       603     0    25     1     3
  3.9651014340247115E+00 a       604     0    25     1     4
 -1.9567912808990535E+00 a       605     0    25     1     5
 -2.0932279487099783E+00 a       606     0    25     1     6
  3.4959931662932830E+00 a       607     0    25     1     7
  9.2270714683908794E-01 a       608     0    25     1     8
 -8.9278955670981519E-01 a       609     0    25     1     9
 -6.3399048245663288E+00 a       610     0    25     1    10
  4.5472307575404369E-01 a       611     0    25     1    11
  1.0435289090999007E+00 a       612     0    25     1    12
  2.8906153558189889E+00 a       613     0    25     1    13
  1.9688150951339929E+00 a       614     0    25     1    14
 -3.2535779841023094E+00 a       615     0    25     1    15
  7.1279554624908337E-01 a       616     0    25     1    16
 -1.0629321399976572E+00 a       617     0    25     1    17
 -1.6227333024664530E+00 a       618     0    25     1    18
  1.6563684281500268E+00 a       619     0    25     1    19
  1.6791459507334243E+00 a       620     0    25     1    20
  3.0702692318955380E-02 a       621     0    25     1    21
 -1.8755142325636412E-01 a       622     0    25     1    22
 -3.2804692472812702E+00 a       623     0    25     1    23
  7.8955824093847138E-01 a       624     0    25     1    24
  4.0583137194190835E+00 a       625     0    25     1    25
 -1.1600340271898888E+00 a       626     0    26     1     1
  4.7822181144072923E-01 a       627     0    26     1     2
 -1.5736041202926696E+00 a       628     0    26     1     3
 -1.5808019127934299E+00 a       629     0    26     1     4
  8.7942546756118523E-01 a       630     0    26     1     5
  1.1538732489550771E+00 a       631     0    26     1     6
 -1.7943693810450734E+00 a       632     0    26     1     7
 -3.8058398479205902E-01 a       633     0    26     1     8
  3.4067552133066836E-01 a       634     0    26     1     9
  2.8377506808168791E+00 a       635     0    26     1    10
 -3.9064055182935448E-01 a       636     0    26     1    11
 -6.5018869014393144E-01 a       637     0    26     1    12
 -1.1597437091747438E+00 a       638     0    26     1    13
 -9.6920208359154725E-01 a       639     0    26     1    14
  1.3400256298277717E+00 a       640     0    26     1    15
 -1.6863046614377192E-01 a       641     0    26     1    16
  3.2310859757156934E-01 a       642     0    26     1    17
  6.3867556128458680E-01 a       643     0    26     1    18
 -7.6964779954741236E-01 a       644     0    26     1    19
 -8.2261001556223146E-01 a       645     0    26     1    20
 -2.6383710719956377E-01 a       646     0    26     1    21
 -2.0682766463842109E-01 a       647     0    26     1    22
  1.4383069739825658E+00 a       648     0    26     1    23
 -1.0625022741189738E-01 a       649     0    26     1    24
 -1.8827652292392258E+00 a       650     0    26     1    25
 -2.9173758723135001E-02 b       651     1     1
 -9.1279987783366046E-02 b       652     1     2
  2.3240112625580869E-01 b       653     1     3
 -2.6135728216321635E-01 b       654     1     4
  7.5596288615976975E-02 b       655     1     5
 -8.9275986023806125E-02 b       656     1     6
  1.8878119807880209E-01 b       657     1     7
 -1.0161222002161494E-01 b       658     1     8
 -8.7931863155335174E-02 b       659     1     9
  1.5317922453727995E-01 b       660     1    10
  1.9527963642134777E-01 b       661     1    11
  1.9501055874606701E-01 b       662     1    12
 -1.7152972922136880E-01 b       663     1    13
  1.7554981730186134E-01 b       664     1    14
 -2.6088522040292850E-01 b       665     1    15
 -9.9716188435368964E-03 b       666     1    16
  1.4175210458608947E-03 b       667     1    17
 -3.1196993394381584E-01 b       668     1    18
  2.3953774550478091E-01 b       669     1    19
 -2.3456466165292431E-01 b       670     1    20
  3.2196674594537143E-02 b       671     1    21
  2.9539911361461658E-02 b       672     1    22
 -2.3853066251329072E-01 b       673     1    23
 -7.2618846120043240E-02 b       674     1    24
  3.0979271622002796E-01 b       675     1    25
 -1.1212985193997138E-01 a       676     1     1     2     1
 -2.5167237961013156E-01 a       677     1     1     2     2
  9.0289912004130446E-02 a       678     1     1     2     3
 -7.2858023965603669E-01 a       679     1     1     2     4
  2.1900107339954381E-01 a       680     1     1     2     5
 -2.5377913922061207E-01 a       681     1     1     2     6
 -6.5846700039692918E-01 a       682     1     1     2     7
 -7.4275021881941891E-02 a       683     1     1     2     8
  1.8799792398521495E-01 a       684     1     1     2     9
  2.2096223800447443E-01 a       685     1     1     2    10
 -9.8235330880684174E-02 a       686     1     1     2    11
  7.2267328371865114E-01 a       687     1     1     2    12
  3.0431841806834597E-02 a       688     1     1     2    13
 -6.7346004581262298E-01 a       689     1     1     2    14
 -6.4272718260806085E-03 a       690     1     1     2    15
 -8.5246487980992172E-02 a       691     1     1     2    16
 -4.2582727085356188E-02 a       692     1     1     2    17
 -4.9047644630893128E-01 a       693     1     1     2    18
  2.2878360496277397E-01 a       694     1     1     2    19
 -1.0572968073645010E+00 a       695     1     1     2    20
  2.0768293467367363E-01 a       696     1     1     2    21
  2.6027712556024412E-02 a       697     1     1     2    22
  5.4799718406230269E-02 a       698     1     1     2    23
  1.5582316188090067E-01 a       699     1     1     2    24
 -4.2543483419676059E-01 a       700     1     1     2    25
  4.6857884318166571E-01 a       701     1     2     2     1
  5.5441754423871892E-01 a       702     1     2     2     2
 -2.2150666833717195E-01 a       703     1     2     2     3
  8.5424553789491278E-02 a       704     1     2     2     4
 -1.3602147714268842E-01 a       705     1     2     2     5
  5.1821343383697982E-01 a       706     1     2     2     6
  3.4436394213663757E-01 a       707     1     2     2     7
 -2.4525218493066384E-01 a       708     1     2     2     8
  1.8594557176744236E-01 a       709     1     2     2     9
  6.7058242842478766E-01 a       710     1     2     2    10
  1.7670719725278802E-01 a       711     1     2     2    11
  5.8723623860586127E-01 a       712     1     2     2    12
  2.0504956914099484E-01 a       713     1     2     2    13
  7.8968463589544757E-01 a       714     1     2     2    14
 -2.8392947395284679E-01 a       715     1     2     2    15
  8.6707341683119943E-01 a       716     1     2     2    16
 -1.8028355909544874E-01 a       717     1     2     2    17
  1.7591802835632342E-01 a       718     1     2     2    18
 -2.8582369662810853E-01 a       719     1     2     2    19
 -8.4592763247260105E-01 a       720     1     2     2    20
  7.0238141549705324E-01 a       721     1     2     2    21
 -2.7534945308996334E-01 a       722     1     2     2    22
 -2.9251236224490999E-02 a       723     1     2     2    23
  1.7816004090909478E-02 a       724     1     2     2    24
  2.0469339078362020E-01 a       725     1     2     2    25
 -1.0720746338809028E+00 a       726     1     3     2     1
 -4.4410349247470982E-01 a       727     1     3     2     2
 -1.4018995157355332E-01 a       728     1     3     2     3
  2.6340294463389186E-01 a       729     1     3     2     4
  1.4115211582076090E-01 a       730     1     3     2     5
 -2.1914527177231846E-01 a       731     1     3     2     6
 -2.9400819363556496E-01 a       732     1     3     2     7
 -2.7058965641350713E-01 a       733     1     3     2     8
  8.4433609690732353E-02 a       734     1     3     2     9
  2.2756001211722640E-01 a       735     1     3     2    10
 -1.6978909781935553E-01 a       736     1     3     2    11
  1.0001339938190713E-01 a       737     1     3     2    12
  2.5199496947000605E-02 a       738     1     3     2    13
 -2.0069561300541497E-01 a       739     1     3     2    14
  5.7425492727336780E-01 a       740     1     3     2    15
 -4.4966161223143419E-01 a       741     1     3     2    16
  3.6542459989674725E-01 a       742     1     3     2    17
 -1.3115265436411891E-01 a       743     1     3     2    18
 -6.2118139225831170E-01 a       744     1     3     2    19
  2.9029437314095772E-02 a       745     1     3     2    20
 -3.9198333797210205E-01 a       746     1     3     2    21
  3.4630126127957073E-01 a       747     1     3     2    22
 -1.8205305031353963E-02 a       748     1     3     2    23
 -4.8918074000086559E-01 a       749     1     3     2    24
  1.9340888443189808E-01 a       750     1     3     2    25
 -1.8890348611152621E-01 a       751     1     4     2     1
 -1.0873191023174614E-01 a       752     1     4     2     2
  4.1133810379302360E-01 a       753     1     4     2     3
 -2.5906668131766225E-01 a       754     1     4     2     4
 -2.1350901557158627E-01 a       755     1     4     2     5
 -4.4453400937662052E-01 a       756     1     4     2     6
 -3.0637277604474172E-01 a       757     1     4     2     7
 -7.6327633512002710E-02 a       758     1     4     2     8
 -4.5207484580963844E-03 a       759     1     4     2     9
  9.4852525432533175E-01 a       760     1     4     2    10
 -5.1386654258875442E-01 a       761     1     4     2    11
 -1.0211130417779365E-01 a       762     1     4     2    12
 -4.0214680822316073E-01 a       763     1     4     2    13
 -2.3961331186956203E-01 a       764     1     4     2    14
  1.0067938693724209E-01 a       765     1     4     2    15
 -3.6389566459440642E-01 a       766     1     4     2    16
  3.8984819289567801E-01 a       767     1     4     2    17
 -2.8348996979117458E-01 a       768     1     4     2    18
 -5.2801878757265767E-02 a       769     1     4     2    19
 -5.6507241070453162E-01 a       770     1     4     2    20
 -1.1901551922627322E-01 a       771     1     4     2    21
  9.2718224199612342E-02 a       772     1     4     2    22
 -4.5150585557257278E-01 a       773     1     4     2    23
 -3.1827099400151354E-01 a       774     1     4     2    24
 -1.7898697058634899E-01 a       775     1     4     2    25
  1.5997218237066513E-01 a       776     1     5     2     1
  2.4052468535952820E-01 a       777     1     5     2     2
 -8.7292882378295822E-01 a       778     1     5     2     3
 -4.7183842263330646E-02 a       779     1     5     2     4
 -2.0910160305419129E-01 a       780     1     5     2     5
  9.0458125487001584E-01 a       781     1     5     2     6
  1.1139088990318677E+00 a       782     1     5     2     7
  3.7650230641767354E-02 a       783     1     5     2     8
  3.7826764084048101E-02 a       784     1     5     2     9
 -4.1341190771442676E-01 a       785     1     5     2    10
  2.7925990578879634E-01 a       786     1     5     2    11
  3.0952646226020919E-01 a       787     1     5     2    12
  5.6893014478797699E-01 a       788     1     5     2    13
  1.5476373230545695E+00 a       789     1     5     2    14
 -9.0828746870617469E-02 a       790     1     5     2    15
  3.3114390834445157E-01 a       791     1     5     2    16
 -2.2354044205792148E-01 a       792     1     5     2    17
  8.3514174607718719E-03 a       793     1     5     2    18
  1.2912079768228049E+00 a       794     1     5     2    19
  2.6265406657362433E-01 a       795     1     5     2    20
 -2.4290974056418412E-02 a       796     1     5     2    21
  7.1801255766346536E-02 a       797     1     5     2    22
 -9.1675365304827089E-02 a       798     1     5     2    23
 -3.5906110915362621E-01 a       799     1     5     2    24
  7.1082319847067665E-01 a       800     1     5     2    25
 -8.5642548563586551E-02 a       801     1     6     2     1
  7.8710258257466588E-03 a       802     1     6     2     2
  1.9979042573072672E-01 a       803     1     6     2     3
  5.5450625340131163E-02 a       804     1     6     2     4
  5.7350313937397604E-02 a       805     1     6     2     5
  2.7055718560325043E-01 a       806     1     6     2     6
  3.9944355087675670E-01 a       807     1     6     2     7
  1.4175575199308471E-01 a       808     1     6     2     8
 -4.8619641761849808E-01 a       809     1     6     2     9
  1.7502335018801701E-01 a       810     1     6     2    10
  4.9516320471003343E-02 a       811     1     6     2    11
  1.2095985953228448E-01 a       812     1     6     2    12
  1.1321434392730816E-03 a       813     1     6     2    13
 -1.0781993606965783E+00 a       814     1     6     2    14
  1.0726900904659634E-01 a       815     1     6     2    15
 -6.3103165561185851E-02 a       816     1     6     2    16
 -3.5810466429482540E-01 a       817     1     6     2    17
  5.0850951583438907E-02 a       818     1     6     2    18
  7.8615537508654343E-01 a       819     1     6     2    19
 -1.7570781399150116E-02 a       820     1     6     2    20
  2.4694131493799142E-02 a       821     1     6     2    21
 -3.7711804010911579E-02 a       822     1     6     2    22
 -1.8203399860978139E-01 a       823     1     6     2    23
  1.0333436115483273E-01 a       824     1     6     2    24
 -4.9814607352555990E-01 a       825     1     6     2    25
 -2.4804235051115456E-01 a       826     1     7     2     1
  2.1191305105918412E-01 a       827     1     7     2     2
 -1.0774175237663590E-01 a       828     1     7     2     3
  5.5964438433410736E-02 a       829     1     7     2     4
 -2.7849102705604534E-01 a       830     1     7     2     5
  2.9881684083371313E-01 a       831     1     7     2     6
  4.5843923664672181E-01 a       832     1     7     2     7
  3.7475803503774170E-02 a       833     1     7     2     8
 -2.1943565639795512E-01 a       834     1     7     2     9
 -1.8612294500021095E-01 a       835     1     7     2    10
  3.5879889889854044E-01 a       836     1     7     2    11
  2.8233386162513840E-01 a       837     1     7     2    12
 -8.1830079492067706E-02 a       838     1     7     2    13
  6.9216048756619231E-01 a       839     1     7     2    14
  1.6518896941411992E-01 a       840     1     7     2    15
  1.3190195390838522E-01 a       841     1     7     2    16
 -2.1284406365567615E-01 a       842     1     7     2    17
 -9.4439208098924268E-02 a       843     1     7     2    18
  4.7143785876014971E-01 a       844     1     7     2    19
 -7.3954290201702416E-03 a       845     1     7     2    20
 -2.1026820610892998E-02 a       846     1     7     2    21
  5.1264090481822278E-01 a       847     1     7     2    22
 -5.4612714363309819E-02 a       848     1     7     2    23
  3.8726669679261422E-01 a       849     1     7     2    24
  2.5814814240215606E-01 a       850     1     7     2    25
  6.9516908180795911E-01 a       851     1     8     2     1
  2.4889395461461478E-01 a       852     1     8     2     2
  3.2178017189179564E-01 a       853     1     8     2     3
 -1.8551234523665869E-01 a       854     1     8     2     4
  1.4086201443644843E-02 a       855     1     8     2     5
 -2.2642155643535314E-01 a       856     1     8     2     6
 -3.4950520810239833E+00 a       857     1     8     2     7
  2.1767048377738216E-02 a       858     1     8     2     8
  1.0034890000135555E+00 a       859     1     8     2     9
  7.7771045212592005E-01 a       860     1     8     2    10
  9.6198332618698673E-02 a       861     1     8     2    11
  1.6871503916426478E-01 a       862     1     8     2    12
 -5.2061377934712461E-01 a       863     1     8     2    13
  1.0821293847421991E+00 a       864     1     8     2    14
 -2.1382271302397721E-01 a       865     1     8     2    15
  2.8157631617898315E-01 a       866     1     8     2    16
 -1.4417930546660569E+00 a       867     1     8     2    17
  9.0177865429687021E-01 a       868     1     8     2    18
 -2.8088503899436126E+00 a       869     1     8     2    19
  5.9559583594504062E-01 a       870     1     8     2    20
  1.0061127240380588E-01 a       871     1     8     2    21
 -5.0166002383042543E-02 a       872     1     8     2    22
  7.1690881590463218E-02 a       873     1     8     2    23
 -5.1500134590727431E-01 a       874     1     8     2    24
 -1.6048125870995583E-01 a       875     1     8     2    25
 -7.1438714836796147E-02 a       876     1     9     2     1
 -2.9625215856282244E-01 a       877     1     9     2     2
 -4.0878163709831250E-01 a       878     1     9     2     3
 -1.5794730843381766E-01 a       879     1     9     2     4
 -1.8490107864078348E-01 a       880     1     9     2     5
  4.1338687146552955E-01 a       881     1     9     2     6
 -6.9564812615491944E-01 a       882     1     9     2     7
 -3.7608813163128257E-01 a       883     1     9     2     8
 -3.2435753336596557E-01 a       884     1     9     2     9
  4.0045306663314495E-01 a       885     1     9     2    10
  1.4704601016972454E-01 a       886     1     9     2    11
  3.2506120573216429E-01 a       887     1     9     2    12
  5.7182406209975500E-01 a       888     1     9     2    13
  7.8217165846188896E-01 a       889     1     9     2    14
 -1.1319343344522892E-01 a       890     1     9     2    15
 -2.8053281009703179E-01 a       891     1     9     2    16
  7.9871733655580579E-01 a       892     1     9     2    17
 -1.1814086593583228E-01 a       893     1     9     2    18
  9.8329066230893736E-01 a       894     1     9     2    19
 -3.2809619955981456E-01 a       895     1     9     2    20
 -2.8769669386923859E-02 a       896     1     9     2    21
  1.7031400334697336E-01 a       897     1     9     2    22
  9.5087818161326665E-02 a       898     1     9     2    23
 -1.2936983209001571E-01 a       899     1     9     2    24
  5.5506141763547595E-03 a       900     1     9     2    25
  4.5996671607839940E-01 a       901     1    10     2     1
 -4.1166608168541402E-01 a       902     1    10     2     2
  3.3012209642561008E-01 a       903     1    10     2     3
  4.0903727084685698E-01 a       904     1    10     2     4
  3.0845899802815469E-01 a       905     1    10     2     5
 -1.4330710012686107E-01 a       906     1    10     2     6
 -1.3857874686945744E+00 a       907     1    10     2     7
 -1.7603161701859854E-01 a       908     1    10     2     8
  4.8682851171160957E-01 a       909     1    10     2     9
 -8.8043791707303087E-02 a       910     1    10     2    10
  1.0471557643355522E-01 a       911     1    10     2    11
 -3.6286146537819414E-01 a       912     1    10     2    12
 -1.0705517616321700E-01 a       913     1    10     2    13
  2.6817703938144327E-01 a       914     1    10     2    14
 -4.7935941823919559E-01 a       915     1    10     2    15
  2.4162157614655749E-01 a       916     1    10     2    16
  1.2753377550939074E-01 a       917     1    10     2    17
  2.5717631886121151E-01 a       918     1    10     2    18
 -1.5661948538047632E+00 a       919     1    10     2    19
 -6.0342964279810575E-03 a       920     1    10     2    20
 -9.4890052305141553E-02 a       921     1    10     2    21
 -4.7317164041969745E-01 a       922     1    10     2    22
 -1.8411787153557185E-01 a       923     1    10     2    23
  5.4683560387346886E-01 a       924     1    10     2    24
 -4.4910890653067503E-01 a       925     1    10     2    25
  2.4866905585779106E-01 a       926     1    11     2     1
  6.1993753368710969E-01 a       927     1    11     2     2
  3.8169259632855307E-01 a       928     1    11     2     3
 -8.1802429032830548E-01 a       929     1    11     2     4
 -3.8251968496550569E-02 a       930     1    11     2     5
 -5.8031655406950777E-01 a       931     1    11     2     6
 -5.1706297419090286E-01 a       932     1    11     2     7
  7.5711967924315426E-01 a       933     1    11     2     8
  5.1624469870313494E-01 a       934     1    11     2     9
  2.3646048016976060E-01 a       935     1    11     2    10
 -1.0614325592637038E-01 a       936     1    11     2    11
  4.1403170978864173E-02 a       937     1    11     2    12
 -4.0559242275979446E-01 a       938     1    11     2    13
 -4.3440471259626134E-01 a       939     1    11     2    14
 -6.1530873442393205E-02 a       940     1    11     2    15
  6.6061179111904811E-01 a       941     1    11     2    16
  4.4221562729840513E-01 a       942     1    11     2    17
  2.5312843408280650E-01 a       943     1    11     2    18
 -1.1901624716739732E+00 a       944     1    11     2    19
 -6.3925970679776989E-01 a       945     1    11     2    20
 -6.4210730028940718E-02 a       946     1    11     2    21
 -4.3930914362290796E-01 a       947     1    11     2    22
 -6.1786658738057242E-02 a       948     1    11     2    23
 -7.1694675631790483E-01 a       949     1    11     2    24
  1.2834739885319833E-02 a       950     1    11     2    25
  1.3329331605480846E-01 a       951     1    12     2     1
  4.2345163795552093E-01 a       952     1    12     2     2
  5.9296368744218397E-01 a       953     1    12     2     3
 -3.0576541289002380E-02 a       954     1    12     2     4
  6.8213483313193379E-02 a       955     1    12     2     5
  4.6941224761212702E-01 a       956     1    12     2     6
  1.2962836799555189E-01 a       957     1    12     2     7
  2.6034768230337141E-01 a       958     1    12     2     8
 -1.3853059400560497E-01 a       959     1    12     2     9
 -3.6510091348494633E-01 a       960     1    12     2    10
  2.5308692214982653E-01 a       961     1    12     2    11
  4.5779494636639406E-01 a       962     1    12     2    12
 -1.8462008265742869E-01 a       963     1    12     2    13
 -8.1167509823915218E-01 a       964     1    12     2    14
  1.2247402422904087E-01 a       965     1    12     2    15
  7.3661476895516087E-01 a       966     1    12     2    16
 -2.4446201841914039E-01 a       967     1    12     2    17
  1.6163248802356908E-01 a       968     1    12     2    18
  1.2294892284872169E-01 a       969     1    12     2    19
  5.5117489068053238E-01 a       970     1    12     2    20
  4.9433275245254471E-01 a       971     1    12     2    21
 -2.1123170200552863E-01 a       972     1    12     2    22
 -9.8464267485582668E-01 a       973     1    12     2    23
  1.5489449742325367E-01 a       974     1    12     2    24
 -2.3065170381335327E-02 a       975     1    12     2    25
  1.3047546391858339E-01 a       976     1    13     2     1
 -9.7679125212987189E-02 a       977     1    13     2     2
  3.2673382593729966E-01 a       978     1    13     2     3
  2.3419310520682576E-01 a       979     1    13     2     4
 -2.3325533991058975E-01 a       980     1    13     2     5
  7.6299917822432145E-02 a       981     1    13     2     6
  3.1170000129159542E-01 a       982     1    13     2     7
 -5.5378489478894552E-02 a       983     1    13     2     8
 -3.1258444198396051E-01 a       984     1    13     2     9
  2.5453815700307436E-01 a       985     1    13     2    10
  2.0347222084134398E-01 a       986     1    13     2    11
 -7.0258941558739851E-01 a       987     1    13     2    12
  1.0316032765888445E+00 a       988     1    13     2    13
 -5.6933452722407807E-01 a       989     1    13     2    14
 -2.9168261632475601E-02 a       990     1    13     2    15
  5.2926217073250861E-02 a       991     1    13     2    16
 -2.7975306714882170E-01 a       992     1    13     2    17
 -2.3001472073747786E-01 a       993     1    13     2    18
  6.7431897021053122E-01 a       994     1    13     2    19
 -4.2212975246091483E-01 a       995     1    13     2    20
 -4.9097738932451347E-02 a       996     1    13     2    21
 -1.2295340963730382E-01 a       997     1    13     2    22
  2.5793439398968037E-02 a       998     1    13     2    23
 -1.0218910695160015E-01 a       999     1    13     2    24
 -5.7299255005050431E-01 a      1000     1    13     2    25
 -1.8654257003568814E-01 a      1001     1    14     2     1
 -4.3738056100966427E-01 a      1002     1    14     2     2
 -4.7972905809606343E-02 a      1003     1    14     2     3
 -3.2935451765932371E-02 a      1004     1    14     2     4
 -3.5434819168299311E-02 a      1005     1    14     2     5
 -5.1438613163155222E-01 a      1006     1    14     2     6
  2.4505689215538902E+00 a      1007     1    14     2     7
 -2.6390083144030768E-01 a      1008     1    14     2     8
  1.5195897779832332E-01 a      1009     1    14     2     9
  2.1550034057671891E-01 a      1010     1    14     2    10
  3.2330637640760135E-01 a      1011     1    14     2    11
 -3.9840613802504449E-01 a      1012     1    14     2    12
  3.8715372135188175E-01 a      1013     1    14     2    13
  3.9878307832820070E-01 a      1014     1    14     2    14
  9.3476262726336024E-02 a      1015     1    14     2    15
  1.4317202971612696E-03 a      1016     1    14     2    16
 -3.0599382791281549E-01 a      1017     1    14     2    17
 -2.5569503990604131E-01 a      1018     1    14     2    18
 -6.2208639780720032E-01 a      1019     1    14     2    19
  5.5066549850093971E-01 a      1020     1    14     2    20
 -1.0093022082285838E-01 a      1021     1    14     2    21
  5.0810854780332967E-02 a      1022     1    14     2    22
  1.0850677526596200E-02 a      1023     1    14     2    23
 -1.6936267798886823E-01 a      1024     1    14     2    24
 -1.6116250996849990E-01 a      1025     1    14     2    25
  5.0813935574640090E-01 a      1026     1    15     2     1
  2.4719826645429519E-02 a      1027     1    15     2     2
  6.2320361192409657E-01 a      1028     1    15     2     3
  6.9426125640372172E-01 a      1029     1    15     2     4
 -4.3389649719943962E-01 a      1030     1    15     2     5
  4.1737972023282888E-01 a      1031     1    15     2     6
 -1.0804253240257251E+00 a      1032     1    15     2     7
 -4.1614707124310446E-01 a      1033     1    15     2     8
  5.6532783746269333E-01 a      1034     1    15     2     9
 -1.0871716080096963E+00 a      1035     1    15     2    10
  3.8884194411263351E-01 a      1036     1    15     2    11
 -4.2961299802581260E-01 a      1037     1    15     2    12
 -2.4253178147238427E-02 a      1038     1    15     2    13
  7.1247285461847387E-01 a      1039     1    15     2    14
 -3.5973819893092102E-01 a      1040     1    15     2    15
  1.5632567658908436E-01 a      1041     1    15     2    16
 -8.7232697321651717E-02 a      1042     1    15     2    17
  4.1471261997239622E-01 a      1043     1    15     2    18
 -8.2681809194087708E-01 a      1044     1    15     2    19
 -2.0974954674078350E-01 a      1045     1    15     2    20
 -2.9746178247886867E-01 a      1046     1    15     2    21
  2.3753380709035643E-01 a      1047     1    15     2    22
 -6.3969181028053712E-02 a      1048     1    15     2    23
  3.5719428033703027E-01 a      1049     1    15     2    24
  3.2602161477161629E-01 a      1050     1    15     2    25
  6.1340233377017557E-02 a      1051     1    16     2     1
 -8.8027714557558853E-03 a      1052     1    16     2     2
  1.2381300063619570E-01 a      1053     1    16     2     3
 -8.7150388259616751E-01 a      1054     1    16     2     4
 -2.6673230374113460E-01 a      1055     1    16     2     5
 -3.5058218039571887E-01 a      1056     1    16     2     6
 -5.1101722824237028E-01 a      1057     1    16     2     7
  6.5019170113647518E-01 a      1058     1    16     2     8
 -3.6031579680949882E-01 a      1059     1    16     2     9
 -6.5414189950741186E-01 a      1060     1    16     2    10
  4.2286053352582198E-01 a      1061     1    16     2    11
  8.5611276648828283E-01 a      1062     1    16     2    12
 -4.4076934440386895E-01 a      1063     1    16     2    13
  1.2578154084156266E+00 a      1064     1    16     2    14
 -3.4064609336314368E-02 a      1065     1    16     2    15
  3.1375149665701690E-01 a      1066     1    16     2    16
  2.4875441296359824E-01 a      1067     1    16     2    17
 -4.6986269375524020E-01 a      1068     1    16     2    18
 -1.1307948542377149E+00 a      1069     1    16     2    19
 -6.8558383369702358E-01 a      1070     1    16     2    20
  1.3709535971117923E-01 a      1071     1    16     2    21
  6.3614304795097956E-02 a      1072     1    16     2    22
  3.5383620951567857E-01 a      1073     1    16     2    23
  2.4571683372596814E-01 a      1074     1    16     2    24
 -1.3318846516685734E-01 a      1075     1    16     2    25
  5.5006505925255911E-01 a      1076     1    17     2     1
  2.7013769341304922E-01 a      1077     1    17     2     2
  7.6068135576633306E-02 a      1078     1    17     2     3
 -4.5189003632352537E-01 a      1079     1    17     2     4
 -1.9196251461532687E-01 a      1080     1    17     2     5
  6.0573022918164486E-02 a      1081     1    17     2     6
 -8.8591836420107783E-01 a      1082     1    17     2     7
  5.2324978770100439E-01 a      1083     1    17     2     8
  4.3114707826953813E-01 a      1084     1    17     2     9
 -2.4541278285091370E-01 a      1085     1    17     2    10
  1.7297678803831565E-01 a      1086     1    17     2    11
 -1.9744543047144533E-01 a      1087     1    17     2    12
  1.2891436763908931E-01 a      1088     1    17     2    13
 -4.1516391163057098E-01 a      1089     1    17     2    14
 -1.0869692537594701E-01 a      1090     1    17     2    15
  1.0741253267833471E-01 a      1091     1    17     2    16
  4.6022360243610644E-02 a      1092     1    17     2    17
  3.6508672989187135E-01 a      1093     1    17     2    18
 -1.9311553912826501E-01 a      1094     1    17     2    19
 -3.4060590309263485E-02 a      1095     1    17     2    20
 -3.2728713842519097E-01 a      1096     1    17     2    21
 -3.3052256882024478E-01 a      1097     1    17     2    22
 -2.7401548556736938E-01 a      1098     1    17     2    23
 -4.6821495681571235E-01 a      1099     1    17     2    24
 -5.2698970033810566E-01 a      1100     1    17     2    25
  2.8867119483150810E-01 a      1101     1    18     2     1
  6.1301626774852583E-02 a      1102     1    18     2     2
 -2.6850571520469135E-01 a      1103     1    18     2     3
  2.4830421277366799E-01 a      1104     1    18     2     4
 -2.0702305551097241E-01 a      1105     1    18     2     5
 -3.6293206005067580E-02 a      1106     1    18     2     6
  3.1396211085894236E-02 a      1107     1    18     2     7
 -4.1603493652910793E-02 a      1108     1    18     2     8
 -6.6726455936647222E-02 a      1109     1    18     2     9
  1.5602928349083936E-01 a      1110     1    18     2    10
  5.6277982068490795E-01 a      1111     1    18     2    11
  9.2003800381051395E-02 a      1112     1    18     2    12
 -2.5820126584625791E-01 a      1113     1    18     2    13
  2.9773581443108044E-02 a      1114     1    18     2    14
  1.9078783356756911E-02 a      1115     1    18     2    15
  3.4680672655921763E-01 a      1116     1    18     2    16
  1.0266019334073535E+00 a      1117     1    18     2    17
 -4.1911458336126434E-01 a      1118     1    18     2    18
  1.0715524624048998E-01 a      1119     1    18     2    19
 -1.3695356902615290E+00 a      1120     1    18     2    20
  5.5001740827113688E-01 a      1121     1    18     2    21
 -2.8923443783713254E-01 a      1122     1    18     2    22
 -1.7128993259344674E-01 a      1123     1    18     2    23
  5.2813779039957942E-01 a      1124     1    18     2    24
 -4.2888382528290164E-01 a      1125     1    18     2    25
  3.0567198278155688E-01 a      1126     1    19     2     1
  1.0030447611430013E+00 a      1127     1    19     2     2
  7.1083660997605747E-01 a      1128     1    19     2     3
  2.6902432860612169E-01 a      1129     1    19     2     4
 -2.4564371345756303E-01 a      1130     1    19     2     5
  4.5507556201117592E-02 a      1131     1    19     2     6
 -1.0270737163288290E+00 a      1132     1    19     2     7
  1.3404485889087314E-01 a      1133     1    19     2     8
  5.6184044054779914E-01 a      1134     1    19     2     9
 -9.2439580695244838E-01 a      1135     1    19     2    10
  5.3096045818433990E-01 a      1136     1    19     2    11
  3.4599708712395399E-01 a      1137     1    19     2    12
  1.0450911026062411E+00 a      1138     1    19     2    13
 -1.0631423796691579E+00 a      1139     1    19     2    14
 -1.3247831344520539E-01 a      1140     1    19     2    15
  3.2881025873110786E-01 a      1141     1    19     2    16
  3.7175780733958147E-01 a      1142     1    19     2    17
  4.1336603942992028E-01 a      1143     1    19     2    18
 -8.7275468442240300E-01 a      1144     1    19     2    19
  9.2985870685223004E-01 a      1145     1    19     2    20
 -6.0611624697255917E-01 a      1146     1    19     2    21
 -1.4593946487824483E-01 a      1147     1    19     2    22
  5.0057828870949594E-01 a      1148     1    19     2    23
 -4.5654427045151158E-01 a      1149     1    19     2    24
  4.9477701915174821E-01 a      1150     1    19     2    25
  5.5670508661219620E-01 a      1151     1    20     2     1
  4.6306441862456255E-01 a      1152     1    20     2     2
 -5.8689251387535162E-02 a      1153     1    20     2     3
 -4.5746464771512890E-01 a      1154     1    20     2     4
 -3.0938412624896716E-01 a      1155     1    20     2     5
 -1.5388413393106018E-01 a      1156     1    20     2     6
  2.4237921181565589E+00 a      1157     1    20     2     7
  6.8803754581095677E-01 a      1158     1    20     2     8
 -1.8672318659403400E-02 a      1159     1    20     2     9
  6.1169891607736071E-01 a      1160     1    20     2    10
 -2.8658334466396007E-01 a      1161     1    20     2    11
 -7.0247158318646186E-01 a      1162     1    20     2    12
 -3.3610680474720331E-04 a      1163     1    20     2    13
 -3.8729072968351208E-01 a      1164     1    20     2    14
 -2.2171345962854130E-01 a      1165     1    20     2    15
  4.9937066933284951E-01 a      1166     1    20     2    16
  2.8455417244836090E-01 a      1167     1    20     2    17
  2.4458390568865124E-01 a      1168     1    20     2    18
  7.0322970139744856E-01 a      1169     1    20     2    19
 -1.6476507188040179E-01 a      1170     1    20     2    20
 -1.0415046934765129E-02 a      1171     1    20     2    21
 -1.7794337318726994E-01 a      1172     1    20     2    22
 -8.1625371868970542E-01 a      1173     1    20     2    23
 -1.6040158325144238E-01 a      1174     1    20     2    24
  1.4862581613264758E-01 a      1175     1    20     2    25
 -5.2409143641982148E-01 a      1176     1    21     2     1
  6.3881538094462176E-01 a      1177     1    21     2     2
  7.2867404637298450E-01 a      1178     1    21     2     3
  2.4308900470842260E-01 a      1179     1    21     2     4
 -1.2645595014796465E-01 a      1180     1    21     2     5
 -1.6114856358323065E-01 a      1181     1    21     2     6
 -1.7508669373339597E-01 a      1182     1    21     2     7
 -6.7300969033903857E-01 a      1183     1    21     2     8
  7.1554540317024418E-01 a      1184     1    21     2     9
 -8.0461908286572278E-02 a      1185     1    21     2    10
  3.2886408727210892E-01 a      1186     1    21     2    11
 -2.8341168953171309E-02 a      1187     1    21     2    12
  7.0315511731319835E-01 a      1188     1    21     2    13
 -1.0113039556841767E+00 a      1189     1    21     2    14
  1.5635942115514598E-02 a      1190     1    21     2    15
  2.3756548199680233E-01 a      1191     1    21     2    16
  1.2342316826997121E-01 a      1192     1    21     2    17
 -1.6658623319549495E-01 a      1193     1    21     2    18
 -1.2011712510514534E+00 a      1194     1    21     2    19
  5.7525373880441044E-01 a      1195     1    21     2    20
 -2.6135898844800967E-03 a      1196     1    21     2    21
  1.4415429544145944E-02 a      1197     1    21     2    22
  2.7963327244768460E-01 a      1198     1    21     2    23
 -3.6303933330525923E-01 a      1199     1    21     2    24
 -3.6820799999901226E-02 a      1200     1    21     2    25
 -7.9293518325175760E-01 a      1201     1    22     2     1
 -2.9687414576370093E-02 a      1202     1    22     2     2
  4.7174315254330096E-01 a      1203     1    22     2     3
  2.7482800411731223E-01 a      1204     1    22     2     4
  4.2830444589362270E-02 a      1205     1    22     2     5
  4.7156418790407106E-02 a      1206     1    22     2     6
  8.3961376318706415E-01 a      1207     1    22     2     7
 -3.0921734229821057E-02 a      1208     1    22     2     8
 -1.0039998443009728E+00 a      1209     1    22     2     9
  1.6612944219262866E+00 a      1210     1    22     2    10
  1.7809049719275016E-01 a      1211     1    22     2    11
 -8.1687488138886422E-01 a      1212     1    22     2    12
  6.7941951765877945E-02 a      1213     1    22     2    13
 -8.5941242148030095E-01 a      1214     1    22     2    14
 -1.6631055988751972E-01 a      1215     1    22     2    15
  9.7384669040147656E-02 a      1216     1    22     2    16
  3.7860829328004553E-01 a      1217     1    22     2    17
 -3.0989018003520702E-01 a      1218     1    22     2    18
  1.1613636931581519E+00 a      1219     1    22     2    19
 -9.9883841102595905E-02 a      1220     1    22     2    20
 -1.1010183088506606E-01 a      1221     1    22     2    21
  7.2848221781862108E-02 a      1222     1    22     2    22
  1.7778766118629380E-01 a      1223     1    22     2    23
  3.4436118255810538E-01 a      1224     1    22     2    24
 -2.7882725244413498E-01 a      1225     1    22     2    25
 -2.2659590612412414E-01 a      1226     1    23     2     1
 -4.7013650864979961E-01 a      1227     1    23     2     2
  4.0236856919836611E-01 a      1228     1    23     2     3
 -1.5688753155224514E-01 a      1229     1    23     2     4
 -4.3217168882635010E-01 a      1230     1    23     2     5
 -3.5449630612116906E-01 a      1231     1    23     2     6
 -1.0884638383027370E+00 a      1232     1    23     2     7
  2.7505977927525682E-01 a      1233     1    23     2     8
 -1.4537164811809238E-02 a      1234     1    23     2     9
 -7.1863185886514594E-02 a      1235     1    23     2    10
 -1.2481574767688433E-01 a      1236     1    23     2    11
  6.1037484756127125E-01 a      1237     1    23     2    12
 -9.1660458931492172E-01 a      1238     1    23     2    13
 -1.7663478128704546E-01 a      1239     1    23     2    14
 -3.3226430045739253E-01 a      1240     1    23     2    15
  2.3110952010610031E-01 a      1241     1    23     2    16
  5.5371246484082071E-01 a      1242     1    23     2    17
 -3.0717571949848116E-01 a      1243     1    23     2    18
 -1.8383999140798806E+00 a      1244     1    23     2    19
 -3.9925396496575855E-01 a      1245     1    23     2    20
  9.5220699472220938E-01 a      1246     1    23     2    21
 -1.9116031152794560E-01 a      1247     1    23     2    22
 -2.9658395819356842E-01 a      1248     1    23     2    23
 -1.4561128602780757E-01 a      1249     1    23     2    24
 -1.2098562205753407E+00 a      1250     1    23     2    25
  1.2801858552159115E-01 a      1251     1    24     2     1
 -1.8970934678968851E-01 a      1252     1    24     2     2
  9.1566063000788611E-01 a      1253     1    24     2     3
  4.7983400153054295E-01 a      1254     1    24     2     4
 -5.2097489935968599E-01 a      1255     1    24     2     5
  3.0506828253614039E-02 a      1256     1    24     2     6
 -3.2972797030803902E-01 a      1257     1    24     2     7
  6.3548145099903353E-01 a      1258     1    24     2     8
  1.2045994364864085E-01 a      1259     1    24     2     9
 -1.1428738545066812E-01 a      1260     1    24     2    10
 -1.3494011578737961E-01 a      1261     1    24     2    11
 -1.0580718644532301E+00 a      1262     1    24     2    12
 -9.9434104106826593E-01 a      1263     1    24     2    13
 -2.3468122885361722E+00 a      1264     1    24     2    14
 -4.2813996018897083E-01 a      1265     1    24     2    15
 -4.6382479200493859E-01 a      1266     1    24     2    16
 -2.6825427160443788E-01 a      1267     1    24     2    17
  6.1736138331836672E-02 a      1268     1    24     2    18
  4.6592958428968531E-02 a      1269     1    24     2    19
 -3.9094908908514137E-01 a      1270     1    24     2    20
 -5.8022928421447173E-01 a      1271     1    24     2    21
 -2.8148973163375491E-02 a      1272     1    24     2    22
  1.0220727769393269E-01 a      1273     1    24     2    23
  6.3168443340852709E-01 a      1274     1    24     2    24
 -3.9519944005928004E-01 a      1275     1    24     2    25
  4.7228256321745909E-01 a      1276     1    25     2     1
  6.4792255436863455E-01 a      1277     1    25     2     2
 -1.5349822743148259E-01 a      1278     1    25     2     3
 -6.5280490910998634E-01 a      1279     1    25     2     4
  7.3320371567151779E-02 a      1280     1    25     2     5
 -6.7329105785763577E-01 a      1281     1    25     2     6
  1.7993324842272849E+00 a      1282     1    25     2     7
  9.7288575175383463E-01 a      1283     1    25     2     8
  2.0611084751654649E-01 a      1284     1    25     2     9
  3.8935444115402357E-01 a      1285     1    25     2    10
 -3.3167338195258761E-01 a      1286     1    25     2    11
 -6.8714879565860476E-01 a      1287     1    25     2    12
 -6.4597490551432102E-01 a      1288     1    25     2    13
 -1.1193693030023862E-01 a      1289     1    25     2    14
 -1.9197133881137504E-01 a      1290     1    25     2    15
  4.3925412719760759E-01 a      1291     1    25     2    16
  1.0153420063190248E+00 a      1292     1    25     2    17
 -2.4746967721273638E-01 a      1293     1    25     2    18
  1.0275333333479191E+00 a      1294     1    25     2    19
 -8.4851603689491151E-01 a      1295     1    25     2    20
  1.6305931279881630E-01 a      1296     1    25     2    21
  1.4334201576721535E-02 a      1297     1    25     2    22
 -3.6126113115791697E-01 a      1298     1    25     2    23
  4.1392114367438604E-01 a      1299     1    25     2    24
 -1.5626481965810285E-01 a      1300     1    25     2    25
  2.9830486121634064E-01 b      1301     2     1
  8.0411489186354532E-02 b      1302     2     2
  1.3158883151933531E-01 b      1303     2     3
  9.6418488959927995E-02 b      1304     2     4
  5.6307051499928851E-01 b      1305     2     5
  1.7576518088790455E-01 b      1306     2     6
 -3.7750596557588817E-01 b      1307     2     7
 -1.5191679741386740E-02 b      1308     2     8
  4.6225466088664485E-01 b      1309     2     9
  7.0028110810095801E-01 b      1310     2    10
  5.5550238051954318E-02 b      1311     2    11
  2.3640645946729555E-01 b      1312     2    12
  2.7383295536330693E-01 b      1313     2    13
  1.3592612366693790E-01 b      1314     2    14
  8.6184777969855686E-01 b      1315     2    15
  1.1307790492720593E-01 b      1316     2    16
 -2.3274334330159716E-01 b      1317     2    17
 -3.1380074004189562E-01 b      1318     2    18
  1.8953828203658177E-01 b      1319     2    19
 -6.2501775756924083E-01 b      1320     2    20
 -1.7400410370959435E-01 b      1321     2    21
  2.8894922317368765E-01 b      1322     2    22
  1.0312851430121152E-01 b      1323     2    23
  1.1574535209546249E-01 b      1324     2    24
 -5.8893111609063575E-01 b      1325     2    25
 -3.9650196055677184E-01 a      1326     2     1     3     1
  2.8921977146680428E-01 a      1327     2     2     3     1
 -2.0225447309979372E-01 a      1328     2     3     3     1
 -1.3862803248604103E-01 a      1329     2     4     3     1
 -6.0036133022054372E-01 a      1330     2     5     3     1
 -3.5441542590613251E-01 a      1331     2     6     3     1
 -7.2459705143827456E-03 a      1332     2     7     3     1
 -2.0567106149271946E-01 a      1333     2     8     3     1
 -3.2560759088346514E-01 a      1334     2     9     3     1
 -1.4833468764030103E-01 a      1335     2    10     3     1
  2.2661921169425908E-01 a      1336     2    11     3     1
 -9.2506047483219236E-02 a      1337     2    12     3     1
  8.9177151593981444E-02 a      1338     2    13     3     1
 -2.6435898056886689E-02 a      1339     2    14     3     1
 -9.6558698159767753E-01 a      1340     2    15     3     1
 -4.1781722458531328E-01 a      1341     2    16     3     1
 -2.7062553356018027E-02 a      1342     2    17     3     1
  4.5919633992589609E-01 a      1343     2    18     3     1
 -7.4528999332800105E-02 a      1344     2    19     3     1
 -1.3625993270074413E-01 a      1345     2    20     3     1
  2.0909917661439276E-01 a      1346     2    21     3     1
 -4.4891152914123500E-01 a      1347     2    22     3     1
 -3.3495741329373618E-01 a      1348     2    23     3     1
  2.0162454589988599E-01 a      1349     2    24     3     1
  2.1142526567313200E-01 a      1350     2    25     3     1
 -1.1764875399486805E+00 b      1351     3     1
