################################################################################
# Neural network connection values (weights and biases).
################################################################################
# Col  Name       Description
################################################################################
# 1    connection Neural network connection value.
# 2    t          Connection type (a = weight, b = bias).
# 3    index      Index enumerating weights.
# 4    l_s        Starting point layer (end point layer for biases).
# 5    n_s        Starting point neuron in starting layer (end point neuron for biases).
# 6    l_e        End point layer.
# 7    n_e        End point neuron in end layer.
################################################################################
#                      1 2         3     4     5     6     7
#             connection t     index   l_s   n_s   l_e   n_e
############################################################
  3.9807592363239643E+00 a         1     0     1     1     1
  1.9930675083380569E+00 a         2     0     1     1     2
 -5.4985699021248391E-01 a         3     0     1     1     3
 -3.6602951244373566E-01 a         4     0     1     1     4
 -2.7227508502482713E-02 a         5     0     1     1     5
  2.9986633042666240E+00 a         6     0     1     1     6
 -1.0846847270401139E+00 a         7     0     1     1     7
  6.8340082898466881E-01 a         8     0     1     1     8
  1.3356406843939743E+00 a         9     0     1     1     9
  1.6917329953648854E+00 a        10     0     1     1    10
  2.5320281898527908E+00 a        11     0     1     1    11
 -8.6917744165272437E-01 a        12     0     1     1    12
  8.3397889893848742E-01 a        13     0     1     1    13
  4.6640324811395950E-01 a        14     0     1     1    14
  1.6987496040041605E-01 a        15     0     1     1    15
  8.2133617225740052E-01 a        16     0     1     1    16
  6.9575559827361699E-01 a        17     0     1     1    17
  2.5894636681437894E-01 a        18     0     1     1    18
 -8.6759162258876499E-01 a        19     0     1     1    19
 -3.6488596385764632E-01 a        20     0     1     1    20
  7.2153840165833283E-01 a        21     0     1     1    21
  3.7315507230139033E-01 a        22     0     1     1    22
 -2.0559429828863279E-01 a        23     0     1     1    23
  8.8666885749047286E-01 a        24     0     1     1    24
  7.5295701822060779E-01 a        25     0     1     1    25
 -1.1424904460513570E+00 a        26     0     2     1     1
 -3.2187599620179985E-01 a        27     0     2     1     2
 -4.4997591356375287E-02 a        28     0     2     1     3
 -4.2105735993454613E-01 a        29     0     2     1     4
 -7.0592510445771106E-01 a        30     0     2     1     5
 -8.6115298106652483E-01 a        31     0     2     1     6
  4.5332657070293450E-02 a        32     0     2     1     7
 -3.4881891785652064E-01 a        33     0     2     1     8
 -5.6145004076246274E-01 a        34     0     2     1     9
  1.2712542895604695E-01 a        35     0     2     1    10
 -7.4380431861682272E-01 a        36     0     2     1    11
 -3.8184433603369944E-01 a        37     0     2     1    12
 -4.1638649867920235E-01 a        38     0     2     1    13
 -5.4165734691850465E-01 a        39     0     2     1    14
  6.0446223085616524E-01 a        40     0     2     1    15
 -6.5931763130815990E-01 a        41     0     2     1    16
 -5.3306831365400553E-01 a        42     0     2     1    17
 -3.2010617005926535E-02 a        43     0     2     1    18
  2.4420484655507813E-01 a        44     0     2     1    19
  1.5356061690307778E+00 a        45     0     2     1    20
 -4.7548267482582440E-01 a        46     0     2     1    21
 -2.5533531929383196E-01 a        47     0     2     1    22
 -1.0544038409270482E+00 a        48     0     2     1    23
 -8.2767065231768716E-02 a        49     0     2     1    24
 -3.9320863405998846E-01 a        50     0     2     1    25
 -3.3256527235931932E+00 a        51     0     3     1     1
 -2.6058762477182240E+00 a        52     0     3     1     2
  2.5384373254379483E-01 a        53     0     3     1     3
  5.8327830619256088E-02 a        54     0     3     1     4
 -6.3293121300464472E-01 a        55     0     3     1     5
 -2.8659037015336106E+00 a        56     0     3     1     6
  6.8797500194220329E-01 a        57     0     3     1     7
 -9.1215928497159859E-01 a        58     0     3     1     8
 -6.8811639601147001E-01 a        59     0     3     1     9
 -6.3922310205527888E-01 a        60     0     3     1    10
 -2.3550177428599604E+00 a        61     0     3     1    11
  1.4385866491403827E+00 a        62     0     3     1    12
 -9.1147383851621899E-01 a        63     0     3     1    13
 -3.0180667200316086E-01 a        64     0     3     1    14
  1.2562785205088969E+00 a        65     0     3     1    15
 -9.2331210684125831E-01 a        66     0     3     1    16
 -4.4491006208271860E-01 a        67     0     3     1    17
  2.8194007214839939E-01 a        68     0     3     1    18
  9.0076762751077610E-01 a        69     0     3     1    19
  1.7812019086447994E+00 a        70     0     3     1    20
 -1.1441578533767816E+00 a        71     0     3     1    21
 -6.9436974274472363E-01 a        72     0     3     1    22
 -1.0256997261951184E+00 a        73     0     3     1    23
 -1.1859109664740577E+00 a        74     0     3     1    24
 -1.3528278940847827E+00 a        75     0     3     1    25
  4.4674500008596357E-01 a        76     0     4     1     1
 -4.4879458490076873E-01 a        77     0     4     1     2
  1.1190951435203236E+00 a        78     0     4     1     3
  4.3353552645858440E-01 a        79     0     4     1     4
  1.5555629980469163E+00 a        80     0     4     1     5
  6.1856842240400789E-01 a        81     0     4     1     6
 -5.5397364005482674E-01 a        82     0     4     1     7
  9.4161536756825670E-01 a        83     0     4     1     8
  1.0545773662513280E+00 a        84     0     4     1     9
 -2.3552406758503412E+00 a        85     0     4     1    10
 -6.4917382433136128E-01 a        86     0     4     1    11
 -1.6673577955329169E+00 a        87     0     4     1    12
 -1.5340180908843404E-01 a        88     0     4     1    13
 -2.6861318283230223E-02 a        89     0     4     1    14
 -2.5140048069183663E+00 a        90     0     4     1    15
  1.9364508256577131E-01 a        91     0     4     1    16
 -2.8580308244695579E-01 a        92     0     4     1    17
  1.6847238814876675E-01 a        93     0     4     1    18
 -7.9195488145344672E-01 a        94     0     4     1    19
 -3.8417635175808718E+00 a        95     0     4     1    20
  4.7300540792233825E-01 a        96     0     4     1    21
  1.0504366353825445E+00 a        97     0     4     1    22
  4.4057210141560943E-01 a        98     0     4     1    23
  3.9202535250354531E-01 a        99     0     4     1    24
  1.8830152296130603E-01 a       100     0     4     1    25
  1.3480361191914192E+00 a       101     0     5     1     1
  2.7213691533813766E+00 a       102     0     5     1     2
 -8.8147151125689838E-01 a       103     0     5     1     3
  6.5641938837090352E-01 a       104     0     5     1     4
  1.4655202471588191E-01 a       105     0     5     1     5
  3.1405524112104327E-01 a       106     0     5     1     6
  3.2936393917422419E-01 a       107     0     5     1     7
  1.2915820506556272E-01 a       108     0     5     1     8
 -7.0333812801706730E-01 a       109     0     5     1     9
  1.3587266957639443E+00 a       110     0     5     1    10
  1.0277683418230816E+00 a       111     0     5     1    11
  2.4761886159011168E+00 a       112     0     5     1    12
  1.9514065838996417E+00 a       113     0     5     1    13
  1.4104160409631410E+00 a       114     0     5     1    14
  5.9863166241992216E-01 a       115     0     5     1    15
  1.7729120188443344E+00 a       116     0     5     1    16
  9.9094612530742809E-01 a       117     0     5     1    17
 -2.5843903414193052E+00 a       118     0     5     1    18
 -6.2358018416848349E-01 a       119     0     5     1    19
  1.8439994321469035E+00 a       120     0     5     1    20
 -4.6785551111373425E-01 a       121     0     5     1    21
  8.7818704372771539E-01 a       122     0     5     1    22
  1.9044831109589864E+00 a       123     0     5     1    23
 -8.6400984949920134E-01 a       124     0     5     1    24
  1.4977033421128867E+00 a       125     0     5     1    25
 -1.0394432009615178E+00 a       126     0     6     1     1
 -2.2444228660578336E+00 a       127     0     6     1     2
 -4.8184369579326814E-04 a       128     0     6     1     3
 -3.9743181284173618E-01 a       129     0     6     1     4
 -8.1296500340274036E-01 a       130     0     6     1     5
 -7.6463268995990985E-01 a       131     0     6     1     6
  5.9640434296236507E-02 a       132     0     6     1     7
 -3.9412023361051302E-01 a       133     0     6     1     8
 -1.2155574026743036E-01 a       134     0     6     1     9
 -5.4922496391746589E-01 a       135     0     6     1    10
 -1.7375470127215575E-01 a       136     0     6     1    11
 -1.3049280029946477E+00 a       137     0     6     1    12
 -1.3061426768972166E+00 a       138     0     6     1    13
 -1.1185648965851411E+00 a       139     0     6     1    14
  8.4801687826843320E-03 a       140     0     6     1    15
 -1.1604101269452747E+00 a       141     0     6     1    16
 -3.4861219473128002E-01 a       142     0     6     1    17
  2.1383310777925257E+00 a       143     0     6     1    18
  1.0237870450767823E+00 a       144     0     6     1    19
 -3.7971484823895743E-02 a       145     0     6     1    20
  2.1354309381084360E-01 a       146     0     6     1    21
 -1.2994241019444079E+00 a       147     0     6     1    22
 -2.0153734546574276E+00 a       148     0     6     1    23
  8.6482940977121847E-01 a       149     0     6     1    24
 -8.2426476122852144E-01 a       150     0     6     1    25
  3.2498408674707735E-01 a       151     0     7     1     1
  5.8098183952785498E-01 a       152     0     7     1     2
  2.0232766709583322E-01 a       153     0     7     1     3
  8.9998293533857618E-02 a       154     0     7     1     4
  2.9914054400043016E-01 a       155     0     7     1     5
  3.5800092503521519E-01 a       156     0     7     1     6
 -1.2545605531157278E-01 a       157     0     7     1     7
  2.4082836946381347E-01 a       158     0     7     1     8
  1.1917547945179198E-01 a       159     0     7     1     9
  1.1596255279162387E-01 a       160     0     7     1    10
  4.0876548610620364E-03 a       161     0     7     1    11
  2.1506839143803377E-01 a       162     0     7     1    12
  4.3560803832929779E-01 a       163     0     7     1    13
  3.3051243543986114E-01 a       164     0     7     1    14
 -3.0255793550959757E-02 a       165     0     7     1    15
  3.6675597431176726E-01 a       166     0     7     1    16
 -5.5553877825059800E-02 a       167     0     7     1    17
 -4.8012222261220000E-01 a       168     0     7     1    18
 -3.3554797780386519E-01 a       169     0     7     1    19
 -1.7312177227287429E-01 a       170     0     7     1    20
 -1.1131484386069194E-01 a       171     0     7     1    21
  3.7932308534108183E-01 a       172     0     7     1    22
  6.5412232845000684E-01 a       173     0     7     1    23
 -2.2315216075981309E-01 a       174     0     7     1    24
  7.2245790398345264E-02 a       175     0     7     1    25
  6.8555828805001398E-02 a       176     0     8     1     1
  4.0850809276052183E-02 a       177     0     8     1     2
 -1.0788285803055356E-02 a       178     0     8     1     3
  9.6398085976527020E-02 a       179     0     8     1     4
 -2.8295777951833648E-02 a       180     0     8     1     5
  1.7189565132693631E-02 a       181     0     8     1     6
  7.7726561973729319E-02 a       182     0     8     1     7
 -9.6906197380371428E-02 a       183     0     8     1     8
 -1.9917550046373098E-01 a       184     0     8     1     9
 -2.3017027390003227E-02 a       185     0     8     1    10
  4.7000488955906451E-02 a       186     0     8     1    11
 -6.8976064143142543E-02 a       187     0     8     1    12
 -3.9759725343109141E-02 a       188     0     8     1    13
 -8.4028371463398366E-02 a       189     0     8     1    14
 -8.6386868027750835E-02 a       190     0     8     1    15
 -7.7927041263844338E-02 a       191     0     8     1    16
  3.8320399176801308E-02 a       192     0     8     1    17
 -4.0427758740574742E-02 a       193     0     8     1    18
  3.2017759569025528E-02 a       194     0     8     1    19
  1.4154461338335944E-01 a       195     0     8     1    20
 -1.3104069695234418E-02 a       196     0     8     1    21
 -5.8648658774648277E-03 a       197     0     8     1    22
 -8.9749868909463099E-02 a       198     0     8     1    23
  1.2140103734057563E-01 a       199     0     8     1    24
  9.3933185660913687E-02 a       200     0     8     1    25
 -9.4685796505370279E-01 a       201     0     9     1     1
  2.2945962445295498E+00 a       202     0     9     1     2
  1.8324714776550941E+00 a       203     0     9     1     3
 -3.2771458023037892E-01 a       204     0     9     1     4
  2.8587795401556892E+00 a       205     0     9     1     5
  1.4738918765278874E+00 a       206     0     9     1     6
 -1.1511630460612291E-02 a       207     0     9     1     7
 -1.3885625803055276E-01 a       208     0     9     1     8
  3.8783118578039533E-01 a       209     0     9     1     9
 -2.6672828712725196E+00 a       210     0     9     1    10
 -1.1930742842284634E+00 a       211     0     9     1    11
 -3.8839580441030730E+00 a       212     0     9     1    12
 -6.3862634405546526E-01 a       213     0     9     1    13
  3.7238774879140513E-01 a       214     0     9     1    14
 -4.1021972375228843E-01 a       215     0     9     1    15
  7.4536151706585202E-02 a       216     0     9     1    16
 -1.9158116978334463E+00 a       217     0     9     1    17
 -3.7936856058067852E+00 a       218     0     9     1    18
 -4.9503669109009579E-01 a       219     0     9     1    19
 -6.8695434692582347E-01 a       220     0     9     1    20
 -1.0511140666314309E+00 a       221     0     9     1    21
  2.4574366368866092E+00 a       222     0     9     1    22
  1.7376558520385654E+00 a       223     0     9     1    23
  1.3528752683158307E+00 a       224     0     9     1    24
  2.8379736279751868E+00 a       225     0     9     1    25
 -2.1993699872850754E+00 a       226     0    10     1     1
 -8.3536773073702335E+00 a       227     0    10     1     2
 -3.9970560667089727E-01 a       228     0    10     1     3
  8.9445953468592843E-01 a       229     0    10     1     4
 -4.7543759127426710E-01 a       230     0    10     1     5
 -5.6429737155398776E+00 a       231     0    10     1     6
  4.6721243921162203E-01 a       232     0    10     1     7
 -6.5363355684430791E-01 a       233     0    10     1     8
 -5.1040605900945868E-01 a       234     0    10     1     9
 -5.0613626345593343E-01 a       235     0    10     1    10
  6.0407683042074223E-01 a       236     0    10     1    11
  9.4255697653703496E+00 a       237     0    10     1    12
 -4.8562002161318241E-01 a       238     0    10     1    13
 -4.4488231182208537E-01 a       239     0    10     1    14
  6.7798535870687338E-01 a       240     0    10     1    15
  3.1815212526835318E-01 a       241     0    10     1    16
  1.5000264649120367E+00 a       242     0    10     1    17
  8.4300164959938673E-01 a       243     0    10     1    18
  1.2559634340163883E+00 a       244     0    10     1    19
 -2.2534543463583114E+00 a       245     0    10     1    20
  1.1410814891926235E+00 a       246     0    10     1    21
 -1.7718693255469126E-01 a       247     0    10     1    22
  6.2417609769517135E-01 a       248     0    10     1    23
 -3.3036096188377835E+00 a       249     0    10     1    24
 -4.5427833416569312E+00 a       250     0    10     1    25
  2.8589560300687165E+00 a       251     0    11     1     1
  6.9006488054329740E+00 a       252     0    11     1     2
 -1.9229009656190670E+00 a       253     0    11     1     3
  7.4956821847347754E-01 a       254     0    11     1     4
 -2.7046377795919025E+00 a       255     0    11     1     5
  3.3148496343779392E+00 a       256     0    11     1     6
 -1.3742220462949550E+00 a       257     0    11     1     7
 -1.2729711309094771E-01 a       258     0    11     1     8
 -3.5644749757156124E-01 a       259     0    11     1     9
  1.7461458743585714E+00 a       260     0    11     1    10
  9.7484592219720478E-01 a       261     0    11     1    11
 -4.6138088892282960E+00 a       262     0    11     1    12
  1.1216704192629672E+00 a       263     0    11     1    13
  1.4413870514763122E-01 a       264     0    11     1    14
 -1.6681670064586593E+00 a       265     0    11     1    15
  9.6680096309427765E-01 a       266     0    11     1    16
  1.3281498211436829E+00 a       267     0    11     1    17
  3.0323976592059907E+00 a       268     0    11     1    18
  3.8575098413093989E-01 a       269     0    11     1    19
  2.6697947787882201E+00 a       270     0    11     1    20
  1.0388572878378899E+00 a       271     0    11     1    21
 -2.2580969016619075E+00 a       272     0    11     1    22
 -1.2379824927481118E+00 a       273     0    11     1    23
  1.9452527586062063E+00 a       274     0    11     1    24
  2.4061433626292614E+00 a       275     0    11     1    25
  7.0050874971871870E+00 a       276     0    12     1     1
 -7.1555516341407499E-01 a       277     0    12     1     2
  3.4864873119783324E-01 a       278     0    12     1     3
 -2.1477882472749771E-01 a       279     0    12     1     4
 -1.1365031739199332E+00 a       280     0    12     1     5
  1.0103134517147734E+00 a       281     0    12     1     6
  5.4972374800294777E-01 a       282     0    12     1     7
  4.0958166540191895E-02 a       283     0    12     1     8
 -4.5466611839188087E-01 a       284     0    12     1     9
  2.7558693766135116E+00 a       285     0    12     1    10
  1.5567481496225374E-01 a       286     0    12     1    11
  2.5509963480375166E+00 a       287     0    12     1    12
  3.7710386705141117E+00 a       288     0    12     1    13
 -1.3946283580723856E-01 a       289     0    12     1    14
 -8.4032129430078639E-01 a       290     0    12     1    15
  1.2773724005901208E+00 a       291     0    12     1    16
  2.5270571557938069E+00 a       292     0    12     1    17
  1.9882131539735115E+00 a       293     0    12     1    18
 -1.5233545489706202E+00 a       294     0    12     1    19
 -3.0682438510639476E+00 a       295     0    12     1    20
 -1.0526146706922215E+00 a       296     0    12     1    21
 -5.2472600710007933E-01 a       297     0    12     1    22
  2.3253934188711425E-01 a       298     0    12     1    23
 -8.3677334777061552E-01 a       299     0    12     1    24
 -1.6260951906926886E+00 a       300     0    12     1    25
 -9.8034911313000139E-01 a       301     0    13     1     1
  7.1953292821663402E+00 a       302     0    13     1     2
  6.0141391593868798E-01 a       303     0    13     1     3
 -3.0947007092311979E-01 a       304     0    13     1     4
  3.5106142885555935E-01 a       305     0    13     1     5
  4.1114173587602743E+00 a       306     0    13     1     6
  5.0014950563965388E-01 a       307     0    13     1     7
  7.0801290690317953E-01 a       308     0    13     1     8
  6.5031710846267243E-01 a       309     0    13     1     9
  5.8872429767596796E-02 a       310     0    13     1    10
 -1.0846484549171886E+00 a       311     0    13     1    11
 -9.1146615776986248E+00 a       312     0    13     1    12
 -9.1847912325194414E-01 a       313     0    13     1    13
  6.7856098690928590E-01 a       314     0    13     1    14
 -4.2855806170959393E-01 a       315     0    13     1    15
 -9.8817379676994521E-01 a       316     0    13     1    16
 -1.9998469458211394E+00 a       317     0    13     1    17
 -4.9380731531319083E-01 a       318     0    13     1    18
 -4.7975270612856324E-01 a       319     0    13     1    19
  2.3256017830316194E+00 a       320     0    13     1    20
 -1.3889144121809633E+00 a       321     0    13     1    21
 -5.3043740129871564E-01 a       322     0    13     1    22
 -1.9095618983409901E-01 a       323     0    13     1    23
  3.1310034090574792E+00 a       324     0    13     1    24
  3.9415900170726821E+00 a       325     0    13     1    25
 -9.6261735805383086E+00 a       326     0    14     1     1
 -8.6029357853900841E+00 a       327     0    14     1     2
  3.6407419400879137E-01 a       328     0    14     1     3
  5.1204128961540929E-01 a       329     0    14     1     4
  1.9859732887835984E+00 a       330     0    14     1     5
 -4.0680843427842550E+00 a       331     0    14     1     6
  1.5347761008726388E+00 a       332     0    14     1     7
  1.4250121203080339E+00 a       333     0    14     1     8
  9.4067796167916551E-01 a       334     0    14     1     9
 -2.0289700296981326E+00 a       335     0    14     1    10
  1.6966292822603415E+00 a       336     0    14     1    11
  5.6688184303174172E+00 a       337     0    14     1    12
 -4.6148961597087039E+00 a       338     0    14     1    13
 -1.8112321645455544E-02 a       339     0    14     1    14
  1.9081143521702022E+00 a       340     0    14     1    15
 -2.5152473171141296E+00 a       341     0    14     1    16
 -2.4693829256787612E+00 a       342     0    14     1    17
 -1.7889944238530076E-01 a       343     0    14     1    18
  1.2564536684549332E+00 a       344     0    14     1    19
 -1.1660146583606761E+00 a       345     0    14     1    20
  2.5934678056680189E+00 a       346     0    14     1    21
  5.5748229623504553E-01 a       347     0    14     1    22
  1.0097158629719603E+00 a       348     0    14     1    23
 -2.9539750264517197E+00 a       349     0    14     1    24
 -2.8117639934040177E+00 a       350     0    14     1    25
  3.7296026710323704E+00 a       351     0    15     1     1
  7.3241704068026063E+00 a       352     0    15     1     2
 -1.8568412099914018E+00 a       353     0    15     1     3
 -1.6271516871538261E+00 a       354     0    15     1     4
  1.4111946060081382E-01 a       355     0    15     1     5
  3.3337703899421216E+00 a       356     0    15     1     6
  4.6423284779901308E-01 a       357     0    15     1     7
  2.7681754570401442E+00 a       358     0    15     1     8
 -1.8873406402737640E+00 a       359     0    15     1     9
  1.3823818893489601E+00 a       360     0    15     1    10
  3.2407162542702811E-01 a       361     0    15     1    11
 -3.4479965998708293E+00 a       362     0    15     1    12
  3.0451608238038061E+00 a       363     0    15     1    13
  2.0477748487746483E+00 a       364     0    15     1    14
 -9.5830721910506900E-01 a       365     0    15     1    15
  1.4189681314346581E+00 a       366     0    15     1    16
  2.8007122317921634E-01 a       367     0    15     1    17
 -2.9725197136631061E+00 a       368     0    15     1    18
 -2.5545676542456222E+00 a       369     0    15     1    19
  2.9033662849126234E+00 a       370     0    15     1    20
 -8.8555430750268072E-01 a       371     0    15     1    21
  7.4368858910343028E-01 a       372     0    15     1    22
 -8.3652513690599317E-01 a       373     0    15     1    23
  3.1211515440832347E+00 a       374     0    15     1    24
  4.1899408717824178E+00 a       375     0    15     1    25
 -1.4128168696342378E+00 a       376     0    16     1     1
 -9.1159869811744318E+00 a       377     0    16     1     2
 -2.3442643440207127E-02 a       378     0    16     1     3
 -3.3828576726590598E-01 a       379     0    16     1     4
 -2.8413963447753210E-01 a       380     0    16     1     5
 -4.3196500672387117E+00 a       381     0    16     1     6
  7.3950878930606956E-01 a       382     0    16     1     7
  4.6368541600379254E-01 a       383     0    16     1     8
  1.8732663540474692E-01 a       384     0    16     1     9
  6.0363466547993805E-01 a       385     0    16     1    10
  1.2191725020908608E+00 a       386     0    16     1    11
  9.1546679743874790E+00 a       387     0    16     1    12
 -8.1574199171898967E-02 a       388     0    16     1    13
 -6.2611637677967280E-01 a       389     0    16     1    14
  1.3428745850727719E+00 a       390     0    16     1    15
 -6.8721654931198820E-02 a       391     0    16     1    16
  7.3082254511518674E-01 a       392     0    16     1    17
  1.1235067243114407E+00 a       393     0    16     1    18
 -1.6775025525745654E-01 a       394     0    16     1    19
 -3.0840130749875616E+00 a       395     0    16     1    20
  1.2683423730987673E+00 a       396     0    16     1    21
  2.5974380207415065E-01 a       397     0    16     1    22
  1.5897524190390797E-02 a       398     0    16     1    23
 -3.5094317574584508E+00 a       399     0    16     1    24
 -4.6778954435029885E+00 a       400     0    16     1    25
 -2.2077977462803924E+00 a       401     0    17     1     1
  1.3108190652025133E+00 a       402     0    17     1     2
  2.2782539343173638E+00 a       403     0    17     1     3
  7.8149807030570617E-01 a       404     0    17     1     4
  4.5249163930507197E-01 a       405     0    17     1     5
  1.5945877232130656E+00 a       406     0    17     1     6
 -3.4847204072332499E-01 a       407     0    17     1     7
 -2.5971019961157724E+00 a       408     0    17     1     8
  1.6617503479343771E+00 a       409     0    17     1     9
 -9.6224858251374445E-01 a       410     0    17     1    10
 -1.4143063142890291E+00 a       411     0    17     1    11
 -6.5215564706187470E+00 a       412     0    17     1    12
 -3.0541340484000696E+00 a       413     0    17     1    13
 -1.5631074679434918E+00 a       414     0    17     1    14
  7.5626220263382804E-01 a       415     0    17     1    15
 -2.3704515896550604E+00 a       416     0    17     1    16
 -1.7527943189487314E+00 a       417     0    17     1    17
  1.9933698509991273E+00 a       418     0    17     1    18
  2.0035944683545583E+00 a       419     0    17     1    19
  2.1578537980177961E-01 a       420     0    17     1    20
 -1.1010765814417287E+00 a       421     0    17     1    21
 -9.8075201038170534E-01 a       422     0    17     1    22
  1.6864659483096919E-01 a       423     0    17     1    23
  6.6358861189249863E-01 a       424     0    17     1    24
  9.7319012859918869E-02 a       425     0    17     1    25
 -9.4573938267247659E-01 a       426     0    18     1     1
 -3.3523504262856316E+00 a       427     0    18     1     2
 -7.3617106877663729E-01 a       428     0    18     1     3
  7.2156634689481203E-01 a       429     0    18     1     4
 -1.2687309521244761E+00 a       430     0    18     1     5
 -3.4948512730215855E+00 a       431     0    18     1     6
  1.0169602512814817E-01 a       432     0    18     1     7
 -3.0908870301813431E+00 a       433     0    18     1     8
 -1.4469073451642682E+00 a       434     0    18     1     9
 -1.3869866878621813E+00 a       435     0    18     1    10
 -1.5138165746362406E+00 a       436     0    18     1    11
 -1.9088952196031694E-01 a       437     0    18     1    12
 -7.0697068024120707E-02 a       438     0    18     1    13
 -1.3981248538777413E+00 a       439     0    18     1    14
 -3.5410668658045547E-01 a       440     0    18     1    15
  7.2928574242673050E-01 a       441     0    18     1    16
  7.3250316654612180E-01 a       442     0    18     1    17
  1.3780179209905370E+00 a       443     0    18     1    18
  4.3540006937920650E-01 a       444     0    18     1    19
 -6.5530884834190750E-01 a       445     0    18     1    20
 -6.5138821785522982E-01 a       446     0    18     1    21
 -6.7064530268888967E-01 a       447     0    18     1    22
 -1.5902696281128342E-01 a       448     0    18     1    23
 -1.1911544070748317E+00 a       449     0    18     1    24
 -1.0472527265096125E+00 a       450     0    18     1    25
  1.9577047668652823E+00 a       451     0    19     1     1
  1.3765849864704316E+00 a       452     0    19     1     2
 -1.1332303525756484E+00 a       453     0    19     1     3
  1.5684797410462054E-02 a       454     0    19     1     4
 -6.8379745029607486E-01 a       455     0    19     1     5
 -1.6734973121936647E-01 a       456     0    19     1     6
 -1.2271390481913771E+00 a       457     0    19     1     7
 -1.2004784930381349E+00 a       458     0    19     1     8
 -6.1570019646491070E-01 a       459     0    19     1     9
  3.4062119590871959E-01 a       460     0    19     1    10
  2.4059853963223693E-01 a       461     0    19     1    11
 -4.9012438037237503E-02 a       462     0    19     1    12
  1.0246192988726592E+00 a       463     0    19     1    13
 -2.8754400164420008E-01 a       464     0    19     1    14
 -8.2894533344668486E-01 a       465     0    19     1    15
  1.4011292935855586E+00 a       466     0    19     1    16
  1.2524766839312826E+00 a       467     0    19     1    17
 -6.7684559099547736E-01 a       468     0    19     1    18
  3.6124214989422143E-01 a       469     0    19     1    19
  3.3471847693720125E-01 a       470     0    19     1    20
  1.5197157748407081E-01 a       471     0    19     1    21
  2.9401516105117725E-01 a       472     0    19     1    22
  1.1978643444069582E-01 a       473     0    19     1    23
  4.5741041705166086E-01 a       474     0    19     1    24
 -1.0248974836929811E-01 a       475     0    19     1    25
  4.1866124082785801E+00 a       476     0    20     1     1
  5.5130585856660845E+00 a       477     0    20     1     2
 -3.1900140434899288E-01 a       478     0    20     1     3
 -2.9731459995665149E-01 a       479     0    20     1     4
  8.2942484824410900E-01 a       480     0    20     1     5
  2.7440669931366455E+00 a       481     0    20     1     6
 -1.6521504726005949E+00 a       482     0    20     1     7
  6.7185707910235859E-01 a       483     0    20     1     8
  2.2026632968311832E-01 a       484     0    20     1     9
  1.3017456748521061E+00 a       485     0    20     1    10
 -2.6425358411912092E-01 a       486     0    20     1    11
  1.3083566656354246E+00 a       487     0    20     1    12
  1.6749688188453109E+00 a       488     0    20     1    13
  7.3113570840957309E-01 a       489     0    20     1    14
  3.6166463986709246E-01 a       490     0    20     1    15
  1.2458311359578318E+00 a       491     0    20     1    16
  1.2539436188001136E+00 a       492     0    20     1    17
 -3.3173667685405301E+00 a       493     0    20     1    18
  8.6353671010612676E-01 a       494     0    20     1    19
  2.6030480155140587E+00 a       495     0    20     1    20
  7.4923687433708386E-01 a       496     0    20     1    21
 -1.2952045251134930E-01 a       497     0    20     1    22
  4.5097413784646678E-01 a       498     0    20     1    23
  1.4617133550564947E+00 a       499     0    20     1    24
  1.2482728125581795E+00 a       500     0    20     1    25
 -1.7866431188547818E-01 a       501     0    21     1     1
  4.4836746601824480E+00 a       502     0    21     1     2
  5.5064741345473422E-01 a       503     0    21     1     3
 -1.4969915014711461E+00 a       504     0    21     1     4
  3.2641943904558852E+00 a       505     0    21     1     5
  1.9930150082874161E+00 a       506     0    21     1     6
 -3.3505903054947228E-01 a       507     0    21     1     7
  2.0763495603703301E+00 a       508     0    21     1     8
  1.8025624553429271E+00 a       509     0    21     1     9
 -3.2888342449435481E+00 a       510     0    21     1    10
  1.8593638940456918E+00 a       511     0    21     1    11
 -1.0672333542936776E+00 a       512     0    21     1    12
 -2.0436884755646463E+00 a       513     0    21     1    13
  1.5059301605017488E+00 a       514     0    21     1    14
 -1.4965015576118954E+00 a       515     0    21     1    15
 -2.9675876648578696E+00 a       516     0    21     1    16
 -2.3424574440347947E+00 a       517     0    21     1    17
 -2.0000588849027117E+00 a       518     0    21     1    18
  3.2947977931536282E-01 a       519     0    21     1    19
  2.6060187992434556E+00 a       520     0    21     1    20
  4.8847661378339111E-02 a       521     0    21     1    21
 -4.9733042314668838E-02 a       522     0    21     1    22
  4.7304413646760723E-01 a       523     0    21     1    23
  2.6227260464303801E+00 a       524     0    21     1    24
  4.1900465422210758E+00 a       525     0    21     1    25
 -5.4441915716140155E-01 a       526     0    22     1     1
 -5.9955221031537560E+00 a       527     0    22     1     2
  4.9933123273644915E-02 a       528     0    22     1     3
 -1.0172810720945939E-01 a       529     0    22     1     4
 -5.7288814985891134E-01 a       530     0    22     1     5
 -3.1508163815440815E+00 a       531     0    22     1     6
  1.7411035013012319E-01 a       532     0    22     1     7
  1.1005675961685104E+00 a       533     0    22     1     8
  4.1933485143381982E-01 a       534     0    22     1     9
  6.6149774046094262E-02 a       535     0    22     1    10
  1.7598642450844171E+00 a       536     0    22     1    11
  6.0455261681771013E+00 a       537     0    22     1    12
 -5.2187669327078218E-02 a       538     0    22     1    13
  3.7133619886679847E-02 a       539     0    22     1    14
  2.2860150653458278E-01 a       540     0    22     1    15
 -5.5818352490660472E-02 a       541     0    22     1    16
  3.3812104522280906E-01 a       542     0    22     1    17
  1.3448180719893688E+00 a       543     0    22     1    18
  2.0089514411367245E-02 a       544     0    22     1    19
 -2.8186851052240089E+00 a       545     0    22     1    20
  1.1670953293424011E+00 a       546     0    22     1    21
  3.1074589778111766E-01 a       547     0    22     1    22
 -1.5288236706490835E-02 a       548     0    22     1    23
 -2.0468204453237266E+00 a       549     0    22     1    24
 -3.1403827668521851E+00 a       550     0    22     1    25
 -1.2075113194979690E+00 a       551     0    23     1     1
 -5.7061748925993645E-02 a       552     0    23     1     2
  1.6211042445666671E-01 a       553     0    23     1     3
  1.1988738050216594E+00 a       554     0    23     1     4
 -2.5090125369842662E+00 a       555     0    23     1     5
  1.4410216679153451E+00 a       556     0    23     1     6
  7.6667186958858402E-01 a       557     0    23     1     7
 -1.7527912432604267E+00 a       558     0    23     1     8
 -1.4602205667640007E+00 a       559     0    23     1     9
  2.6958856549465082E+00 a       560     0    23     1    10
 -3.1088494487672289E+00 a       561     0    23     1    11
 -5.1348955078856342E+00 a       562     0    23     1    12
  9.7223211249191632E-01 a       563     0    23     1    13
 -1.0019899693357972E+00 a       564     0    23     1    14
  1.5386959599254142E+00 a       565     0    23     1    15
  1.3450070052966454E+00 a       566     0    23     1    16
  6.4406169032334348E-01 a       567     0    23     1    17
  2.1523386399980717E+00 a       568     0    23     1    18
 -1.0138029327347209E+00 a       569     0    23     1    19
 -7.3411504739758415E-01 a       570     0    23     1    20
 -1.0377364671623093E+00 a       571     0    23     1    21
 -2.4878466953866640E-02 a       572     0    23     1    22
 -6.5458503521086231E-01 a       573     0    23     1    23
 -6.9272247206506932E-01 a       574     0    23     1    24
 -8.8006095340164869E-01 a       575     0    23     1    25
  5.4188972639476907E-01 a       576     0    24     1     1
  1.0964498526288262E+00 a       577     0    24     1     2
  2.4407211040316659E-01 a       578     0    24     1     3
  4.9835100885190681E-01 a       579     0    24     1     4
  1.6619408736406735E-01 a       580     0    24     1     5
 -5.3948978607693454E-01 a       581     0    24     1     6
  7.9787083922029400E-01 a       582     0    24     1     7
 -4.7143684986788165E-01 a       583     0    24     1     8
 -8.8187002577670737E-01 a       584     0    24     1     9
 -8.7530784872423828E-01 a       585     0    24     1    10
 -1.3505491184910319E+00 a       586     0    24     1    11
  8.4971431900519270E-02 a       587     0    24     1    12
 -1.0334609444240737E+00 a       588     0    24     1    13
 -2.8201613978306700E-01 a       589     0    24     1    14
  7.7093998813904518E-01 a       590     0    24     1    15
 -8.5464268546095690E-01 a       591     0    24     1    16
 -4.5020913119851474E-01 a       592     0    24     1    17
 -1.2460395200427428E+00 a       593     0    24     1    18
  6.9054553679932495E-01 a       594     0    24     1    19
  1.4654934540024928E-01 a       595     0    24     1    20
  1.7858782423832587E-01 a       596     0    24     1    21
  5.1662236997640620E-01 a       597     0    24     1    22
 -2.8843881990411396E-01 a       598     0    24     1    23
 -7.0924778702282060E-02 a       599     0    24     1    24
 -1.2213177562351422E-01 a       600     0    24     1    25
 -7.2827090258235394E-01 a       601     0    25     1     1
 -1.4364061799109582E+00 a       602     0    25     1     2
 -5.0405464714627035E-01 a       603     0    25     1     3
 -8.9706922592350247E-01 a       604     0    25     1     4
 -9.6267221623205557E-02 a       605     0    25     1     5
  8.1761851616220282E-01 a       606     0    25     1     6
 -1.1417180771977247E+00 a       607     0    25     1     7
  1.4149945800187413E+00 a       608     0    25     1     8
  1.6990943250044479E+00 a       609     0    25     1     9
  1.4404813085217631E+00 a       610     0    25     1    10
  1.8715186973401323E+00 a       611     0    25     1    11
  9.5588818807696124E-02 a       612     0    25     1    12
  2.4474855984144450E+00 a       613     0    25     1    13
  1.1181874535043086E-01 a       614     0    25     1    14
 -1.9818368336647458E+00 a       615     0    25     1    15
  1.6267745856488525E+00 a       616     0    25     1    16
  1.0428729203969584E+00 a       617     0    25     1    17
  1.1617134800238296E+00 a       618     0    25     1    18
 -1.4963389998615484E+00 a       619     0    25     1    19
  2.3480074543636705E-04 a       620     0    25     1    20
 -3.6634782309053754E-01 a       621     0    25     1    21
 -3.0826066222529153E-01 a       622     0    25     1    22
  4.8515955185999771E-01 a       623     0    25     1    23
 -6.5704093250688426E-03 a       624     0    25     1    24
  3.7505307197746857E-01 a       625     0    25     1    25
  1.6146419984507179E-01 a       626     0    26     1     1
  4.8302129132730826E-01 a       627     0    26     1     2
  1.9496021371261343E-01 a       628     0    26     1     3
  2.8496804111557039E-01 a       629     0    26     1     4
  6.4317795842037482E-03 a       630     0    26     1     5
 -2.4302462374951025E-01 a       631     0    26     1     6
  3.5817295112132352E-01 a       632     0    26     1     7
 -9.9029044901988295E-01 a       633     0    26     1     8
 -7.9628903340607715E-01 a       634     0    26     1     9
 -6.2224777419225197E-01 a       635     0    26     1    10
 -6.2330359586231421E-01 a       636     0    26     1    11
 -1.1736544622057701E-01 a       637     0    26     1    12
 -1.3243190789054442E+00 a       638     0    26     1    13
  1.3555703745918340E-01 a       639     0    26     1    14
  1.1746926867608634E+00 a       640     0    26     1    15
 -7.7185553399591411E-01 a       641     0    26     1    16
 -5.5709721511938570E-01 a       642     0    26     1    17
 -1.8605242386813933E-01 a       643     0    26     1    18
  7.4379092037305705E-01 a       644     0    26     1    19
 -1.8555606123235605E-01 a       645     0    26     1    20
  2.1357239757883251E-01 a       646     0    26     1    21
 -6.7271535341024952E-02 a       647     0    26     1    22
 -2.4684314957524581E-01 a       648     0    26     1    23
  9.8762826554437376E-03 a       649     0    26     1    24
 -2.4375153091536611E-01 a       650     0    26     1    25
  2.2697341251774195E-02 b       651     1     1
 -2.3188071392908771E-01 b       652     1     2
 -1.6800288696540225E-01 b       653     1     3
 -5.2849765115307083E-02 b       654     1     4
  5.6185771498837630E-03 b       655     1     5
 -1.6371117899584686E-01 b       656     1     6
 -5.4198567583336028E-02 b       657     1     7
  5.2548530039158423E-02 b       658     1     8
 -3.2008066354500880E-01 b       659     1     9
 -1.3916522848960469E-01 b       660     1    10
 -1.8893416157863352E-01 b       661     1    11
  2.4201338220475274E-01 b       662     1    12
  1.4462245526559286E-01 b       663     1    13
  4.4085612967487295E-02 b       664     1    14
 -6.6507401740378946E-02 b       665     1    15
 -1.3815920542601945E-01 b       666     1    16
  1.0927796829142856E-01 b       667     1    17
 -2.1100061522598504E-01 b       668     1    18
  7.4811726922236074E-02 b       669     1    19
 -7.1530402414705749E-02 b       670     1    20
  1.1229757590064449E-02 b       671     1    21
 -9.5913332623505473E-02 b       672     1    22
  6.7010366283836408E-03 b       673     1    23
 -1.3605506525567027E-01 b       674     1    24
 -1.3092815710176234E-01 b       675     1    25
  3.1078389542640478E-01 a       676     1     1     2     1
 -1.2782004419904000E-01 a       677     1     1     2     2
 -4.1298672756182103E-01 a       678     1     1     2     3
 -2.2438965702954467E-02 a       679     1     1     2     4
  1.4619053820627703E-01 a       680     1     1     2     5
  6.8583618877267982E-01 a       681     1     1     2     6
  2.3928117988495032E-01 a       682     1     1     2     7
 -1.7859305875642498E-01 a       683     1     1     2     8
 -3.0291051076770964E-01 a       684     1     1     2     9
 -4.8935515731998958E-01 a       685     1     1     2    10
 -7.8875550181245632E-02 a       686     1     1     2    11
 -1.9280645784338999E-02 a       687     1     1     2    12
 -8.6082424609653263E-02 a       688     1     1     2    13
  1.0123694687771244E-01 a       689     1     1     2    14
  2.4196795849380506E-01 a       690     1     1     2    15
  1.1144227322944186E-01 a       691     1     1     2    16
  6.5533151796424785E-02 a       692     1     1     2    17
  9.2892568385373450E-02 a       693     1     1     2    18
  1.6500544647593565E-01 a       694     1     1     2    19
  1.1567042321184474E-02 a       695     1     1     2    20
  2.5441414883759429E-02 a       696     1     1     2    21
 -7.2102250271947921E-01 a       697     1     1     2    22
  3.3440489422162950E-01 a       698     1     1     2    23
 -2.0030359084409588E-01 a       699     1     1     2    24
  1.4923036690063091E-01 a       700     1     1     2    25
 -1.3620253476185315E-01 a       701     1     2     2     1
  5.3009654511149640E-01 a       702     1     2     2     2
 -3.6684482497686388E-01 a       703     1     2     2     3
  4.6492265533119631E-01 a       704     1     2     2     4
 -2.0703104966725683E-01 a       705     1     2     2     5
 -2.9274108389721482E-01 a       706     1     2     2     6
  2.4743103543434022E-02 a       707     1     2     2     7
 -8.9568545116697540E-01 a       708     1     2     2     8
 -4.1419777344336262E-01 a       709     1     2     2     9
  2.3738219086398799E-01 a       710     1     2     2    10
 -7.3484292271376950E-01 a       711     1     2     2    11
  3.4806683825273865E-01 a       712     1     2     2    12
  8.3930365495153050E-02 a       713     1     2     2    13
 -2.6778187180236712E-01 a       714     1     2     2    14
 -7.6518878039503635E-02 a       715     1     2     2    15
 -1.1646402201842693E-01 a       716     1     2     2    16
 -1.1943790472058825E-01 a       717     1     2     2    17
  4.1732494997743103E-01 a       718     1     2     2    18
  3.7288722607040231E-01 a       719     1     2     2    19
  1.8294479323204652E-01 a       720     1     2     2    20
  1.5064070748662658E-01 a       721     1     2     2    21
  9.4024474438187033E-01 a       722     1     2     2    22
  6.1411761545062848E-01 a       723     1     2     2    23
 -4.1338774119989624E-01 a       724     1     2     2    24
 -1.4789671816475866E-01 a       725     1     2     2    25
  3.1951249959179043E-02 a       726     1     3     2     1
  4.6771379736131868E-01 a       727     1     3     2     2
 -3.4449173072504363E-01 a       728     1     3     2     3
  2.1155495338298649E-01 a       729     1     3     2     4
  2.4061149073956734E-01 a       730     1     3     2     5
  9.0045447721001259E-01 a       731     1     3     2     6
 -2.0253358242582245E-01 a       732     1     3     2     7
  1.6925433232323525E-01 a       733     1     3     2     8
 -2.1281085163541805E-01 a       734     1     3     2     9
  1.5849595698456601E-01 a       735     1     3     2    10
 -2.6663675732730530E-01 a       736     1     3     2    11
  3.0441743339066957E-01 a       737     1     3     2    12
  1.7162685451553683E-01 a       738     1     3     2    13
 -6.3930479332160728E-02 a       739     1     3     2    14
 -2.5962745829182227E-01 a       740     1     3     2    15
  4.5497682037697623E-01 a       741     1     3     2    16
  3.0197490512364666E-01 a       742     1     3     2    17
 -1.1697100426907156E-01 a       743     1     3     2    18
 -3.0115649506884001E-01 a       744     1     3     2    19
  1.1615990577913791E+00 a       745     1     3     2    20
  1.6690715859864380E-01 a       746     1     3     2    21
 -7.1066019467973129E-01 a       747     1     3     2    22
  2.5209655438641093E-01 a       748     1     3     2    23
  9.0007303357058355E-01 a       749     1     3     2    24
 -1.4686622124353232E-01 a       750     1     3     2    25
 -1.4477407548099910E-01 a       751     1     4     2     1
 -5.3507682168025683E-01 a       752     1     4     2     2
  2.2600939627571506E-01 a       753     1     4     2     3
 -5.7687810639564452E-01 a       754     1     4     2     4
  6.0256636785345381E-02 a       755     1     4     2     5
  4.9215989649286773E-01 a       756     1     4     2     6
  8.7444784486440663E-02 a       757     1     4     2     7
 -8.4771663471174444E-02 a       758     1     4     2     8
 -8.7080712289814746E-02 a       759     1     4     2     9
 -2.6450527404751423E-01 a       760     1     4     2    10
  8.4741713730823481E-02 a       761     1     4     2    11
 -1.5103264672654687E-01 a       762     1     4     2    12
  4.5352978262358651E-01 a       763     1     4     2    13
  4.9610132906553067E-01 a       764     1     4     2    14
 -5.6007817102809936E-02 a       765     1     4     2    15
 -1.2250159347468074E-01 a       766     1     4     2    16
 -2.2269383034893064E-01 a       767     1     4     2    17
 -4.0740613161607930E-01 a       768     1     4     2    18
  1.4971996902969464E-02 a       769     1     4     2    19
 -1.1189081780622523E-02 a       770     1     4     2    20
 -9.7125502454028408E-03 a       771     1     4     2    21
  9.2127743182517430E-01 a       772     1     4     2    22
 -3.1714256199860869E-01 a       773     1     4     2    23
 -2.2800512940003546E-02 a       774     1     4     2    24
 -1.0192667838723266E-03 a       775     1     4     2    25
 -6.2374617158516710E-01 a       776     1     5     2     1
 -4.9317184278238252E-01 a       777     1     5     2     2
  4.9601388245748002E-01 a       778     1     5     2     3
  8.4054256786207579E-02 a       779     1     5     2     4
  4.4596668172640047E-01 a       780     1     5     2     5
  7.8304249454015351E-01 a       781     1     5     2     6
 -3.9606495010240628E-01 a       782     1     5     2     7
  5.8854539242002313E-01 a       783     1     5     2     8
 -1.6054043031503104E-01 a       784     1     5     2     9
  3.0360009545262995E-02 a       785     1     5     2    10
  5.6434436286563749E-01 a       786     1     5     2    11
 -1.1984416268290850E-01 a       787     1     5     2    12
 -4.7677913427179190E-02 a       788     1     5     2    13
  1.4392829852226072E-01 a       789     1     5     2    14
 -2.4876862721038823E-01 a       790     1     5     2    15
  1.5226246238128760E-01 a       791     1     5     2    16
  2.3195626003722020E-01 a       792     1     5     2    17
  1.7627768908121413E-01 a       793     1     5     2    18
 -4.8335674524882100E-01 a       794     1     5     2    19
  1.7505868193598176E-01 a       795     1     5     2    20
 -9.4524503734641968E-02 a       796     1     5     2    21
 -1.4124488522640779E+00 a       797     1     5     2    22
  5.6334806083752798E-02 a       798     1     5     2    23
  7.9348242511212397E-01 a       799     1     5     2    24
  7.2309076802587802E-02 a       800     1     5     2    25
  1.7462404925707090E-01 a       801     1     6     2     1
  6.7242178861326940E-02 a       802     1     6     2     2
  6.4218079420198515E-01 a       803     1     6     2     3
  2.1488238421482991E-01 a       804     1     6     2     4
 -4.8408394470625254E-02 a       805     1     6     2     5
 -3.1503914512128800E-01 a       806     1     6     2     6
 -3.0504480257069122E-01 a       807     1     6     2     7
  6.9898635907507867E-01 a       808     1     6     2     8
  2.9405601813230009E-01 a       809     1     6     2     9
 -4.2888451891686252E-01 a       810     1     6     2    10
 -1.4666405368045482E-01 a       811     1     6     2    11
 -6.4727974816324460E-02 a       812     1     6     2    12
 -2.6688916503623616E-01 a       813     1     6     2    13
 -2.1618311432754228E-01 a       814     1     6     2    14
  2.5236986578621201E-01 a       815     1     6     2    15
 -1.6143317839657126E-01 a       816     1     6     2    16
  1.6268611932987845E-01 a       817     1     6     2    17
 -2.3656358300270164E-01 a       818     1     6     2    18
  1.3164835635935468E-01 a       819     1     6     2    19
 -3.3709675436600339E-01 a       820     1     6     2    20
 -1.4086092239647938E-01 a       821     1     6     2    21
 -2.1493086624073779E-01 a       822     1     6     2    22
  1.6061670900168692E-01 a       823     1     6     2    23
  1.6795177593799127E-01 a       824     1     6     2    24
  1.3329554288956311E-01 a       825     1     6     2    25
  4.3344082589445290E-02 a       826     1     7     2     1
 -2.8551114500397501E-01 a       827     1     7     2     2
 -1.2122612659205950E-02 a       828     1     7     2     3
 -7.5840354892603989E-01 a       829     1     7     2     4
 -1.1554608025326600E-01 a       830     1     7     2     5
  2.8566562635705700E-01 a       831     1     7     2     6
  2.2880596149697868E-01 a       832     1     7     2     7
 -1.1470813547258964E-01 a       833     1     7     2     8
  3.7502376046660674E-01 a       834     1     7     2     9
  2.7607013231110141E-02 a       835     1     7     2    10
  3.4313509454430464E-02 a       836     1     7     2    11
 -4.3354952959692938E-02 a       837     1     7     2    12
  2.3774898535819583E-01 a       838     1     7     2    13
  6.8499086116824637E-01 a       839     1     7     2    14
 -4.3369484184082097E-02 a       840     1     7     2    15
 -1.2078404126739543E-01 a       841     1     7     2    16
 -9.4014101062859443E-02 a       842     1     7     2    17
 -1.7980778590486612E-01 a       843     1     7     2    18
 -4.3261437483052209E-02 a       844     1     7     2    19
 -2.7630329265604653E-01 a       845     1     7     2    20
  1.5627639824478209E-01 a       846     1     7     2    21
 -5.4912612206838940E-01 a       847     1     7     2    22
 -4.9787369285563188E-01 a       848     1     7     2    23
  1.1550985684183260E-01 a       849     1     7     2    24
 -1.3683710347379208E-01 a       850     1     7     2    25
 -3.0526888369212878E-02 a       851     1     8     2     1
  4.2039784673021585E-01 a       852     1     8     2     2
 -1.2846474602622132E-01 a       853     1     8     2     3
  8.8911645736557010E-01 a       854     1     8     2     4
 -3.3962442177654498E-02 a       855     1     8     2     5
 -1.5059664989476607E-01 a       856     1     8     2     6
  4.3932505719820958E-03 a       857     1     8     2     7
  2.4566300534060054E-01 a       858     1     8     2     8
 -2.3044492779575765E-01 a       859     1     8     2     9
  2.9435217999448520E-02 a       860     1     8     2    10
 -2.5547309284802083E-01 a       861     1     8     2    11
 -6.2940859004411265E-02 a       862     1     8     2    12
 -3.0452596211745497E-01 a       863     1     8     2    13
 -6.0970112603881299E-01 a       864     1     8     2    14
  3.1034944826954458E-01 a       865     1     8     2    15
  1.7190751023580489E-01 a       866     1     8     2    16
  2.7898266883919115E-01 a       867     1     8     2    17
  3.7328849656042029E-01 a       868     1     8     2    18
 -9.6152016149258251E-02 a       869     1     8     2    19
  8.6112095492249394E-02 a       870     1     8     2    20
 -1.7476897741933523E-01 a       871     1     8     2    21
 -3.8292290988726940E-01 a       872     1     8     2    22
 -4.3164106245015399E-01 a       873     1     8     2    23
 -4.7682217633306245E-01 a       874     1     8     2    24
  4.0726204567071655E-02 a       875     1     8     2    25
 -2.4696431723786702E-01 a       876     1     9     2     1
  9.2286601134242463E-01 a       877     1     9     2     2
  1.5396999440856039E-02 a       878     1     9     2     3
  3.1798163881931657E-01 a       879     1     9     2     4
  4.0258663822143631E-01 a       880     1     9     2     5
 -1.9313490211854303E-01 a       881     1     9     2     6
 -2.6140057166766129E-01 a       882     1     9     2     7
 -1.1359495358154550E-01 a       883     1     9     2     8
 -1.3602524498876259E-01 a       884     1     9     2     9
  5.6174879908143405E-01 a       885     1     9     2    10
  3.9116076537054517E-01 a       886     1     9     2    11
  2.5726871833788756E-01 a       887     1     9     2    12
 -8.4954226078950035E-02 a       888     1     9     2    13
 -4.8061703541080830E-01 a       889     1     9     2    14
 -3.8861563042060954E-01 a       890     1     9     2    15
  1.4286721633594807E-01 a       891     1     9     2    16
  1.6092330324520937E-01 a       892     1     9     2    17
  4.0836982152180554E-02 a       893     1     9     2    18
  2.2488715412559349E-01 a       894     1     9     2    19
 -4.3546900844929332E-01 a       895     1     9     2    20
  3.3207805375431071E-01 a       896     1     9     2    21
  1.5710773579498410E-01 a       897     1     9     2    22
  6.0543187907399143E-01 a       898     1     9     2    23
  1.8434117818656823E-01 a       899     1     9     2    24
 -2.7674110766004623E-01 a       900     1     9     2    25
  3.1345765220661981E-01 a       901     1    10     2     1
 -5.4639153920653061E-01 a       902     1    10     2     2
  2.6979233395003915E-01 a       903     1    10     2     3
  3.9201398315824254E-01 a       904     1    10     2     4
 -1.4042003130689937E-01 a       905     1    10     2     5
  1.4951082115549545E+00 a       906     1    10     2     6
  1.0761431245208287E-01 a       907     1    10     2     7
 -4.4874958573535728E-01 a       908     1    10     2     8
 -4.6370455488407375E-01 a       909     1    10     2     9
 -7.0797046796832130E-01 a       910     1    10     2    10
  4.4981609959524804E-01 a       911     1    10     2    11
 -2.8482640071520716E-02 a       912     1    10     2    12
  4.3544002333480414E-01 a       913     1    10     2    13
 -1.6804112841824778E-01 a       914     1    10     2    14
 -2.1490819095226460E-01 a       915     1    10     2    15
 -2.3545972346907779E-01 a       916     1    10     2    16
 -3.9148775319153895E-01 a       917     1    10     2    17
 -2.2337728696811862E-01 a       918     1    10     2    18
  5.0564863893249845E-01 a       919     1    10     2    19
 -1.3031883188335575E-01 a       920     1    10     2    20
 -1.2491010387081149E-01 a       921     1    10     2    21
  2.3827082013620843E-01 a       922     1    10     2    22
  1.7173960295562027E-01 a       923     1    10     2    23
  1.2179847790796379E-02 a       924     1    10     2    24
 -2.7024606743004265E-01 a       925     1    10     2    25
 -2.0562119461910006E-01 a       926     1    11     2     1
 -7.1651393421400111E-01 a       927     1    11     2     2
 -2.4820695061140752E-01 a       928     1    11     2     3
  2.0037393523521518E-01 a       929     1    11     2     4
 -8.3175563199882549E-03 a       930     1    11     2     5
  5.1777341700848072E-02 a       931     1    11     2     6
 -1.8718847538170927E-01 a       932     1    11     2     7
 -1.3672403148887718E-01 a       933     1    11     2     8
 -2.0969126835971208E-01 a       934     1    11     2     9
 -1.6604372059308339E-01 a       935     1    11     2    10
  8.6961637612548187E-02 a       936     1    11     2    11
 -7.4925614308283747E-02 a       937     1    11     2    12
 -4.4003950171589068E-01 a       938     1    11     2    13
 -1.1955769273559257E-01 a       939     1    11     2    14
  2.8269028634671700E-01 a       940     1    11     2    15
  1.2022248384267739E-01 a       941     1    11     2    16
  1.8061903977749008E-01 a       942     1    11     2    17
 -3.0712484383937139E-01 a       943     1    11     2    18
  1.9541401009725887E-01 a       944     1    11     2    19
 -1.1119633813521640E-01 a       945     1    11     2    20
  8.7124531832550006E-02 a       946     1    11     2    21
 -4.3837863347888034E-01 a       947     1    11     2    22
  9.9706979238846388E-02 a       948     1    11     2    23
 -3.1221765130173446E-01 a       949     1    11     2    24
  8.2125280075294807E-02 a       950     1    11     2    25
  3.4059149956505824E-01 a       951     1    12     2     1
 -7.1279533050897426E-01 a       952     1    12     2     2
 -1.0592501804547429E-01 a       953     1    12     2     3
 -8.7215013200741431E-02 a       954     1    12     2     4
  5.1274727213712158E-02 a       955     1    12     2     5
  1.0901378692501535E+00 a       956     1    12     2     6
  1.6358861454359547E-01 a       957     1    12     2     7
  2.0212448108461477E-02 a       958     1    12     2     8
 -5.1756834929598802E-02 a       959     1    12     2     9
 -6.3719100684055119E-02 a       960     1    12     2    10
  3.0579768312354932E-01 a       961     1    12     2    11
 -1.7406225992696794E-01 a       962     1    12     2    12
  1.4899960438056234E-01 a       963     1    12     2    13
  2.4413436201524602E-01 a       964     1    12     2    14
 -1.6564240838502492E-01 a       965     1    12     2    15
  1.1565744621343464E-02 a       966     1    12     2    16
  1.9981327622304840E-01 a       967     1    12     2    17
  3.5573726582794801E-01 a       968     1    12     2    18
 -1.4785624352192003E-01 a       969     1    12     2    19
  3.0434617802916414E-01 a       970     1    12     2    20
 -1.2792704807214822E-01 a       971     1    12     2    21
 -1.7149627657746025E-01 a       972     1    12     2    22
 -9.0033826288495133E-01 a       973     1    12     2    23
 -5.0274384513355552E-01 a       974     1    12     2    24
 -6.3580717986350777E-01 a       975     1    12     2    25
  2.1814384433808498E-01 a       976     1    13     2     1
 -1.8259712758917229E-01 a       977     1    13     2     2
  3.3291843782575359E-01 a       978     1    13     2     3
  6.4539336477055431E-01 a       979     1    13     2     4
  6.2464256918039800E-02 a       980     1    13     2     5
  1.3785032318339245E+00 a       981     1    13     2     6
  1.6978052251970469E-01 a       982     1    13     2     7
 -1.0275974504348812E-01 a       983     1    13     2     8
  3.4234454668525688E-01 a       984     1    13     2     9
 -2.2312625283590078E-02 a       985     1    13     2    10
 -2.3193362747885082E-01 a       986     1    13     2    11
 -1.4701820245940883E-01 a       987     1    13     2    12
  5.0460254457533771E-01 a       988     1    13     2    13
 -3.9755239340847554E-01 a       989     1    13     2    14
 -1.7214885710121183E-02 a       990     1    13     2    15
 -8.8174108206236557E-02 a       991     1    13     2    16
 -1.9721353446712378E-01 a       992     1    13     2    17
 -2.5122949855621479E-01 a       993     1    13     2    18
  4.8404615160664582E-01 a       994     1    13     2    19
 -3.5690665944740123E-02 a       995     1    13     2    20
 -1.0151533046061140E-01 a       996     1    13     2    21
 -2.7225259220648890E-01 a       997     1    13     2    22
 -2.2225759750320095E-01 a       998     1    13     2    23
 -4.3562633678994866E-01 a       999     1    13     2    24
 -3.3694328810850166E-01 a      1000     1    13     2    25
  1.3433664585996694E-01 a      1001     1    14     2     1
  1.0717119977365785E+00 a      1002     1    14     2     2
  1.7073800159284375E-01 a      1003     1    14     2     3
  9.0712665535771020E-01 a      1004     1    14     2     4
  1.2813473335706599E-01 a      1005     1    14     2     5
 -1.2408081669240356E+00 a      1006     1    14     2     6
  4.8797445740225813E-02 a      1007     1    14     2     7
  3.4474681398528645E-01 a      1008     1    14     2     8
 -1.1791877816197513E-01 a      1009     1    14     2     9
  2.9231507288270497E-01 a      1010     1    14     2    10
 -4.9734617349853905E-01 a      1011     1    14     2    11
 -8.1327864104804262E-02 a      1012     1    14     2    12
 -6.3119776618179302E-02 a      1013     1    14     2    13
 -8.9409271618122010E-01 a      1014     1    14     2    14
 -1.0267654380371367E-01 a      1015     1    14     2    15
  1.3648755420992070E-01 a      1016     1    14     2    16
 -5.9687889941228062E-02 a      1017     1    14     2    17
  3.2013378910540025E-01 a      1018     1    14     2    18
 -3.2594192528262983E-02 a      1019     1    14     2    19
  5.3630044252121523E-01 a      1020     1    14     2    20
 -2.6898544628343035E-01 a      1021     1    14     2    21
  8.4334894299828406E-02 a      1022     1    14     2    22
 -1.7627672534599914E-01 a      1023     1    14     2    23
 -7.4674182042085824E-01 a      1024     1    14     2    24
  1.0039744481402649E-01 a      1025     1    14     2    25
 -4.8187601993658333E-02 a      1026     1    15     2     1
 -9.3803889819956099E-01 a      1027     1    15     2     2
  8.5739674452490020E-02 a      1028     1    15     2     3
 -1.6630060671155689E-01 a      1029     1    15     2     4
  7.5935825190946188E-02 a      1030     1    15     2     5
  5.8988519362128466E-01 a      1031     1    15     2     6
  1.0470326231726594E-01 a      1032     1    15     2     7
  3.4807606967506155E-01 a      1033     1    15     2     8
  4.9873981526605293E-01 a      1034     1    15     2     9
 -1.6810172142666857E-01 a      1035     1    15     2    10
 -8.1031681634236141E-01 a      1036     1    15     2    11
 -9.4946487436589552E-02 a      1037     1    15     2    12
  2.6931072316626414E-01 a      1038     1    15     2    13
  5.8401145261265365E-02 a      1039     1    15     2    14
  4.4968744219648785E-03 a      1040     1    15     2    15
  2.3693255985051561E-02 a      1041     1    15     2    16
 -9.5090416661255922E-02 a      1042     1    15     2    17
  1.5473911225868309E-01 a      1043     1    15     2    18
 -3.7746426218009971E-01 a      1044     1    15     2    19
  2.9323129778207280E-01 a      1045     1    15     2    20
 -1.7169516756198730E-01 a      1046     1    15     2    21
 -5.7340400169296958E-02 a      1047     1    15     2    22
 -9.0995828812753921E-01 a      1048     1    15     2    23
 -9.0714837057006531E-02 a      1049     1    15     2    24
  4.4244854638255365E-01 a      1050     1    15     2    25
  5.0042833292703137E-01 a      1051     1    16     2     1
 -5.2091469760631304E-01 a      1052     1    16     2     2
  2.5642202687592619E-01 a      1053     1    16     2     3
  1.9833283551814573E-01 a      1054     1    16     2     4
 -2.0095360450337263E-01 a      1055     1    16     2     5
  7.6826739736356908E-01 a      1056     1    16     2     6
 -1.6590595613890163E-03 a      1057     1    16     2     7
 -2.7045223927159551E-01 a      1058     1    16     2     8
  1.9497286160727365E-01 a      1059     1    16     2     9
 -5.8312162228645459E-01 a      1060     1    16     2    10
  2.0745813679476463E-01 a      1061     1    16     2    11
 -8.2778400423493728E-02 a      1062     1    16     2    12
  4.1492045921032739E-01 a      1063     1    16     2    13
  3.1531700552332037E-02 a      1064     1    16     2    14
  1.2294374582381491E-01 a      1065     1    16     2    15
 -1.8990299601592880E-01 a      1066     1    16     2    16
  3.6608436145501730E-02 a      1067     1    16     2    17
 -4.1751850724546535E-01 a      1068     1    16     2    18
  4.8651629836583438E-01 a      1069     1    16     2    19
 -2.0042372228630573E-01 a      1070     1    16     2    20
 -1.5079910481857542E-01 a      1071     1    16     2    21
 -4.3198091912227551E-02 a      1072     1    16     2    22
 -7.2552335271985169E-01 a      1073     1    16     2    23
  4.3344334352945402E-01 a      1074     1    16     2    24
 -4.9804416605037538E-01 a      1075     1    16     2    25
  1.0791445289355706E+00 a      1076     1    17     2     1
 -4.5554841202917579E-01 a      1077     1    17     2     2
 -3.9435187541458921E-01 a      1078     1    17     2     3
  1.6880291276669215E-01 a      1079     1    17     2     4
 -2.5130476207695002E-01 a      1080     1    17     2     5
  2.3087777615237832E+00 a      1081     1    17     2     6
  2.5895051211760056E-01 a      1082     1    17     2     7
 -9.0108873684277262E-03 a      1083     1    17     2     8
  1.2408430291669445E-02 a      1084     1    17     2     9
 -2.7164482861159844E-01 a      1085     1    17     2    10
 -9.4251728788752806E-03 a      1086     1    17     2    11
  1.5162197518480056E-01 a      1087     1    17     2    12
  1.0448353709863252E-01 a      1088     1    17     2    13
 -2.1188861957092878E-01 a      1089     1    17     2    14
  3.6933263603681071E-01 a      1090     1    17     2    15
 -1.9675981879223686E-01 a      1091     1    17     2    16
  1.3899403380874468E-03 a      1092     1    17     2    17
 -2.5388454052826936E-01 a      1093     1    17     2    18
  2.1287026230183206E-01 a      1094     1    17     2    19
  3.7957843739014929E-01 a      1095     1    17     2    20
 -1.2568465060227352E-01 a      1096     1    17     2    21
  1.9967426141533320E-01 a      1097     1    17     2    22
 -2.0104693186712241E-01 a      1098     1    17     2    23
  5.5822779587587334E-01 a      1099     1    17     2    24
  8.7079681744026777E-02 a      1100     1    17     2    25
  6.3394552065422338E-01 a      1101     1    18     2     1
 -4.9749627867761503E-01 a      1102     1    18     2     2
  7.4855929088736717E-01 a      1103     1    18     2     3
  1.5376072052036743E-01 a      1104     1    18     2     4
 -1.5279618819800261E-01 a      1105     1    18     2     5
  1.2411721904732929E+00 a      1106     1    18     2     6
  1.5943970769580676E-01 a      1107     1    18     2     7
  4.0174195027956931E-02 a      1108     1    18     2     8
  1.4706973228489245E-01 a      1109     1    18     2     9
 -6.2720084168635573E-02 a      1110     1    18     2    10
  4.7171077575418147E-01 a      1111     1    18     2    11
  1.3662744014788492E-01 a      1112     1    18     2    12
  2.7377869314111908E-01 a      1113     1    18     2    13
  4.8483561187478829E-03 a      1114     1    18     2    14
  4.6856079553339613E-01 a      1115     1    18     2    15
 -1.6637020077313303E-01 a      1116     1    18     2    16
 -3.2472318892010688E-01 a      1117     1    18     2    17
 -2.4349261861264293E-01 a      1118     1    18     2    18
  4.2869656356930214E-01 a      1119     1    18     2    19
 -4.1958678371167907E-01 a      1120     1    18     2    20
 -2.1402027745309446E-01 a      1121     1    18     2    21
  3.6780028804215137E-01 a      1122     1    18     2    22
  4.5316363159162454E-01 a      1123     1    18     2    23
  5.6621384875357272E-01 a      1124     1    18     2    24
 -4.0773492728124189E-01 a      1125     1    18     2    25
 -7.2800803806851710E-01 a      1126     1    19     2     1
  4.4064787028238200E-01 a      1127     1    19     2     2
  1.4728576885286926E-01 a      1128     1    19     2     3
  6.8236838227191204E-02 a      1129     1    19     2     4
  2.6818452643293730E-02 a      1130     1    19     2     5
 -5.3459935683851667E-01 a      1131     1    19     2     6
 -2.9547590059241774E-01 a      1132     1    19     2     7
 -7.0434678381990287E-02 a      1133     1    19     2     8
  3.1088152194517743E-01 a      1134     1    19     2     9
  3.5287511204371724E-01 a      1135     1    19     2    10
 -2.2386529659096249E-01 a      1136     1    19     2    11
  3.5396274844295961E-01 a      1137     1    19     2    12
 -6.9577192049392889E-01 a      1138     1    19     2    13
 -3.3425290038425914E-01 a      1139     1    19     2    14
 -1.8253517835829119E-01 a      1140     1    19     2    15
  4.4201247480802799E-02 a      1141     1    19     2    16
  1.4964748028347730E-01 a      1142     1    19     2    17
  7.0287989297680686E-01 a      1143     1    19     2    18
 -3.8507445496895019E-02 a      1144     1    19     2    19
 -9.1719778166021981E-01 a      1145     1    19     2    20
  5.7054007903828828E-02 a      1146     1    19     2    21
  9.4598115624840190E-02 a      1147     1    19     2    22
  7.5270992606711440E-01 a      1148     1    19     2    23
  8.5350454469640324E-01 a      1149     1    19     2    24
  6.5384215337713425E-01 a      1150     1    19     2    25
  9.2689220548029874E-02 a      1151     1    20     2     1
 -1.7503679682998933E-02 a      1152     1    20     2     2
 -2.4097548398252666E-01 a      1153     1    20     2     3
  1.4599593585055826E-02 a      1154     1    20     2     4
 -9.1042715880521360E-02 a      1155     1    20     2     5
  3.7300465462170584E-02 a      1156     1    20     2     6
 -2.6749766113068846E-01 a      1157     1    20     2     7
  1.1176772051823636E-01 a      1158     1    20     2     8
  1.7383654866167192E-01 a      1159     1    20     2     9
 -3.7314012859591322E-02 a      1160     1    20     2    10
  9.3206168484001581E-02 a      1161     1    20     2    11
 -1.9861505824026768E-03 a      1162     1    20     2    12
  1.2961328778667378E-01 a      1163     1    20     2    13
 -4.8481865388273565E-02 a      1164     1    20     2    14
 -3.6825488975833265E-01 a      1165     1    20     2    15
 -4.3998088565390010E-02 a      1166     1    20     2    16
 -2.9848978743605359E-01 a      1167     1    20     2    17
  1.7420411098501937E-01 a      1168     1    20     2    18
 -7.9709551502047088E-02 a      1169     1    20     2    19
 -3.7822481271034908E-02 a      1170     1    20     2    20
 -3.3794261625085692E-01 a      1171     1    20     2    21
  6.4015924339742347E-01 a      1172     1    20     2    22
  1.6962018835671291E-01 a      1173     1    20     2    23
 -7.4311396646656824E-01 a      1174     1    20     2    24
  1.5619332124308896E-01 a      1175     1    20     2    25
 -3.8846860930838478E-01 a      1176     1    21     2     1
 -1.9558994113379802E-01 a      1177     1    21     2     2
 -3.5262666159217221E-01 a      1178     1    21     2     3
  4.0758795600074960E-01 a      1179     1    21     2     4
  3.4280725069683587E-01 a      1180     1    21     2     5
  1.9506742843544944E-01 a      1181     1    21     2     6
 -1.3573292031090553E-01 a      1182     1    21     2     7
  6.8558353769562663E-01 a      1183     1    21     2     8
 -1.4471955106473852E-01 a      1184     1    21     2     9
 -1.4815228279597736E-01 a      1185     1    21     2    10
 -8.2061599995395113E-02 a      1186     1    21     2    11
 -8.1536516816106311E-02 a      1187     1    21     2    12
 -5.7988313023425297E-01 a      1188     1    21     2    13
 -4.4499562100405982E-02 a      1189     1    21     2    14
 -5.1418028167721209E-02 a      1190     1    21     2    15
  2.3792054210556468E-01 a      1191     1    21     2    16
 -6.3154384243671591E-02 a      1192     1    21     2    17
 -2.5844041551310409E-01 a      1193     1    21     2    18
 -6.0324316177598813E-02 a      1194     1    21     2    19
  3.3243484596142470E-01 a      1195     1    21     2    20
 -2.7268223474217174E-01 a      1196     1    21     2    21
 -7.1721278167847513E-01 a      1197     1    21     2    22
  2.5563385774107637E-02 a      1198     1    21     2    23
  2.5886263164479867E-01 a      1199     1    21     2    24
 -5.0629696867635254E-01 a      1200     1    21     2    25
  4.6466702737929862E-02 a      1201     1    22     2     1
  8.6823989097848420E-01 a      1202     1    22     2     2
  1.0020642439655778E+00 a      1203     1    22     2     3
  7.7086103759521230E-01 a      1204     1    22     2     4
  2.3224976879520298E-01 a      1205     1    22     2     5
  1.3242348145677468E-01 a      1206     1    22     2     6
 -1.0962804457565818E-01 a      1207     1    22     2     7
  2.3750585350249639E-01 a      1208     1    22     2     8
 -5.0598791544673405E-01 a      1209     1    22     2     9
 -3.8181943545551816E-01 a      1210     1    22     2    10
  1.5872150931650994E-02 a      1211     1    22     2    11
  3.2449540867666389E-02 a      1212     1    22     2    12
  1.5072135463483630E-01 a      1213     1    22     2    13
 -8.3609646243728664E-01 a      1214     1    22     2    14
  1.6436589397474433E-01 a      1215     1    22     2    15
 -2.1955970135310710E-01 a      1216     1    22     2    16
 -3.1295028093693850E-01 a      1217     1    22     2    17
 -9.4648630214448679E-02 a      1218     1    22     2    18
 -1.6673848683290030E-01 a      1219     1    22     2    19
 -2.6676956827293752E-01 a      1220     1    22     2    20
 -3.1823193861657639E-01 a      1221     1    22     2    21
  1.4597002026396364E+00 a      1222     1    22     2    22
  1.2857812293304194E-01 a      1223     1    22     2    23
  1.0338355291435677E-01 a      1224     1    22     2    24
  6.4371604345855246E-02 a      1225     1    22     2    25
  1.0601251190116930E-02 a      1226     1    23     2     1
  4.4816415923555192E-01 a      1227     1    23     2     2
  2.5424332648746262E-01 a      1228     1    23     2     3
  1.5338786519209369E-01 a      1229     1    23     2     4
 -2.4324127415765628E-02 a      1230     1    23     2     5
 -1.9997776640504242E-01 a      1231     1    23     2     6
  3.2156619215481685E-02 a      1232     1    23     2     7
 -4.9667914139196565E-02 a      1233     1    23     2     8
 -3.5943942199041301E-01 a      1234     1    23     2     9
 -2.1322423426345580E-01 a      1235     1    23     2    10
  1.4135019850122998E-01 a      1236     1    23     2    11
  9.2280432609174262E-02 a      1237     1    23     2    12
  2.0715319219764911E-01 a      1238     1    23     2    13
 -2.1647684529998470E-01 a      1239     1    23     2    14
 -5.5955043397378813E-02 a      1240     1    23     2    15
 -1.6178993086126159E-01 a      1241     1    23     2    16
 -2.0032145466033855E-02 a      1242     1    23     2    17
 -2.9983473700922780E-01 a      1243     1    23     2    18
 -3.1199659990536210E-02 a      1244     1    23     2    19
  2.7883635932357140E-02 a      1245     1    23     2    20
  5.3370276075505360E-02 a      1246     1    23     2    21
  4.4825538448749774E-01 a      1247     1    23     2    22
 -1.2535267644722969E-01 a      1248     1    23     2    23
  3.2630902515231486E-02 a      1249     1    23     2    24
 -1.6835660764228061E-01 a      1250     1    23     2    25
 -4.6838985720946252E-01 a      1251     1    24     2     1
  9.9831013554831771E-01 a      1252     1    24     2     2
  2.8614517536156042E-01 a      1253     1    24     2     3
  4.5247819179041515E-01 a      1254     1    24     2     4
  5.0223009567418275E-01 a      1255     1    24     2     5
  6.5024433296338158E-01 a      1256     1    24     2     6
 -7.6158412159190947E-02 a      1257     1    24     2     7
  4.5645143518414066E-01 a      1258     1    24     2     8
 -2.4602689970879876E-01 a      1259     1    24     2     9
  8.9641192817843807E-01 a      1260     1    24     2    10
 -1.6935252694654995E-01 a      1261     1    24     2    11
  2.3032947349286062E-01 a      1262     1    24     2    12
 -4.6860901386610143E-01 a      1263     1    24     2    13
 -5.0913029298310464E-01 a      1264     1    24     2    14
 -2.8895727150690359E-01 a      1265     1    24     2    15
  2.9547253265922868E-01 a      1266     1    24     2    16
  1.7475485747682509E-01 a      1267     1    24     2    17
  6.1559451203801463E-01 a      1268     1    24     2    18
 -3.6044037897564635E-02 a      1269     1    24     2    19
  4.1414080292716199E-01 a      1270     1    24     2    20
  2.2031744066828531E-02 a      1271     1    24     2    21
 -2.4325084238795350E-01 a      1272     1    24     2    22
 -5.3406983162840323E-02 a      1273     1    24     2    23
  4.1857714772568066E-01 a      1274     1    24     2    24
 -3.0812310549629129E-01 a      1275     1    24     2    25
 -1.8375329745739635E-01 a      1276     1    25     2     1
 -6.2334676001251499E-01 a      1277     1    25     2     2
  1.8985451357582972E-01 a      1278     1    25     2     3
 -5.2947300991815271E-01 a      1279     1    25     2     4
  3.2198446085813393E-01 a      1280     1    25     2     5
 -4.1692941746484419E-01 a      1281     1    25     2     6
  2.6686013561586652E-01 a      1282     1    25     2     7
 -2.4031697575079541E-01 a      1283     1    25     2     8
 -1.6527506671851414E-01 a      1284     1    25     2     9
  6.4697750450131300E-03 a      1285     1    25     2    10
  2.8715835639082810E-01 a      1286     1    25     2    11
  5.2990504716913793E-02 a      1287     1    25     2    12
  5.8452761564776312E-01 a      1288     1    25     2    13
  2.5414823419690236E-01 a      1289     1    25     2    14
  8.9815705579266866E-02 a      1290     1    25     2    15
 -1.0818797209304851E-02 a      1291     1    25     2    16
  5.4988994446991237E-03 a      1292     1    25     2    17
  8.9256652414807566E-03 a      1293     1    25     2    18
 -1.1397122551331193E-01 a      1294     1    25     2    19
 -2.6202266868367080E-01 a      1295     1    25     2    20
  3.4050951995440853E-01 a      1296     1    25     2    21
 -1.3584620616711648E-01 a      1297     1    25     2    22
 -4.7065542263065535E-01 a      1298     1    25     2    23
 -5.3415746466313130E-01 a      1299     1    25     2    24
 -2.5499585195001954E-02 a      1300     1    25     2    25
 -5.3879024865793955E-02 b      1301     2     1
  2.2836287275057604E-01 b      1302     2     2
  4.7218245417263233E-01 b      1303     2     3
  2.1125269842100219E-01 b      1304     2     4
 -7.5442551342784137E-01 b      1305     2     5
  1.2752769905447356E-01 b      1306     2     6
  2.0911612042588787E-01 b      1307     2     7
 -8.5432806737599301E-02 b      1308     2     8
 -4.5421678825880434E-02 b      1309     2     9
  2.5264900857107930E-02 b      1310     2    10
  1.1742174455515163E-01 b      1311     2    11
 -6.5605470088746209E-01 b      1312     2    12
  1.7893166599068472E-01 b      1313     2    13
 -1.3310064367913471E-01 b      1314     2    14
 -2.6151435757528380E-01 b      1315     2    15
  5.8640030224415818E-01 b      1316     2    16
  9.5487092537142126E-01 b      1317     2    17
 -1.8085770267355167E-01 b      1318     2    18
 -2.9056311079826824E-01 b      1319     2    19
 -2.0583339480842167E-01 b      1320     2    20
 -2.1865391191599323E-01 b      1321     2    21
  4.0871523056910775E-02 b      1322     2    22
  1.9468401527980159E-01 b      1323     2    23
  4.9768016519961517E-02 b      1324     2    24
  7.0445357646513858E-03 b      1325     2    25
 -2.1255788559907582E-01 a      1326     2     1     3     1
  1.9607184830788504E-01 a      1327     2     2     3     1
 -9.3551246395014873E-02 a      1328     2     3     3     1
  2.6209936031845160E-01 a      1329     2     4     3     1
  7.3998361764389198E-01 a      1330     2     5     3     1
  4.0356993321995997E-03 a      1331     2     6     3     1
 -5.6455550800251431E-01 a      1332     2     7     3     1
  1.7310238061114222E-01 a      1333     2     8     3     1
  2.3190736648623367E-01 a      1334     2     9     3     1
 -2.3821474096278503E-01 a      1335     2    10     3     1
  2.1442514012681288E-01 a      1336     2    11     3     1
  1.2306792096970169E+00 a      1337     2    12     3     1
  6.7854109634606918E-02 a      1338     2    13     3     1
  4.8295937534736899E-01 a      1339     2    14     3     1
  4.7834192050553376E-01 a      1340     2    15     3     1
 -7.9448687121478745E-01 a      1341     2    16     3     1
 -1.1273741666213282E+00 a      1342     2    17     3     1
  3.2265650255109296E-01 a      1343     2    18     3     1
  6.4137425269753234E-01 a      1344     2    19     3     1
  3.6182981655510754E-01 a      1345     2    20     3     1
  5.4527806056542660E-01 a      1346     2    21     3     1
 -4.6385351255299523E-02 a      1347     2    22     3     1
 -1.7458923428690420E-01 a      1348     2    23     3     1
 -1.2533246016650676E-01 a      1349     2    24     3     1
  2.7090589360669060E-01 a      1350     2    25     3     1
  1.4856330423976857E-01 b      1351     3     1
