################################################################################
# Neural network connection values (weights and biases).
################################################################################
# Col  Name       Description
################################################################################
# 1    connection Neural network connection value.
# 2    t          Connection type (a = weight, b = bias).
# 3    index      Index enumerating weights.
# 4    l_s        Starting point layer (end point layer for biases).
# 5    n_s        Starting point neuron in starting layer (end point neuron for biases).
# 6    l_e        End point layer.
# 7    n_e        End point neuron in end layer.
################################################################################
#                      1 2         3     4     5     6     7
#             connection t     index   l_s   n_s   l_e   n_e
############################################################
 -2.4443703649632176E+00 a         1     0     1     1     1
  6.8604039298514428E+00 a         2     0     1     1     2
  6.2977175405522461E+00 a         3     0     1     1     3
  7.0548312405858491E+00 a         4     0     1     1     4
  1.0538002542242044E+00 a         5     0     1     1     5
  4.1755933922194171E+00 a         6     0     1     1     6
  8.1645228949538602E+00 a         7     0     1     1     7
 -1.8215794536780658E+00 a         8     0     1     1     8
  5.0185986525882758E+00 a         9     0     1     1     9
 -3.4467539126703559E+00 a        10     0     1     1    10
 -1.0899024139146510E+01 a        11     0     1     1    11
  1.8128821812308820E+00 a        12     0     1     1    12
 -2.0491592577056572E+00 a        13     0     1     1    13
 -5.4479438175505379E+00 a        14     0     1     1    14
 -5.7561220610462080E-02 a        15     0     1     1    15
  1.1395475920433775E+00 a        16     0     1     1    16
 -9.1274496104370439E-01 a        17     0     1     1    17
 -2.0437780899645963E+00 a        18     0     1     1    18
 -3.4344076686684972E+00 a        19     0     1     1    19
  5.6638230646430436E+00 a        20     0     1     1    20
  2.5892576761706474E+00 a        21     0     1     1    21
  7.7893369051095789E+00 a        22     0     1     1    22
  1.3913057793441344E-01 a        23     0     1     1    23
  1.8893519267833903E+00 a        24     0     1     1    24
 -2.0215530127959878E+00 a        25     0     1     1    25
  6.8943428723886679E-01 a        26     0     2     1     1
 -8.4223358134948745E-01 a        27     0     2     1     2
 -8.8853646115419482E-01 a        28     0     2     1     3
 -1.7770515568696110E+00 a        29     0     2     1     4
  1.9514204265423480E+00 a        30     0     2     1     5
 -3.6547464805196722E-01 a        31     0     2     1     6
 -7.8622008404408550E-01 a        32     0     2     1     7
  3.3948556007138048E-01 a        33     0     2     1     8
 -1.1768248363570704E+00 a        34     0     2     1     9
  1.5206582460458453E+00 a        35     0     2     1    10
  2.2525636851267290E+00 a        36     0     2     1    11
 -1.9112743001497017E+00 a        37     0     2     1    12
 -1.0155560377226567E+00 a        38     0     2     1    13
  2.0781422623386554E+00 a        39     0     2     1    14
 -1.0663457751966983E+00 a        40     0     2     1    15
 -6.8150109867918629E-01 a        41     0     2     1    16
  8.4869460692071697E-01 a        42     0     2     1    17
  1.5914099189943540E+00 a        43     0     2     1    18
 -7.4305833191406445E-01 a        44     0     2     1    19
 -1.1710230614577455E+00 a        45     0     2     1    20
 -1.3087593071105699E+00 a        46     0     2     1    21
 -2.5400349195264864E+00 a        47     0     2     1    22
 -7.2189161054712148E-01 a        48     0     2     1    23
 -1.1005756888701477E+00 a        49     0     2     1    24
  9.0081296060307159E-01 a        50     0     2     1    25
  2.1640925689049015E+00 a        51     0     3     1     1
 -4.0930027247995246E+00 a        52     0     3     1     2
 -4.2060368255028306E+00 a        53     0     3     1     3
 -5.9517404158687883E+00 a        54     0     3     1     4
  1.7925415105528122E+00 a        55     0     3     1     5
 -2.5011824150032167E+00 a        56     0     3     1     6
 -5.0713243629704854E+00 a        57     0     3     1     7
  1.7087464799569432E+00 a        58     0     3     1     8
 -3.6977743120065885E+00 a        59     0     3     1     9
  4.4189214591380876E+00 a        60     0     3     1    10
  9.2662518956628528E+00 a        61     0     3     1    11
 -3.1196939633704370E+00 a        62     0     3     1    12
 -7.0084657531900107E-01 a        63     0     3     1    13
  6.1682375255695661E+00 a        64     0     3     1    14
 -1.2711289980772440E+00 a        65     0     3     1    15
 -1.9008742654691433E+00 a        66     0     3     1    16
  1.0892536586214907E+00 a        67     0     3     1    17
  2.9983546044511415E+00 a        68     0     3     1    18
  7.1624946558879354E-01 a        69     0     3     1    19
 -4.4496594803517411E+00 a        70     0     3     1    20
 -3.2840944095487097E+00 a        71     0     3     1    21
 -7.5733791812154978E+00 a        72     0     3     1    22
 -1.0381917627592758E+00 a        73     0     3     1    23
 -2.0203923489514888E+00 a        74     0     3     1    24
  2.2428850028908904E+00 a        75     0     3     1    25
  1.8382081632711738E+00 a        76     0     4     1     1
 -6.3479139342775719E+00 a        77     0     4     1     2
 -3.4902762404742740E+00 a        78     0     4     1     3
 -1.0069551162616417E+00 a        79     0     4     1     4
 -3.0270036170767454E+00 a        80     0     4     1     5
 -1.9995146920321645E+00 a        81     0     4     1     6
 -5.2188335316142958E+00 a        82     0     4     1     7
  1.1490876143017816E+00 a        83     0     4     1     8
 -6.6942243111385267E+00 a        84     0     4     1     9
 -3.6956706698627801E+00 a        85     0     4     1    10
  2.6745713206084152E+00 a        86     0     4     1    11
 -9.3415913018188723E-01 a        87     0     4     1    12
  2.6240062086882912E+00 a        88     0     4     1    13
  7.4305412436141938E-01 a        89     0     4     1    14
  3.1520775493812088E+00 a        90     0     4     1    15
 -5.6974697574036492E-01 a        91     0     4     1    16
 -1.1161016211596084E+00 a        92     0     4     1    17
 -2.1139395315301850E+00 a        93     0     4     1    18
  1.4346626362802157E+00 a        94     0     4     1    19
 -2.8259480511105552E+00 a        95     0     4     1    20
 -1.5389224527871856E+00 a        96     0     4     1    21
  2.3291287179271634E+00 a        97     0     4     1    22
 -4.8877701249105171E-01 a        98     0     4     1    23
 -5.3310549256918183E-01 a        99     0     4     1    24
 -1.0862844136449090E+00 a       100     0     4     1    25
 -1.4764994935531870E+00 a       101     0     5     1     1
  7.4363711106156245E+00 a       102     0     5     1     2
  2.6016519259277091E+00 a       103     0     5     1     3
  1.9910403793297646E+00 a       104     0     5     1     4
 -3.2992523266248690E+00 a       105     0     5     1     5
  1.3267015449182786E+00 a       106     0     5     1     6
  2.6775530317106866E+00 a       107     0     5     1     7
 -5.2367603206785052E-01 a       108     0     5     1     8
  1.0259666517196424E+01 a       109     0     5     1     9
  1.2199507543083374E+00 a       110     0     5     1    10
 -6.2880621830643566E+00 a       111     0     5     1    11
  1.7724798447073629E+00 a       112     0     5     1    12
 -1.7346934807848082E+00 a       113     0     5     1    13
 -6.1342521780736625E+00 a       114     0     5     1    14
 -7.7526366751225584E-01 a       115     0     5     1    15
  2.5605074744945444E+00 a       116     0     5     1    16
  7.2722105932860737E-01 a       117     0     5     1    17
 -7.0972605352888796E-01 a       118     0     5     1    18
  9.3325983644038824E-02 a       119     0     5     1    19
  5.1486043234003853E+00 a       120     0     5     1    20
  6.0135622535651576E+00 a       121     0     5     1    21
  2.4902515376043557E-02 a       122     0     5     1    22
  2.5222627785869284E-01 a       123     0     5     1    23
  2.7963890166562342E+00 a       124     0     5     1    24
  1.0787327625348306E+00 a       125     0     5     1    25
 -1.5733946981798350E-01 a       126     0     6     1     1
 -2.6570452841200924E+00 a       127     0     6     1     2
 -6.2283917837405012E-01 a       128     0     6     1     3
 -1.1285819429421451E+00 a       129     0     6     1     4
  3.1854413118513212E+00 a       130     0     6     1     5
  4.8641752193816312E-01 a       131     0     6     1     6
  3.7529367242508854E-01 a       132     0     6     1     7
  3.6239445902317252E-01 a       133     0     6     1     8
 -4.0438221549275681E+00 a       134     0     6     1     9
  4.0962789783474196E-01 a       135     0     6     1    10
  2.5449455881520673E+00 a       136     0     6     1    11
 -1.9662456819123195E-01 a       137     0     6     1    12
  2.6187523172947641E-01 a       138     0     6     1    13
  4.6659742074194916E+00 a       139     0     6     1    14
 -2.5761312322049534E-01 a       140     0     6     1    15
 -8.3819486449946912E-01 a       141     0     6     1    16
 -7.6964948918529996E-01 a       142     0     6     1    17
  1.6067119461229824E+00 a       143     0     6     1    18
 -2.5630256611654106E-01 a       144     0     6     1    19
 -2.7382765685143742E+00 a       145     0     6     1    20
 -3.3995940477347837E+00 a       146     0     6     1    21
 -7.0073743950874912E-01 a       147     0     6     1    22
 -2.1403243451944301E-01 a       148     0     6     1    23
 -7.8997786324867736E-01 a       149     0     6     1    24
 -4.4649898920066483E-01 a       150     0     6     1    25
  9.3214517265030369E-02 a       151     0     7     1     1
  5.5776574290910652E-01 a       152     0     7     1     2
 -2.5648341107448236E-01 a       153     0     7     1     3
  3.8597094252302300E-01 a       154     0     7     1     4
 -6.9103911910782112E-01 a       155     0     7     1     5
 -1.5367541259748121E-01 a       156     0     7     1     6
 -1.2290799514359345E-01 a       157     0     7     1     7
  6.4040917235486184E-03 a       158     0     7     1     8
  7.2388423269298485E-01 a       159     0     7     1     9
 -9.0683921379538457E-02 a       160     0     7     1    10
 -4.1825784263653637E-01 a       161     0     7     1    11
 -1.8215125435698448E-01 a       162     0     7     1    12
  9.5222976846106352E-02 a       163     0     7     1    13
 -1.1853159041613530E+00 a       164     0     7     1    14
  1.4070064170229246E-01 a       165     0     7     1    15
  2.5058552805789467E-04 a       166     0     7     1    16
  1.8070864359679772E-01 a       167     0     7     1    17
 -4.7258098785971098E-01 a       168     0     7     1    18
  3.0584092695873966E-02 a       169     0     7     1    19
  5.5567740836384216E-01 a       170     0     7     1    20
  9.4909065969907314E-01 a       171     0     7     1    21
  2.2889429272873302E-01 a       172     0     7     1    22
  3.3293333928217722E-01 a       173     0     7     1    23
 -2.4252375099616696E-01 a       174     0     7     1    24
 -5.8127201048046043E-02 a       175     0     7     1    25
  4.9865868619342439E-03 a       176     0     8     1     1
  8.4433948072469792E-03 a       177     0     8     1     2
  1.7249569493339681E-01 a       178     0     8     1     3
  3.8020530522677419E-02 a       179     0     8     1     4
  5.6164199327719898E-02 a       180     0     8     1     5
  1.0354172130151852E-01 a       181     0     8     1     6
 -2.8296789446616917E-03 a       182     0     8     1     7
 -8.7509155789764564E-02 a       183     0     8     1     8
  1.4439419465675674E-02 a       184     0     8     1     9
 -1.0477838745521617E-01 a       185     0     8     1    10
  1.9190471892439869E-02 a       186     0     8     1    11
  4.3411354198910061E-02 a       187     0     8     1    12
  2.0467493216865117E-03 a       188     0     8     1    13
  6.8135461367091537E-03 a       189     0     8     1    14
 -1.2747074629454879E-02 a       190     0     8     1    15
 -7.9668198830024614E-02 a       191     0     8     1    16
 -2.6878196311798809E-02 a       192     0     8     1    17
 -2.8290355174676835E-02 a       193     0     8     1    18
 -8.2200040176836228E-02 a       194     0     8     1    19
 -1.2763446294371412E-02 a       195     0     8     1    20
 -1.1134393258767758E-01 a       196     0     8     1    21
  8.6728437531469749E-02 a       197     0     8     1    22
 -1.1478286297501379E-01 a       198     0     8     1    23
  9.8158923195556719E-02 a       199     0     8     1    24
 -3.0367227492755181E-02 a       200     0     8     1    25
  3.2325188169274051E+00 a       201     0     9     1     1
  5.4871892034704164E+00 a       202     0     9     1     2
 -1.2744966803599975E+00 a       203     0     9     1     3
  3.5617378797837396E+00 a       204     0     9     1     4
 -6.5924975082408528E+00 a       205     0     9     1     5
  3.3397408311225014E+00 a       206     0     9     1     6
 -5.0991932741045842E-01 a       207     0     9     1     7
  8.9868475525121422E-02 a       208     0     9     1     8
  6.8452832743878140E+00 a       209     0     9     1     9
 -2.2029179397976733E+00 a       210     0     9     1    10
 -4.2246482610095475E+00 a       211     0     9     1    11
  5.9479546836744845E-01 a       212     0     9     1    12
 -7.8000305850930166E-02 a       213     0     9     1    13
 -3.4097753555870618E+00 a       214     0     9     1    14
 -2.1212802192829243E+00 a       215     0     9     1    15
  1.6842147324083574E+00 a       216     0     9     1    16
 -9.5405809157349741E-01 a       217     0     9     1    17
  3.2197295718222612E+00 a       218     0     9     1    18
  3.1768224486791237E+00 a       219     0     9     1    19
  5.2716008425310976E+00 a       220     0     9     1    20
  1.1693519956305931E+00 a       221     0     9     1    21
 -2.0404537014777859E+00 a       222     0     9     1    22
  1.4558194985272830E+00 a       223     0     9     1    23
  3.6585853238565216E+00 a       224     0     9     1    24
 -3.5037670616751484E+00 a       225     0     9     1    25
  1.1122331986448752E-01 a       226     0    10     1     1
 -1.9224188854336450E+00 a       227     0    10     1     2
 -3.2268750629644298E+00 a       228     0    10     1     3
 -4.8578119938918389E+00 a       229     0    10     1     4
  2.4092150343532229E-01 a       230     0    10     1     5
 -2.5969798590641422E+00 a       231     0    10     1     6
 -2.8318858070008925E+00 a       232     0    10     1     7
  7.1205406490339351E-01 a       233     0    10     1     8
 -1.9157571881256952E-01 a       234     0    10     1     9
  4.7485396745288160E+00 a       235     0    10     1    10
  5.0949516970036353E+00 a       236     0    10     1    11
  7.9772315931622928E-02 a       237     0    10     1    12
 -1.1814685414999643E-01 a       238     0    10     1    13
  2.7117882631475640E+00 a       239     0    10     1    14
  6.7839079490362209E-01 a       240     0    10     1    15
  1.6579875983829420E-01 a       241     0    10     1    16
  8.1723304289977061E-01 a       242     0    10     1    17
  1.2284102184012848E+00 a       243     0    10     1    18
  1.6688785403742057E+00 a       244     0    10     1    19
 -3.1049986740285869E+00 a       245     0    10     1    20
  2.3818508662827731E-01 a       246     0    10     1    21
 -4.8238423064076787E+00 a       247     0    10     1    22
 -1.5489388753291720E+00 a       248     0    10     1    23
  3.2613162427937031E-01 a       249     0    10     1    24
  3.1143983357062748E+00 a       250     0    10     1    25
 -5.4752529291334264E+00 a       251     0    11     1     1
 -3.2528644750646816E+00 a       252     0    11     1     2
  5.0437887594520161E+00 a       253     0    11     1     3
  1.1676197613487111E+00 a       254     0    11     1     4
  4.2103184347699738E+00 a       255     0    11     1     5
 -3.9186442757745721E+00 a       256     0    11     1     6
  3.1512248578281290E+00 a       257     0    11     1     7
 -9.3970588988508164E-01 a       258     0    11     1     8
 -5.0535624746986443E+00 a       259     0    11     1     9
 -1.0881369979308197E+00 a       260     0    11     1    10
  3.1447835305015420E-01 a       261     0    11     1    11
  1.8936048466344171E+00 a       262     0    11     1    12
  5.8683160675764801E-01 a       263     0    11     1    13
 -8.6355745055284061E-01 a       264     0    11     1    14
  2.9278996754548459E+00 a       265     0    11     1    15
  1.5031822100666359E+00 a       266     0    11     1    16
 -2.0817220901882436E+00 a       267     0    11     1    17
 -9.0741526392496681E+00 a       268     0    11     1    18
 -2.9644295183677385E+00 a       269     0    11     1    19
 -4.5691199042247028E+00 a       270     0    11     1    20
  1.3877214506891753E+00 a       271     0    11     1    21
  9.0877097782561034E+00 a       272     0    11     1    22
 -2.3179179113601878E+00 a       273     0    11     1    23
 -6.7270052475811926E-01 a       274     0    11     1    24
  3.9974543019017812E+00 a       275     0    11     1    25
 -3.2515360684854340E+00 a       276     0    12     1     1
 -4.0855949886729146E+00 a       277     0    12     1     2
  5.5961431176458172E+00 a       278     0    12     1     3
 -3.4117216612631593E+00 a       279     0    12     1     4
  7.7183393715420623E-01 a       280     0    12     1     5
  1.5329137110295703E+00 a       281     0    12     1     6
  1.1237411789919960E+01 a       282     0    12     1     7
  2.2322193546473668E+00 a       283     0    12     1     8
  1.6022939445254925E+00 a       284     0    12     1     9
 -3.6145143894712195E+00 a       285     0    12     1    10
 -5.6961313266802884E+00 a       286     0    12     1    11
  1.6319215420642315E+00 a       287     0    12     1    12
  3.0961820339736268E+00 a       288     0    12     1    13
 -2.8475010250121970E+00 a       289     0    12     1    14
  6.0334416876133297E+00 a       290     0    12     1    15
 -4.6886102518694672E+00 a       291     0    12     1    16
 -3.9009692118494019E+00 a       292     0    12     1    17
 -5.5150449302955248E-02 a       293     0    12     1    18
 -4.6794904926449765E-01 a       294     0    12     1    19
 -1.9826743498635402E+00 a       295     0    12     1    20
  3.4581435854886711E+00 a       296     0    12     1    21
  2.6830915407664211E+00 a       297     0    12     1    22
  8.8723612015909625E-01 a       298     0    12     1    23
 -7.0711934934224949E+00 a       299     0    12     1    24
 -1.4014063138829165E+00 a       300     0    12     1    25
  1.0640166610806812E+00 a       301     0    13     1     1
 -8.7469538496061738E-01 a       302     0    13     1     2
 -1.6653229249218657E+00 a       303     0    13     1     3
  3.9414762506095269E-01 a       304     0    13     1     4
  2.5100564610385240E-01 a       305     0    13     1     5
 -1.7705624536857376E+00 a       306     0    13     1     6
 -1.9927906980520200E+00 a       307     0    13     1     7
  1.7554598465752735E-01 a       308     0    13     1     8
 -2.0026126052902686E+00 a       309     0    13     1     9
 -3.0137802837710309E-01 a       310     0    13     1    10
  9.2596122341214382E-01 a       311     0    13     1    11
 -2.2946238940451176E+00 a       312     0    13     1    12
  8.4002439825385589E-01 a       313     0    13     1    13
 -4.6024113472654543E-01 a       314     0    13     1    14
 -8.8951346064869374E-01 a       315     0    13     1    15
  7.6965719028342783E-01 a       316     0    13     1    16
  2.2585493947108248E+00 a       317     0    13     1    17
  1.7160334629490892E+00 a       318     0    13     1    18
  1.0723675200560059E+00 a       319     0    13     1    19
  4.9707272331115004E-01 a       320     0    13     1    20
 -1.1480410779267798E+00 a       321     0    13     1    21
  1.4072602479268985E+00 a       322     0    13     1    22
  1.2011016499888867E+00 a       323     0    13     1    23
 -6.0283217824264324E-02 a       324     0    13     1    24
 -2.3392209162011626E+00 a       325     0    13     1    25
  5.5635144437271720E+00 a       326     0    14     1     1
  1.0077568518453766E+00 a       327     0    14     1     2
 -9.8839551596626762E+00 a       328     0    14     1     3
 -4.5862206373634928E-01 a       329     0    14     1     4
 -7.5256708095739722E-01 a       330     0    14     1     5
 -5.8167395938896886E+00 a       331     0    14     1     6
 -1.5871948127781966E+01 a       332     0    14     1     7
 -8.0797835666389195E-01 a       333     0    14     1     8
 -4.7826373723022026E+00 a       334     0    14     1     9
  4.1722207079651206E+00 a       335     0    14     1    10
  9.4431695714484825E+00 a       336     0    14     1    11
 -6.4048904020970436E+00 a       337     0    14     1    12
 -1.7702966724591975E+00 a       338     0    14     1    13
  3.8198068216911447E+00 a       339     0    14     1    14
 -6.3793987084102328E+00 a       340     0    14     1    15
  4.2482324681832351E+00 a       341     0    14     1    16
  8.3223110625188834E+00 a       342     0    14     1    17
  3.5431383091893167E+00 a       343     0    14     1    18
  3.7219668934309826E+00 a       344     0    14     1    19
  3.6728913337957386E-01 a       345     0    14     1    20
 -5.0745425531606232E+00 a       346     0    14     1    21
 -2.9527263252589195E+00 a       347     0    14     1    22
  7.4953629953749679E-01 a       348     0    14     1    23
  4.7741775822223023E+00 a       349     0    14     1    24
 -1.1790484359188549E+00 a       350     0    14     1    25
 -2.3606338645096776E+00 a       351     0    15     1     1
 -1.1544928781841460E-01 a       352     0    15     1     2
 -1.5943925163915689E+00 a       353     0    15     1     3
  2.8669650687777835E+00 a       354     0    15     1     4
 -1.8797068527078391E+00 a       355     0    15     1     5
  4.4737046124561743E+00 a       356     0    15     1     6
  2.9780202688497920E-01 a       357     0    15     1     7
 -2.7379458458162955E+00 a       358     0    15     1     8
 -8.3129827988946992E-01 a       359     0    15     1     9
 -5.5446190773212232E+00 a       360     0    15     1    10
 -5.1826810762198674E+00 a       361     0    15     1    11
  6.3678957880514533E+00 a       362     0    15     1    12
  1.4096249884505339E+00 a       363     0    15     1    13
  2.6143745882067795E+00 a       364     0    15     1    14
  1.6975446121270779E+00 a       365     0    15     1    15
 -4.8836469943116390E-01 a       366     0    15     1    16
 -1.3886979949193137E+00 a       367     0    15     1    17
 -5.4979421049858956E-01 a       368     0    15     1    18
 -1.9040855366122342E+00 a       369     0    15     1    19
  5.3411020626875310E+00 a       370     0    15     1    20
 -1.6169222965282044E+00 a       371     0    15     1    21
 -5.1402841971221793E+00 a       372     0    15     1    22
 -2.2502919892209778E+00 a       373     0    15     1    23
  7.5062991604024909E-01 a       374     0    15     1    24
 -2.3457898147257774E+00 a       375     0    15     1    25
  1.1840720195912553E+00 a       376     0    16     1     1
 -1.1526416003131215E+00 a       377     0    16     1     2
 -1.7842877255587626E+00 a       378     0    16     1     3
 -2.8398089922940897E+00 a       379     0    16     1     4
  1.5326369824022281E+00 a       380     0    16     1     5
 -1.3614044590125940E-01 a       381     0    16     1     6
 -9.2517771565096829E-01 a       382     0    16     1     7
 -1.5170124224893522E-01 a       383     0    16     1     8
 -5.1482057748983556E-01 a       384     0    16     1     9
  2.4085698768497088E+00 a       385     0    16     1    10
  2.0789895137082501E+00 a       386     0    16     1    11
 -3.4898025091091972E-01 a       387     0    16     1    12
 -1.5392604900901019E-01 a       388     0    16     1    13
  2.3262313101846499E+00 a       389     0    16     1    14
  6.9091068723965954E-01 a       390     0    16     1    15
 -1.7584147132322931E+00 a       391     0    16     1    16
  1.2529071671913410E+00 a       392     0    16     1    17
  2.5392860628866747E+00 a       393     0    16     1    18
  4.3609808557957530E-01 a       394     0    16     1    19
 -1.0038083443318566E+00 a       395     0    16     1    20
 -6.7148034284364300E-01 a       396     0    16     1    21
 -4.1042051281893626E+00 a       397     0    16     1    22
  3.2784304864894875E-01 a       398     0    16     1    23
 -1.6208532208896091E+00 a       399     0    16     1    24
  4.3091741727327026E-01 a       400     0    16     1    25
  2.8729542900606773E+00 a       401     0    17     1     1
  8.4927734728934590E-01 a       402     0    17     1     2
  3.6025859709824677E+00 a       403     0    17     1     3
  3.7803529114686341E-01 a       404     0    17     1     4
  1.9311880949104918E+00 a       405     0    17     1     5
 -1.7280762104210918E+00 a       406     0    17     1     6
  1.2288441813970166E+00 a       407     0    17     1     7
  2.2125877512914718E+00 a       408     0    17     1     8
 -2.7062663868101472E-01 a       409     0    17     1     9
  1.5337793810631479E+00 a       410     0    17     1    10
  2.1026503268011312E+00 a       411     0    17     1    11
 -6.6821094502511418E+00 a       412     0    17     1    12
 -1.0703489498052543E+00 a       413     0    17     1    13
 -3.9740481973081034E+00 a       414     0    17     1    14
 -3.5670001318276885E+00 a       415     0    17     1    15
 -4.0525926104065718E-01 a       416     0    17     1    16
  6.2722444011047485E-01 a       417     0    17     1    17
  1.4221689336706609E+00 a       418     0    17     1    18
  1.2442103086852456E+00 a       419     0    17     1    19
 -2.6182850196169611E+00 a       420     0    17     1    20
  4.3579519555493978E-01 a       421     0    17     1    21
  7.6812841428225331E+00 a       422     0    17     1    22
  3.9130872440395490E+00 a       423     0    17     1    23
 -1.9531496139592770E+00 a       424     0    17     1    24
 -1.4235601788521515E+00 a       425     0    17     1    25
 -6.6934714912523781E+00 a       426     0    18     1     1
  3.0630015617004567E+00 a       427     0    18     1     2
  5.4424250941679269E+00 a       428     0    18     1     3
  6.1121849822936776E+00 a       429     0    18     1     4
 -7.2092988451814255E-01 a       430     0    18     1     5
  3.1038538062657359E+00 a       431     0    18     1     6
 -4.4986680839983839E-01 a       432     0    18     1     7
  3.7161431943811607E+00 a       433     0    18     1     8
 -7.6290593232133896E-01 a       434     0    18     1     9
 -5.3841489235179232E+00 a       435     0    18     1    10
  3.2148353365580173E+00 a       436     0    18     1    11
  5.9204407643487822E-01 a       437     0    18     1    12
 -1.3023863644530616E+00 a       438     0    18     1    13
 -2.3915861214832730E+00 a       439     0    18     1    14
 -6.5745344157630026E+00 a       440     0    18     1    15
  1.5349278264270139E+00 a       441     0    18     1    16
 -4.1476334196468310E+00 a       442     0    18     1    17
 -3.8701948821237893E+00 a       443     0    18     1    18
 -7.9545587698330522E-01 a       444     0    18     1    19
 -1.8381376400377667E+00 a       445     0    18     1    20
  2.9179763256405811E+00 a       446     0    18     1    21
  1.3323231889748858E+01 a       447     0    18     1    22
  4.8915897388312608E+00 a       448     0    18     1    23
 -2.8588601508238243E-01 a       449     0    18     1    24
  5.6328206449422713E-01 a       450     0    18     1    25
 -1.2359280028377742E+00 a       451     0    19     1     1
  2.4370504496343015E+00 a       452     0    19     1     2
  2.2159854420164362E+00 a       453     0    19     1     3
  1.4501228500062795E+00 a       454     0    19     1     4
 -1.4972512102436136E-01 a       455     0    19     1     5
  2.2914201929193676E+00 a       456     0    19     1     6
  2.4248892588199467E+00 a       457     0    19     1     7
 -6.5055992389314032E-01 a       458     0    19     1     8
  2.6600620327122053E+00 a       459     0    19     1     9
  9.5109761927818270E-01 a       460     0    19     1    10
 -2.1321719983759402E+00 a       461     0    19     1    11
  3.5112234391192270E+00 a       462     0    19     1    12
 -2.7533105030953098E-01 a       463     0    19     1    13
  1.9030864881284246E-01 a       464     0    19     1    14
  1.0957393693865189E+00 a       465     0    19     1    15
 -1.2742562472528485E-01 a       466     0    19     1    16
 -2.9284646823616018E+00 a       467     0    19     1    17
 -2.4727889807077026E+00 a       468     0    19     1    18
 -2.8357257835771223E+00 a       469     0    19     1    19
  6.2144969224060898E-01 a       470     0    19     1    20
  1.2932912695682222E+00 a       471     0    19     1    21
 -1.2923557230650353E+00 a       472     0    19     1    22
 -9.6118378903015411E-01 a       473     0    19     1    23
  7.8081980857630129E-01 a       474     0    19     1    24
  2.2801772731749121E+00 a       475     0    19     1    25
  2.9668583640596888E+00 a       476     0    20     1     1
  9.2962327666171307E-01 a       477     0    20     1     2
  4.1181621658089240E-01 a       478     0    20     1     3
 -1.6634345340896077E+00 a       479     0    20     1     4
 -7.3494640657947752E-01 a       480     0    20     1     5
  2.0785049869236771E+00 a       481     0    20     1     6
  5.9571230562810049E+00 a       482     0    20     1     7
 -3.8392092468694905E+00 a       483     0    20     1     8
  4.7755748776159583E+00 a       484     0    20     1     9
  2.5292583869990666E+00 a       485     0    20     1    10
 -7.5925067330518150E+00 a       486     0    20     1    11
  6.8544060653444960E+00 a       487     0    20     1    12
  6.3706882948537968E-01 a       488     0    20     1    13
  1.1300109448707583E+00 a       489     0    20     1    14
  7.2833197610408762E+00 a       490     0    20     1    15
 -2.7046402523608175E+00 a       491     0    20     1    16
 -2.4968945869688954E+00 a       492     0    20     1    17
 -2.8214499779937015E+00 a       493     0    20     1    18
 -4.6145402259378381E+00 a       494     0    20     1    19
  3.4237656591169792E+00 a       495     0    20     1    20
 -2.9057055088357031E-01 a       496     0    20     1    21
 -1.2829554965673688E+01 a       497     0    20     1    22
 -5.7093279907889469E+00 a       498     0    20     1    23
  1.9558371264481798E+00 a       499     0    20     1    24
  3.3209588487768138E+00 a       500     0    20     1    25
  2.1438740727958621E+00 a       501     0    21     1     1
  3.3394996873714136E+00 a       502     0    21     1     2
  9.6402167849222531E-01 a       503     0    21     1     3
  4.2235888670346977E+00 a       504     0    21     1     4
  6.6049711629609664E+00 a       505     0    21     1     5
  3.7954122259492689E+00 a       506     0    21     1     6
  7.8158539924561976E-01 a       507     0    21     1     7
 -9.5903775420985227E+00 a       508     0    21     1     8
  4.2226114038214657E+00 a       509     0    21     1     9
  5.4872332497957723E+00 a       510     0    21     1    10
 -3.7729294681659429E+00 a       511     0    21     1    11
 -4.5284677051442401E-01 a       512     0    21     1    12
 -9.2073152389604829E-01 a       513     0    21     1    13
 -1.7057772460580669E+00 a       514     0    21     1    14
  3.7330107352484201E+00 a       515     0    21     1    15
  6.0564087039803454E+00 a       516     0    21     1    16
  1.0458729040111317E+01 a       517     0    21     1    17
  1.4151138541184711E+00 a       518     0    21     1    18
 -2.9346345142667296E+00 a       519     0    21     1    19
  3.7312120640146604E+00 a       520     0    21     1    20
  1.8762085797710069E+00 a       521     0    21     1    21
 -7.5350621731304219E+00 a       522     0    21     1    22
 -1.1507817194062517E+00 a       523     0    21     1    23
  6.8244057250996537E+00 a       524     0    21     1    24
 -4.1144488744939709E+00 a       525     0    21     1    25
  2.0259198144284039E+00 a       526     0    22     1     1
 -1.3679339725597712E+00 a       527     0    22     1     2
 -3.3364862184681390E+00 a       528     0    22     1     3
 -3.8911095772424096E+00 a       529     0    22     1     4
  1.4180750259538364E+00 a       530     0    22     1     5
 -1.7112579596542257E+00 a       531     0    22     1     6
 -1.3543262574721977E+00 a       532     0    22     1     7
 -7.6223908630594028E-01 a       533     0    22     1     8
 -2.7433815570841534E-02 a       534     0    22     1     9
  4.8076803569279658E+00 a       535     0    22     1    10
  1.7691563879929257E+00 a       536     0    22     1    11
 -1.4780438844970862E+00 a       537     0    22     1    12
  6.7795525832606604E-02 a       538     0    22     1    13
  2.0072845952160483E+00 a       539     0    22     1    14
  1.3476786354556960E+00 a       540     0    22     1    15
  3.9365660029189575E-01 a       541     0    22     1    16
  3.0063106077163289E+00 a       542     0    22     1    17
  3.1666431635045424E+00 a       543     0    22     1    18
  1.6579884100836568E+00 a       544     0    22     1    19
 -1.6790647877744691E+00 a       545     0    22     1    20
 -9.4922810906911556E-02 a       546     0    22     1    21
 -4.4137148844935679E+00 a       547     0    22     1    22
 -6.4212558392416297E-01 a       548     0    22     1    23
 -9.9882643599377419E-01 a       549     0    22     1    24
  8.3568266536314151E-01 a       550     0    22     1    25
 -2.6163503120119884E+00 a       551     0    23     1     1
 -4.7019805169433129E+00 a       552     0    23     1     2
 -1.0273141159478431E-01 a       553     0    23     1     3
 -2.7770780984213768E+00 a       554     0    23     1     4
 -6.7753635736292965E+00 a       555     0    23     1     5
 -4.5400753304401711E+00 a       556     0    23     1     6
 -1.3898609903964056E+00 a       557     0    23     1     7
  9.8058100418723910E+00 a       558     0    23     1     8
 -6.0976264064757109E+00 a       559     0    23     1     9
 -8.6294549561773213E+00 a       560     0    23     1    10
  4.0291001532503961E+00 a       561     0    23     1    11
 -2.1017875743853005E+00 a       562     0    23     1    12
  9.1084536108119163E-01 a       563     0    23     1    13
  1.0735835164282211E-01 a       564     0    23     1    14
 -5.2321825044641601E+00 a       565     0    23     1    15
 -5.6853570237923137E+00 a       566     0    23     1    16
 -8.5134221357983844E+00 a       567     0    23     1    17
 -2.8264301043092194E-01 a       568     0    23     1    18
  4.9704054213472038E+00 a       569     0    23     1    19
 -3.0306366519986074E+00 a       570     0    23     1    20
 -3.2983197306685237E+00 a       571     0    23     1    21
  1.1420819713810705E+01 a       572     0    23     1    22
  2.3953070631639393E+00 a       573     0    23     1    23
 -6.8797443417771662E+00 a       574     0    23     1    24
  1.4880012156856590E+00 a       575     0    23     1    25
  1.4059386731089452E+00 a       576     0    24     1     1
 -6.6663850368270794E-01 a       577     0    24     1     2
  1.3056684287902272E+00 a       578     0    24     1     3
  1.1014464540039064E+00 a       579     0    24     1     4
 -1.4529386337861674E+00 a       580     0    24     1     5
  9.2220201174307437E-01 a       581     0    24     1     6
 -4.3428663421092040E+00 a       582     0    24     1     7
 -4.4395315519505041E-01 a       583     0    24     1     8
  6.3057749117605710E-01 a       584     0    24     1     9
 -3.4758977942497706E+00 a       585     0    24     1    10
  8.6717893007675939E-01 a       586     0    24     1    11
 -1.0946775311669449E-01 a       587     0    24     1    12
  5.7595053162401555E-01 a       588     0    24     1    13
 -1.2428737422387399E+00 a       589     0    24     1    14
 -1.0414526500868944E+00 a       590     0    24     1    15
  7.7889343225562191E-01 a       591     0    24     1    16
  3.6934097227470519E+00 a       592     0    24     1    17
 -2.8003400318635330E+00 a       593     0    24     1    18
  2.2416125939846196E-02 a       594     0    24     1    19
 -1.1737602766236990E+00 a       595     0    24     1    20
 -2.8111017366236157E+00 a       596     0    24     1    21
 -1.2086512865724492E+00 a       597     0    24     1    22
  1.4841873164623567E-01 a       598     0    24     1    23
  2.2573231160446894E+00 a       599     0    24     1    24
 -1.3734623246154700E+00 a       600     0    24     1    25
 -2.4886339604860006E+00 a       601     0    25     1     1
  7.3975065043918675E-01 a       602     0    25     1     2
 -2.1960761895200065E+00 a       603     0    25     1     3
 -1.8569487170945811E+00 a       604     0    25     1     4
  1.7002058689729094E+00 a       605     0    25     1     5
 -1.7785263985130177E+00 a       606     0    25     1     6
  7.6078554744217026E+00 a       607     0    25     1     7
  1.2277760453317388E-01 a       608     0    25     1     8
 -1.2336973208195365E+00 a       609     0    25     1     9
  6.0903004174468185E+00 a       610     0    25     1    10
 -1.3954893375140494E+00 a       611     0    25     1    11
  3.2102208616717781E-01 a       612     0    25     1    12
 -1.0398438159136825E+00 a       613     0    25     1    13
  1.7055806815978041E+00 a       614     0    25     1    14
  2.0180431113548440E+00 a       615     0    25     1    15
 -1.0298234286447721E+00 a       616     0    25     1    16
 -6.4741810915058018E+00 a       617     0    25     1    17
  4.8759884494471066E+00 a       618     0    25     1    18
 -1.1040683846011352E+00 a       619     0    25     1    19
  2.8771187665276630E+00 a       620     0    25     1    20
  5.0712125311823497E+00 a       621     0    25     1    21
  2.2949231983843905E+00 a       622     0    25     1    22
 -5.3618119893370342E-01 a       623     0    25     1    23
 -2.8626499588409260E+00 a       624     0    25     1    24
  2.9195574735018739E+00 a       625     0    25     1    25
  1.1290405739565079E+00 a       626     0    26     1     1
 -1.9661429073278217E-01 a       627     0    26     1     2
  9.6423086378035971E-01 a       628     0    26     1     3
  7.4936474838692069E-01 a       629     0    26     1     4
 -4.3224847544491973E-01 a       630     0    26     1     5
  8.0563884868056745E-01 a       631     0    26     1     6
 -3.3271247396144066E+00 a       632     0    26     1     7
  2.2369501834783548E-01 a       633     0    26     1     8
  5.7606090755407358E-01 a       634     0    26     1     9
 -2.7164191489717044E+00 a       635     0    26     1    10
  5.2481132686408105E-01 a       636     0    26     1    11
 -1.4290086932402934E-01 a       637     0    26     1    12
  4.7481970982700178E-01 a       638     0    26     1    13
 -5.8634582611938602E-01 a       639     0    26     1    14
 -9.7630187578140182E-01 a       640     0    26     1    15
  3.5046538521216014E-01 a       641     0    26     1    16
  2.8892817096213816E+00 a       642     0    26     1    17
 -2.1789486911116391E+00 a       643     0    26     1    18
  9.9941306897389115E-01 a       644     0    26     1    19
 -1.6699129807533204E+00 a       645     0    26     1    20
 -2.3155859409284756E+00 a       646     0    26     1    21
 -1.0987641626540188E+00 a       647     0    26     1    22
  3.3753312287692505E-01 a       648     0    26     1    23
  9.7115453107068561E-01 a       649     0    26     1    24
 -1.4769382052617692E+00 a       650     0    26     1    25
  3.0375354959807149E-01 b       651     1     1
  1.9132668740406680E-01 b       652     1     2
 -3.3072834361756126E-01 b       653     1     3
  1.3817594638964903E-01 b       654     1     4
  1.4094987677034554E-01 b       655     1     5
  3.6224626051596293E-01 b       656     1     6
  3.3732551507092023E-01 b       657     1     7
 -2.3180940488545648E-01 b       658     1     8
  2.4427655183737737E-01 b       659     1     9
  3.0168875310899718E-01 b       660     1    10
  5.1202738879940679E-01 b       661     1    11
  1.6067148136179885E-01 b       662     1    12
  1.7152671549675597E-01 b       663     1    13
 -1.6536342990183253E-01 b       664     1    14
  4.1125714771313389E-02 b       665     1    15
  1.7295509968029282E-01 b       666     1    16
 -1.5454290042915728E-01 b       667     1    17
 -2.1321450301604433E-01 b       668     1    18
  1.5910497026834480E-01 b       669     1    19
 -2.0220575301053154E-01 b       670     1    20
  2.4667959392194386E-01 b       671     1    21
 -2.8776970219218507E-02 b       672     1    22
 -6.3651041691919111E-02 b       673     1    23
  5.8759230343185349E-03 b       674     1    24
  8.7855571938975155E-02 b       675     1    25
 -3.5686764952897132E-01 a       676     1     1     2     1
  3.8902067393186873E-01 a       677     1     1     2     2
 -1.7083448650351554E-01 a       678     1     1     2     3
 -1.6030451268028775E-01 a       679     1     1     2     4
 -3.9612783289239097E-02 a       680     1     1     2     5
 -2.4647556227896539E-01 a       681     1     1     2     6
 -2.5382944511164146E-01 a       682     1     1     2     7
 -1.3141383160705895E+00 a       683     1     1     2     8
  5.2278583619520802E-01 a       684     1     1     2     9
 -1.4880890501573338E-01 a       685     1     1     2    10
  1.7721231963892042E-01 a       686     1     1     2    11
  1.2149003712438491E-01 a       687     1     1     2    12
 -3.3276394542757559E-01 a       688     1     1     2    13
 -1.2627650712314306E-01 a       689     1     1     2    14
 -5.3377017064884780E-01 a       690     1     1     2    15
  1.9703259304733303E-01 a       691     1     1     2    16
  1.1312225468613218E-01 a       692     1     1     2    17
 -1.5508662668042181E-01 a       693     1     1     2    18
 -3.6064921751838613E-01 a       694     1     1     2    19
  2.4455380678648267E-01 a       695     1     1     2    20
  2.1749151183078580E-01 a       696     1     1     2    21
  4.0598361929646620E-01 a       697     1     1     2    22
 -3.8622573745501282E-01 a       698     1     1     2    23
  2.4627414577819315E-01 a       699     1     1     2    24
 -3.1312769525379464E-01 a       700     1     1     2    25
  1.1373847052423095E-02 a       701     1     2     2     1
 -1.7437888020642767E-01 a       702     1     2     2     2
 -1.8383656252713909E-01 a       703     1     2     2     3
  2.6857035722852879E-01 a       704     1     2     2     4
 -1.6323511081228365E-01 a       705     1     2     2     5
  3.6460378577948316E-01 a       706     1     2     2     6
 -1.5483449541436839E-01 a       707     1     2     2     7
  9.3238186731201078E-01 a       708     1     2     2     8
  7.5952399539446092E-01 a       709     1     2     2     9
 -6.0194646888024006E-02 a       710     1     2     2    10
 -1.5240563891132317E-01 a       711     1     2     2    11
  5.7264906090285894E-02 a       712     1     2     2    12
 -1.1064611710751948E-01 a       713     1     2     2    13
  2.7888123238082269E-01 a       714     1     2     2    14
 -2.7396764345464664E-01 a       715     1     2     2    15
  2.6797419933649969E-01 a       716     1     2     2    16
  7.5052631140441152E-03 a       717     1     2     2    17
 -8.1400938852718166E-02 a       718     1     2     2    18
  3.8156460382451705E-02 a       719     1     2     2    19
 -9.5827598640220890E-01 a       720     1     2     2    20
  3.2995415971895742E-01 a       721     1     2     2    21
 -3.3712082897900447E-01 a       722     1     2     2    22
 -1.3054717822244424E-01 a       723     1     2     2    23
  7.3147680306567125E-02 a       724     1     2     2    24
  4.4199126306171971E-01 a       725     1     2     2    25
  1.9033939716521317E-01 a       726     1     3     2     1
 -7.4233418458117734E-02 a       727     1     3     2     2
 -1.2827260764410076E-01 a       728     1     3     2     3
  2.7937945597680647E-01 a       729     1     3     2     4
 -1.6074174453357445E-01 a       730     1     3     2     5
  5.4321480912757680E-01 a       731     1     3     2     6
  5.1597383678252007E-02 a       732     1     3     2     7
  7.8996918430248286E-01 a       733     1     3     2     8
  4.3048394541816576E-01 a       734     1     3     2     9
  3.0533403166578238E-01 a       735     1     3     2    10
  3.5588804157500958E-02 a       736     1     3     2    11
  3.4267632691249807E-02 a       737     1     3     2    12
 -7.7548431207652258E-01 a       738     1     3     2    13
 -1.5473936518899253E-01 a       739     1     3     2    14
  4.3062952310172525E-01 a       740     1     3     2    15
 -3.7886937503024365E-01 a       741     1     3     2    16
 -1.0516720461214750E+00 a       742     1     3     2    17
  6.6822414742064226E-02 a       743     1     3     2    18
 -2.3514355191766897E-01 a       744     1     3     2    19
 -9.4219206982087567E-01 a       745     1     3     2    20
  6.0366034248631135E-02 a       746     1     3     2    21
  9.3951901180203898E-02 a       747     1     3     2    22
  7.6085250370205382E-01 a       748     1     3     2    23
 -4.0138185394661463E-01 a       749     1     3     2    24
  2.7265962633479568E-01 a       750     1     3     2    25
  1.0170930100462444E-01 a       751     1     4     2     1
  1.7093452348279042E-01 a       752     1     4     2     2
  3.6415366990724509E-03 a       753     1     4     2     3
 -2.2682638158676499E-01 a       754     1     4     2     4
  5.5892649197262123E-01 a       755     1     4     2     5
  1.7237930281155794E-01 a       756     1     4     2     6
 -2.9551509098232376E-01 a       757     1     4     2     7
  1.7448720802795070E-01 a       758     1     4     2     8
  2.0682093154573022E-01 a       759     1     4     2     9
 -8.7067562002479282E-02 a       760     1     4     2    10
 -4.4925362859939283E-01 a       761     1     4     2    11
 -4.1847399971458726E-01 a       762     1     4     2    12
  1.2949183492851968E-01 a       763     1     4     2    13
  4.2331579727848678E-01 a       764     1     4     2    14
 -2.5283952370610302E-01 a       765     1     4     2    15
  5.7072688331765975E-01 a       766     1     4     2    16
  5.1408290179219318E-01 a       767     1     4     2    17
 -2.9107444957850992E-01 a       768     1     4     2    18
  2.9378052576878688E-01 a       769     1     4     2    19
 -3.6513598555823013E-01 a       770     1     4     2    20
  1.5572329271712052E-01 a       771     1     4     2    21
  8.6570584024491914E-01 a       772     1     4     2    22
  2.9854692505383557E-01 a       773     1     4     2    23
  1.4758116357878853E-01 a       774     1     4     2    24
  5.6725058298552022E-01 a       775     1     4     2    25
 -1.3860034711001229E-01 a       776     1     5     2     1
  1.7033778866885926E-01 a       777     1     5     2     2
  9.6895702113711416E-02 a       778     1     5     2     3
  2.0225871259652362E-02 a       779     1     5     2     4
  3.3060346093511161E-01 a       780     1     5     2     5
  6.8828704412548583E-02 a       781     1     5     2     6
 -1.2196926518543129E-01 a       782     1     5     2     7
  1.1443566547840234E+00 a       783     1     5     2     8
  1.0857537734774558E+00 a       784     1     5     2     9
 -1.1261072894480947E-01 a       785     1     5     2    10
 -3.2260002009276201E-01 a       786     1     5     2    11
 -4.1490002570804096E-02 a       787     1     5     2    12
 -2.9093697264314727E-01 a       788     1     5     2    13
 -4.4373726794709789E-01 a       789     1     5     2    14
 -3.2834492284596467E-01 a       790     1     5     2    15
  6.2990597736692167E-01 a       791     1     5     2    16
 -4.3481983260375001E-01 a       792     1     5     2    17
  2.4366965868460524E-01 a       793     1     5     2    18
  1.5961903575205924E-01 a       794     1     5     2    19
  2.7103886933529442E-01 a       795     1     5     2    20
  3.8271811183630494E-01 a       796     1     5     2    21
  7.2138009743259804E-03 a       797     1     5     2    22
 -3.0289709171060891E-01 a       798     1     5     2    23
  8.0139265906019741E-01 a       799     1     5     2    24
  7.5283046165837797E-01 a       800     1     5     2    25
 -3.0431527090061000E-01 a       801     1     6     2     1
  6.9318936413760288E-02 a       802     1     6     2     2
 -1.2435699232751433E-01 a       803     1     6     2     3
  2.4017448537423020E-01 a       804     1     6     2     4
 -7.7994604101537954E-02 a       805     1     6     2     5
  4.1416067100626558E-01 a       806     1     6     2     6
  5.6630864617005428E-01 a       807     1     6     2     7
 -8.8397703525660609E-01 a       808     1     6     2     8
 -8.9129667016809730E-02 a       809     1     6     2     9
  2.5237191002003434E-01 a       810     1     6     2    10
  2.8935941808372573E-01 a       811     1     6     2    11
  6.8156936867940039E-03 a       812     1     6     2    12
  2.7950930580556171E-01 a       813     1     6     2    13
  6.5241373913693823E-01 a       814     1     6     2    14
 -1.1733251623998234E-01 a       815     1     6     2    15
  6.9708318337958777E-02 a       816     1     6     2    16
  5.8417924699666812E-01 a       817     1     6     2    17
 -1.8935082931784331E-01 a       818     1     6     2    18
  6.0677424420290127E-01 a       819     1     6     2    19
  5.0853893257704919E-01 a       820     1     6     2    20
 -6.7014679613799943E-01 a       821     1     6     2    21
  2.7600878731441914E-01 a       822     1     6     2    22
  6.9505194693007610E-01 a       823     1     6     2    23
  7.2226764000851496E-01 a       824     1     6     2    24
  7.3734213203674992E-01 a       825     1     6     2    25
 -3.8826536602323358E-01 a       826     1     7     2     1
 -2.2852989425107351E-01 a       827     1     7     2     2
  3.4677181390573641E-01 a       828     1     7     2     3
 -5.5571735885523478E-02 a       829     1     7     2     4
  8.6691197679847107E-02 a       830     1     7     2     5
  8.1018901524313236E-02 a       831     1     7     2     6
 -2.2538318714585032E-01 a       832     1     7     2     7
  9.2566048263268774E-01 a       833     1     7     2     8
  6.4550461582591778E-01 a       834     1     7     2     9
 -7.1906496799836003E-02 a       835     1     7     2    10
 -1.2843844698459045E-01 a       836     1     7     2    11
 -2.9523605430072836E-01 a       837     1     7     2    12
 -5.3236903443968631E-01 a       838     1     7     2    13
 -3.0979711279651410E-02 a       839     1     7     2    14
  7.1758110891747950E-01 a       840     1     7     2    15
  1.7746068811990956E-01 a       841     1     7     2    16
 -8.2754929820425249E-01 a       842     1     7     2    17
 -5.4472924188623623E-02 a       843     1     7     2    18
  1.0879865772924187E-01 a       844     1     7     2    19
 -1.0071659369956358E+00 a       845     1     7     2    20
  3.5062060590926736E-01 a       846     1     7     2    21
 -2.9724208464175800E-01 a       847     1     7     2    22
 -9.7432533522614850E-01 a       848     1     7     2    23
  7.1548747799235021E-02 a       849     1     7     2    24
 -3.8874365944814637E-02 a       850     1     7     2    25
  7.9377429776125275E-02 a       851     1     8     2     1
  1.5875801881662507E-01 a       852     1     8     2     2
 -8.5880367835538055E-02 a       853     1     8     2     3
 -5.9178186129566634E-01 a       854     1     8     2     4
  2.9095338908234430E-01 a       855     1     8     2     5
 -1.3126846056040031E-01 a       856     1     8     2     6
 -6.1076369577068544E-02 a       857     1     8     2     7
 -7.0648025104374057E-01 a       858     1     8     2     8
  6.8458628082061809E-02 a       859     1     8     2     9
 -2.4494052255427234E-01 a       860     1     8     2    10
  6.4566424368964759E-02 a       861     1     8     2    11
 -4.5586957741868966E-01 a       862     1     8     2    12
 -1.3529704971100998E-01 a       863     1     8     2    13
  1.5796900794366804E-02 a       864     1     8     2    14
  1.8036406093396540E-01 a       865     1     8     2    15
 -9.4650498947374651E-01 a       866     1     8     2    16
 -6.4087430393509326E-01 a       867     1     8     2    17
 -5.4824750067616190E-01 a       868     1     8     2    18
  1.1389705523718757E-01 a       869     1     8     2    19
 -3.6847438856054154E-01 a       870     1     8     2    20
 -3.2814428886620051E-01 a       871     1     8     2    21
  5.7601913949966677E-01 a       872     1     8     2    22
 -6.8540904051287954E-01 a       873     1     8     2    23
 -9.6518880429773329E-02 a       874     1     8     2    24
  7.2290498340212672E-01 a       875     1     8     2    25
 -3.2958522620471659E-01 a       876     1     9     2     1
 -1.6681266927231261E-02 a       877     1     9     2     2
 -8.3295702563838420E-02 a       878     1     9     2     3
 -1.8248770499810460E-01 a       879     1     9     2     4
 -3.1505377619450653E-01 a       880     1     9     2     5
 -4.1869549677744095E-01 a       881     1     9     2     6
  7.4106002503127566E-01 a       882     1     9     2     7
 -5.3081794187757381E-01 a       883     1     9     2     8
 -3.0135605347968338E-02 a       884     1     9     2     9
 -1.5071899778469933E-01 a       885     1     9     2    10
 -4.7898411906734752E-02 a       886     1     9     2    11
  1.2793747734866395E-02 a       887     1     9     2    12
  5.2023638460816278E-02 a       888     1     9     2    13
 -1.2569936237653365E-01 a       889     1     9     2    14
  1.1648590972038059E-01 a       890     1     9     2    15
  4.9953098432610216E-01 a       891     1     9     2    16
  6.5220921804549348E-01 a       892     1     9     2    17
  8.2300660212101195E-02 a       893     1     9     2    18
 -6.1505505461324828E-01 a       894     1     9     2    19
  3.7421970992805159E-01 a       895     1     9     2    20
  1.9297465836506025E-01 a       896     1     9     2    21
  2.5155935957623882E-01 a       897     1     9     2    22
 -6.4236035234833977E-01 a       898     1     9     2    23
 -1.4531811175013343E-01 a       899     1     9     2    24
 -1.3474292148664482E+00 a       900     1     9     2    25
 -9.9038354800011955E-02 a       901     1    10     2     1
 -5.8582283797784874E-03 a       902     1    10     2     2
 -8.3651249733296101E-02 a       903     1    10     2     3
 -3.9913518193188113E-02 a       904     1    10     2     4
  1.4073938888879936E-01 a       905     1    10     2     5
 -5.9609171464471311E-01 a       906     1    10     2     6
 -8.1302420852828725E-02 a       907     1    10     2     7
  7.5082942157121257E-01 a       908     1    10     2     8
 -1.6010161803961545E-01 a       909     1    10     2     9
 -1.0342028574795282E-02 a       910     1    10     2    10
 -3.8634045034743880E-01 a       911     1    10     2    11
  1.2068894397619956E-01 a       912     1    10     2    12
 -9.1649452302280700E-03 a       913     1    10     2    13
  6.0338011029529515E-01 a       914     1    10     2    14
 -2.0012071129008879E-01 a       915     1    10     2    15
 -1.1650508089049498E-01 a       916     1    10     2    16
 -2.4652775399436691E-01 a       917     1    10     2    17
 -4.8849532242333210E-02 a       918     1    10     2    18
 -2.7417130644830656E-01 a       919     1    10     2    19
 -8.4599964574631781E-01 a       920     1    10     2    20
 -1.2468176185685236E-01 a       921     1    10     2    21
 -1.4007970664229583E-01 a       922     1    10     2    22
  1.0867173432638082E+00 a       923     1    10     2    23
 -1.9777521220703229E-01 a       924     1    10     2    24
  4.2699639169513864E-01 a       925     1    10     2    25
 -1.8571083670645036E-01 a       926     1    11     2     1
  2.0212520313147550E-01 a       927     1    11     2     2
  3.9950513591526027E-01 a       928     1    11     2     3
 -5.2875493019637579E-02 a       929     1    11     2     4
  2.4347860808580732E-01 a       930     1    11     2     5
 -2.8496982955686451E-02 a       931     1    11     2     6
 -3.7815782790641994E-01 a       932     1    11     2     7
 -1.1064880716985266E+00 a       933     1    11     2     8
 -3.1850281694846183E-01 a       934     1    11     2     9
 -4.5419768730258525E-01 a       935     1    11     2    10
  1.1061233072866196E-01 a       936     1    11     2    11
 -8.0190963088424036E-02 a       937     1    11     2    12
 -2.1515532663901779E-01 a       938     1    11     2    13
 -3.9217972490008463E-01 a       939     1    11     2    14
  1.8255412953601249E-01 a       940     1    11     2    15
 -6.8142765276374007E-01 a       941     1    11     2    16
 -2.4981159947673176E-01 a       942     1    11     2    17
  2.3893940602584685E-01 a       943     1    11     2    18
 -4.8608834238038490E-01 a       944     1    11     2    19
  8.8505858248824412E-03 a       945     1    11     2    20
  1.4517494898274833E-01 a       946     1    11     2    21
  5.2343637259742581E-01 a       947     1    11     2    22
  2.6035434263956414E-01 a       948     1    11     2    23
 -1.1704753761585476E+00 a       949     1    11     2    24
 -2.0577261781888592E-01 a       950     1    11     2    25
  2.2969839605517822E-01 a       951     1    12     2     1
 -1.5441943417570378E-01 a       952     1    12     2     2
 -3.0247076659019384E-01 a       953     1    12     2     3
  5.0124898152651420E-01 a       954     1    12     2     4
 -3.1036836036018056E-01 a       955     1    12     2     5
  1.3396695491255639E-01 a       956     1    12     2     6
 -3.7460605325901630E-01 a       957     1    12     2     7
  4.9472938390883253E-01 a       958     1    12     2     8
 -1.5418174741044210E-01 a       959     1    12     2     9
 -2.0884613231168028E-01 a       960     1    12     2    10
 -4.3481086029779133E-02 a       961     1    12     2    11
 -2.2642304998641907E-01 a       962     1    12     2    12
  2.2242312880056797E-01 a       963     1    12     2    13
  7.9647581374814591E-01 a       964     1    12     2    14
  3.4505206946543819E-02 a       965     1    12     2    15
  1.9674748445474671E-01 a       966     1    12     2    16
  1.5832794270744921E+00 a       967     1    12     2    17
  7.8670237726878894E-02 a       968     1    12     2    18
 -1.1920828453388302E-01 a       969     1    12     2    19
  1.7877654165095133E-01 a       970     1    12     2    20
  7.7817776494156699E-01 a       971     1    12     2    21
 -1.7652471123860172E-01 a       972     1    12     2    22
 -3.7843554702894425E-02 a       973     1    12     2    23
 -1.1092571671697913E+00 a       974     1    12     2    24
  4.2893135480316391E-01 a       975     1    12     2    25
 -2.6458158078537047E-01 a       976     1    13     2     1
  2.0068060982912325E-01 a       977     1    13     2     2
 -2.5416781680377609E-01 a       978     1    13     2     3
 -3.9264151083819776E-01 a       979     1    13     2     4
 -1.1238514964329907E-01 a       980     1    13     2     5
 -3.9929264008115534E-01 a       981     1    13     2     6
 -9.5824380375171236E-01 a       982     1    13     2     7
 -1.3843329919381835E+00 a       983     1    13     2     8
 -4.6955844027567079E-01 a       984     1    13     2     9
  8.7343482989284060E-01 a       985     1    13     2    10
  3.9511534460674136E-01 a       986     1    13     2    11
  5.2217194492097840E-01 a       987     1    13     2    12
 -1.0562156542377874E+00 a       988     1    13     2    13
 -2.1293955029409539E-01 a       989     1    13     2    14
 -5.5961435278900191E-02 a       990     1    13     2    15
 -2.0926226686226296E-01 a       991     1    13     2    16
 -1.8647007535967663E+00 a       992     1    13     2    17
 -4.5655159734607426E-01 a       993     1    13     2    18
  4.8320457587739241E-01 a       994     1    13     2    19
 -7.2823279636684279E-02 a       995     1    13     2    20
 -1.2550666346889530E-01 a       996     1    13     2    21
 -6.0458583097344010E-01 a       997     1    13     2    22
  9.8848653331493919E-01 a       998     1    13     2    23
  5.2821076090325436E-01 a       999     1    13     2    24
  1.5432134219992535E-01 a      1000     1    13     2    25
  1.6971530301936968E-01 a      1001     1    14     2     1
  3.5534658960222613E-02 a      1002     1    14     2     2
 -1.6320393170598312E-02 a      1003     1    14     2     3
  1.2943274010624853E-01 a      1004     1    14     2     4
  4.6408821828163205E-01 a      1005     1    14     2     5
  1.8220561313867784E-01 a      1006     1    14     2     6
  2.2526784832663646E-01 a      1007     1    14     2     7
 -3.4984395664866763E-01 a      1008     1    14     2     8
 -7.1997593167820229E-01 a      1009     1    14     2     9
  3.1123498792881599E-01 a      1010     1    14     2    10
 -6.9136253351691523E-01 a      1011     1    14     2    11
  1.3219331905064644E-01 a      1012     1    14     2    12
 -7.4656270985213588E-02 a      1013     1    14     2    13
  6.4054529275166883E-01 a      1014     1    14     2    14
  8.1053945246219616E-01 a      1015     1    14     2    15
  9.7323145451122284E-01 a      1016     1    14     2    16
  1.8791161388858996E-01 a      1017     1    14     2    17
 -1.6277885512139590E-02 a      1018     1    14     2    18
  1.0461827877794413E-02 a      1019     1    14     2    19
 -9.8325039407069281E-01 a      1020     1    14     2    20
 -5.1163750680127421E-02 a      1021     1    14     2    21
  2.7480160645424340E-01 a      1022     1    14     2    22
  5.8520944062130753E-01 a      1023     1    14     2    23
 -4.8868066823972828E-01 a      1024     1    14     2    24
 -2.4368055295440122E-01 a      1025     1    14     2    25
 -6.5633938211934340E-01 a      1026     1    15     2     1
  4.1242490761351482E-02 a      1027     1    15     2     2
 -2.3629490395341746E-01 a      1028     1    15     2     3
  1.9742236200121280E-01 a      1029     1    15     2     4
  8.5057418659293615E-02 a      1030     1    15     2     5
 -2.3131145519976307E-01 a      1031     1    15     2     6
  1.3879502837471705E-01 a      1032     1    15     2     7
 -1.2466970958541497E-01 a      1033     1    15     2     8
  5.5224190542455709E-01 a      1034     1    15     2     9
 -3.9244226793608539E-01 a      1035     1    15     2    10
 -1.0111837012023667E-01 a      1036     1    15     2    11
  1.0615268880828245E-01 a      1037     1    15     2    12
 -2.1627055426065031E-01 a      1038     1    15     2    13
  8.5537447706715869E-02 a      1039     1    15     2    14
 -8.5472894037486424E-02 a      1040     1    15     2    15
  1.0871452608978292E-01 a      1041     1    15     2    16
  4.9929567461802693E-01 a      1042     1    15     2    17
  2.2085507397437679E-01 a      1043     1    15     2    18
 -8.5887956717488390E-02 a      1044     1    15     2    19
  5.6256243923812366E-01 a      1045     1    15     2    20
  2.5722326205392737E-01 a      1046     1    15     2    21
  3.3462099582206534E-01 a      1047     1    15     2    22
  5.1491353567821030E-01 a      1048     1    15     2    23
  4.1395892839319881E-01 a      1049     1    15     2    24
 -5.7334113548975205E-02 a      1050     1    15     2    25
 -6.7276596375460518E-02 a      1051     1    16     2     1
  4.9000800320865470E-02 a      1052     1    16     2     2
  1.3897009718917333E-01 a      1053     1    16     2     3
  2.1827834339230655E-02 a      1054     1    16     2     4
 -3.3825459860693424E-01 a      1055     1    16     2     5
  5.4733937675335777E-02 a      1056     1    16     2     6
  8.5027953345218976E-01 a      1057     1    16     2     7
  5.2069771225838828E-02 a      1058     1    16     2     8
  3.1779109900150571E-01 a      1059     1    16     2     9
  1.5137092064498292E-02 a      1060     1    16     2    10
  1.6606803041930221E-01 a      1061     1    16     2    11
  1.3645993308691801E-01 a      1062     1    16     2    12
  2.1726935030635483E-01 a      1063     1    16     2    13
 -2.1813431060583832E-01 a      1064     1    16     2    14
 -2.2601480917812708E-01 a      1065     1    16     2    15
  4.7746674406753903E-01 a      1066     1    16     2    16
  4.3474315155913545E-01 a      1067     1    16     2    17
  4.5619225026544308E-02 a      1068     1    16     2    18
  5.2031737432831758E-02 a      1069     1    16     2    19
  1.6745403562708253E-01 a      1070     1    16     2    20
 -3.2458661306768705E-01 a      1071     1    16     2    21
 -1.8335121768953199E-02 a      1072     1    16     2    22
 -2.9358410476280811E-01 a      1073     1    16     2    23
  2.0133066323194956E-01 a      1074     1    16     2    24
  4.9145659631133476E-01 a      1075     1    16     2    25
 -3.3454779388920095E-02 a      1076     1    17     2     1
  1.2577905046580773E-01 a      1077     1    17     2     2
  2.3439715149491372E-01 a      1078     1    17     2     3
  4.4162054826219876E-01 a      1079     1    17     2     4
  1.4078490195805668E-02 a      1080     1    17     2     5
 -2.2743309596186638E-02 a      1081     1    17     2     6
  8.1840596203847038E-01 a      1082     1    17     2     7
  8.6433550713863064E-02 a      1083     1    17     2     8
 -1.8746168199261451E-01 a      1084     1    17     2     9
  3.0921223584323110E-01 a      1085     1    17     2    10
 -1.2428616658663847E-02 a      1086     1    17     2    11
 -1.2190933221272557E-01 a      1087     1    17     2    12
  5.9849587713380903E-01 a      1088     1    17     2    13
 -3.0217284693819985E-01 a      1089     1    17     2    14
 -1.2811437085790145E-01 a      1090     1    17     2    15
 -3.1724445459653161E-01 a      1091     1    17     2    16
 -5.9600705941100407E-01 a      1092     1    17     2    17
  6.4056272959638261E-01 a      1093     1    17     2    18
 -2.4537814585995710E-01 a      1094     1    17     2    19
 -3.6952713503913998E-01 a      1095     1    17     2    20
 -4.6539749211034720E-01 a      1096     1    17     2    21
  3.0691939285590331E-01 a      1097     1    17     2    22
 -1.3020905777196550E+00 a      1098     1    17     2    23
  6.2397221329034158E-01 a      1099     1    17     2    24
  2.2308841007004174E-01 a      1100     1    17     2    25
 -1.5856323461218008E-01 a      1101     1    18     2     1
  7.8339264414793025E-02 a      1102     1    18     2     2
 -7.0765521350261512E-02 a      1103     1    18     2     3
  8.7218279578612487E-02 a      1104     1    18     2     4
  6.2323959364349724E-01 a      1105     1    18     2     5
 -1.1691085694446759E-01 a      1106     1    18     2     6
 -7.2448158080054459E-01 a      1107     1    18     2     7
  7.7970957443387789E-01 a      1108     1    18     2     8
  7.9544478311776259E-02 a      1109     1    18     2     9
 -2.2377340779378771E-01 a      1110     1    18     2    10
 -1.4009869645507159E-01 a      1111     1    18     2    11
  1.3758569773068727E-01 a      1112     1    18     2    12
 -4.1416776064453230E-02 a      1113     1    18     2    13
  2.1343664525959349E-01 a      1114     1    18     2    14
 -6.9039051536499663E-01 a      1115     1    18     2    15
 -6.7932848208608188E-01 a      1116     1    18     2    16
  3.4711305625738170E-01 a      1117     1    18     2    17
 -3.4285701599615986E-01 a      1118     1    18     2    18
 -4.0153658158396244E-01 a      1119     1    18     2    19
  7.5191838017010210E-02 a      1120     1    18     2    20
  7.2574636050111307E-01 a      1121     1    18     2    21
  3.7674048696263113E-01 a      1122     1    18     2    22
 -2.5644259430450905E-01 a      1123     1    18     2    23
  7.2691079969123898E-02 a      1124     1    18     2    24
 -6.4440946476481720E-01 a      1125     1    18     2    25
 -7.4714273831313641E-02 a      1126     1    19     2     1
  1.0307212875616004E-01 a      1127     1    19     2     2
 -1.3680677019721954E-01 a      1128     1    19     2     3
 -1.7028785024808388E-01 a      1129     1    19     2     4
  1.7559488895182054E-01 a      1130     1    19     2     5
 -8.8339687756779736E-02 a      1131     1    19     2     6
  6.1439870050924293E-02 a      1132     1    19     2     7
  1.0164587030389229E-01 a      1133     1    19     2     8
  3.4083947427283295E-01 a      1134     1    19     2     9
  1.0676515753884677E-01 a      1135     1    19     2    10
 -4.2355938394648338E-02 a      1136     1    19     2    11
 -1.0265076957409622E-01 a      1137     1    19     2    12
 -1.6318152982723166E-01 a      1138     1    19     2    13
 -9.1516237217874566E-02 a      1139     1    19     2    14
 -4.4361579271618762E-01 a      1140     1    19     2    15
  3.4237766557079852E-01 a      1141     1    19     2    16
  7.8855806790690097E-01 a      1142     1    19     2    17
 -2.1236204780069862E-01 a      1143     1    19     2    18
 -1.1221463966023125E-01 a      1144     1    19     2    19
 -5.4185741959688394E-01 a      1145     1    19     2    20
 -2.9762082407256127E-02 a      1146     1    19     2    21
  1.3525016188122649E-01 a      1147     1    19     2    22
 -4.0453303230903143E-01 a      1148     1    19     2    23
  1.0910489457849322E-01 a      1149     1    19     2    24
  2.5747996194854200E-01 a      1150     1    19     2    25
  2.1678593313202561E-02 a      1151     1    20     2     1
  1.5218055851956649E-01 a      1152     1    20     2     2
  5.6806563414854322E-02 a      1153     1    20     2     3
 -7.9013503991475623E-02 a      1154     1    20     2     4
 -3.5370117791181049E-01 a      1155     1    20     2     5
  2.6430203408322406E-01 a      1156     1    20     2     6
 -1.1852805443287033E+00 a      1157     1    20     2     7
 -8.6496956756933308E-02 a      1158     1    20     2     8
  7.9599640405191496E-01 a      1159     1    20     2     9
  2.3419086543309678E-01 a      1160     1    20     2    10
  9.5767977433763085E-02 a      1161     1    20     2    11
 -1.4264191390577180E-01 a      1162     1    20     2    12
 -1.4706433694164081E-01 a      1163     1    20     2    13
  1.0451725122539963E+00 a      1164     1    20     2    14
 -2.7848231389461081E-01 a      1165     1    20     2    15
 -4.0881489800569139E-02 a      1166     1    20     2    16
 -1.1287487227609784E-01 a      1167     1    20     2    17
  1.8166647471246834E-02 a      1168     1    20     2    18
 -1.6402516215474841E-01 a      1169     1    20     2    19
 -2.4647349658521894E-01 a      1170     1    20     2    20
  1.5645918918212296E+00 a      1171     1    20     2    21
  7.2829922032215846E-02 a      1172     1    20     2    22
  3.7793326896671992E-01 a      1173     1    20     2    23
 -4.5458898383898455E-01 a      1174     1    20     2    24
 -3.0056185623392356E-01 a      1175     1    20     2    25
 -1.0046764913062106E-01 a      1176     1    21     2     1
 -1.7140821569059547E-01 a      1177     1    21     2     2
 -3.7331501578823073E-01 a      1178     1    21     2     3
  1.1945343001546990E-01 a      1179     1    21     2     4
 -9.3156373270063736E-02 a      1180     1    21     2     5
  4.9999577012034913E-01 a      1181     1    21     2     6
  3.2733562291138557E-01 a      1182     1    21     2     7
  1.8943015347019465E-01 a      1183     1    21     2     8
 -3.3354802223486052E-01 a      1184     1    21     2     9
  1.0379238167442767E-01 a      1185     1    21     2    10
  1.5285073376052071E-02 a      1186     1    21     2    11
 -2.4827357034818167E-02 a      1187     1    21     2    12
  1.1104774858832042E-01 a      1188     1    21     2    13
  9.3963422003914096E-02 a      1189     1    21     2    14
  5.2088672464598251E-02 a      1190     1    21     2    15
  4.8849184098219278E-01 a      1191     1    21     2    16
  3.7692235168400456E-01 a      1192     1    21     2    17
 -6.5176934876879124E-03 a      1193     1    21     2    18
  2.6590064052163748E-01 a      1194     1    21     2    19
 -5.1353454047595026E-01 a      1195     1    21     2    20
  1.1115989646650257E-01 a      1196     1    21     2    21
  4.1298264690126107E-01 a      1197     1    21     2    22
  1.0991229286448574E+00 a      1198     1    21     2    23
 -1.1005185172053733E+00 a      1199     1    21     2    24
  6.2509287951257919E-01 a      1200     1    21     2    25
  3.0562703516784303E-02 a      1201     1    22     2     1
 -4.2720351600739259E-01 a      1202     1    22     2     2
  4.2162229238052257E-01 a      1203     1    22     2     3
  1.9024951348875357E-01 a      1204     1    22     2     4
  4.7527609278416305E-01 a      1205     1    22     2     5
  8.4507138206393906E-01 a      1206     1    22     2     6
 -5.5480272073703124E-02 a      1207     1    22     2     7
  9.5564682396655176E-01 a      1208     1    22     2     8
 -1.1141659804221224E+00 a      1209     1    22     2     9
  1.0517206983672951E-01 a      1210     1    22     2    10
 -4.3961285139491996E-01 a      1211     1    22     2    11
 -2.2715216850630629E-01 a      1212     1    22     2    12
  2.8901926798410699E-01 a      1213     1    22     2    13
  8.0251164741245162E-01 a      1214     1    22     2    14
  2.1193671720743459E-02 a      1215     1    22     2    15
 -3.3018783459129081E-01 a      1216     1    22     2    16
  2.7948095879496726E-01 a      1217     1    22     2    17
 -7.7306746083962297E-01 a      1218     1    22     2    18
  6.0950264887652372E-02 a      1219     1    22     2    19
 -1.3523241574594758E+00 a      1220     1    22     2    20
 -6.6202577782201011E-01 a      1221     1    22     2    21
  6.6514205866111939E-02 a      1222     1    22     2    22
 -1.4245532611059744E-01 a      1223     1    22     2    23
  1.2289740255561347E-01 a      1224     1    22     2    24
  1.6124782429126738E-01 a      1225     1    22     2    25
  1.4113454149530608E-01 a      1226     1    23     2     1
 -2.6254853477115436E-01 a      1227     1    23     2     2
 -8.5232330077319896E-02 a      1228     1    23     2     3
  1.3406556123222033E-01 a      1229     1    23     2     4
 -1.0300729093721264E-01 a      1230     1    23     2     5
  5.4595365928230077E-01 a      1231     1    23     2     6
  7.4945781310542270E-01 a      1232     1    23     2     7
  1.1362017074940234E+00 a      1233     1    23     2     8
  4.5588979580847822E-01 a      1234     1    23     2     9
 -3.3562268621081925E-01 a      1235     1    23     2    10
 -3.3946244428517763E-02 a      1236     1    23     2    11
 -3.8164318414902171E-02 a      1237     1    23     2    12
  4.3898027863241834E-01 a      1238     1    23     2    13
 -6.6591523735500158E-01 a      1239     1    23     2    14
 -1.9642476810066620E-01 a      1240     1    23     2    15
  1.8414601780709211E-01 a      1241     1    23     2    16
  2.5479872450020946E-01 a      1242     1    23     2    17
 -1.8661244143023326E-02 a      1243     1    23     2    18
  9.0932051276092565E-02 a      1244     1    23     2    19
 -2.7926406360155365E-01 a      1245     1    23     2    20
 -1.3350713617252234E+00 a      1246     1    23     2    21
  1.8023901993351629E-01 a      1247     1    23     2    22
  3.1852316630245747E-01 a      1248     1    23     2    23
  1.3223423311210085E+00 a      1249     1    23     2    24
  9.9907340908702613E-01 a      1250     1    23     2    25
 -1.2030846395075009E-01 a      1251     1    24     2     1
  9.7509196054657798E-02 a      1252     1    24     2     2
 -8.7101648093332179E-02 a      1253     1    24     2     3
  2.9451762071032317E-01 a      1254     1    24     2     4
  2.3977163429291365E-01 a      1255     1    24     2     5
  2.5166409934208500E-01 a      1256     1    24     2     6
 -9.8498104812649298E-02 a      1257     1    24     2     7
 -4.6493339712904029E-02 a      1258     1    24     2     8
  2.3707188662657027E-02 a      1259     1    24     2     9
  2.8538479733934435E-01 a      1260     1    24     2    10
  3.2808604110745487E-01 a      1261     1    24     2    11
 -1.3185186000672752E-01 a      1262     1    24     2    12
  2.1309655853454215E-01 a      1263     1    24     2    13
  1.8243559315225077E-01 a      1264     1    24     2    14
 -7.6391116263171566E-01 a      1265     1    24     2    15
  1.3910279576962600E-01 a      1266     1    24     2    16
  8.7101557152626893E-02 a      1267     1    24     2    17
  4.6113208167450703E-01 a      1268     1    24     2    18
 -1.9555414578965832E-01 a      1269     1    24     2    19
  8.7453812955153964E-01 a      1270     1    24     2    20
  3.5386367902946864E-01 a      1271     1    24     2    21
  5.1001645153318564E-01 a      1272     1    24     2    22
  6.1459486335031877E-01 a      1273     1    24     2    23
  2.0186010210562745E-02 a      1274     1    24     2    24
  2.3574290513275149E-02 a      1275     1    24     2    25
 -1.5345629680650064E-01 a      1276     1    25     2     1
 -1.0831945383101617E-02 a      1277     1    25     2     2
 -3.4655439605265603E-01 a      1278     1    25     2     3
 -3.8751776874335903E-01 a      1279     1    25     2     4
  1.2300245990989679E-02 a      1280     1    25     2     5
  3.0964581140136588E-01 a      1281     1    25     2     6
 -7.3687524227958856E-01 a      1282     1    25     2     7
 -6.2937528185111757E-01 a      1283     1    25     2     8
 -1.5904019628289964E-01 a      1284     1    25     2     9
  2.2334571331166256E-01 a      1285     1    25     2    10
 -2.7726467028695567E-01 a      1286     1    25     2    11
 -1.2236602233298276E-01 a      1287     1    25     2    12
 -3.0495147597566247E-01 a      1288     1    25     2    13
  3.5022423137807718E-01 a      1289     1    25     2    14
  3.8317372512632619E-01 a      1290     1    25     2    15
 -3.9583334152224725E-01 a      1291     1    25     2    16
 -3.5395359586956843E-01 a      1292     1    25     2    17
 -3.4234115648753971E-01 a      1293     1    25     2    18
  2.8755007389784792E-01 a      1294     1    25     2    19
  1.6987901181683232E-01 a      1295     1    25     2    20
 -4.8553146062342473E-01 a      1296     1    25     2    21
 -1.9995486167093063E-01 a      1297     1    25     2    22
  5.9088401100195143E-01 a      1298     1    25     2    23
 -4.6953721660237657E-01 a      1299     1    25     2    24
  5.9275521415398869E-01 a      1300     1    25     2    25
 -1.0563110704947722E+00 b      1301     2     1
  7.5757144854210123E-01 b      1302     2     2
 -5.4571765164505159E-01 b      1303     2     3
  1.0972762951141259E-01 b      1304     2     4
  8.5969231804455926E-02 b      1305     2     5
 -1.1826315775050583E-01 b      1306     2     6
  6.5695698952299486E-01 b      1307     2     7
  4.3071456312362433E-01 b      1308     2     8
 -1.7927739261196819E-02 b      1309     2     9
 -7.9258280185757438E-02 b      1310     2    10
  7.5310095970481758E-02 b      1311     2    11
  5.2233579919700934E-01 b      1312     2    12
  4.6229573751572317E-01 b      1313     2    13
 -1.2015708253323541E-01 b      1314     2    14
  5.0931913364513248E-01 b      1315     2    15
  2.7668775645136595E-01 b      1316     2    16
  5.5560424969520988E-02 b      1317     2    17
  3.9726227663660829E-01 b      1318     2    18
 -1.8227117199327864E-01 b      1319     2    19
  1.0711989529004964E-01 b      1320     2    20
 -3.3684171940370955E-01 b      1321     2    21
  6.2527486660230155E-02 b      1322     2    22
 -4.1833429019192281E-01 b      1323     2    23
 -7.1881513445234066E-02 b      1324     2    24
 -7.9381981340304580E-02 b      1325     2    25
  1.0096489711211165E+00 a      1326     2     1     3     1
 -4.9090402002418926E-01 a      1327     2     2     3     1
  2.3375210405538729E-01 a      1328     2     3     3     1
  4.0671510524604543E-01 a      1329     2     4     3     1
 -2.5719432572982953E-01 a      1330     2     5     3     1
 -1.3565303672236603E-01 a      1331     2     6     3     1
  2.8403237312055276E-03 a      1332     2     7     3     1
 -3.5099550986737685E-02 a      1333     2     8     3     1
  9.6811126454873803E-02 a      1334     2     9     3     1
  1.0504237721217000E-01 a      1335     2    10     3     1
 -1.5540229960457771E-01 a      1336     2    11     3     1
 -4.2062944729252233E-01 a      1337     2    12     3     1
 -1.6067635524625343E-01 a      1338     2    13     3     1
 -7.7294243110529584E-02 a      1339     2    14     3     1
 -1.7012724224095804E-01 a      1340     2    15     3     1
  3.2166706049011956E-03 a      1341     2    16     3     1
 -3.8490642850346118E-02 a      1342     2    17     3     1
 -2.3629811153223237E-01 a      1343     2    18     3     1
  2.5964124693131491E-01 a      1344     2    19     3     1
  4.8305522650361518E-02 a      1345     2    20     3     1
 -6.8126334269469638E-02 a      1346     2    21     3     1
  1.7592392556269937E-01 a      1347     2    22     3     1
  2.7346369823798036E-02 a      1348     2    23     3     1
 -4.3531993368898042E-02 a      1349     2    24     3     1
 -1.3500937950928166E-01 a      1350     2    25     3     1
 -1.3434080092670520E+00 b      1351     3     1
