################################################################################
# Neural network connection values (weights and biases).
################################################################################
# Col  Name       Description
################################################################################
# 1    connection Neural network connection value.
# 2    t          Connection type (a = weight, b = bias).
# 3    index      Index enumerating weights.
# 4    l_s        Starting point layer (end point layer for biases).
# 5    n_s        Starting point neuron in starting layer (end point neuron for biases).
# 6    l_e        End point layer.
# 7    n_e        End point neuron in end layer.
################################################################################
#                      1 2         3     4     5     6     7
#             connection t     index   l_s   n_s   l_e   n_e
############################################################
 -2.2764144734361804E+00 a         1     0     1     1     1
  1.0882417106947564E+00 a         2     0     1     1     2
 -3.1805969435362980E+00 a         3     0     1     1     3
  4.6187018185499820E-02 a         4     0     1     1     4
  2.1470028071258782E-01 a         5     0     1     1     5
 -1.0727601258454191E+00 a         6     0     1     1     6
 -3.1016330748275978E-02 a         7     0     1     1     7
 -4.0396401035582752E-01 a         8     0     1     1     8
 -3.0935647019119367E-01 a         9     0     1     1     9
 -5.7017410672212976E-01 a        10     0     1     1    10
 -1.4946576864767783E-01 a        11     0     1     1    11
 -1.2564584432718748E+00 a        12     0     1     1    12
  1.3635055681799872E+00 a        13     0     1     1    13
 -1.4076254213702732E+00 a        14     0     1     1    14
 -1.2607588634119631E+00 a        15     0     1     1    15
 -1.1234600458844057E+00 a        16     0     1     1    16
  1.2137366633244298E+00 a        17     0     1     1    17
  3.4288676126520881E+00 a        18     0     1     1    18
  1.0592370318766270E-01 a        19     0     1     1    19
 -9.5515418178886013E-01 a        20     0     1     1    20
  7.4877188626717517E-01 a        21     0     1     1    21
 -6.9930684746853400E-01 a        22     0     1     1    22
 -1.9036969979381488E+00 a        23     0     1     1    23
  7.6753926420665564E-01 a        24     0     1     1    24
 -2.2521573314224370E+00 a        25     0     1     1    25
  1.3217952142965390E+00 a        26     0     2     1     1
 -3.2952983721788087E-01 a        27     0     2     1     2
  1.3934261258439240E+00 a        28     0     2     1     3
  2.7295718277069903E-01 a        29     0     2     1     4
 -3.1810339684825106E-01 a        30     0     2     1     5
  2.1060794656998033E-02 a        31     0     2     1     6
  7.2447690708875667E-01 a        32     0     2     1     7
 -6.1572483493983816E-02 a        33     0     2     1     8
  5.4376767612474131E-01 a        34     0     2     1     9
  3.7371319947092957E-01 a        35     0     2     1    10
  9.0822718839176719E-01 a        36     0     2     1    11
  3.9809866242354236E-01 a        37     0     2     1    12
 -3.6380393015252988E-01 a        38     0     2     1    13
  2.0141766550392765E-01 a        39     0     2     1    14
  1.3250986844547272E-01 a        40     0     2     1    15
  4.5177153171525092E-01 a        41     0     2     1    16
 -5.3330569403703165E-01 a        42     0     2     1    17
 -5.9127706881373832E-01 a        43     0     2     1    18
 -8.3893343720814240E-01 a        44     0     2     1    19
 -7.6815793253281445E-02 a        45     0     2     1    20
 -6.7513200109585136E-01 a        46     0     2     1    21
  1.3612898145272873E-01 a        47     0     2     1    22
  9.1316039487536349E-01 a        48     0     2     1    23
 -1.3334102455009567E-01 a        49     0     2     1    24
  8.8742862829356628E-01 a        50     0     2     1    25
  2.1949901997592436E+00 a        51     0     3     1     1
 -7.0163706477720245E-01 a        52     0     3     1     2
  3.9618832117239196E+00 a        53     0     3     1     3
  1.4609501487613211E-02 a        54     0     3     1     4
 -1.6303796174832622E-01 a        55     0     3     1     5
  6.8144593312012725E-01 a        56     0     3     1     6
  1.2164672044127209E+00 a        57     0     3     1     7
 -9.0953502183663118E-02 a        58     0     3     1     8
  6.1331303951097471E-01 a        59     0     3     1     9
  9.2503248250309122E-01 a        60     0     3     1    10
  9.9208479015303974E-01 a        61     0     3     1    11
  1.0190302547813026E+00 a        62     0     3     1    12
 -3.2105854969169612E-01 a        63     0     3     1    13
  1.2870498134077548E+00 a        64     0     3     1    14
  1.3576418855531003E-01 a        65     0     3     1    15
  1.0611621650945486E+00 a        66     0     3     1    16
 -1.8686408575680533E+00 a        67     0     3     1    17
 -3.7511223048162861E+00 a        68     0     3     1    18
 -8.0018190473349016E-01 a        69     0     3     1    19
  2.4293785749217786E-01 a        70     0     3     1    20
 -9.2990334695396892E-01 a        71     0     3     1    21
  1.9521062161620992E-01 a        72     0     3     1    22
  1.5875758285654635E+00 a        73     0     3     1    23
 -5.6938523251083395E-01 a        74     0     3     1    24
  1.7341781268855694E+00 a        75     0     3     1    25
 -2.1894305686428453E-01 a        76     0     4     1     1
 -7.9718375513219975E-01 a        77     0     4     1     2
 -1.2034640647129953E+00 a        78     0     4     1     3
 -7.5191142097019004E-01 a        79     0     4     1     4
  1.1974332917683523E+00 a        80     0     4     1     5
 -2.2840742579269141E-01 a        81     0     4     1     6
 -8.3296250407357519E-01 a        82     0     4     1     7
 -1.3112876122331571E-01 a        83     0     4     1     8
 -1.7853754156703272E-01 a        84     0     4     1     9
  3.5342481216067945E-01 a        85     0     4     1    10
 -5.5455880054610873E-01 a        86     0     4     1    11
  1.3339617668615333E+00 a        87     0     4     1    12
 -7.0077254552087520E-01 a        88     0     4     1    13
  1.3232551097352238E-01 a        89     0     4     1    14
 -1.0922210295736812E+00 a        90     0     4     1    15
  3.5154126075619391E-01 a        91     0     4     1    16
  1.1867344034024452E+00 a        92     0     4     1    17
  8.9683775363872231E-01 a        93     0     4     1    18
  2.6140827833699287E+00 a        94     0     4     1    19
 -8.2772268228181500E-01 a        95     0     4     1    20
  1.2737287530172683E+00 a        96     0     4     1    21
 -6.1921173527883200E-01 a        97     0     4     1    22
 -1.7894560109221898E+00 a        98     0     4     1    23
  6.7542897656163980E-01 a        99     0     4     1    24
  4.6722394940727985E-01 a       100     0     4     1    25
 -2.2589604337170988E+00 a       101     0     5     1     1
  5.3343881877693411E-01 a       102     0     5     1     2
 -2.4586944068983287E+00 a       103     0     5     1     3
  1.0259937134556261E+00 a       104     0     5     1     4
  9.8228080185884736E-01 a       105     0     5     1     5
  1.2582975423048084E+00 a       106     0     5     1     6
 -9.5945201226236920E-01 a       107     0     5     1     7
  1.5804894114941959E-01 a       108     0     5     1     8
 -1.8968149446572218E+00 a       109     0     5     1     9
 -1.9323206352987435E-01 a       110     0     5     1    10
 -4.6327630853641405E-01 a       111     0     5     1    11
 -9.7182273788304230E-01 a       112     0     5     1    12
  1.9642955481023843E+00 a       113     0     5     1    13
  6.0169989935305236E-02 a       114     0     5     1    14
  3.5611808153323271E-01 a       115     0     5     1    15
 -6.4923264618052035E-01 a       116     0     5     1    16
 -9.0437595488310063E-01 a       117     0     5     1    17
  3.2094949735817285E-01 a       118     0     5     1    18
 -1.4667265765919877E+00 a       119     0     5     1    19
 -2.5255463541344814E-01 a       120     0     5     1    20
 -1.3274434206750250E+00 a       121     0     5     1    21
 -2.6416779284554620E-01 a       122     0     5     1    22
  1.2511559818117264E+00 a       123     0     5     1    23
  5.2668211620608552E-01 a       124     0     5     1    24
 -1.4435468655936843E+00 a       125     0     5     1    25
  1.8575599960841915E+00 a       126     0     6     1     1
  3.1897721923948341E-01 a       127     0     6     1     2
  2.3604545865689674E+00 a       128     0     6     1     3
 -7.4335190818247732E-01 a       129     0     6     1     4
 -1.2963114113042609E+00 a       130     0     6     1     5
 -7.0620269263235080E-01 a       131     0     6     1     6
  1.0978445751985111E+00 a       132     0     6     1     7
  3.4430327642495645E-01 a       133     0     6     1     8
  1.7831933938502551E+00 a       134     0     6     1     9
 -4.9943054047557500E-01 a       135     0     6     1    10
  3.7242647411883179E-01 a       136     0     6     1    11
  1.3787553255428020E-01 a       137     0     6     1    12
 -1.2260668524200866E+00 a       138     0     6     1    13
  1.1074343224996798E-01 a       139     0     6     1    14
 -2.5666966708241982E-02 a       140     0     6     1    15
  2.9263198450885097E-01 a       141     0     6     1    16
  5.6362818280836191E-01 a       142     0     6     1    17
 -4.1891328867094990E-01 a       143     0     6     1    18
  4.9794515931174049E-01 a       144     0     6     1    19
  1.0934451011712907E+00 a       145     0     6     1    20
  8.9102390751706495E-01 a       146     0     6     1    21
  4.4099169158564033E-01 a       147     0     6     1    22
 -2.5436542356033032E-01 a       148     0     6     1    23
 -4.7957441060366207E-01 a       149     0     6     1    24
  7.7203690936824221E-01 a       150     0     6     1    25
 -5.6836159612825488E-01 a       151     0     7     1     1
  2.6631137883702493E-04 a       152     0     7     1     2
 -6.4991497532133136E-01 a       153     0     7     1     3
  9.0331804670161248E-02 a       154     0     7     1     4
  5.2800230072712462E-01 a       155     0     7     1     5
 -5.0893880715468269E-03 a       156     0     7     1     6
 -5.1495793397896128E-01 a       157     0     7     1     7
 -1.9090843978752173E-01 a       158     0     7     1     8
 -4.5795756645891783E-01 a       159     0     7     1     9
  3.8489613775646553E-01 a       160     0     7     1    10
 -1.2818462547407453E-01 a       161     0     7     1    11
  1.5332695430349673E-02 a       162     0     7     1    12
  3.5529205167100569E-01 a       163     0     7     1    13
 -1.7702262485030434E-01 a       164     0     7     1    14
  2.0355826787937581E-01 a       165     0     7     1    15
  8.6773491825708690E-02 a       166     0     7     1    16
 -3.8390280701487450E-02 a       167     0     7     1    17
  1.3398702057361014E-01 a       168     0     7     1    18
 -4.2367341456681841E-02 a       169     0     7     1    19
 -3.0510932321995571E-01 a       170     0     7     1    20
 -1.4451693679541860E-01 a       171     0     7     1    21
 -1.5972939302199257E-01 a       172     0     7     1    22
  1.5250501193984297E-02 a       173     0     7     1    23
  5.8407521415811903E-02 a       174     0     7     1    24
 -2.3671128248168227E-01 a       175     0     7     1    25
  1.1295508520451666E-01 a       176     0     8     1     1
 -5.4663200975676396E-02 a       177     0     8     1     2
 -5.0384639367551186E-02 a       178     0     8     1     3
  1.0066586553092612E-01 a       179     0     8     1     4
 -1.5685062526143811E-01 a       180     0     8     1     5
  4.0416188064881363E-02 a       181     0     8     1     6
  1.5776577985955434E-01 a       182     0     8     1     7
 -2.7972268920520869E-02 a       183     0     8     1     8
  1.2289402962063405E-01 a       184     0     8     1     9
 -1.6107308296527426E-01 a       185     0     8     1    10
  8.9142663447626488E-02 a       186     0     8     1    11
 -6.8044468077752510E-02 a       187     0     8     1    12
 -1.4477487131733047E-01 a       188     0     8     1    13
 -4.7785841267285842E-02 a       189     0     8     1    14
 -1.0581800477624995E-01 a       190     0     8     1    15
  2.3514469387348094E-02 a       191     0     8     1    16
 -8.8281097464126580E-03 a       192     0     8     1    17
  9.7497897105050579E-02 a       193     0     8     1    18
 -1.0885069606636810E-01 a       194     0     8     1    19
  3.9783652820538050E-02 a       195     0     8     1    20
  2.5638347086045118E-02 a       196     0     8     1    21
  4.3449008282412681E-02 a       197     0     8     1    22
 -2.2860107456073503E-02 a       198     0     8     1    23
 -2.4521861960570577E-02 a       199     0     8     1    24
 -8.3852331586570808E-02 a       200     0     8     1    25
  6.3679129154297720E-01 a       201     0     9     1     1
 -7.4899772464451020E-01 a       202     0     9     1     2
 -2.2096858325754920E+00 a       203     0     9     1     3
  3.8855462084856995E+00 a       204     0     9     1     4
  1.5969224283959640E+00 a       205     0     9     1     5
  1.1290927027658330E-01 a       206     0     9     1     6
 -2.8645106327993433E+00 a       207     0     9     1     7
 -2.1919060894101819E-01 a       208     0     9     1     8
 -6.8107342965388107E-01 a       209     0     9     1     9
  3.8112529702073616E-01 a       210     0     9     1    10
 -3.9365492518783263E-01 a       211     0     9     1    11
  1.4901584678409565E+00 a       212     0     9     1    12
 -1.6973256920599846E+00 a       213     0     9     1    13
 -5.8316925020830812E-01 a       214     0     9     1    14
 -3.7059265533659297E-01 a       215     0     9     1    15
  2.0871144582155607E+00 a       216     0     9     1    16
  4.6098437761242816E-01 a       217     0     9     1    17
  1.6180320850084801E-01 a       218     0     9     1    18
  9.2127158884137739E-01 a       219     0     9     1    19
 -1.5756746712714204E-01 a       220     0     9     1    20
  1.3942042210467664E+00 a       221     0     9     1    21
  1.3044270825391595E+00 a       222     0     9     1    22
  3.7733091777104910E-01 a       223     0     9     1    23
  1.2795916630926576E+00 a       224     0     9     1    24
  3.0855384897786879E+00 a       225     0     9     1    25
 -3.4172177118334990E-01 a       226     0    10     1     1
 -6.2039442073592610E-01 a       227     0    10     1     2
  5.9636711655389707E+00 a       228     0    10     1     3
 -4.8932903286923022E+00 a       229     0    10     1     4
 -7.1735416660256657E-01 a       230     0    10     1     5
  4.6549083594852958E-01 a       231     0    10     1     6
  7.4520400560127820E-01 a       232     0    10     1     7
  1.3040345231281028E+00 a       233     0    10     1     8
 -1.9060717940279146E+00 a       234     0    10     1     9
  3.1676638533894302E-01 a       235     0    10     1    10
 -7.9324665815589090E-01 a       236     0    10     1    11
 -1.3866880960640617E+00 a       237     0    10     1    12
  5.6717038840207634E-01 a       238     0    10     1    13
  6.6404727556232448E+00 a       239     0    10     1    14
  9.5351456772891519E-01 a       240     0    10     1    15
 -2.6558255778102322E+00 a       241     0    10     1    16
 -1.5507988364627330E+00 a       242     0    10     1    17
 -5.3742682465903684E+00 a       243     0    10     1    18
 -3.2099683061371437E-01 a       244     0    10     1    19
  7.7188480866820164E-01 a       245     0    10     1    20
 -1.3096071169365107E+00 a       246     0    10     1    21
  2.0248467351253499E-01 a       247     0    10     1    22
 -6.9813058517192317E-01 a       248     0    10     1    23
 -2.7062164150010606E+00 a       249     0    10     1    24
 -1.8786448483284117E+00 a       250     0    10     1    25
 -1.4111681493259887E+00 a       251     0    11     1     1
  9.1133704081644895E-01 a       252     0    11     1     2
 -5.1022294694933228E+00 a       253     0    11     1     3
  9.7760141724969413E-02 a       254     0    11     1     4
 -1.3108544385038245E+00 a       255     0    11     1     5
  3.4138862351636817E-01 a       256     0    11     1     6
  1.8265737568808416E+00 a       257     0    11     1     7
 -1.1019146272132143E+00 a       258     0    11     1     8
  1.3066191008333929E+00 a       259     0    11     1     9
 -4.9402263121576195E-01 a       260     0    11     1    10
  7.5035388270497738E-01 a       261     0    11     1    11
  3.3393603215525125E-01 a       262     0    11     1    12
  1.3342456750374487E+00 a       263     0    11     1    13
 -5.5198391166314815E+00 a       264     0    11     1    14
  4.2483155462312194E-01 a       265     0    11     1    15
  1.0022252317300219E-01 a       266     0    11     1    16
  7.8717077272649960E-01 a       267     0    11     1    17
  5.6048015798145672E+00 a       268     0    11     1    18
  3.2888466779074443E-01 a       269     0    11     1    19
  8.9211928515196381E-01 a       270     0    11     1    20
 -1.9547720282217991E+00 a       271     0    11     1    21
 -4.2749163216188618E-01 a       272     0    11     1    22
  1.9522609512836572E-01 a       273     0    11     1    23
  1.8564375108244272E-01 a       274     0    11     1    24
 -1.2822547627784489E+00 a       275     0    11     1    25
 -1.5311760784967039E+00 a       276     0    12     1     1
  3.3412535495770834E-01 a       277     0    12     1     2
 -3.0199689675013959E+00 a       278     0    12     1     3
 -3.4334669647936114E+00 a       279     0    12     1     4
  1.1476161278609509E+00 a       280     0    12     1     5
 -1.7413855341066025E+00 a       281     0    12     1     6
  7.9247594542744293E-01 a       282     0    12     1     7
 -1.6519100069254347E-01 a       283     0    12     1     8
  2.0193738948271087E+00 a       284     0    12     1     9
 -9.3751295777307020E-01 a       285     0    12     1    10
 -1.2760685751432921E+00 a       286     0    12     1    11
 -1.8438039129986068E+00 a       287     0    12     1    12
  3.0955750766784074E+00 a       288     0    12     1    13
 -8.2346211355753796E-01 a       289     0    12     1    14
  8.8440628918759027E-03 a       290     0    12     1    15
 -6.3238621991362232E-01 a       291     0    12     1    16
  1.7344419907684148E+00 a       292     0    12     1    17
  2.0662387824663160E+00 a       293     0    12     1    18
 -6.9682983869447435E-02 a       294     0    12     1    19
  1.1714549841503477E+00 a       295     0    12     1    20
  8.1086211074124959E-01 a       296     0    12     1    21
 -1.2174813886250051E+00 a       297     0    12     1    22
 -9.4309830950483198E-01 a       298     0    12     1    23
  1.1021302523903562E+00 a       299     0    12     1    24
 -6.1882207653809260E+00 a       300     0    12     1    25
  1.6632036024959260E+00 a       301     0    13     1     1
  6.6843613302202798E-01 a       302     0    13     1     2
 -3.5903726668615130E+00 a       303     0    13     1     3
  4.4522751040800195E+00 a       304     0    13     1     4
 -1.3964583829131036E-01 a       305     0    13     1     5
  6.9861792522225374E-01 a       306     0    13     1     6
 -1.2286245838427381E+00 a       307     0    13     1     7
 -8.3932421934910051E-01 a       308     0    13     1     8
  1.7846342777997377E+00 a       309     0    13     1     9
  5.9808322884708706E-02 a       310     0    13     1    10
  1.1439911503258513E+00 a       311     0    13     1    11
  1.4597896544076254E+00 a       312     0    13     1    12
 -2.1930394168795382E+00 a       313     0    13     1    13
 -5.6866888131217230E+00 a       314     0    13     1    14
 -7.2070691182268654E-01 a       315     0    13     1    15
  3.1142815699843274E+00 a       316     0    13     1    16
  1.0546537522947346E+00 a       317     0    13     1    17
  3.4930081093452436E+00 a       318     0    13     1    18
 -1.8879571013320653E-01 a       319     0    13     1    19
 -4.6217874799357550E-01 a       320     0    13     1    20
  1.4241905017965009E+00 a       321     0    13     1    21
 -5.4097462680057284E-01 a       322     0    13     1    22
  2.2035386230999507E+00 a       323     0    13     1    23
  2.2167235041658864E+00 a       324     0    13     1    24
  3.7381372047628911E+00 a       325     0    13     1    25
  1.3754774931500531E+00 a       326     0    14     1     1
 -5.6986062884990707E-01 a       327     0    14     1     2
  9.4091035859290368E+00 a       328     0    14     1     3
 -7.7269954811764319E-01 a       329     0    14     1     4
 -1.4771893509855472E+00 a       330     0    14     1     5
  2.6930346229228106E+00 a       331     0    14     1     6
 -2.5890746600250786E-01 a       332     0    14     1     7
  2.4056160009228713E+00 a       333     0    14     1     8
 -3.9109219926178724E+00 a       334     0    14     1     9
 -6.1840091618357829E-01 a       335     0    14     1    10
 -1.1300283348154951E+00 a       336     0    14     1    11
 -4.7066742982189291E-01 a       337     0    14     1    12
 -3.9679250270543380E+00 a       338     0    14     1    13
  5.6992662333551634E+00 a       339     0    14     1    14
  1.7544472468128176E+00 a       340     0    14     1    15
 -3.4475210512799066E+00 a       341     0    14     1    16
 -1.7100237801703018E+00 a       342     0    14     1    17
 -7.5619282918780204E+00 a       343     0    14     1    18
 -6.8579722140911381E-01 a       344     0    14     1    19
 -2.1126860041733111E+00 a       345     0    14     1    20
  1.5890144835886295E+00 a       346     0    14     1    21
  2.4927927787317175E-01 a       347     0    14     1    22
 -1.2551604399792844E+00 a       348     0    14     1    23
 -3.4199213662539889E+00 a       349     0    14     1    24
  4.5000073643731024E+00 a       350     0    14     1    25
 -2.2705302463970263E+00 a       351     0    15     1     1
  2.0692531511567762E+00 a       352     0    15     1     2
 -4.3288499382827927E+00 a       353     0    15     1     3
  5.0543140686104397E+00 a       354     0    15     1     4
  1.5027271457380729E+00 a       355     0    15     1     5
 -1.4267193673462337E+00 a       356     0    15     1     6
 -2.8403880504468543E-01 a       357     0    15     1     7
 -2.0743149869371966E+00 a       358     0    15     1     8
  1.0245813206875858E+00 a       359     0    15     1     9
 -5.6653487048141837E-01 a       360     0    15     1    10
  5.1380783402500085E-01 a       361     0    15     1    11
 -8.3020300858114104E-01 a       362     0    15     1    12
  2.1854908133562998E+00 a       363     0    15     1    13
 -3.0713805515587449E+00 a       364     0    15     1    14
 -1.7411018425008240E+00 a       365     0    15     1    15
  1.7238742506585707E+00 a       366     0    15     1    16
  9.8681989086965716E-01 a       367     0    15     1    17
  5.1482707988562790E+00 a       368     0    15     1    18
  3.0725131651641857E+00 a       369     0    15     1    19
 -1.2427710995889121E+00 a       370     0    15     1    20
  1.8724547685334281E+00 a       371     0    15     1    21
 -1.6294149204463654E-01 a       372     0    15     1    22
  1.7020280546333371E+00 a       373     0    15     1    23
  3.9615244194394239E+00 a       374     0    15     1    24
 -7.1170250856301298E-01 a       375     0    15     1    25
 -4.7715676488242437E-01 a       376     0    16     1     1
 -1.0715897227758539E-01 a       377     0    16     1     2
  6.1174312450758856E+00 a       378     0    16     1     3
 -4.9472886887623178E+00 a       379     0    16     1     4
 -2.6757995208993574E-01 a       380     0    16     1     5
 -1.2813503743769725E-01 a       381     0    16     1     6
  7.3413138190378402E-01 a       382     0    16     1     7
  1.7818860165353678E+00 a       383     0    16     1     8
 -1.7055813348501752E+00 a       384     0    16     1     9
 -9.3460561140477616E-01 a       385     0    16     1    10
 -1.2567071864671993E+00 a       386     0    16     1    11
 -1.7551543958710909E+00 a       387     0    16     1    12
  7.2894509215593184E-01 a       388     0    16     1    13
  6.0277419379564314E+00 a       389     0    16     1    14
  5.3808304093355275E-01 a       390     0    16     1    15
 -3.0247761607796262E+00 a       391     0    16     1    16
 -8.1532853624352697E-01 a       392     0    16     1    17
 -5.1906746788799083E+00 a       393     0    16     1    18
 -6.2760441872062955E-01 a       394     0    16     1    19
 -7.6396562059142539E-02 a       395     0    16     1    20
  1.7249200991003347E-01 a       396     0    16     1    21
 -4.9736462063758063E-01 a       397     0    16     1    22
 -1.6313482203843177E+00 a       398     0    16     1    23
 -2.3143059592361297E+00 a       399     0    16     1    24
 -2.5332722293832983E+00 a       400     0    16     1    25
  3.5711415110140883E+00 a       401     0    17     1     1
 -1.5695753333512612E+00 a       402     0    17     1     2
 -6.7957703091949140E-01 a       403     0    17     1     3
  7.6161152842780000E-01 a       404     0    17     1     4
 -1.5369827958205140E+00 a       405     0    17     1     5
  9.2279651547899411E-01 a       406     0    17     1     6
 -5.7564049529817551E-01 a       407     0    17     1     7
  2.7452392521068825E-01 a       408     0    17     1     8
  1.8435313798687460E+00 a       409     0    17     1     9
  6.3571173379810997E-01 a       410     0    17     1    10
  6.9408820107783775E-01 a       411     0    17     1    11
  1.9042009335131005E+00 a       412     0    17     1    12
 -3.3900930560720872E+00 a       413     0    17     1    13
 -3.4203129067953659E+00 a       414     0    17     1    14
  9.3451660091406907E-01 a       415     0    17     1    15
  1.6976354396425783E+00 a       416     0    17     1    16
  2.5985684604782849E-01 a       417     0    17     1    17
 -6.5702875473493363E-02 a       418     0    17     1    18
 -2.9664208207876528E+00 a       419     0    17     1    19
  7.4601688359194085E-01 a       420     0    17     1    20
 -4.3694125058024841E-01 a       421     0    17     1    21
  2.8089201134868985E-01 a       422     0    17     1    22
  1.8486527477809370E-01 a       423     0    17     1    23
 -9.8714372051506150E-01 a       424     0    17     1    24
  3.2200969840172355E+00 a       425     0    17     1    25
  5.2065155801048590E-01 a       426     0    18     1     1
 -8.7032201341994819E-01 a       427     0    18     1     2
  2.0246930010852751E+00 a       428     0    18     1     3
 -3.5069267076228745E+00 a       429     0    18     1     4
  4.3672575892896892E-01 a       430     0    18     1     5
  5.1764964398520319E-01 a       431     0    18     1     6
 -8.0304099059464540E-01 a       432     0    18     1     7
 -3.9220885165377090E-01 a       433     0    18     1     8
  2.0436373054060084E+00 a       434     0    18     1     9
  1.8485900723853035E+00 a       435     0    18     1    10
 -3.9831474196052402E-01 a       436     0    18     1    11
  7.7506225940801110E-01 a       437     0    18     1    12
  4.1686224265173510E-01 a       438     0    18     1    13
  1.2596511900715188E-01 a       439     0    18     1    14
 -3.6514747417890417E-02 a       440     0    18     1    15
  1.3077848117122651E-01 a       441     0    18     1    16
 -1.3145489517525339E+00 a       442     0    18     1    17
 -3.4168535706596539E+00 a       443     0    18     1    18
 -3.9474622338223020E-01 a       444     0    18     1    19
  1.9244635951828886E+00 a       445     0    18     1    20
 -3.0499366643078072E+00 a       446     0    18     1    21
  4.6468665791455444E-01 a       447     0    18     1    22
  5.4415202784651384E-01 a       448     0    18     1    23
 -2.6886126069606395E+00 a       449     0    18     1    24
 -1.8888368472881267E+00 a       450     0    18     1    25
 -1.3961455635497086E+00 a       451     0    19     1     1
  1.8034983551295899E-01 a       452     0    19     1     2
 -1.9089220882680169E+00 a       453     0    19     1     3
 -2.1082986873053039E-01 a       454     0    19     1     4
  6.0456137483627534E-02 a       455     0    19     1     5
 -8.9772958784680346E-01 a       456     0    19     1     6
  3.1745480675459503E-01 a       457     0    19     1     7
 -4.4481308249600127E-01 a       458     0    19     1     8
  1.9114635665207630E-03 a       459     0    19     1     9
  6.1770129049222133E-01 a       460     0    19     1    10
  7.2326614558334257E-01 a       461     0    19     1    11
  7.1890289842468424E-01 a       462     0    19     1    12
  1.5929443738323370E+00 a       463     0    19     1    13
 -2.1864707578376685E-01 a       464     0    19     1    14
 -4.9116843723804676E-01 a       465     0    19     1    15
 -1.4129447010942067E-02 a       466     0    19     1    16
 -1.6050956895839469E-01 a       467     0    19     1    17
  1.6023786395036079E+00 a       468     0    19     1    18
  1.0418234058522208E-01 a       469     0    19     1    19
  6.5965521053513543E-01 a       470     0    19     1    20
 -1.5606844116166829E+00 a       471     0    19     1    21
  6.0655645693902049E-01 a       472     0    19     1    22
  1.0613900864148214E-01 a       473     0    19     1    23
  3.2790733644792469E-01 a       474     0    19     1    24
 -1.3561602072536010E+00 a       475     0    19     1    25
 -1.5873010030181873E+00 a       476     0    20     1     1
 -1.2444602192746559E-01 a       477     0    20     1     2
 -4.5183728401218568E+00 a       478     0    20     1     3
  3.1254505449469319E+00 a       479     0    20     1     4
  1.9780314448306735E-01 a       480     0    20     1     5
 -2.4902191575114818E+00 a       481     0    20     1     6
  1.5589298964348712E+00 a       482     0    20     1     7
 -5.9992378779368236E-02 a       483     0    20     1     8
 -2.0818069691117409E+00 a       484     0    20     1     9
  3.9689501177903519E-01 a       485     0    20     1    10
  1.1651309973875801E+00 a       486     0    20     1    11
 -1.8087281058935933E-02 a       487     0    20     1    12
  2.1216922967226632E+00 a       488     0    20     1    13
  1.7231670331603494E-01 a       489     0    20     1    14
  1.1452556318639096E-01 a       490     0    20     1    15
  4.9431242902582107E-01 a       491     0    20     1    16
 -6.6355449529348942E-01 a       492     0    20     1    17
  4.8225241086965429E+00 a       493     0    20     1    18
  6.4346848629965439E-02 a       494     0    20     1    19
  9.3586510818328500E-02 a       495     0    20     1    20
 -5.0681278635156501E-01 a       496     0    20     1    21
  1.0159886794645290E+00 a       497     0    20     1    22
 -6.2556543590204838E-01 a       498     0    20     1    23
  2.4770306931028832E+00 a       499     0    20     1    24
  2.3551797955896314E-01 a       500     0    20     1    25
 -4.4563663964690930E-01 a       501     0    21     1     1
  3.2496001526030110E-01 a       502     0    21     1     2
 -4.4979293650981953E+00 a       503     0    21     1     3
  5.1905990056437910E+00 a       504     0    21     1     4
  1.9010832189165294E-01 a       505     0    21     1     5
  5.4126544114015331E-02 a       506     0    21     1     6
 -6.7464480991202058E-01 a       507     0    21     1     7
  9.5801786455011706E-01 a       508     0    21     1     8
 -6.9539122649973484E-01 a       509     0    21     1     9
  5.9297326987634629E-03 a       510     0    21     1    10
  2.0126674264620625E+00 a       511     0    21     1    11
 -1.9451986930899326E-01 a       512     0    21     1    12
 -2.3990943267238789E+00 a       513     0    21     1    13
  1.9200375214903440E+00 a       514     0    21     1    14
 -1.4040912570318365E+00 a       515     0    21     1    15
  1.9016080620481153E+00 a       516     0    21     1    16
  2.4787739346893400E+00 a       517     0    21     1    17
  1.0851830860941312E+00 a       518     0    21     1    18
  1.3720612980259124E+00 a       519     0    21     1    19
 -1.0502206098212445E+00 a       520     0    21     1    20
  1.5702014492148981E+00 a       521     0    21     1    21
  7.0828919556115022E-01 a       522     0    21     1    22
 -1.4013315718116297E+00 a       523     0    21     1    23
  1.3886526097204928E+00 a       524     0    21     1    24
  5.0307727131193847E+00 a       525     0    21     1    25
 -2.7230613891667488E-01 a       526     0    22     1     1
  3.2641560547295645E-01 a       527     0    22     1     2
  4.1095367213236562E+00 a       528     0    22     1     3
 -3.1732509461624492E+00 a       529     0    22     1     4
 -2.2965569315465101E-01 a       530     0    22     1     5
  5.1716062775792188E-03 a       531     0    22     1     6
  4.3061277095461181E-01 a       532     0    22     1     7
  9.4565817869289037E-01 a       533     0    22     1     8
 -1.2371919391638002E+00 a       534     0    22     1     9
 -6.5364258748765380E-01 a       535     0    22     1    10
 -1.0612153134044295E+00 a       536     0    22     1    11
 -1.4713221974006878E+00 a       537     0    22     1    12
  1.1527410593894037E-01 a       538     0    22     1    13
  4.2141496454579119E+00 a       539     0    22     1    14
  1.0499943030929726E-01 a       540     0    22     1    15
 -2.4057592357547741E+00 a       541     0    22     1    16
  3.1263518059007034E-01 a       542     0    22     1    17
 -3.3642120571222267E+00 a       543     0    22     1    18
  1.1752772712013915E-01 a       544     0    22     1    19
 -7.7358218947689183E-01 a       545     0    22     1    20
  5.3711621458840497E-01 a       546     0    22     1    21
 -3.1549874407077916E-01 a       547     0    22     1    22
 -1.5602061560514457E+00 a       548     0    22     1    23
 -1.3117380508555505E+00 a       549     0    22     1    24
 -1.5419815607829306E+00 a       550     0    22     1    25
  1.6655144944369686E+00 a       551     0    23     1     1
 -3.8147800025614331E-01 a       552     0    23     1     2
  2.0619003541255316E+00 a       553     0    23     1     3
 -1.7544472981497525E+00 a       554     0    23     1     4
 -2.2178073549233734E-01 a       555     0    23     1     5
  1.0923477714278034E+00 a       556     0    23     1     6
 -3.6803016593303722E-01 a       557     0    23     1     7
 -1.7825452742082408E+00 a       558     0    23     1     8
  2.0904720152296203E+00 a       559     0    23     1     9
 -5.4861055938827308E-01 a       560     0    23     1    10
 -1.5008921439081502E+00 a       561     0    23     1    11
  8.5500118514507661E-01 a       562     0    23     1    12
  6.8730218247036279E-01 a       563     0    23     1    13
 -5.6439058156801210E+00 a       564     0    23     1    14
  1.3231475814723475E+00 a       565     0    23     1    15
  6.0063819452808309E-01 a       566     0    23     1    16
 -1.6321678005280380E+00 a       567     0    23     1    17
  9.7080686049566711E-01 a       568     0    23     1    18
 -9.4387447399462865E-01 a       569     0    23     1    19
  5.9902632589691440E-01 a       570     0    23     1    20
 -2.9872727861454768E-01 a       571     0    23     1    21
 -1.0484065728137402E+00 a       572     0    23     1    22
  2.7811415496789489E+00 a       573     0    23     1    23
 -2.0055049294896074E-01 a       574     0    23     1    24
 -2.5118680245889831E+00 a       575     0    23     1    25
  1.1063313159757796E-01 a       576     0    24     1     1
 -4.0069057212586418E-01 a       577     0    24     1     2
 -6.7394661273720513E-01 a       578     0    24     1     3
  8.1945186628100108E-01 a       579     0    24     1     4
 -5.9121016287464356E-01 a       580     0    24     1     5
 -2.8049636114921167E-01 a       581     0    24     1     6
  6.3022851212992692E-01 a       582     0    24     1     7
 -2.6210545225192367E-01 a       583     0    24     1     8
  4.8492940414129110E-01 a       584     0    24     1     9
  1.0554813508898353E+00 a       585     0    24     1    10
  6.6607564628052085E-01 a       586     0    24     1    11
 -2.1898546022458004E-01 a       587     0    24     1    12
 -8.6423327433951913E-01 a       588     0    24     1    13
 -1.4876964089333580E+00 a       589     0    24     1    14
  1.1653484144366464E+00 a       590     0    24     1    15
 -7.8440558815303862E-01 a       591     0    24     1    16
 -1.1883947335383822E+00 a       592     0    24     1    17
 -1.6932250913926210E+00 a       593     0    24     1    18
  1.2795995269311605E-02 a       594     0    24     1    19
  9.8463669869375792E-01 a       595     0    24     1    20
 -1.4629035968117594E+00 a       596     0    24     1    21
  2.8135174624841880E-01 a       597     0    24     1    22
 -3.0366541388764871E-02 a       598     0    24     1    23
  8.7981652948740507E-01 a       599     0    24     1    24
  1.1763467377693690E+00 a       600     0    24     1    25
 -3.0432774062858564E-01 a       601     0    25     1     1
  6.3940616147591978E-01 a       602     0    25     1     2
  6.8639268130456266E-01 a       603     0    25     1     3
 -8.8496801354656252E-01 a       604     0    25     1     4
  1.4375737155557882E+00 a       605     0    25     1     5
  4.7835601219281648E-01 a       606     0    25     1     6
 -9.0486299876079124E-01 a       607     0    25     1     7
  3.4960097770396131E-01 a       608     0    25     1     8
 -1.4613373522852620E+00 a       609     0    25     1     9
 -1.3876250805029429E+00 a       610     0    25     1    10
 -1.1388386392842309E+00 a       611     0    25     1    11
  3.2446257499379960E-01 a       612     0    25     1    12
  2.0454393858974265E+00 a       613     0    25     1    13
  2.8953419471529398E+00 a       614     0    25     1    14
 -2.4074286814259529E+00 a       615     0    25     1    15
  1.0521297387270248E+00 a       616     0    25     1    16
  2.0621779165926815E+00 a       617     0    25     1    17
  3.0446051979417228E+00 a       618     0    25     1    18
  2.3539730055719324E-01 a       619     0    25     1    19
 -1.7553932856786481E+00 a       620     0    25     1    20
  2.2466903388994224E+00 a       621     0    25     1    21
 -4.4714558661183418E-01 a       622     0    25     1    22
  6.8904550545063432E-03 a       623     0    25     1    23
 -1.1253716082481702E+00 a       624     0    25     1    24
 -1.7354184911382688E+00 a       625     0    25     1    25
  1.1182788618662884E-01 a       626     0    26     1     1
 -2.2682841373826163E-01 a       627     0    26     1     2
 -1.1293152930003214E-01 a       628     0    26     1     3
  1.8198993347267584E-01 a       629     0    26     1     4
 -7.4224731693526247E-01 a       630     0    26     1     5
 -1.3524385205501294E-01 a       631     0    26     1     6
  3.1280376191320891E-01 a       632     0    26     1     7
 -9.8207329346222311E-02 a       633     0    26     1     8
  9.1212920782300455E-01 a       634     0    26     1     9
  4.9054763446693084E-01 a       635     0    26     1    10
  5.0844500913049362E-01 a       636     0    26     1    11
 -1.1424409329686536E-01 a       637     0    26     1    12
 -1.1191751408108785E+00 a       638     0    26     1    13
 -1.4044668126728288E+00 a       639     0    26     1    14
  1.1637587910604206E+00 a       640     0    26     1    15
 -2.6404699239440987E-01 a       641     0    26     1    16
 -9.3500661948263841E-01 a       642     0    26     1    17
 -1.4128711273814325E+00 a       643     0    26     1    18
 -2.5994866179216025E-01 a       644     0    26     1    19
  7.9277150152454245E-01 a       645     0    26     1    20
 -8.0655538597214482E-01 a       646     0    26     1    21
  1.8498980330544890E-01 a       647     0    26     1    22
 -3.9534950533276873E-02 a       648     0    26     1    23
  3.0268337936759815E-01 a       649     0    26     1    24
  5.7858650063686456E-01 a       650     0    26     1    25
 -6.0385472288912986E-02 b       651     1     1
  6.2140641291496469E-02 b       652     1     2
 -7.8399353654109605E-02 b       653     1     3
 -3.7935450703063291E-02 b       654     1     4
  4.7830280571202137E-02 b       655     1     5
  2.7367505713646930E-02 b       656     1     6
  3.0809706065039577E-02 b       657     1     7
 -5.8279831733627475E-02 b       658     1     8
 -2.5301117628715362E-02 b       659     1     9
  1.1470175696272970E-01 b       660     1    10
  2.4206072992854738E-02 b       661     1    11
  1.6518552144884086E-01 b       662     1    12
  1.7660861511250300E-01 b       663     1    13
  1.6031448356698988E-01 b       664     1    14
  1.6825141154557518E-02 b       665     1    15
 -2.7367855267900074E-02 b       666     1    16
 -3.4622222764405853E-03 b       667     1    17
 -1.8415537277225366E-01 b       668     1    18
  1.7987097516141005E-02 b       669     1    19
 -4.3682145263294204E-02 b       670     1    20
  1.3109731836166835E-01 b       671     1    21
 -3.5434608285315368E-02 b       672     1    22
 -2.7425128602790508E-02 b       673     1    23
  1.2351095579554383E-02 b       674     1    24
 -1.0443795589345541E-01 b       675     1    25
  1.3219995994266674E-02 a       676     1     1     2     1
  3.2298807044591246E-02 a       677     1     1     2     2
 -2.7326036422380667E-01 a       678     1     1     2     3
 -3.6688653602189020E-01 a       679     1     1     2     4
 -2.5219132134595840E-01 a       680     1     1     2     5
 -1.9844084122918823E-01 a       681     1     1     2     6
  4.1490879485676491E-01 a       682     1     1     2     7
 -2.8040985209106469E-02 a       683     1     1     2     8
  4.0214996057586988E-01 a       684     1     1     2     9
  6.6150617798641798E-01 a       685     1     1     2    10
  2.5398718449957325E-01 a       686     1     1     2    11
  4.9701908781030146E-01 a       687     1     1     2    12
  1.1326279214435089E+00 a       688     1     1     2    13
  3.1539955116613055E-01 a       689     1     1     2    14
 -2.5623495767513925E-03 a       690     1     1     2    15
  3.1560282161598058E-01 a       691     1     1     2    16
  1.1379800927746930E+00 a       692     1     1     2    17
  6.0496063478946571E-01 a       693     1     1     2    18
 -1.5957129681134891E-01 a       694     1     1     2    19
  1.1354967114113775E-01 a       695     1     1     2    20
 -6.0111615331419210E-01 a       696     1     1     2    21
  5.2624208912986026E-01 a       697     1     1     2    22
 -2.4814228395316559E-01 a       698     1     1     2    23
 -1.5323778613179315E-01 a       699     1     1     2    24
  1.8193951186257604E-01 a       700     1     1     2    25
  2.1514767580291100E-01 a       701     1     2     2     1
  5.7377397753589376E-01 a       702     1     2     2     2
  3.1936778620238310E-01 a       703     1     2     2     3
  3.1539043725236866E-02 a       704     1     2     2     4
  3.9048070987590202E-03 a       705     1     2     2     5
  3.6687356826390105E-01 a       706     1     2     2     6
 -6.2610399253120175E-01 a       707     1     2     2     7
 -1.9166195445307424E-01 a       708     1     2     2     8
 -4.5567875919662999E-02 a       709     1     2     2     9
 -2.8172715040062274E-01 a       710     1     2     2    10
 -1.5008632103177855E-01 a       711     1     2     2    11
  1.4364906689269831E-02 a       712     1     2     2    12
 -9.7944696424648481E-01 a       713     1     2     2    13
 -1.2813050215400272E+00 a       714     1     2     2    14
  1.4490905645537638E-01 a       715     1     2     2    15
  1.4426673198957873E-01 a       716     1     2     2    16
  4.0692032688769680E-01 a       717     1     2     2    17
  5.6813908361913315E-02 a       718     1     2     2    18
 -6.3283404370966037E-02 a       719     1     2     2    19
  2.9858069149753830E-01 a       720     1     2     2    20
  5.8431458670774927E-01 a       721     1     2     2    21
 -1.5182344407281545E-01 a       722     1     2     2    22
  1.0577936033328773E-01 a       723     1     2     2    23
  1.9878479838908536E-01 a       724     1     2     2    24
 -1.8590216236787960E-01 a       725     1     2     2    25
  8.8141802660801238E-02 a       726     1     3     2     1
  2.1799988787300290E-01 a       727     1     3     2     2
  4.6744798771051199E-01 a       728     1     3     2     3
  5.4467576329616352E-01 a       729     1     3     2     4
 -5.9116841283585277E-02 a       730     1     3     2     5
 -2.1710240102676118E-01 a       731     1     3     2     6
  4.7650037095793524E-01 a       732     1     3     2     7
 -1.4099619760039608E-01 a       733     1     3     2     8
 -5.6249112807716606E-01 a       734     1     3     2     9
 -3.1077369269904753E-01 a       735     1     3     2    10
 -3.8493009554693275E-01 a       736     1     3     2    11
 -5.4710543705761894E-01 a       737     1     3     2    12
  5.1345935059053327E-01 a       738     1     3     2    13
 -5.9516642695879318E-01 a       739     1     3     2    14
  2.8402866566792245E-01 a       740     1     3     2    15
 -2.7843552043693237E-01 a       741     1     3     2    16
  7.6255326321576644E-01 a       742     1     3     2    17
 -2.6572793855666305E-01 a       743     1     3     2    18
 -5.2121021500427536E-02 a       744     1     3     2    19
 -4.0093566340578179E-01 a       745     1     3     2    20
 -3.9967194010398110E-02 a       746     1     3     2    21
  3.5847861106124318E-01 a       747     1     3     2    22
 -1.4816602020382794E-01 a       748     1     3     2    23
 -1.6892402566256337E-01 a       749     1     3     2    24
 -2.8858860299832884E-01 a       750     1     3     2    25
  1.2325199525208053E-01 a       751     1     4     2     1
  5.6527630033267315E-02 a       752     1     4     2     2
  6.2661695780640694E-02 a       753     1     4     2     3
  1.1457266682805310E-01 a       754     1     4     2     4
  2.6436511690082415E-01 a       755     1     4     2     5
 -2.2874264248944937E-01 a       756     1     4     2     6
  4.1682047530485683E-02 a       757     1     4     2     7
  1.1762433619978468E-01 a       758     1     4     2     8
 -2.6386635774586259E-03 a       759     1     4     2     9
  6.2502767985290841E-01 a       760     1     4     2    10
  4.1502336200268630E-01 a       761     1     4     2    11
  4.6924841642239784E-01 a       762     1     4     2    12
  6.4006983190677913E-01 a       763     1     4     2    13
 -4.6190921808730578E-02 a       764     1     4     2    14
 -1.9886877093470559E-01 a       765     1     4     2    15
 -1.2016082429823152E-02 a       766     1     4     2    16
  3.6649161313553877E-02 a       767     1     4     2    17
  2.8916729989126788E-01 a       768     1     4     2    18
 -4.1694687567529287E-01 a       769     1     4     2    19
 -1.4427130550572073E-01 a       770     1     4     2    20
 -2.4120165136400559E-01 a       771     1     4     2    21
  1.6569284705056167E-01 a       772     1     4     2    22
 -5.9802856589831099E-01 a       773     1     4     2    23
  3.9580702708128035E-01 a       774     1     4     2    24
 -1.4916487146561577E-01 a       775     1     4     2    25
  3.5575189355073727E-01 a       776     1     5     2     1
 -5.2227600324233722E-02 a       777     1     5     2     2
 -1.7008594238139910E-01 a       778     1     5     2     3
  1.9439239749991677E-03 a       779     1     5     2     4
 -9.1799083609817797E-02 a       780     1     5     2     5
  2.7937576561297239E-01 a       781     1     5     2     6
 -2.8722039878164918E-01 a       782     1     5     2     7
  3.2619796082949920E-01 a       783     1     5     2     8
 -3.8942978887058910E-01 a       784     1     5     2     9
 -1.0783920853435876E-01 a       785     1     5     2    10
 -5.3962784415622611E-01 a       786     1     5     2    11
 -2.8316166183354957E-01 a       787     1     5     2    12
  1.3520955782773842E+00 a       788     1     5     2    13
  1.8846474024184205E-02 a       789     1     5     2    14
 -2.4326811141197643E-01 a       790     1     5     2    15
 -5.8328148301376156E-02 a       791     1     5     2    16
  2.6538097630172897E-01 a       792     1     5     2    17
  2.8157302592571898E-01 a       793     1     5     2    18
  3.3070793483514055E-01 a       794     1     5     2    19
 -5.1890699691436681E-01 a       795     1     5     2    20
  1.6411334956483527E-02 a       796     1     5     2    21
  1.5297528827777354E-01 a       797     1     5     2    22
  5.6615720365236943E-01 a       798     1     5     2    23
  2.3687792547489483E-01 a       799     1     5     2    24
  8.1661362515796920E-02 a       800     1     5     2    25
  2.1226409306947355E-01 a       801     1     6     2     1
 -5.2516162142161371E-01 a       802     1     6     2     2
  3.6338858163024840E-01 a       803     1     6     2     3
 -9.7753446107340311E-02 a       804     1     6     2     4
  1.4667501350547323E-02 a       805     1     6     2     5
  1.9292470255697126E-02 a       806     1     6     2     6
  1.1713165080078571E+00 a       807     1     6     2     7
  1.0216402760763137E-01 a       808     1     6     2     8
 -5.4669652911602376E-02 a       809     1     6     2     9
 -3.6424126970705534E-01 a       810     1     6     2    10
  3.3859581509964121E-01 a       811     1     6     2    11
 -5.0398637366331281E-02 a       812     1     6     2    12
 -9.7320766256055857E-01 a       813     1     6     2    13
 -3.1253718733208530E-01 a       814     1     6     2    14
 -8.6757380657182137E-02 a       815     1     6     2    15
 -1.7957615773712679E-01 a       816     1     6     2    16
  4.4813565177457643E-01 a       817     1     6     2    17
 -1.4519931202799707E-01 a       818     1     6     2    18
 -3.8549996134523379E-01 a       819     1     6     2    19
  7.4635916863750221E-02 a       820     1     6     2    20
  1.5667784194202602E-01 a       821     1     6     2    21
 -2.2520054614963925E-02 a       822     1     6     2    22
 -2.6867139487042269E-01 a       823     1     6     2    23
  3.2944566971805550E-01 a       824     1     6     2    24
 -1.3793934489921728E-01 a       825     1     6     2    25
 -2.9867827294923704E-01 a       826     1     7     2     1
 -3.4556779879431004E-01 a       827     1     7     2     2
 -1.7769241216177215E-01 a       828     1     7     2     3
  1.4365562476926308E-01 a       829     1     7     2     4
  1.4104195423674132E-01 a       830     1     7     2     5
 -1.9713449026780624E-01 a       831     1     7     2     6
 -3.3574524793880572E-01 a       832     1     7     2     7
  3.1649706529917632E-01 a       833     1     7     2     8
  1.8144939880299987E-01 a       834     1     7     2     9
  5.4581350405174284E-02 a       835     1     7     2    10
  3.0643384297120463E-01 a       836     1     7     2    11
  1.7403616244323564E-01 a       837     1     7     2    12
 -9.6176772041690883E-01 a       838     1     7     2    13
 -3.2859377108619292E-01 a       839     1     7     2    14
  8.4541156063964687E-02 a       840     1     7     2    15
  9.2034414171404733E-02 a       841     1     7     2    16
  7.0939366812463028E-03 a       842     1     7     2    17
  2.0519153572853396E-01 a       843     1     7     2    18
 -2.3949856644328565E-01 a       844     1     7     2    19
 -4.7306060935475548E-02 a       845     1     7     2    20
  1.9691281855227416E-01 a       846     1     7     2    21
 -1.0859964460587637E-01 a       847     1     7     2    22
  1.2877508028943804E-01 a       848     1     7     2    23
 -2.5682411806403077E-01 a       849     1     7     2    24
  4.1251887376543739E-01 a       850     1     7     2    25
  1.0193248095270691E-01 a       851     1     8     2     1
  8.2320589704801217E-02 a       852     1     8     2     2
  7.4920390369039103E-01 a       853     1     8     2     3
 -3.1412166028825822E-01 a       854     1     8     2     4
 -1.5585361959158550E-01 a       855     1     8     2     5
 -1.2354116814107768E-01 a       856     1     8     2     6
  1.6527148233848860E-01 a       857     1     8     2     7
  2.4348256660541115E-01 a       858     1     8     2     8
  4.9801938294111869E-01 a       859     1     8     2     9
  5.5297261059947245E-01 a       860     1     8     2    10
  1.7381272491974001E-01 a       861     1     8     2    11
  2.5018497724800959E-01 a       862     1     8     2    12
 -4.5965928701851166E-01 a       863     1     8     2    13
 -5.8685917667799037E-01 a       864     1     8     2    14
 -2.2801856881446125E-01 a       865     1     8     2    15
  2.8129583964826971E-01 a       866     1     8     2    16
  1.0763358980953321E+00 a       867     1     8     2    17
  1.1385065346019223E-01 a       868     1     8     2    18
  6.8703343319122092E-03 a       869     1     8     2    19
 -1.4722407842669236E-01 a       870     1     8     2    20
  1.4946299141311778E-01 a       871     1     8     2    21
 -9.6231593800533741E-02 a       872     1     8     2    22
 -2.8587170640254056E-01 a       873     1     8     2    23
  8.3754896400843645E-02 a       874     1     8     2    24
  2.4239397328207701E-01 a       875     1     8     2    25
  3.6809018380350778E-01 a       876     1     9     2     1
 -4.1564106181992821E-01 a       877     1     9     2     2
  1.3389079787210187E-01 a       878     1     9     2     3
 -3.1980829989179377E-01 a       879     1     9     2     4
 -3.1148255520677520E-01 a       880     1     9     2     5
 -3.7987631334484100E-03 a       881     1     9     2     6
  1.7790105700645247E+00 a       882     1     9     2     7
  1.9131816577584673E-01 a       883     1     9     2     8
  1.7286406098569129E-01 a       884     1     9     2     9
  1.9174816998475097E-01 a       885     1     9     2    10
  5.3420484724626782E-01 a       886     1     9     2    11
  8.8100707989074634E-01 a       887     1     9     2    12
 -6.6862299402860259E-02 a       888     1     9     2    13
 -4.1600291508889969E-01 a       889     1     9     2    14
 -1.0064802466638154E-01 a       890     1     9     2    15
 -1.7768794646722594E-01 a       891     1     9     2    16
  1.1826380489073711E+00 a       892     1     9     2    17
 -1.3388421345664961E-01 a       893     1     9     2    18
  1.6003719134680133E-01 a       894     1     9     2    19
 -8.0236151449162366E-03 a       895     1     9     2    20
  3.5421991621694837E-01 a       896     1     9     2    21
 -3.9403826394882846E-01 a       897     1     9     2    22
  1.6659858869479671E-01 a       898     1     9     2    23
  1.1053745594773277E-01 a       899     1     9     2    24
  1.0754168477012192E-01 a       900     1     9     2    25
  3.5024672230801440E-02 a       901     1    10     2     1
  5.3492819702196624E-02 a       902     1    10     2     2
  2.3879404183724007E-01 a       903     1    10     2     3
 -9.2581372165321502E-02 a       904     1    10     2     4
  3.1965961360957855E-02 a       905     1    10     2     5
 -2.3351335541188489E-01 a       906     1    10     2     6
  9.0396655354508126E-01 a       907     1    10     2     7
  1.4494858641445686E-02 a       908     1    10     2     8
  5.0053860745494105E-01 a       909     1    10     2     9
 -4.2438464431831455E-03 a       910     1    10     2    10
  5.0230453535069708E-01 a       911     1    10     2    11
  2.6815381032686059E-01 a       912     1    10     2    12
 -9.9752393621064561E-01 a       913     1    10     2    13
  5.7677870998010272E-01 a       914     1    10     2    14
  2.5450909394541876E-01 a       915     1    10     2    15
  5.1021953443460305E-02 a       916     1    10     2    16
 -1.1165458110447968E-01 a       917     1    10     2    17
 -2.4049236580929523E-01 a       918     1    10     2    18
 -8.3426674900676145E-01 a       919     1    10     2    19
 -1.3756464727032697E-01 a       920     1    10     2    20
 -3.4108807225931331E-01 a       921     1    10     2    21
 -3.5114414560438023E-01 a       922     1    10     2    22
 -6.8462665282171598E-01 a       923     1    10     2    23
  1.0976403238695598E-01 a       924     1    10     2    24
  1.8527529577915594E-01 a       925     1    10     2    25
 -8.7143768867496446E-02 a       926     1    11     2     1
  6.5039957497914314E-01 a       927     1    11     2     2
  6.8727465448286318E-01 a       928     1    11     2     3
  2.3590470039173869E-01 a       929     1    11     2     4
 -7.5470854871509813E-02 a       930     1    11     2     5
 -1.2373090375343332E-01 a       931     1    11     2     6
  7.0264825030893219E-01 a       932     1    11     2     7
  1.3281831361571400E-01 a       933     1    11     2     8
  8.5096262364443828E-02 a       934     1    11     2     9
 -6.9007449392496534E-01 a       935     1    11     2    10
 -3.2635739782044322E-02 a       936     1    11     2    11
 -4.7066382388599941E-02 a       937     1    11     2    12
  8.2982293315818328E-02 a       938     1    11     2    13
 -4.6142892030513011E-01 a       939     1    11     2    14
 -2.1149859282882896E-01 a       940     1    11     2    15
  2.1896271531189320E-02 a       941     1    11     2    16
  7.2768812613122202E-01 a       942     1    11     2    17
  2.8183558619622240E-01 a       943     1    11     2    18
  5.3792303052625534E-01 a       944     1    11     2    19
 -5.3320278431642143E-01 a       945     1    11     2    20
  4.4342795456581713E-01 a       946     1    11     2    21
  4.0829512156861153E-01 a       947     1    11     2    22
  1.5526098973061153E-01 a       948     1    11     2    23
  3.9096745531872840E-02 a       949     1    11     2    24
 -9.4209372443763151E-01 a       950     1    11     2    25
  1.5864340268190574E-01 a       951     1    12     2     1
  4.9412096265009853E-01 a       952     1    12     2     2
 -4.0698985845983593E-01 a       953     1    12     2     3
  1.3368755183052558E-01 a       954     1    12     2     4
 -3.0384896599888057E-02 a       955     1    12     2     5
 -3.3624483787739315E-02 a       956     1    12     2     6
  1.8208102243439408E+00 a       957     1    12     2     7
  1.4037700838988752E-02 a       958     1    12     2     8
  2.7173674438838796E-01 a       959     1    12     2     9
  5.0451185452641734E-01 a       960     1    12     2    10
  5.5311476056810038E-01 a       961     1    12     2    11
  1.7095409108893339E-01 a       962     1    12     2    12
 -2.6755683565943561E-01 a       963     1    12     2    13
  5.7764150563392203E-01 a       964     1    12     2    14
  3.6565711587968841E-02 a       965     1    12     2    15
  2.7597843725927035E-01 a       966     1    12     2    16
  4.9420592571807413E-02 a       967     1    12     2    17
  3.8548652692711677E-01 a       968     1    12     2    18
 -8.3430089064547863E-01 a       969     1    12     2    19
  7.8431143926902358E-01 a       970     1    12     2    20
 -2.1859504407142191E-01 a       971     1    12     2    21
 -5.5833404560382061E-01 a       972     1    12     2    22
 -3.6395316426020780E-01 a       973     1    12     2    23
 -5.6866237025207200E-01 a       974     1    12     2    24
 -3.7741164344026806E-01 a       975     1    12     2    25
 -9.2399494629253801E-02 a       976     1    13     2     1
 -6.4338461212732223E-01 a       977     1    13     2     2
 -7.9472832833930446E-02 a       978     1    13     2     3
 -6.0713395595109143E-01 a       979     1    13     2     4
 -3.0137801716754181E-01 a       980     1    13     2     5
 -2.5634012714625048E-02 a       981     1    13     2     6
 -1.0330692940307724E+00 a       982     1    13     2     7
 -1.1247867790883084E-01 a       983     1    13     2     8
 -7.8920124851908102E-01 a       984     1    13     2     9
  1.7804547246954691E-01 a       985     1    13     2    10
  4.2610986247033987E-02 a       986     1    13     2    11
 -2.3506890663612609E-01 a       987     1    13     2    12
  3.9743156400127361E-01 a       988     1    13     2    13
  9.9284651316713116E-02 a       989     1    13     2    14
 -8.7517359549141582E-02 a       990     1    13     2    15
  4.2396788314435807E-01 a       991     1    13     2    16
 -1.0221248369921980E+00 a       992     1    13     2    17
 -5.4963635134264344E-01 a       993     1    13     2    18
  1.7575992229029014E-01 a       994     1    13     2    19
 -1.2568481204246762E-01 a       995     1    13     2    20
  4.5818214174074390E-01 a       996     1    13     2    21
  5.9752852716644467E-01 a       997     1    13     2    22
  5.4075957791702933E-01 a       998     1    13     2    23
 -2.3337454347564271E-01 a       999     1    13     2    24
 -3.0600855398496368E-01 a      1000     1    13     2    25
 -6.0757173510530760E-01 a      1001     1    14     2     1
 -6.2007874704481003E-01 a      1002     1    14     2     2
 -3.1138881978767635E-01 a      1003     1    14     2     3
  3.5537802203479602E-02 a      1004     1    14     2     4
  4.6918478989748885E-01 a      1005     1    14     2     5
 -1.4717585889405990E-01 a      1006     1    14     2     6
  1.7698509301814542E+00 a      1007     1    14     2     7
  3.8132972057518560E-01 a      1008     1    14     2     8
  5.4186198483620895E-01 a      1009     1    14     2     9
  6.5828223741165412E-02 a      1010     1    14     2    10
 -2.4817110499348219E-01 a      1011     1    14     2    11
 -4.1477873606037158E-01 a      1012     1    14     2    12
  8.7790241146808656E-01 a      1013     1    14     2    13
 -6.6105712996649835E-01 a      1014     1    14     2    14
 -4.2800885632184343E-02 a      1015     1    14     2    15
  7.7883876476635930E-02 a      1016     1    14     2    16
 -1.1051387284913473E-01 a      1017     1    14     2    17
  3.4885475501194046E-01 a      1018     1    14     2    18
  5.3601418596235129E-01 a      1019     1    14     2    19
  6.0950333709347226E-01 a      1020     1    14     2    20
 -3.6225114208125314E-01 a      1021     1    14     2    21
 -1.6970781113894348E-01 a      1022     1    14     2    22
 -3.3798864008372886E-01 a      1023     1    14     2    23
 -3.9068943534271278E-01 a      1024     1    14     2    24
  6.8158342755487367E-01 a      1025     1    14     2    25
  1.4828098495167488E-01 a      1026     1    15     2     1
 -3.1139866541375671E-01 a      1027     1    15     2     2
 -1.2464565912243604E-01 a      1028     1    15     2     3
  3.4661943516472496E-03 a      1029     1    15     2     4
  1.5144776842049767E-01 a      1030     1    15     2     5
  2.8637009450455008E-02 a      1031     1    15     2     6
  6.6081161065177807E-01 a      1032     1    15     2     7
  2.5868873006893844E-01 a      1033     1    15     2     8
 -7.2379293912109982E-02 a      1034     1    15     2     9
  3.1082477284123645E-02 a      1035     1    15     2    10
 -6.2686753301415432E-02 a      1036     1    15     2    11
 -1.7329524362801182E-01 a      1037     1    15     2    12
  1.7683870798260091E-02 a      1038     1    15     2    13
  5.5062622435226627E-01 a      1039     1    15     2    14
 -1.5425444101566121E-01 a      1040     1    15     2    15
 -1.2506809590765355E-01 a      1041     1    15     2    16
 -1.4432373913146120E-02 a      1042     1    15     2    17
  2.4155406296611970E-01 a      1043     1    15     2    18
 -8.4781919786752175E-02 a      1044     1    15     2    19
 -5.8071758631341797E-01 a      1045     1    15     2    20
  8.9230749618235142E-02 a      1046     1    15     2    21
  3.6868383926126347E-01 a      1047     1    15     2    22
  3.5614214248393972E-01 a      1048     1    15     2    23
  3.3940602138487617E-02 a      1049     1    15     2    24
  5.7917857532562012E-01 a      1050     1    15     2    25
 -3.3382673667330709E-01 a      1051     1    16     2     1
 -6.6442144200719633E-01 a      1052     1    16     2     2
 -3.8711771463127992E-01 a      1053     1    16     2     3
  4.8565505858783198E-01 a      1054     1    16     2     4
  5.4761311747025909E-01 a      1055     1    16     2     5
  9.2278677882119187E-02 a      1056     1    16     2     6
  1.0446609447709088E+00 a      1057     1    16     2     7
 -4.3646946497362549E-01 a      1058     1    16     2     8
 -2.2810616205162729E-02 a      1059     1    16     2     9
  1.0231849733086475E-02 a      1060     1    16     2    10
  1.8445914951411976E-01 a      1061     1    16     2    11
  8.2397974143463393E-02 a      1062     1    16     2    12
 -4.3188268886369335E-01 a      1063     1    16     2    13
  1.2097764811040066E+00 a      1064     1    16     2    14
 -5.4819361112972997E-01 a      1065     1    16     2    15
 -3.1819604445054928E-01 a      1066     1    16     2    16
  6.8304189309247809E-01 a      1067     1    16     2    17
 -2.2193822735023500E-01 a      1068     1    16     2    18
 -1.7982740294343355E-01 a      1069     1    16     2    19
 -3.6552331646782760E-01 a      1070     1    16     2    20
  6.6143946329663228E-01 a      1071     1    16     2    21
  3.2965726788069571E-01 a      1072     1    16     2    22
 -4.4014916165149709E-01 a      1073     1    16     2    23
  4.6714460932509017E-01 a      1074     1    16     2    24
 -5.7312736949578902E-01 a      1075     1    16     2    25
 -1.1769101989799681E-01 a      1076     1    17     2     1
 -1.3793603196682075E-01 a      1077     1    17     2     2
  2.4325510187247218E-01 a      1078     1    17     2     3
 -5.8412289354274860E-01 a      1079     1    17     2     4
  1.0085952093732543E-01 a      1080     1    17     2     5
  3.6678323608858476E-01 a      1081     1    17     2     6
  5.2305882913434265E-01 a      1082     1    17     2     7
  7.5505992931256927E-01 a      1083     1    17     2     8
  1.9267796213429063E-02 a      1084     1    17     2     9
  3.4783636331581608E-01 a      1085     1    17     2    10
  2.6755991657176947E-01 a      1086     1    17     2    11
 -5.0468508136347168E-01 a      1087     1    17     2    12
  1.2368979658507084E+00 a      1088     1    17     2    13
 -3.9857709279382342E-01 a      1089     1    17     2    14
 -1.4119991061940557E-01 a      1090     1    17     2    15
  3.2805655920724031E-01 a      1091     1    17     2    16
 -9.0176723707003881E-01 a      1092     1    17     2    17
 -3.5853313691666944E-02 a      1093     1    17     2    18
 -6.8004648520383115E-01 a      1094     1    17     2    19
 -1.0472028823478920E-01 a      1095     1    17     2    20
 -6.3972631787755119E-01 a      1096     1    17     2    21
 -9.9555862614948454E-01 a      1097     1    17     2    22
 -2.9424201353360963E-01 a      1098     1    17     2    23
 -7.6822989351933824E-01 a      1099     1    17     2    24
 -1.8704548144392000E-01 a      1100     1    17     2    25
 -3.9534749387051794E-02 a      1101     1    18     2     1
 -4.9749902103010703E-02 a      1102     1    18     2     2
  1.3040336709581146E-01 a      1103     1    18     2     3
 -1.1051913335835509E-01 a      1104     1    18     2     4
 -2.2525043403489123E-01 a      1105     1    18     2     5
 -3.4857739084896415E-02 a      1106     1    18     2     6
  1.7457984720922668E+00 a      1107     1    18     2     7
  1.3832338981087319E-01 a      1108     1    18     2     8
 -1.4514432976880254E-01 a      1109     1    18     2     9
  4.0478701309192322E-01 a      1110     1    18     2    10
  2.9898054409266180E-02 a      1111     1    18     2    11
 -5.1316230747505999E-02 a      1112     1    18     2    12
 -1.1627711671433463E-01 a      1113     1    18     2    13
 -7.1199662869873932E-03 a      1114     1    18     2    14
  6.1648617153623655E-03 a      1115     1    18     2    15
  2.5350209293387826E-01 a      1116     1    18     2    16
 -6.5351083129349496E-01 a      1117     1    18     2    17
 -2.9609573260117483E-01 a      1118     1    18     2    18
  2.0707707658018232E-01 a      1119     1    18     2    19
  1.9646726513584792E-01 a      1120     1    18     2    20
  2.6763511214662633E-01 a      1121     1    18     2    21
 -6.0458780055684735E-01 a      1122     1    18     2    22
 -2.4751683731440258E-01 a      1123     1    18     2    23
 -2.4581958328675663E-01 a      1124     1    18     2    24
  1.3469760298450775E-01 a      1125     1    18     2    25
  5.5705821061994031E-02 a      1126     1    19     2     1
  2.0810556966194652E-01 a      1127     1    19     2     2
  5.6368472150659665E-01 a      1128     1    19     2     3
  1.8909574518803246E-01 a      1129     1    19     2     4
 -3.6895537733950018E-02 a      1130     1    19     2     5
  2.3878244246161776E-01 a      1131     1    19     2     6
 -3.8990510330683353E-01 a      1132     1    19     2     7
 -1.5959321467236354E-01 a      1133     1    19     2     8
  6.6881166275162229E-01 a      1134     1    19     2     9
 -3.5563802464551729E-02 a      1135     1    19     2    10
  1.3589560256640215E-01 a      1136     1    19     2    11
  3.4715759038368577E-01 a      1137     1    19     2    12
 -9.8335462524218498E-01 a      1138     1    19     2    13
 -1.6191280595738630E-01 a      1139     1    19     2    14
 -3.8256401283259842E-02 a      1140     1    19     2    15
 -1.5854839583563887E-01 a      1141     1    19     2    16
 -9.7066690501333597E-01 a      1142     1    19     2    17
  4.4368308587059363E-01 a      1143     1    19     2    18
 -3.2536672231791236E-01 a      1144     1    19     2    19
  5.3213455641777221E-02 a      1145     1    19     2    20
  2.5856686651993477E-01 a      1146     1    19     2    21
 -7.0100738546908481E-01 a      1147     1    19     2    22
  2.5353057797550127E-01 a      1148     1    19     2    23
 -5.0599105507296016E-02 a      1149     1    19     2    24
 -1.9614927339024504E-02 a      1150     1    19     2    25
 -1.9115606911845606E-01 a      1151     1    20     2     1
  2.1980395447241046E-02 a      1152     1    20     2     2
 -3.0579511061637693E-01 a      1153     1    20     2     3
  1.6182115490282514E-01 a      1154     1    20     2     4
 -6.6464288833192928E-02 a      1155     1    20     2     5
 -2.4204654159246397E-01 a      1156     1    20     2     6
  2.0255375358982222E-01 a      1157     1    20     2     7
  4.5457966738679363E-02 a      1158     1    20     2     8
  9.4881904876962173E-02 a      1159     1    20     2     9
 -3.9391803217169591E-01 a      1160     1    20     2    10
  1.4025364369322993E-01 a      1161     1    20     2    11
  1.5409171064469429E-01 a      1162     1    20     2    12
 -1.5323033961356911E-01 a      1163     1    20     2    13
  2.2632582665862502E-01 a      1164     1    20     2    14
  7.2019089488213808E-03 a      1165     1    20     2    15
 -1.1949021221933724E-01 a      1166     1    20     2    16
  3.3173384892119090E-01 a      1167     1    20     2    17
 -2.7397189409092587E-01 a      1168     1    20     2    18
 -1.1044273903854931E-01 a      1169     1    20     2    19
  3.3836721940569287E-01 a      1170     1    20     2    20
 -1.6143867609488424E-01 a      1171     1    20     2    21
 -8.7429807487645929E-03 a      1172     1    20     2    22
  6.6966390876464249E-02 a      1173     1    20     2    23
 -1.1768357931410850E-01 a      1174     1    20     2    24
  5.2142023981258986E-02 a      1175     1    20     2    25
 -3.1388509937127401E-01 a      1176     1    21     2     1
  4.3384456326862075E-01 a      1177     1    21     2     2
 -3.9965755861756613E-01 a      1178     1    21     2     3
 -1.4682061315794986E-01 a      1179     1    21     2     4
  1.4405649503781806E-01 a      1180     1    21     2     5
  2.6292256995133167E-01 a      1181     1    21     2     6
  2.5383871511473771E-01 a      1182     1    21     2     7
 -7.0723908525486143E-02 a      1183     1    21     2     8
  5.1408438619033936E-01 a      1184     1    21     2     9
  1.4172604837919733E-01 a      1185     1    21     2    10
 -1.2033879774242469E-01 a      1186     1    21     2    11
 -3.6204333167886328E-02 a      1187     1    21     2    12
  4.8394442920570913E-01 a      1188     1    21     2    13
 -5.3447091271055636E-01 a      1189     1    21     2    14
  1.1761100390902474E-02 a      1190     1    21     2    15
  3.8907708705830718E-01 a      1191     1    21     2    16
 -1.3520355128310577E+00 a      1192     1    21     2    17
  5.5950632116213672E-01 a      1193     1    21     2    18
  2.1544915304122264E-01 a      1194     1    21     2    19
  6.5137389244142219E-01 a      1195     1    21     2    20
 -4.5516444248161070E-01 a      1196     1    21     2    21
  5.7927885165749607E-02 a      1197     1    21     2    22
 -2.3737671007816610E-01 a      1198     1    21     2    23
 -4.8053298722524135E-01 a      1199     1    21     2    24
  3.2866836894639212E-01 a      1200     1    21     2    25
  3.4035343136767170E-02 a      1201     1    22     2     1
  1.9371314608826476E-01 a      1202     1    22     2     2
  9.8867515953768276E-02 a      1203     1    22     2     3
 -3.1458034964014107E-02 a      1204     1    22     2     4
 -1.0283417348474530E-01 a      1205     1    22     2     5
 -1.6294800408179747E-01 a      1206     1    22     2     6
 -4.3737281289084373E-01 a      1207     1    22     2     7
  1.5558676137231430E-02 a      1208     1    22     2     8
 -1.6403357270187019E-01 a      1209     1    22     2     9
  1.2493052279975153E-01 a      1210     1    22     2    10
  2.6103117629662890E-02 a      1211     1    22     2    11
  1.0504217595817467E-01 a      1212     1    22     2    12
  5.1535764141812013E-01 a      1213     1    22     2    13
 -3.6094756999969074E-01 a      1214     1    22     2    14
 -7.7288513398139479E-03 a      1215     1    22     2    15
  1.8974884612761778E-01 a      1216     1    22     2    16
  1.4190063036326148E-01 a      1217     1    22     2    17
 -5.6315579052501674E-02 a      1218     1    22     2    18
 -8.5492789648427478E-02 a      1219     1    22     2    19
  4.6831160186248166E-02 a      1220     1    22     2    20
 -2.9024702726746682E-01 a      1221     1    22     2    21
  4.3909874581720590E-02 a      1222     1    22     2    22
 -1.3291049975577857E-01 a      1223     1    22     2    23
 -1.2544839554930415E-01 a      1224     1    22     2    24
 -7.3156833664189749E-02 a      1225     1    22     2    25
 -1.5981245447482067E-02 a      1226     1    23     2     1
 -4.8870144344815836E-01 a      1227     1    23     2     2
  5.2604325928597628E-01 a      1228     1    23     2     3
  7.1537881585221619E-01 a      1229     1    23     2     4
  6.7572523521441677E-02 a      1230     1    23     2     5
 -4.6766023938766815E-01 a      1231     1    23     2     6
  1.6868305206995784E+00 a      1232     1    23     2     7
 -5.4974596095081624E-02 a      1233     1    23     2     8
  1.9948406525717180E-01 a      1234     1    23     2     9
 -1.1826995712639226E+00 a      1235     1    23     2    10
  3.3174603004037462E-01 a      1236     1    23     2    11
 -3.2212486612370161E-01 a      1237     1    23     2    12
 -1.5988816735164060E+00 a      1238     1    23     2    13
 -5.2440348460965047E-01 a      1239     1    23     2    14
  5.3273789199825880E-02 a      1240     1    23     2    15
 -4.0318305537459936E-01 a      1241     1    23     2    16
  1.0184977360982883E+00 a      1242     1    23     2    17
  9.7948342843960409E-02 a      1243     1    23     2    18
 -9.1521370726610007E-01 a      1244     1    23     2    19
 -2.3371179898451191E-01 a      1245     1    23     2    20
  4.2126935029061174E-01 a      1246     1    23     2    21
  1.3908048388962568E-01 a      1247     1    23     2    22
 -4.2483960901162909E-01 a      1248     1    23     2    23
  5.4036267105472835E-01 a      1249     1    23     2    24
 -7.2587200944480212E-01 a      1250     1    23     2    25
 -1.9897504536331545E-01 a      1251     1    24     2     1
  4.0485820369446424E-01 a      1252     1    24     2     2
  2.8323754676847157E-01 a      1253     1    24     2     3
  2.9300935389246635E-01 a      1254     1    24     2     4
  5.0449835713838453E-01 a      1255     1    24     2     5
  2.1656593817873310E-01 a      1256     1    24     2     6
 -2.3913698909368658E-01 a      1257     1    24     2     7
  7.6346931286677300E-02 a      1258     1    24     2     8
  6.1465349676086267E-01 a      1259     1    24     2     9
 -8.4542923170818929E-01 a      1260     1    24     2    10
 -2.0652158615436962E-03 a      1261     1    24     2    11
 -7.8932736316566554E-02 a      1262     1    24     2    12
  5.7465211240213876E-01 a      1263     1    24     2    13
 -1.1062261763028629E+00 a      1264     1    24     2    14
  2.3469284252078212E-01 a      1265     1    24     2    15
 -3.4548133476390203E-01 a      1266     1    24     2    16
 -8.2280694176038849E-01 a      1267     1    24     2    17
  3.8109975244805278E-01 a      1268     1    24     2    18
 -1.3112183004397122E+00 a      1269     1    24     2    19
  5.3331456840264288E-02 a      1270     1    24     2    20
 -8.0172778288979007E-01 a      1271     1    24     2    21
 -1.0260105451889991E+00 a      1272     1    24     2    22
  7.2407110682502412E-02 a      1273     1    24     2    23
  2.9141399673120856E-02 a      1274     1    24     2    24
  4.4682637630963452E-02 a      1275     1    24     2    25
  2.2198687047662902E-01 a      1276     1    25     2     1
 -3.1352553238850389E-01 a      1277     1    25     2     2
 -4.9965449173877841E-01 a      1278     1    25     2     3
 -9.1564270662534863E-02 a      1279     1    25     2     4
  2.5677219451427957E-01 a      1280     1    25     2     5
  1.7022900629060125E-01 a      1281     1    25     2     6
  6.4392974562341210E-01 a      1282     1    25     2     7
 -1.5001819081339476E-01 a      1283     1    25     2     8
  2.0661514967165037E-01 a      1284     1    25     2     9
  5.1674618661093673E-03 a      1285     1    25     2    10
  2.2483545463852572E-01 a      1286     1    25     2    11
  3.1369451788754271E-01 a      1287     1    25     2    12
 -3.3677627963268914E-01 a      1288     1    25     2    13
  5.1181616098063010E-01 a      1289     1    25     2    14
 -6.3641611303433387E-01 a      1290     1    25     2    15
  3.3264613617904504E-02 a      1291     1    25     2    16
  4.2191201202951234E-01 a      1292     1    25     2    17
 -2.6966814208581608E-01 a      1293     1    25     2    18
  5.7512382368335269E-01 a      1294     1    25     2    19
  1.0842225000150502E-01 a      1295     1    25     2    20
  7.3663981662028044E-01 a      1296     1    25     2    21
  1.1550700070769548E-01 a      1297     1    25     2    22
 -5.2206531879453633E-01 a      1298     1    25     2    23
  2.2231965351211347E-01 a      1299     1    25     2    24
 -4.6852782382594627E-01 a      1300     1    25     2    25
  2.7853320396001696E-01 b      1301     2     1
 -4.4130542883710541E-03 b      1302     2     2
  2.2497104956006356E-01 b      1303     2     3
 -8.2140546135043820E-04 b      1304     2     4
  3.8767118560986219E-01 b      1305     2     5
  4.1739951332087782E-01 b      1306     2     6
 -1.1410837166589265E-02 b      1307     2     7
  8.8607695690021096E-02 b      1308     2     8
 -4.0330457801683067E-02 b      1309     2     9
 -1.5407284734694185E-01 b      1310     2    10
 -1.0309549351275842E-01 b      1311     2    11
 -1.0976801103930844E-01 b      1312     2    12
  1.1466120861443582E-01 b      1313     2    13
  4.2654785862038441E-02 b      1314     2    14
  1.0212299363513646E+00 b      1315     2    15
  2.2135851679424748E-01 b      1316     2    16
 -1.5925862221542034E-01 b      1317     2    17
 -2.3575883500272576E-01 b      1318     2    18
 -7.5499448356163429E-02 b      1319     2    19
 -2.7572415100755188E-01 b      1320     2    20
 -2.4498778034080758E-02 b      1321     2    21
  1.4137992841350189E-01 b      1322     2    22
  2.1067460666181045E-01 b      1323     2    23
 -9.6479247309387769E-02 b      1324     2    24
 -6.7145178350921528E-02 b      1325     2    25
 -5.2712253628164829E-01 a      1326     2     1     3     1
  3.9547826096139449E-01 a      1327     2     2     3     1
 -3.5126408144965415E-01 a      1328     2     3     3     1
 -6.1065686168633437E-01 a      1329     2     4     3     1
 -5.7757517351912269E-01 a      1330     2     5     3     1
 -5.3673440922840487E-01 a      1331     2     6     3     1
 -8.6123216348369374E-03 a      1332     2     7     3     1
 -3.4457434604673004E-01 a      1333     2     8     3     1
 -4.7419689391924896E-01 a      1334     2     9     3     1
 -1.5125433750097889E-01 a      1335     2    10     3     1
  2.6399872967035276E-01 a      1336     2    11     3     1
 -1.5274149316544378E-01 a      1337     2    12     3     1
  3.2703808272219151E-02 a      1338     2    13     3     1
 -7.1076481683942982E-02 a      1339     2    14     3     1
 -1.5369790850264169E+00 a      1340     2    15     3     1
 -5.9186121521640356E-01 a      1341     2    16     3     1
 -5.2190014460773614E-02 a      1342     2    17     3     1
  5.0620816683113135E-01 a      1343     2    18     3     1
 -9.0041901080582340E-02 a      1344     2    19     3     1
 -2.2213967856826919E-01 a      1345     2    20     3     1
  3.2805232771119658E-01 a      1346     2    21     3     1
 -4.0614452318341171E-01 a      1347     2    22     3     1
 -3.7588581354642142E-01 a      1348     2    23     3     1
  2.6580448567557347E-01 a      1349     2    24     3     1
  2.6561594414374584E-01 a      1350     2    25     3     1
 -9.0336713167605887E-01 b      1351     3     1
