################################################################################
# Neural network connection values (weights and biases).
################################################################################
# Col  Name       Description
################################################################################
# 1    connection Neural network connection value.
# 2    t          Connection type (a = weight, b = bias).
# 3    index      Index enumerating weights.
# 4    l_s        Starting point layer (end point layer for biases).
# 5    n_s        Starting point neuron in starting layer (end point neuron for biases).
# 6    l_e        End point layer.
# 7    n_e        End point neuron in end layer.
################################################################################
#                      1 2         3     4     5     6     7
#             connection t     index   l_s   n_s   l_e   n_e
############################################################
 -4.6190754602153425E-02 a         1     0     1     1     1
 -1.3778769267199558E+00 a         2     0     1     1     2
  7.4750554200396895E+00 a         3     0     1     1     3
 -3.9212567634856232E+00 a         4     0     1     1     4
 -2.8907221636461138E+00 a         5     0     1     1     5
 -7.2844006154324370E-01 a         6     0     1     1     6
  6.6577502342448360E+00 a         7     0     1     1     7
 -2.2296249471840457E+00 a         8     0     1     1     8
 -5.1423387528699367E+00 a         9     0     1     1     9
 -8.9180664332420161E+00 a        10     0     1     1    10
  6.7644048324899120E-01 a        11     0     1     1    11
 -3.6868999036475292E+00 a        12     0     1     1    12
 -4.1890567782710644E+00 a        13     0     1     1    13
 -3.3750625872457394E+00 a        14     0     1     1    14
 -4.6337959590915140E-01 a        15     0     1     1    15
  1.5937456748175522E+00 a        16     0     1     1    16
 -6.6969835471257178E-01 a        17     0     1     1    17
 -1.3575915568459809E+00 a        18     0     1     1    18
 -1.1002688316674829E+00 a        19     0     1     1    19
  1.1902858042544261E-01 a        20     0     1     1    20
  3.4922448828713741E+00 a        21     0     1     1    21
 -1.6173327015380494E+00 a        22     0     1     1    22
  6.9197667665616773E+00 a        23     0     1     1    23
  7.9444814101742556E-01 a        24     0     1     1    24
  7.8190299517448620E+00 a        25     0     1     1    25
 -2.0221290195087399E-01 a        26     0     2     1     1
  9.2650005948754410E-01 a        27     0     2     1     2
 -1.8275853774686437E+00 a        28     0     2     1     3
  1.3095385201053313E+00 a        29     0     2     1     4
  1.2875989423277783E+00 a        30     0     2     1     5
  9.0974553998175112E-01 a        31     0     2     1     6
 -1.2499545966965468E+00 a        32     0     2     1     7
  3.2103868672050495E-01 a        33     0     2     1     8
  2.0745212876696346E+00 a        34     0     2     1     9
  1.7238359816457907E+00 a        35     0     2     1    10
  5.3266981875816022E-01 a        36     0     2     1    11
 -9.2260889610990393E-01 a        37     0     2     1    12
  9.8521373625347153E-01 a        38     0     2     1    13
  2.2132211733976237E-01 a        39     0     2     1    14
  7.0308155387766924E-01 a        40     0     2     1    15
  1.5721130800005031E-01 a        41     0     2     1    16
 -1.4964488777495388E+00 a        42     0     2     1    17
 -5.9909059071159709E-01 a        43     0     2     1    18
  7.5356598422078080E-01 a        44     0     2     1    19
 -2.6829041274687909E-01 a        45     0     2     1    20
  7.4256699548570657E-02 a        46     0     2     1    21
  6.6420138519909921E-01 a        47     0     2     1    22
 -2.2534338220757166E+00 a        48     0     2     1    23
 -7.3061015021988440E-01 a        49     0     2     1    24
 -1.1471443763731759E+00 a        50     0     2     1    25
 -9.2762606096960776E-01 a        51     0     3     1     1
  1.4452159088869154E+00 a        52     0     3     1     2
 -6.3293228567209763E+00 a        53     0     3     1     3
  3.9286151628015400E+00 a        54     0     3     1     4
  3.0425620891097735E+00 a        55     0     3     1     5
  1.5415429628358768E+00 a        56     0     3     1     6
 -5.0412379185204381E+00 a        57     0     3     1     7
  1.7169229780084954E+00 a        58     0     3     1     8
  5.4700552337581936E+00 a        59     0     3     1     9
  7.1817406064841451E+00 a        60     0     3     1    10
  6.1016523341200202E-01 a        61     0     3     1    11
  6.4246959765445910E-01 a        62     0     3     1    12
  3.4018277554510243E+00 a        63     0     3     1    13
  1.2408735499319548E+00 a        64     0     3     1    14
  9.2947484034273020E-01 a        65     0     3     1    15
  1.3681594018785009E-01 a        66     0     3     1    16
 -1.3527080993070990E+00 a        67     0     3     1    17
 -1.9892098424174584E-01 a        68     0     3     1    18
  1.4557936257710431E+00 a        69     0     3     1    19
 -4.6133154810475130E-01 a        70     0     3     1    20
 -1.6636525421482058E+00 a        71     0     3     1    21
  1.8652284234018364E+00 a        72     0     3     1    22
 -6.3951877177422505E+00 a        73     0     3     1    23
 -1.4264359244964617E+00 a        74     0     3     1    24
 -5.2803853383093484E+00 a        75     0     3     1    25
  2.1913128242951049E-01 a        76     0     4     1     1
  4.6041446787064905E-01 a        77     0     4     1     2
 -3.4746128855373661E+00 a        78     0     4     1     3
 -3.0701301025937853E+00 a        79     0     4     1     4
 -7.3653194735049787E-01 a        80     0     4     1     5
 -1.4914832929012687E+00 a        81     0     4     1     6
 -2.9099008496734853E+00 a        82     0     4     1     7
  2.1680091393420171E+00 a        83     0     4     1     8
  4.3730924072139826E-01 a        84     0     4     1     9
  4.9824195449935509E+00 a        85     0     4     1    10
 -3.4600639877991131E+00 a        86     0     4     1    11
  2.9965712427187126E+00 a        87     0     4     1    12
 -1.7112492887682302E+00 a        88     0     4     1    13
  1.8744843014281984E+00 a        89     0     4     1    14
  2.3721593767254476E-01 a        90     0     4     1    15
 -1.6047506227254777E+00 a        91     0     4     1    16
  3.9289963560383390E+00 a        92     0     4     1    17
  4.2899493733010488E+00 a        93     0     4     1    18
 -7.9040819512486357E-02 a        94     0     4     1    19
 -8.4297001302632169E-01 a        95     0     4     1    20
 -4.4431953541441178E+00 a        96     0     4     1    21
 -1.9945974692618222E+00 a        97     0     4     1    22
 -1.4876127592862618E-02 a        98     0     4     1    23
  1.6374908625361371E+00 a        99     0     4     1    24
 -6.6566703723532807E+00 a       100     0     4     1    25
  1.9013675096505064E-01 a       101     0     5     1     1
 -2.7156252093210869E+00 a       102     0     5     1     2
  7.1495211309696645E+00 a       103     0     5     1     3
  2.5521947710383404E+00 a       104     0     5     1     4
 -1.2455453296441910E+00 a       105     0     5     1     5
 -9.8567924873506352E-01 a       106     0     5     1     6
  2.3714509105012591E+00 a       107     0     5     1     7
 -4.3418233858408746E+00 a       108     0     5     1     8
 -3.4731069595730211E+00 a       109     0     5     1     9
 -7.8488566382108029E+00 a       110     0     5     1    10
 -2.2556291357086824E+00 a       111     0     5     1    11
  2.1048461369098308E+00 a       112     0     5     1    12
  4.5838897455029421E+00 a       113     0     5     1    13
  4.7419337273490564E-01 a       114     0     5     1    14
 -1.5880376971421808E+00 a       115     0     5     1    15
 -1.2288200169643662E-01 a       116     0     5     1    16
 -5.1239938319556988E-01 a       117     0     5     1    17
 -1.1825490005806898E+00 a       118     0     5     1    18
 -2.2476515462816438E+00 a       119     0     5     1    19
  1.7882747863419074E-01 a       120     0     5     1    20
  1.8031003466221016E+00 a       121     0     5     1    21
  8.8042486174837886E-01 a       122     0     5     1    22
  2.9087156148169790E+00 a       123     0     5     1    23
 -5.6191996787446352E-01 a       124     0     5     1    24
  7.6969676028053637E+00 a       125     0     5     1    25
  5.6605651919852928E-01 a       126     0     6     1     1
  1.4333322146909953E+00 a       127     0     6     1     2
 -3.6664528621873593E+00 a       128     0     6     1     3
 -7.9669973133023042E-01 a       129     0     6     1     4
  1.2875003185843115E+00 a       130     0     6     1     5
  1.9855542826920742E+00 a       131     0     6     1     6
 -5.7537599007435203E-01 a       132     0     6     1     7
  2.2313591709491196E+00 a       133     0     6     1     8
  2.0266750757400063E+00 a       134     0     6     1     9
  3.3234319106414909E+00 a       135     0     6     1    10
  2.1331643599356105E+00 a       136     0     6     1    11
 -1.2753497904455853E+00 a       137     0     6     1    12
 -3.1821364371271490E+00 a       138     0     6     1    13
 -4.8286551897995322E-01 a       139     0     6     1    14
  3.3680103492989477E-01 a       140     0     6     1    15
  7.0864591541235256E-01 a       141     0     6     1    16
 -9.4819390866078446E-01 a       142     0     6     1    17
 -7.5579095116846606E-01 a       143     0     6     1    18
  2.0182444956569499E+00 a       144     0     6     1    19
  7.3835467148140113E-02 a       145     0     6     1    20
  6.4150796535546106E-01 a       146     0     6     1    21
  2.7174433175490731E-01 a       147     0     6     1    22
 -2.0031165774691826E+00 a       148     0     6     1    23
 -3.8923727019481374E-01 a       149     0     6     1    24
 -2.3970501673160731E+00 a       150     0     6     1    25
 -2.5688663650605342E-01 a       151     0     7     1     1
 -2.1737679908659896E-01 a       152     0     7     1     2
  7.6428388499320787E-01 a       153     0     7     1     3
  1.6464062056978629E-01 a       154     0     7     1     4
 -7.3209951202079748E-01 a       155     0     7     1     5
 -5.9175631174522703E-01 a       156     0     7     1     6
  3.1022312367297170E-04 a       157     0     7     1     7
 -4.2358053114544292E-01 a       158     0     7     1     8
 -4.9816544627710774E-01 a       159     0     7     1     9
 -6.8089089385733703E-01 a       160     0     7     1    10
 -4.0456722153768704E-01 a       161     0     7     1    11
  3.6047987891270694E-01 a       162     0     7     1    12
  6.8830087036487242E-01 a       163     0     7     1    13
 -5.7772697184421622E-02 a       164     0     7     1    14
  2.7095678212495306E-01 a       165     0     7     1    15
 -1.3174035437247369E-01 a       166     0     7     1    16
  3.7821288910155149E-01 a       167     0     7     1    17
  2.7050826607667650E-01 a       168     0     7     1    18
 -6.0650064820616900E-01 a       169     0     7     1    19
  1.6503592081181062E-01 a       170     0     7     1    20
 -5.2787504349470327E-01 a       171     0     7     1    21
  1.6922048367440146E-01 a       172     0     7     1    22
  3.6203869446115922E-01 a       173     0     7     1    23
 -3.0804642413788517E-02 a       174     0     7     1    24
  3.6131122246209008E-01 a       175     0     7     1    25
  1.6880752235416893E-02 a       176     0     8     1     1
 -1.2777252745875607E-02 a       177     0     8     1     2
  8.8236140055073017E-03 a       178     0     8     1     3
 -7.9905387544323123E-02 a       179     0     8     1     4
  1.0038556780021618E-01 a       180     0     8     1     5
 -4.4017769929182292E-02 a       181     0     8     1     6
  1.0851488586219916E-01 a       182     0     8     1     7
  4.7997642277319473E-02 a       183     0     8     1     8
  1.0229126105377954E-03 a       184     0     8     1     9
  2.4801455545560534E-02 a       185     0     8     1    10
  6.0212831015391696E-02 a       186     0     8     1    11
 -8.5153366593879912E-02 a       187     0     8     1    12
 -6.1841269985060718E-02 a       188     0     8     1    13
  6.7191225639191290E-02 a       189     0     8     1    14
 -8.5307043934019833E-02 a       190     0     8     1    15
  5.1801454729821887E-02 a       191     0     8     1    16
 -7.1935803355249101E-02 a       192     0     8     1    17
  7.6232942664832644E-03 a       193     0     8     1    18
  4.5067327342949111E-02 a       194     0     8     1    19
 -1.6087923486032565E-01 a       195     0     8     1    20
  1.9852716938798479E-01 a       196     0     8     1    21
 -1.5868809401055542E-01 a       197     0     8     1    22
  5.6463046023571710E-02 a       198     0     8     1    23
  1.4128113634492182E-02 a       199     0     8     1    24
  9.9929141920769377E-02 a       200     0     8     1    25
  3.0201989787524970E+00 a       201     0     9     1     1
  3.0555944630598186E-01 a       202     0     9     1     2
  6.1952386250159623E+00 a       203     0     9     1     3
 -2.0935400008311413E+00 a       204     0     9     1     4
 -1.4275557705323840E+00 a       205     0     9     1     5
  2.7477269664728499E+00 a       206     0     9     1     6
 -1.2079815659302984E+00 a       207     0     9     1     7
 -1.5762318289350163E+00 a       208     0     9     1     8
 -2.6778118395111670E+00 a       209     0     9     1     9
 -2.7581919260696655E+00 a       210     0     9     1    10
 -2.7591826756267408E+00 a       211     0     9     1    11
  2.9394643299129020E+00 a       212     0     9     1    12
  1.4374254569904770E+00 a       213     0     9     1    13
 -1.9023325407151968E+00 a       214     0     9     1    14
 -2.0173738047344800E+00 a       215     0     9     1    15
 -3.5318712105229291E+00 a       216     0     9     1    16
  4.1860650617995745E+00 a       217     0     9     1    17
  2.0845449351654675E+00 a       218     0     9     1    18
 -3.6665789892067626E+00 a       219     0     9     1    19
 -5.1110985965239077E+00 a       220     0     9     1    20
  2.0580240585595697E+00 a       221     0     9     1    21
  2.4079993316893198E+00 a       222     0     9     1    22
  2.0908285834204325E+00 a       223     0     9     1    23
  1.4100218969288385E+00 a       224     0     9     1    24
  6.7105627557320566E-02 a       225     0     9     1    25
 -4.2705597321916333E-01 a       226     0    10     1     1
  3.0013496977991883E-01 a       227     0    10     1     2
 -2.4111455439680318E+00 a       228     0    10     1     3
  3.8375096401579780E+00 a       229     0    10     1     4
  2.2182563619901310E+00 a       230     0    10     1     5
  6.2838874383705348E-02 a       231     0    10     1     6
 -1.8659744625039996E+00 a       232     0    10     1     7
  2.3832385035533230E-01 a       233     0    10     1     8
  2.9681643620433800E+00 a       234     0    10     1     9
  2.9627735350441422E+00 a       235     0    10     1    10
 -1.0804517859225113E-02 a       236     0    10     1    11
  1.3637103247965250E+00 a       237     0    10     1    12
  2.6738678773240911E+00 a       238     0    10     1    13
  1.7022896198954141E+00 a       239     0    10     1    14
  1.0432548645943709E-01 a       240     0    10     1    15
 -1.2113528377589422E+00 a       241     0    10     1    16
 -1.0805718649300129E+00 a       242     0    10     1    17
  2.0464566482548210E-01 a       243     0    10     1    18
  1.5622652266453352E+00 a       244     0    10     1    19
  1.0907388432563920E+00 a       245     0    10     1    20
 -1.1154193005225097E+00 a       246     0    10     1    21
  2.0219807940040622E+00 a       247     0    10     1    22
 -3.3439572443668113E+00 a       248     0    10     1    23
 -1.0976239225349573E+00 a       249     0    10     1    24
 -1.1484504009383838E+00 a       250     0    10     1    25
 -2.9210698565180211E+00 a       251     0    11     1     1
 -1.6429845667890706E+00 a       252     0    11     1     2
 -2.9202342796213068E+00 a       253     0    11     1     3
  1.8312577912348729E-01 a       254     0    11     1     4
  4.3128600113670751E-01 a       255     0    11     1     5
 -5.4548107573140481E+00 a       256     0    11     1     6
  5.7395096351048194E+00 a       257     0    11     1     7
  7.2888743831911995E-01 a       258     0    11     1     8
  2.6044944291174377E-01 a       259     0    11     1     9
 -2.9309742851904758E-01 a       260     0    11     1    10
  1.2303776792907595E+00 a       261     0    11     1    11
 -2.3789852123975779E+00 a       262     0    11     1    12
 -3.9574781803291117E+00 a       263     0    11     1    13
  2.8076178782419032E+00 a       264     0    11     1    14
  1.8707128356687051E+00 a       265     0    11     1    15
  1.6554214829106972E+00 a       266     0    11     1    16
 -4.0360445469013637E+00 a       267     0    11     1    17
 -1.3109428307088733E+00 a       268     0    11     1    18
  3.8919904510945655E+00 a       269     0    11     1    19
  7.4924494813824847E+00 a       270     0    11     1    20
 -1.7211030058140866E+00 a       271     0    11     1    21
 -4.0755061469516169E+00 a       272     0    11     1    22
  2.5411121593940154E+00 a       273     0    11     1    23
 -3.8746447481539954E-03 a       274     0    11     1    24
  3.1292612279502374E+00 a       275     0    11     1    25
  2.0176414838295980E+00 a       276     0    12     1     1
 -5.3662423157107071E+00 a       277     0    12     1     2
 -4.7066143271779044E+00 a       278     0    12     1     3
  2.3340561600966661E+00 a       279     0    12     1     4
 -6.1583418335564408E+00 a       280     0    12     1     5
 -2.7603683435882518E+00 a       281     0    12     1     6
  1.5701435196942590E+00 a       282     0    12     1     7
 -1.4553064769376902E+00 a       283     0    12     1     8
 -6.3214511333083552E+00 a       284     0    12     1     9
 -2.9795208686280250E+00 a       285     0    12     1    10
 -2.7506490445118472E+00 a       286     0    12     1    11
  7.8406477613616499E-01 a       287     0    12     1    12
 -5.8726858998182738E+00 a       288     0    12     1    13
  2.5491860920762854E+00 a       289     0    12     1    14
  6.0642167337086805E-01 a       290     0    12     1    15
  2.8993639139415972E+00 a       291     0    12     1    16
 -1.7819341298998688E+00 a       292     0    12     1    17
 -4.8432693270404457E+00 a       293     0    12     1    18
  2.5694467951877997E+00 a       294     0    12     1    19
 -2.2414694206340058E+00 a       295     0    12     1    20
  1.7572725121272035E+00 a       296     0    12     1    21
 -1.2746099742555352E+00 a       297     0    12     1    22
  2.8335786345140797E+00 a       298     0    12     1    23
 -1.4658310875383427E+00 a       299     0    12     1    24
  1.8972587378214105E+00 a       300     0    12     1    25
  9.6931560178377585E-01 a       301     0    13     1     1
  3.9819936343690687E-01 a       302     0    13     1     2
 -3.7253783159821158E-01 a       303     0    13     1     3
 -1.5730461303254279E+00 a       304     0    13     1     4
  1.7322226259465565E-01 a       305     0    13     1     5
  6.5163419110888399E-01 a       306     0    13     1     6
 -1.7102410246892219E+00 a       307     0    13     1     7
 -1.9237070918218330E-02 a       308     0    13     1     8
  1.2503263306112602E+00 a       309     0    13     1     9
  1.8181233189347107E-01 a       310     0    13     1    10
 -1.6771681356800100E-01 a       311     0    13     1    11
  1.9329982989535102E+00 a       312     0    13     1    12
  1.5205692656339105E+00 a       313     0    13     1    13
 -5.6202165138436566E-01 a       314     0    13     1    14
  8.7707220857030321E-01 a       315     0    13     1    15
  2.5586671586824301E+00 a       316     0    13     1    16
  9.5121986593604568E-01 a       317     0    13     1    17
  2.2896806807728637E-01 a       318     0    13     1    18
 -1.9862850660965581E-01 a       319     0    13     1    19
  3.7041206630405826E-01 a       320     0    13     1    20
 -1.9525472133686184E+00 a       321     0    13     1    21
 -4.5470010011651918E-01 a       322     0    13     1    22
 -1.4484642402256775E+00 a       323     0    13     1    23
  5.4046435894901546E-01 a       324     0    13     1    24
 -1.4677228803868556E+00 a       325     0    13     1    25
  5.7439316471340796E-01 a       326     0    14     1     1
  5.8132959455801370E+00 a       327     0    14     1     2
  2.7087116538660223E+00 a       328     0    14     1     3
 -3.9187999293030700E+00 a       329     0    14     1     4
  6.0944683368386556E+00 a       330     0    14     1     5
  3.2960346579967652E+00 a       331     0    14     1     6
 -5.6961750396298640E+00 a       332     0    14     1     7
  1.0881088458441008E+00 a       333     0    14     1     8
  9.4902303747281564E+00 a       334     0    14     1     9
  4.1771694750958899E+00 a       335     0    14     1    10
  3.1909832840971624E+00 a       336     0    14     1    11
  3.4841435143368660E+00 a       337     0    14     1    12
  9.8253758107525329E+00 a       338     0    14     1    13
 -2.5789648072522735E+00 a       339     0    14     1    14
 -6.0943429897325374E-02 a       340     0    14     1    15
  1.6032984880221575E+00 a       341     0    14     1    16
  2.0290057944648838E+00 a       342     0    14     1    17
  4.0166147823594800E+00 a       343     0    14     1    18
 -1.5446338682614988E+00 a       344     0    14     1    19
  3.5039303571388278E+00 a       345     0    14     1    20
 -5.8369133283565606E+00 a       346     0    14     1    21
  2.0393483306535418E+00 a       347     0    14     1    22
 -5.2947551743166468E+00 a       348     0    14     1    23
  1.3244731153528579E+00 a       349     0    14     1    24
 -4.7775905846420965E+00 a       350     0    14     1    25
  1.4394529097779987E-01 a       351     0    15     1     1
  1.1899625557248712E+00 a       352     0    15     1     2
  2.5947645509458925E+00 a       353     0    15     1     3
 -2.0909517842316161E+00 a       354     0    15     1     4
  2.5605603277944788E+00 a       355     0    15     1     5
  1.3142475405202649E+00 a       356     0    15     1     6
 -1.4169163980062720E+00 a       357     0    15     1     7
  3.0378275662946290E+00 a       358     0    15     1     8
 -5.4611977837530050E+00 a       359     0    15     1     9
  1.3999895654125976E+00 a       360     0    15     1    10
 -3.3096744684704860E-01 a       361     0    15     1    11
 -2.7414007562455622E+00 a       362     0    15     1    12
 -1.5181201963942901E+00 a       363     0    15     1    13
 -4.6628789853550062E-01 a       364     0    15     1    14
 -1.7570809632294304E+00 a       365     0    15     1    15
 -3.2120085547201214E+00 a       366     0    15     1    16
  2.9174174385516416E+00 a       367     0    15     1    17
  6.1296087300515090E-01 a       368     0    15     1    18
 -3.5239876404605561E+00 a       369     0    15     1    19
 -3.1903671776987959E+00 a       370     0    15     1    20
  2.5068815124643056E+00 a       371     0    15     1    21
  3.4151178028386464E-01 a       372     0    15     1    22
  1.1312004250130456E+00 a       373     0    15     1    23
  5.9602696951961708E-02 a       374     0    15     1    24
 -1.3851761872704034E+00 a       375     0    15     1    25
 -5.7419926306505803E-02 a       376     0    16     1     1
  1.9897104192325332E-01 a       377     0    16     1     2
 -1.4448638388131099E+00 a       378     0    16     1     3
  1.4295384845424599E+00 a       379     0    16     1     4
  6.4433785710202096E-01 a       380     0    16     1     5
  1.6008866099144636E+00 a       381     0    16     1     6
 -1.7327982203654764E+00 a       382     0    16     1     7
  3.3024428572681974E-01 a       383     0    16     1     8
  9.5921930656545129E-01 a       384     0    16     1     9
  1.2837527228092043E+00 a       385     0    16     1    10
  8.4603514904940991E-01 a       386     0    16     1    11
 -8.7925430078313260E-01 a       387     0    16     1    12
  7.2933338820915161E-01 a       388     0    16     1    13
 -4.0313604215889431E-01 a       389     0    16     1    14
  2.3172683381329623E-01 a       390     0    16     1    15
  2.3232606219540416E-02 a       391     0    16     1    16
  2.2529251423851000E-02 a       392     0    16     1    17
 -3.8953478643316725E-01 a       393     0    16     1    18
  1.6664772266546163E-01 a       394     0    16     1    19
 -8.3091235314013234E-01 a       395     0    16     1    20
  2.1033908197490128E-01 a       396     0    16     1    21
  6.3405329980842684E-01 a       397     0    16     1    22
 -2.5777638069457378E+00 a       398     0    16     1    23
 -7.6915417781377848E-01 a       399     0    16     1    24
 -1.5632143999233141E+00 a       400     0    16     1    25
  4.1577660935650179E-01 a       401     0    17     1     1
 -7.5658436117767414E-01 a       402     0    17     1     2
 -1.5528902805769180E+00 a       403     0    17     1     3
 -1.2494200122099179E+00 a       404     0    17     1     4
 -4.5434618968938443E+00 a       405     0    17     1     5
 -1.2294258997516945E+00 a       406     0    17     1     6
  1.8406137009697716E+00 a       407     0    17     1     7
 -2.4763995099328753E+00 a       408     0    17     1     8
  3.6329668103497217E+00 a       409     0    17     1     9
 -2.3938487537148112E+00 a       410     0    17     1    10
  1.6576897372159805E+00 a       411     0    17     1    11
  1.2012640887538579E+00 a       412     0    17     1    12
  2.7626667176172526E-01 a       413     0    17     1    13
 -1.4882098685892164E+00 a       414     0    17     1    14
  1.7632992073941400E+00 a       415     0    17     1    15
  3.8141290468561539E+00 a       416     0    17     1    16
 -1.7551985518901307E+00 a       417     0    17     1    17
 -1.0650549999391272E+00 a       418     0    17     1    18
  1.9772735118208487E+00 a       419     0    17     1    19
  1.6988929961772941E+00 a       420     0    17     1    20
 -1.5501911329819185E+00 a       421     0    17     1    21
 -1.3957495970569394E+00 a       422     0    17     1    22
  7.3095537570294677E-01 a       423     0    17     1    23
  6.1793175856921589E-01 a       424     0    17     1    24
  1.1396152128415078E+00 a       425     0    17     1    25
  2.0050715160752233E-01 a       426     0    18     1     1
 -6.1490860039381057E-01 a       427     0    18     1     2
 -4.2345040058640233E+00 a       428     0    18     1     3
 -5.4330178094052455E+00 a       429     0    18     1     4
 -3.1200807414579095E+00 a       430     0    18     1     5
 -6.5191935342340610E+00 a       431     0    18     1     6
  4.2975352833921239E+00 a       432     0    18     1     7
 -3.4265914375995804E-01 a       433     0    18     1     8
 -7.0988922904837215E-01 a       434     0    18     1     9
 -6.8587308365515964E-01 a       435     0    18     1    10
 -1.1471192104227266E+00 a       436     0    18     1    11
  1.5997795427616721E+00 a       437     0    18     1    12
 -2.9221247470992786E+00 a       438     0    18     1    13
 -1.6332015097977650E+00 a       439     0    18     1    14
  2.9942685677170039E-01 a       440     0    18     1    15
 -2.0476712710952127E-01 a       441     0    18     1    16
 -7.9368366371389720E-02 a       442     0    18     1    17
 -3.4670501809034473E+00 a       443     0    18     1    18
 -5.7498255734168846E-01 a       444     0    18     1    19
  5.0338449791157558E-01 a       445     0    18     1    20
  1.8264795271018117E+00 a       446     0    18     1    21
 -5.7978766003352611E+00 a       447     0    18     1    22
  5.4399865742535001E+00 a       448     0    18     1    23
  8.2754692585151868E-01 a       449     0    18     1    24
  6.2158838719176339E+00 a       450     0    18     1    25
 -1.7650673558205885E+00 a       451     0    19     1     1
 -7.9382837184151789E-01 a       452     0    19     1     2
  1.4125206714215626E+00 a       453     0    19     1     3
  2.4666447810553760E+00 a       454     0    19     1     4
  6.0384537967267538E-01 a       455     0    19     1     5
  7.4051966259493104E-02 a       456     0    19     1     6
  2.7577711430493803E+00 a       457     0    19     1     7
 -1.2261060406771686E-01 a       458     0    19     1     8
 -1.9873783107237053E+00 a       459     0    19     1     9
 -8.9675219683714325E-01 a       460     0    19     1    10
  5.8691180347713123E-01 a       461     0    19     1    11
 -2.7231934377968936E+00 a       462     0    19     1    12
 -2.5610880137779941E+00 a       463     0    19     1    13
  4.8224624805867883E-01 a       464     0    19     1    14
 -6.3101890203845579E-01 a       465     0    19     1    15
 -1.7026658733211650E+00 a       466     0    19     1    16
 -8.9465229100862664E-01 a       467     0    19     1    17
  1.8361739513848468E-01 a       468     0    19     1    18
 -6.6616765464341365E-01 a       469     0    19     1    19
 -5.0444871402568026E-01 a       470     0    19     1    20
  2.4101779394330438E+00 a       471     0    19     1    21
  3.3397199136600414E-01 a       472     0    19     1    22
  7.9728544245850919E-01 a       473     0    19     1    23
  1.3632583198869579E-02 a       474     0    19     1    24
  2.0890908718808379E+00 a       475     0    19     1    25
 -3.1271385774236551E+00 a       476     0    20     1     1
 -4.3513663831348487E-01 a       477     0    20     1     2
  5.7829807409556571E+00 a       478     0    20     1     3
  7.2387695736818491E+00 a       479     0    20     1     4
  1.9014664317576668E+00 a       480     0    20     1     5
  3.9177627537918953E+00 a       481     0    20     1     6
  2.6243034303997668E+00 a       482     0    20     1     7
  4.4881220333703502E-02 a       483     0    20     1     8
 -4.6129224478934736E+00 a       484     0    20     1     9
 -6.6432404713317197E-02 a       485     0    20     1    10
  1.5974479014278844E+00 a       486     0    20     1    11
 -6.9827507869235452E+00 a       487     0    20     1    12
 -2.5350863618902468E+00 a       488     0    20     1    13
  2.6833365871512309E+00 a       489     0    20     1    14
 -2.4318363963437881E+00 a       490     0    20     1    15
 -3.0410340851011939E+00 a       491     0    20     1    16
 -1.3262447492820120E+00 a       492     0    20     1    17
  3.0783919773966524E+00 a       493     0    20     1    18
 -4.7411217882903001E-01 a       494     0    20     1    19
 -1.5800318569376364E+00 a       495     0    20     1    20
  3.6469150360846885E+00 a       496     0    20     1    21
  4.6334382195811532E+00 a       497     0    20     1    22
 -6.3244211453703247E-01 a       498     0    20     1    23
 -5.7238355563992693E-01 a       499     0    20     1    24
 -9.2858957775088202E-01 a       500     0    20     1    25
 -2.9575901014603208E+00 a       501     0    21     1     1
  2.1462484794405849E+00 a       502     0    21     1     2
  1.0467980177582424E+01 a       503     0    21     1     3
  2.5152012139661468E+00 a       504     0    21     1     4
  5.2229915938844282E+00 a       505     0    21     1     5
  7.8351287490404609E+00 a       506     0    21     1     6
 -1.0403027061206380E+00 a       507     0    21     1     7
  4.2345829383595746E+00 a       508     0    21     1     8
  2.6435614454489070E-01 a       509     0    21     1     9
 -5.5660367008216278E+00 a       510     0    21     1    10
  5.9731484976948468E-01 a       511     0    21     1    11
 -1.8227556010778348E-01 a       512     0    21     1    12
  2.2990027023297608E+00 a       513     0    21     1    13
 -6.8406004009393468E+00 a       514     0    21     1    14
 -1.1390977547615104E+00 a       515     0    21     1    15
  3.0143983710128901E+00 a       516     0    21     1    16
 -6.0299307301558158E-01 a       517     0    21     1    17
  3.9354092121849447E+00 a       518     0    21     1    18
 -3.1679907010517003E+00 a       519     0    21     1    19
  2.4999611380757827E+00 a       520     0    21     1    20
  1.3642402905830324E+00 a       521     0    21     1    21
  3.5175226928569892E-01 a       522     0    21     1    22
 -1.1516244464567793E+00 a       523     0    21     1    23
  1.5226965563692121E+00 a       524     0    21     1    24
 -3.6381047566379354E-01 a       525     0    21     1    25
 -2.3227994399433952E-01 a       526     0    22     1     1
  6.3535441215598953E-01 a       527     0    22     1     2
 -6.0662266191284198E-01 a       528     0    22     1     3
  3.1348501621066798E+00 a       529     0    22     1     4
  1.5261717671762010E+00 a       530     0    22     1     5
  2.8167505342133921E+00 a       531     0    22     1     6
 -2.9949572141916132E+00 a       532     0    22     1     7
  5.0632398506984366E-01 a       533     0    22     1     8
  1.6828446789127072E+00 a       534     0    22     1     9
  9.1129716113812542E-01 a       535     0    22     1    10
  1.9204887241613638E-01 a       536     0    22     1    11
  7.4001268578835799E-01 a       537     0    22     1    12
  2.3223270265843716E+00 a       538     0    22     1    13
 -2.6158771022063678E-02 a       539     0    22     1    14
  1.9348682834598122E-01 a       540     0    22     1    15
  7.1992268844012636E-02 a       541     0    22     1    16
 -2.5721291627844711E-01 a       542     0    22     1    17
  8.6051125936935091E-01 a       543     0    22     1    18
  7.4857378990509071E-01 a       544     0    22     1    19
 -1.3271955624205142E-01 a       545     0    22     1    20
 -1.1852768659387947E+00 a       546     0    22     1    21
  2.2481633743543750E+00 a       547     0    22     1    22
 -3.3007395458369619E+00 a       548     0    22     1    23
 -7.4495746991277934E-01 a       549     0    22     1    24
 -2.7597325911576824E+00 a       550     0    22     1    25
  4.1038796412961016E+00 a       551     0    23     1     1
 -1.8675652309093584E+00 a       552     0    23     1     2
 -1.0953508539475255E+01 a       553     0    23     1     3
 -6.5452592387393240E+00 a       554     0    23     1     4
 -6.1014693810066296E+00 a       555     0    23     1     5
 -9.0390492721581435E+00 a       556     0    23     1     6
 -6.7130872533629915E-01 a       557     0    23     1     7
 -4.3317622916097331E+00 a       558     0    23     1     8
  4.4576875442859648E-01 a       559     0    23     1     9
  4.8223201334002113E+00 a       560     0    23     1    10
 -1.1154653423725895E+00 a       561     0    23     1    11
  2.3057320599585731E+00 a       562     0    23     1    12
 -1.9049909455787333E+00 a       563     0    23     1    13
  5.8645471421759598E+00 a       564     0    23     1    14
  2.0664295488087245E+00 a       565     0    23     1    15
 -2.3580439954908625E+00 a       566     0    23     1    16
  1.7982283055896060E+00 a       567     0    23     1    17
 -4.3381666647264634E+00 a       568     0    23     1    18
  3.0948904307275042E+00 a       569     0    23     1    19
 -2.4047276238528683E+00 a       570     0    23     1    20
 -2.5230261698827574E+00 a       571     0    23     1    21
 -2.0069785422540058E+00 a       572     0    23     1    22
  2.4540301619397833E+00 a       573     0    23     1    23
 -7.5252028356873135E-01 a       574     0    23     1    24
 -3.1469723775387765E-01 a       575     0    23     1    25
  3.9084052808077661E-02 a       576     0    24     1     1
  1.7973396148403669E+00 a       577     0    24     1     2
  2.1824403961831571E+00 a       578     0    24     1     3
 -5.9797918776855730E-01 a       579     0    24     1     4
  5.0509809394297145E-01 a       580     0    24     1     5
 -1.0001994027168837E+00 a       581     0    24     1     6
 -1.6521092864101370E+00 a       582     0    24     1     7
  1.2898930233500048E+00 a       583     0    24     1     8
  2.0459470356242480E+00 a       584     0    24     1     9
  9.0881620975262922E-01 a       585     0    24     1    10
 -1.1995263827085907E+00 a       586     0    24     1    11
  4.9240361591682696E-01 a       587     0    24     1    12
  1.6076139751305554E+00 a       588     0    24     1    13
 -1.3698173479165101E+00 a       589     0    24     1    14
 -1.4972257113803022E+00 a       590     0    24     1    15
  2.3037123426639106E+00 a       591     0    24     1    16
  1.2275984493330290E+00 a       592     0    24     1    17
  2.8583958836506901E-01 a       593     0    24     1    18
 -2.6571879080496599E+00 a       594     0    24     1    19
 -1.2411552339381544E-01 a       595     0    24     1    20
  2.4212323911333869E-01 a       596     0    24     1    21
 -1.4547024395030712E+00 a       597     0    24     1    22
  2.5535047890904572E+00 a       598     0    24     1    23
  6.5497331418299221E-01 a       599     0    24     1    24
 -5.7359504648221205E-01 a       600     0    24     1    25
 -4.6822681140841316E-01 a       601     0    25     1     1
 -3.0615193921406112E+00 a       602     0    25     1     2
 -3.8889447825542653E+00 a       603     0    25     1     3
  1.2729609115301865E+00 a       604     0    25     1     4
  1.0446781557615736E-01 a       605     0    25     1     5
  1.4610948715809908E+00 a       606     0    25     1     6
  3.1067544437739185E+00 a       607     0    25     1     7
 -3.0635289798729364E+00 a       608     0    25     1     8
 -3.5264738791160264E+00 a       609     0    25     1     9
 -1.9510003822736686E+00 a       610     0    25     1    10
  1.2115147744463890E+00 a       611     0    25     1    11
 -1.3811778414469196E+00 a       612     0    25     1    12
 -3.0287457758603176E+00 a       613     0    25     1    13
  2.2921065504085507E+00 a       614     0    25     1    14
  1.8093896340249427E+00 a       615     0    25     1    15
 -3.6908988684344743E+00 a       616     0    25     1    16
 -1.9815895902986917E+00 a       617     0    25     1    17
 -1.2005188397168635E-01 a       618     0    25     1    18
  4.2254876633247038E+00 a       619     0    25     1    19
 -4.4547752871381213E-01 a       620     0    25     1    20
  9.9001080497360699E-02 a       621     0    25     1    21
  2.0195306711656906E+00 a       622     0    25     1    22
 -4.3143752401617590E+00 a       623     0    25     1    23
 -5.9158278668468245E-01 a       624     0    25     1    24
  1.0452950106083547E+00 a       625     0    25     1    25
  3.8661692433843498E-01 a       626     0    26     1     1
  1.3105561504121022E+00 a       627     0    26     1     2
  1.7813567953165323E+00 a       628     0    26     1     3
 -6.3062038055535885E-01 a       629     0    26     1     4
 -4.4147608799158167E-01 a       630     0    26     1     5
 -5.1192702295627579E-01 a       631     0    26     1     6
 -1.4498596309464764E+00 a       632     0    26     1     7
  1.6607587143424498E+00 a       633     0    26     1     8
  1.5366612151302883E+00 a       634     0    26     1     9
  1.0258053163623686E+00 a       635     0    26     1    10
 -1.9396681895208290E-01 a       636     0    26     1    11
  8.2185763353866093E-01 a       637     0    26     1    12
  1.4469295271024403E+00 a       638     0    26     1    13
 -9.8117963218420656E-01 a       639     0    26     1    14
 -5.4874764539404663E-01 a       640     0    26     1    15
  1.4065391891959032E+00 a       641     0    26     1    16
  7.9099475125034047E-01 a       642     0    26     1    17
 -8.6177325734096116E-02 a       643     0    26     1    18
 -1.6673800724463921E+00 a       644     0    26     1    19
  5.3057923395372153E-01 a       645     0    26     1    20
 -2.5132238732845819E-01 a       646     0    26     1    21
 -7.4866458061471564E-01 a       647     0    26     1    22
  1.8974962243410902E+00 a       648     0    26     1    23
  5.7114549306584939E-02 a       649     0    26     1    24
 -5.5086798454665109E-01 a       650     0    26     1    25
 -1.1393941776544939E-01 b       651     1     1
 -7.2889528103071713E-02 b       652     1     2
  2.2224215792109558E-01 b       653     1     3
  4.1443304904530487E-01 b       654     1     4
 -8.1665811908381916E-02 b       655     1     5
  9.4927511828693550E-02 b       656     1     6
  2.4588701233845794E-01 b       657     1     7
 -3.2574257495193021E-01 b       658     1     8
 -1.5091581912973502E-02 b       659     1     9
 -2.2206616712704644E-01 b       660     1    10
 -1.3305386790147561E-01 b       661     1    11
  1.5597833940203210E-01 b       662     1    12
 -2.1368430728560214E-01 b       663     1    13
  7.5206037976541407E-02 b       664     1    14
 -1.6400259442774934E-01 b       665     1    15
  1.1866226681548157E-01 b       666     1    16
 -1.5497029767639459E-01 b       667     1    17
  2.5587580930548703E-01 b       668     1    18
 -2.1338300869984752E-02 b       669     1    19
 -2.4883734566235655E-01 b       670     1    20
  2.7354499114148551E-01 b       671     1    21
 -2.5213922939006091E-02 b       672     1    22
 -2.7099105481643676E-01 b       673     1    23
  1.3703043301855033E-01 b       674     1    24
  3.8714223859944330E-02 b       675     1    25
  1.6128566843373426E-01 a       676     1     1     2     1
  4.7696074675089012E-01 a       677     1     1     2     2
 -1.2402168856505928E-01 a       678     1     1     2     3
 -2.2333477006277916E-01 a       679     1     1     2     4
  6.0130931725320169E-01 a       680     1     1     2     5
 -3.8078453522135880E-01 a       681     1     1     2     6
 -4.7489277523109263E-01 a       682     1     1     2     7
 -3.5719388730362950E-01 a       683     1     1     2     8
 -5.3130688880861865E-01 a       684     1     1     2     9
 -1.1462789156867257E+00 a       685     1     1     2    10
  1.7156081600773859E-01 a       686     1     1     2    11
 -1.0695154424805073E-01 a       687     1     1     2    12
  3.6010019244965236E-01 a       688     1     1     2    13
 -1.2421872577718212E+00 a       689     1     1     2    14
 -1.1133863159340940E+00 a       690     1     1     2    15
  6.3960687049232323E-01 a       691     1     1     2    16
 -7.6814282620244867E-01 a       692     1     1     2    17
  3.2643795817791377E-01 a       693     1     1     2    18
  9.1069317788941340E-02 a       694     1     1     2    19
 -2.6299885758190752E-02 a       695     1     1     2    20
 -6.4149534912899364E-01 a       696     1     1     2    21
  1.0530885632321545E+00 a       697     1     1     2    22
  5.8568819776633604E-03 a       698     1     1     2    23
  2.5100660437059957E-01 a       699     1     1     2    24
  7.6729576414467260E-02 a       700     1     1     2    25
  1.5075163663191229E-01 a       701     1     2     2     1
  2.8918712945962954E-01 a       702     1     2     2     2
 -2.5533460499474758E-01 a       703     1     2     2     3
  1.0703856714572560E-01 a       704     1     2     2     4
 -4.0568438491885656E-01 a       705     1     2     2     5
 -1.0583475479837101E-01 a       706     1     2     2     6
  1.3049686413810269E-01 a       707     1     2     2     7
  4.3885039524785990E-01 a       708     1     2     2     8
  5.5847584603323785E-01 a       709     1     2     2     9
  4.0220845617706147E-01 a       710     1     2     2    10
 -3.7660640603764955E-01 a       711     1     2     2    11
 -5.4502412643727197E-02 a       712     1     2     2    12
  1.4698412605410383E-01 a       713     1     2     2    13
  2.4387157414753686E-02 a       714     1     2     2    14
  1.2299463002848905E-01 a       715     1     2     2    15
  3.8909752633696182E-01 a       716     1     2     2    16
  2.5249936568241326E-02 a       717     1     2     2    17
 -7.2257651740276685E-01 a       718     1     2     2    18
 -1.0752253330040400E-01 a       719     1     2     2    19
  6.9039892817192794E-01 a       720     1     2     2    20
  1.9841323749616191E-01 a       721     1     2     2    21
  2.9808803731743988E-01 a       722     1     2     2    22
 -2.5347562819012592E-01 a       723     1     2     2    23
  2.0238011712201612E-01 a       724     1     2     2    24
 -5.7065688087395250E-01 a       725     1     2     2    25
  5.8418878242300154E-01 a       726     1     3     2     1
 -5.2644392779486215E-01 a       727     1     3     2     2
 -2.7453817072039371E-01 a       728     1     3     2     3
  5.0476845854130081E-01 a       729     1     3     2     4
 -3.5917039396643885E-01 a       730     1     3     2     5
  2.8754165996640368E-01 a       731     1     3     2     6
  5.6595601332795842E-01 a       732     1     3     2     7
  6.7037428529823295E-01 a       733     1     3     2     8
 -1.5730112596056475E-01 a       734     1     3     2     9
 -2.5123441201673330E-01 a       735     1     3     2    10
 -2.5888722923307972E-01 a       736     1     3     2    11
  3.7033840674627078E-01 a       737     1     3     2    12
 -4.3837736332415944E-01 a       738     1     3     2    13
  4.3962180777765369E-01 a       739     1     3     2    14
 -4.3790871955708477E-01 a       740     1     3     2    15
  6.0628675743132554E-01 a       741     1     3     2    16
  1.5946379711312320E-01 a       742     1     3     2    17
  5.0268002582924187E-01 a       743     1     3     2    18
  1.1882476984384166E-01 a       744     1     3     2    19
 -1.6807833188481275E-01 a       745     1     3     2    20
  4.5635071749391087E-01 a       746     1     3     2    21
  1.9889833718511299E-01 a       747     1     3     2    22
 -3.2374298193406714E-01 a       748     1     3     2    23
 -6.3136755650536391E-01 a       749     1     3     2    24
 -2.7206304636932532E-01 a       750     1     3     2    25
 -4.7822077408688257E-01 a       751     1     4     2     1
  2.2743454462562779E-01 a       752     1     4     2     2
 -1.0696615481897494E-01 a       753     1     4     2     3
  3.0741867095738534E-01 a       754     1     4     2     4
 -3.4689141612318614E-01 a       755     1     4     2     5
 -9.0702108066156473E-02 a       756     1     4     2     6
  5.0102628173117714E-01 a       757     1     4     2     7
 -3.9774448415781594E-01 a       758     1     4     2     8
  6.7564561291024972E-01 a       759     1     4     2     9
  2.8533579860844749E-01 a       760     1     4     2    10
  2.8243954049810421E-01 a       761     1     4     2    11
  3.2771433223606966E-01 a       762     1     4     2    12
  7.2175605407663512E-01 a       763     1     4     2    13
  2.6012190378368039E-01 a       764     1     4     2    14
  2.4423140580929006E-01 a       765     1     4     2    15
 -2.1191445817214868E-01 a       766     1     4     2    16
 -2.1685759311734046E-01 a       767     1     4     2    17
 -1.1306031965657817E+00 a       768     1     4     2    18
 -1.2450511175592469E-01 a       769     1     4     2    19
  7.9905972794282087E-01 a       770     1     4     2    20
 -1.2187974209763273E-01 a       771     1     4     2    21
  2.1851122068180751E-01 a       772     1     4     2    22
  1.1115267413271290E-02 a       773     1     4     2    23
  1.0080896839443589E+00 a       774     1     4     2    24
 -2.4175293391483377E-01 a       775     1     4     2    25
  5.6974695596919582E-02 a       776     1     5     2     1
 -2.8279523359758607E-01 a       777     1     5     2     2
  4.5366960830999903E-01 a       778     1     5     2     3
  3.3430977954002555E-01 a       779     1     5     2     4
 -3.2732620788790351E-01 a       780     1     5     2     5
 -9.0988156422963290E-02 a       781     1     5     2     6
 -3.7142250461987811E-02 a       782     1     5     2     7
  3.1983534896904742E-01 a       783     1     5     2     8
 -2.1000215402026914E-01 a       784     1     5     2     9
 -1.0187794097982774E+00 a       785     1     5     2    10
 -6.3428302607928547E-02 a       786     1     5     2    11
 -1.1749677675702734E-01 a       787     1     5     2    12
  4.0348173754620098E-01 a       788     1     5     2    13
  9.0635142609195274E-01 a       789     1     5     2    14
 -3.5996515611867608E-01 a       790     1     5     2    15
  8.7471778489143737E-01 a       791     1     5     2    16
  1.6521321764728686E-01 a       792     1     5     2    17
  7.6235379580758822E-01 a       793     1     5     2    18
 -2.5638127254195997E-01 a       794     1     5     2    19
 -3.6176639257200138E-01 a       795     1     5     2    20
  1.7727178666064125E-01 a       796     1     5     2    21
  4.4355149947330447E-01 a       797     1     5     2    22
 -2.1628039292598250E-01 a       798     1     5     2    23
  4.7916145228321088E-03 a       799     1     5     2    24
 -5.6975482677489017E-02 a       800     1     5     2    25
  1.9044305726540988E-02 a       801     1     6     2     1
 -6.2494064942228111E-01 a       802     1     6     2     2
  4.6850511551382781E-03 a       803     1     6     2     3
  2.6948515757367408E-01 a       804     1     6     2     4
 -7.2826743003711059E-02 a       805     1     6     2     5
  3.7694217964094040E-01 a       806     1     6     2     6
 -2.5368818859572256E-01 a       807     1     6     2     7
 -4.1512833388304193E-01 a       808     1     6     2     8
 -1.3507674085543808E-01 a       809     1     6     2     9
 -2.9559116912560540E-01 a       810     1     6     2    10
 -8.9978311977655170E-02 a       811     1     6     2    11
  3.0133099029342408E-01 a       812     1     6     2    12
 -7.9465164907085239E-01 a       813     1     6     2    13
  2.4244352478077719E-01 a       814     1     6     2    14
  6.1900787266335866E-01 a       815     1     6     2    15
  4.0278146264046399E-01 a       816     1     6     2    16
  1.7883747407731154E-01 a       817     1     6     2    17
  2.7000699714838322E-01 a       818     1     6     2    18
 -1.7747080261196263E-01 a       819     1     6     2    19
 -6.7390028386288148E-01 a       820     1     6     2    20
  4.3993736470961381E-01 a       821     1     6     2    21
 -9.8703292654841934E-01 a       822     1     6     2    22
 -1.3569836405657229E-01 a       823     1     6     2    23
 -4.4383747856355521E-01 a       824     1     6     2    24
 -6.8652149156955430E-02 a       825     1     6     2    25
 -4.4671191139618710E-01 a       826     1     7     2     1
 -4.6992551297551366E-01 a       827     1     7     2     2
  3.1844142912249462E-01 a       828     1     7     2     3
 -2.8662124603612466E-01 a       829     1     7     2     4
  4.1217886570637036E-01 a       830     1     7     2     5
 -1.1880365051587612E-01 a       831     1     7     2     6
  1.2898029216536383E-01 a       832     1     7     2     7
 -7.4520368396838052E-02 a       833     1     7     2     8
 -6.2959021504123455E-02 a       834     1     7     2     9
 -6.2712238173978174E-01 a       835     1     7     2    10
  3.0569827778444925E-01 a       836     1     7     2    11
 -5.4694730084922545E-03 a       837     1     7     2    12
  2.8575707755404584E-01 a       838     1     7     2    13
  7.7881307976003544E-01 a       839     1     7     2    14
  2.2842965332622481E-01 a       840     1     7     2    15
 -1.6722702114770222E-01 a       841     1     7     2    16
  1.0228553153082146E-01 a       842     1     7     2    17
 -5.5529680177234608E-01 a       843     1     7     2    18
  2.8337594313749360E-02 a       844     1     7     2    19
  2.5597554949607849E-02 a       845     1     7     2    20
 -3.1003095018973137E-02 a       846     1     7     2    21
 -1.1810776511601468E+00 a       847     1     7     2    22
  8.1043753683822869E-02 a       848     1     7     2    23
  3.4747379727559097E-01 a       849     1     7     2    24
 -2.9829568158529718E-01 a       850     1     7     2    25
  1.2104654672389689E-01 a       851     1     8     2     1
  8.4387625563721286E-02 a       852     1     8     2     2
  2.9973731024648707E-02 a       853     1     8     2     3
  1.3613803848461184E-01 a       854     1     8     2     4
  3.9374694148728751E-01 a       855     1     8     2     5
  4.3345595063005027E-01 a       856     1     8     2     6
 -5.9151981472241588E-01 a       857     1     8     2     7
 -5.6981190363939882E-01 a       858     1     8     2     8
  4.0690967829585301E-01 a       859     1     8     2     9
  7.4561729415913081E-01 a       860     1     8     2    10
 -1.1920492718481560E-01 a       861     1     8     2    11
  4.3184525439605888E-02 a       862     1     8     2    12
 -1.0091884485877918E+00 a       863     1     8     2    13
 -2.3339048788868437E-02 a       864     1     8     2    14
  2.0336626834899299E-01 a       865     1     8     2    15
 -7.1984598496878627E-01 a       866     1     8     2    16
  1.2172609810976132E-01 a       867     1     8     2    17
 -7.5770978373434550E-01 a       868     1     8     2    18
 -1.7164766272675408E-01 a       869     1     8     2    19
  3.8927239839698385E-01 a       870     1     8     2    20
 -9.5125777145559878E-02 a       871     1     8     2    21
  1.3657606865999070E+00 a       872     1     8     2    22
 -1.9089761910081107E-01 a       873     1     8     2    23
  3.6426539291038215E-02 a       874     1     8     2    24
 -2.6710928083702186E-02 a       875     1     8     2    25
 -3.2312871325924314E-01 a       876     1     9     2     1
  1.3041189492230465E-01 a       877     1     9     2     2
 -4.8152616160498801E-01 a       878     1     9     2     3
  7.6630686134600265E-02 a       879     1     9     2     4
  3.7742818719519711E-03 a       880     1     9     2     5
  1.2967566058206528E-01 a       881     1     9     2     6
  1.8062105964916814E-01 a       882     1     9     2     7
  7.9852882540525549E-01 a       883     1     9     2     8
 -2.8484095012379435E-01 a       884     1     9     2     9
  3.5402578398521034E-01 a       885     1     9     2    10
 -2.7135963754339287E-01 a       886     1     9     2    11
 -3.4007307640232090E-02 a       887     1     9     2    12
 -2.2339022037669942E-01 a       888     1     9     2    13
 -3.4476323261697533E-01 a       889     1     9     2    14
  1.0850800233687992E-01 a       890     1     9     2    15
  4.0647428092824678E-02 a       891     1     9     2    16
 -4.1623201864821785E-01 a       892     1     9     2    17
  1.4738455779124018E-01 a       893     1     9     2    18
 -1.4589149562500819E-01 a       894     1     9     2    19
  3.1870596008074892E-01 a       895     1     9     2    20
 -2.4926822605084711E-01 a       896     1     9     2    21
  4.3356034655397135E-01 a       897     1     9     2    22
 -1.5574596771021713E-02 a       898     1     9     2    23
  2.9892504049155277E-01 a       899     1     9     2    24
  1.5351897467837786E-01 a       900     1     9     2    25
 -6.9103096958910348E-01 a       901     1    10     2     1
  5.7667949732469470E-01 a       902     1    10     2     2
  6.5181222418004933E-02 a       903     1    10     2     3
  2.3516902927919650E-01 a       904     1    10     2     4
 -2.0348973294089797E-02 a       905     1    10     2     5
  1.3348073318796430E-01 a       906     1    10     2     6
  4.1467443559407874E-02 a       907     1    10     2     7
  1.7264830529318176E-01 a       908     1    10     2     8
 -3.7870459169263093E-01 a       909     1    10     2     9
 -3.3334830811551315E-02 a       910     1    10     2    10
 -3.6496936943602321E-01 a       911     1    10     2    11
 -3.7611709689783546E-01 a       912     1    10     2    12
  2.2122869131654802E-01 a       913     1    10     2    13
  1.2159781167271119E-01 a       914     1    10     2    14
 -2.5586540460376228E-01 a       915     1    10     2    15
 -1.1128310870229360E-02 a       916     1    10     2    16
  2.7954848823622525E-01 a       917     1    10     2    17
  1.8738089786864179E-01 a       918     1    10     2    18
  1.5731353063201395E-01 a       919     1    10     2    19
  2.3563813487289761E-01 a       920     1    10     2    20
  1.5500189399609612E-01 a       921     1    10     2    21
  7.2799644562997379E-01 a       922     1    10     2    22
  3.6381864700022265E-01 a       923     1    10     2    23
 -1.4202578049301173E-01 a       924     1    10     2    24
 -4.2889234902723322E-01 a       925     1    10     2    25
  3.1044678207412685E-01 a       926     1    11     2     1
 -4.4533988602906449E-01 a       927     1    11     2     2
 -3.0395968906077020E-01 a       928     1    11     2     3
  2.6605158859723232E-01 a       929     1    11     2     4
 -2.5721715208495771E-01 a       930     1    11     2     5
  6.3284972191203465E-02 a       931     1    11     2     6
  2.4075703214889441E-01 a       932     1    11     2     7
  1.1062724928053690E-01 a       933     1    11     2     8
  4.3600592490567452E-01 a       934     1    11     2     9
  6.1982630147668460E-01 a       935     1    11     2    10
  2.9991404225437380E-02 a       936     1    11     2    11
 -1.5741292572523827E-01 a       937     1    11     2    12
  1.0713978711696873E-01 a       938     1    11     2    13
  7.2848086001494367E-02 a       939     1    11     2    14
  4.1489337105634336E-02 a       940     1    11     2    15
  6.3007685871557562E-01 a       941     1    11     2    16
 -2.0970696534907673E-01 a       942     1    11     2    17
 -4.2945017444821837E-01 a       943     1    11     2    18
  8.9896467463607896E-02 a       944     1    11     2    19
  2.6821239560945187E-01 a       945     1    11     2    20
 -1.6723627582766928E-01 a       946     1    11     2    21
 -3.7214391695541410E-01 a       947     1    11     2    22
 -2.3634409349113350E-01 a       948     1    11     2    23
 -4.5468058245323717E-01 a       949     1    11     2    24
 -6.5657547997491003E-02 a       950     1    11     2    25
  4.6059244807287941E-01 a       951     1    12     2     1
  2.3397063260530768E-01 a       952     1    12     2     2
 -2.3807875982286233E-01 a       953     1    12     2     3
 -2.4631022888470991E-01 a       954     1    12     2     4
  7.1154988144102560E-01 a       955     1    12     2     5
 -3.7347235300842989E-02 a       956     1    12     2     6
 -6.3862604748812377E-02 a       957     1    12     2     7
  2.5734242136792046E-01 a       958     1    12     2     8
 -5.6215467386010420E-01 a       959     1    12     2     9
  1.7261007733631009E-01 a       960     1    12     2    10
 -4.7112899671024916E-01 a       961     1    12     2    11
 -2.1170248865033797E-01 a       962     1    12     2    12
 -6.1996887767852682E-01 a       963     1    12     2    13
  4.3379776411798443E-01 a       964     1    12     2    14
  7.9651511931326380E-01 a       965     1    12     2    15
  3.9870797631417182E-01 a       966     1    12     2    16
 -5.3976876289039899E-01 a       967     1    12     2    17
 -9.4938565990970947E-01 a       968     1    12     2    18
  1.0300740861144755E-01 a       969     1    12     2    19
 -3.1060987753722491E-01 a       970     1    12     2    20
  2.7147950034363938E-01 a       971     1    12     2    21
 -6.3598478705386829E-01 a       972     1    12     2    22
  2.5499421628828256E-01 a       973     1    12     2    23
  5.7477588532771118E-01 a       974     1    12     2    24
 -1.4409998438061061E-01 a       975     1    12     2    25
 -3.2797844651910990E-01 a       976     1    13     2     1
 -5.5420543961627556E-03 a       977     1    13     2     2
 -6.9313172120848043E-01 a       978     1    13     2     3
  4.2382495670823517E-01 a       979     1    13     2     4
 -6.6856126317960562E-01 a       980     1    13     2     5
  2.3926134450900433E-01 a       981     1    13     2     6
  2.2149578784061011E-01 a       982     1    13     2     7
 -9.2803022057282536E-01 a       983     1    13     2     8
  4.2009670116454279E-01 a       984     1    13     2     9
  1.0424606896053958E+00 a       985     1    13     2    10
 -5.5069732040277219E-01 a       986     1    13     2    11
  2.0495654827323423E-01 a       987     1    13     2    12
 -1.5303004104527079E-01 a       988     1    13     2    13
  5.7613129454156975E-01 a       989     1    13     2    14
 -4.1602827208960941E-01 a       990     1    13     2    15
 -5.6581759868338147E-02 a       991     1    13     2    16
  1.7828609343264391E-02 a       992     1    13     2    17
 -5.6718760402259560E-01 a       993     1    13     2    18
 -1.4822028379892513E-01 a       994     1    13     2    19
  4.5390983919857530E-01 a       995     1    13     2    20
 -4.2249966318866139E-01 a       996     1    13     2    21
 -3.4910303249454672E-01 a       997     1    13     2    22
 -2.2485005425038904E-01 a       998     1    13     2    23
 -5.5382320028842358E-01 a       999     1    13     2    24
  7.2140757382891119E-01 a      1000     1    13     2    25
  5.8812245373434852E-02 a      1001     1    14     2     1
 -1.5350807706353370E-01 a      1002     1    14     2     2
  7.0020358481710521E-01 a      1003     1    14     2     3
 -2.4384317527686403E-01 a      1004     1    14     2     4
  5.7038229086090586E-01 a      1005     1    14     2     5
 -6.8669191212988590E-02 a      1006     1    14     2     6
  1.3088776042975558E-01 a      1007     1    14     2     7
  2.6745322626749174E-01 a      1008     1    14     2     8
  3.7713276904820764E-01 a      1009     1    14     2     9
 -9.8092954346118688E-01 a      1010     1    14     2    10
  5.1679959951986543E-01 a      1011     1    14     2    11
 -5.2373111749257135E-02 a      1012     1    14     2    12
  4.3650753352337440E-01 a      1013     1    14     2    13
 -9.1528684945904992E-01 a      1014     1    14     2    14
 -1.1241111756411000E+00 a      1015     1    14     2    15
 -1.7593522107776915E-01 a      1016     1    14     2    16
  3.1785269513500441E-01 a      1017     1    14     2    17
  1.6243813992927066E-02 a      1018     1    14     2    18
  1.2756571572338712E-01 a      1019     1    14     2    19
 -3.8274075220522258E-01 a      1020     1    14     2    20
 -2.0290343166385730E-01 a      1021     1    14     2    21
  1.4233357969072880E+00 a      1022     1    14     2    22
 -2.0318244364126967E-02 a      1023     1    14     2    23
 -6.3806232550472552E-01 a      1024     1    14     2    24
  8.5718127387883847E-01 a      1025     1    14     2    25
  5.1381909852793006E-01 a      1026     1    15     2     1
 -1.7869610048802856E-01 a      1027     1    15     2     2
  6.1783255519092239E-01 a      1028     1    15     2     3
 -4.3011844728287529E-01 a      1029     1    15     2     4
  7.0851641461649506E-01 a      1030     1    15     2     5
  1.0069925931542774E-01 a      1031     1    15     2     6
 -3.3357389868512088E-01 a      1032     1    15     2     7
  4.9259819518160786E-01 a      1033     1    15     2     8
  3.5706440110298289E-03 a      1034     1    15     2     9
 -8.5744447553973824E-01 a      1035     1    15     2    10
  2.7650325895731837E-01 a      1036     1    15     2    11
 -4.7321571133709037E-02 a      1037     1    15     2    12
 -3.7880080613960893E-02 a      1038     1    15     2    13
  4.5751778888388517E-01 a      1039     1    15     2    14
  7.1554150401902550E-01 a      1040     1    15     2    15
  4.4139270738647263E-01 a      1041     1    15     2    16
 -4.5603010432631941E-01 a      1042     1    15     2    17
 -3.1676687442387214E-01 a      1043     1    15     2    18
 -3.6995456667689258E-01 a      1044     1    15     2    19
 -9.6845893101300684E-01 a      1045     1    15     2    20
 -2.3079270190119943E-02 a      1046     1    15     2    21
 -7.3767845618588168E-01 a      1047     1    15     2    22
  1.5300524413644606E-01 a      1048     1    15     2    23
 -2.2536773830241461E-01 a      1049     1    15     2    24
 -4.6305773384481513E-01 a      1050     1    15     2    25
 -2.6348354798255719E-01 a      1051     1    16     2     1
 -1.5871293669124487E-01 a      1052     1    16     2     2
  1.3779145319262975E-01 a      1053     1    16     2     3
  2.5382821803592603E-01 a      1054     1    16     2     4
  5.8002161934350073E-02 a      1055     1    16     2     5
  3.8432740424992590E-02 a      1056     1    16     2     6
 -4.9388630301803871E-01 a      1057     1    16     2     7
 -3.0969247411672085E-01 a      1058     1    16     2     8
 -1.1599167002696825E-01 a      1059     1    16     2     9
  4.7870165071722443E-01 a      1060     1    16     2    10
  2.6045001603526385E-01 a      1061     1    16     2    11
 -1.6546288634186412E-01 a      1062     1    16     2    12
 -2.3621160431421828E-01 a      1063     1    16     2    13
 -9.5949460576486145E-01 a      1064     1    16     2    14
 -4.1221094121713392E-01 a      1065     1    16     2    15
  2.5530879094361486E-01 a      1066     1    16     2    16
 -3.8115006397043488E-02 a      1067     1    16     2    17
 -5.4775450546988580E-01 a      1068     1    16     2    18
 -1.0406210756642917E-01 a      1069     1    16     2    19
  3.6895842967586945E-01 a      1070     1    16     2    20
 -1.3957387909231261E-01 a      1071     1    16     2    21
  5.6545294214526109E-01 a      1072     1    16     2    22
 -3.9934416982856430E-01 a      1073     1    16     2    23
 -9.5117414557515684E-02 a      1074     1    16     2    24
 -5.2288882842107443E-01 a      1075     1    16     2    25
  5.0227613964566584E-02 a      1076     1    17     2     1
  3.6492399780374896E-01 a      1077     1    17     2     2
  5.7873805370994132E-02 a      1078     1    17     2     3
 -3.2120450190686228E-01 a      1079     1    17     2     4
  8.4125298756009867E-02 a      1080     1    17     2     5
 -1.4711410611192394E-01 a      1081     1    17     2     6
  5.9529926141618734E-02 a      1082     1    17     2     7
  7.8951283072392256E-02 a      1083     1    17     2     8
 -1.2507951392063471E-01 a      1084     1    17     2     9
  5.5418884512053082E-02 a      1085     1    17     2    10
 -2.7969721010290516E-01 a      1086     1    17     2    11
 -4.6058434819639518E-02 a      1087     1    17     2    12
 -1.8287347583051616E-01 a      1088     1    17     2    13
  1.1540439747534321E+00 a      1089     1    17     2    14
  8.6811244099344417E-02 a      1090     1    17     2    15
 -8.9138029016306228E-02 a      1091     1    17     2    16
 -7.2366193115123864E-02 a      1092     1    17     2    17
 -8.1967484359126463E-01 a      1093     1    17     2    18
 -4.0666617344835470E-03 a      1094     1    17     2    19
 -2.6404176449746719E-01 a      1095     1    17     2    20
  1.9496575958983908E-01 a      1096     1    17     2    21
 -6.0671339777571449E-02 a      1097     1    17     2    22
  4.7608895424066233E-01 a      1098     1    17     2    23
  6.8978095264719286E-01 a      1099     1    17     2    24
 -2.4050628781112401E-01 a      1100     1    17     2    25
  1.3825611781682937E-01 a      1101     1    18     2     1
  3.4702528225711771E-01 a      1102     1    18     2     2
 -5.1115678070887904E-01 a      1103     1    18     2     3
  1.4379449350525950E-01 a      1104     1    18     2     4
  7.5302125900078426E-02 a      1105     1    18     2     5
 -4.3711091015156162E-02 a      1106     1    18     2     6
  2.1519823961012787E-02 a      1107     1    18     2     7
 -5.1135992445811795E-01 a      1108     1    18     2     8
 -3.3800164447935804E-01 a      1109     1    18     2     9
 -4.6694080278149969E-01 a      1110     1    18     2    10
  1.6448597308088389E-01 a      1111     1    18     2    11
  2.4824616350924561E-01 a      1112     1    18     2    12
 -3.8699333835790667E-01 a      1113     1    18     2    13
 -1.0939181550181583E+00 a      1114     1    18     2    14
 -1.0694040275669723E+00 a      1115     1    18     2    15
  1.1229797317276706E-01 a      1116     1    18     2    16
  7.5705370360459281E-02 a      1117     1    18     2    17
  3.9513247311693983E-01 a      1118     1    18     2    18
 -4.9923345462976998E-02 a      1119     1    18     2    19
 -2.1369128630537620E-01 a      1120     1    18     2    20
 -1.4460373371432325E-01 a      1121     1    18     2    21
  1.8790766775774306E+00 a      1122     1    18     2    22
 -8.9965685793071973E-02 a      1123     1    18     2    23
 -2.3547009847461292E-01 a      1124     1    18     2    24
 -3.7917564349000021E-01 a      1125     1    18     2    25
 -1.1038500357689418E-01 a      1126     1    19     2     1
 -1.6466721606713858E-01 a      1127     1    19     2     2
  2.7539532702249497E-02 a      1128     1    19     2     3
 -2.3168441744310933E-01 a      1129     1    19     2     4
  1.9925213880471568E-01 a      1130     1    19     2     5
  2.9009606707135077E-01 a      1131     1    19     2     6
 -6.9958534221333291E-01 a      1132     1    19     2     7
 -3.5146877071604127E-01 a      1133     1    19     2     8
  1.8002797212435889E-01 a      1134     1    19     2     9
 -1.7587275556902007E-01 a      1135     1    19     2    10
  1.4395390248671006E-01 a      1136     1    19     2    11
  1.8647021873251307E-01 a      1137     1    19     2    12
 -4.4528071122104057E-01 a      1138     1    19     2    13
  8.2802770469795506E-01 a      1139     1    19     2    14
  8.7298591971622519E-01 a      1140     1    19     2    15
  3.1341390956308945E-01 a      1141     1    19     2    16
 -2.1555492845485585E-01 a      1142     1    19     2    17
 -1.0081061012415269E+00 a      1143     1    19     2    18
  1.4499202242374601E-02 a      1144     1    19     2    19
 -8.3450221497185073E-01 a      1145     1    19     2    20
 -1.5553051506161303E-01 a      1146     1    19     2    21
 -1.4155245773952880E+00 a      1147     1    19     2    22
  1.0458261069023089E-02 a      1148     1    19     2    23
  4.1279485280750089E-01 a      1149     1    19     2    24
 -9.0845089174103666E-02 a      1150     1    19     2    25
 -1.6665002864025741E-01 a      1151     1    20     2     1
 -1.0924550656433954E-01 a      1152     1    20     2     2
  3.6862547967829690E-01 a      1153     1    20     2     3
  1.8810549280561331E-01 a      1154     1    20     2     4
 -2.8061791994607105E-01 a      1155     1    20     2     5
 -1.7638580002190912E-01 a      1156     1    20     2     6
  8.5350359100481588E-01 a      1157     1    20     2     7
  1.4363016662945408E-01 a      1158     1    20     2     8
 -3.0298399866539271E-02 a      1159     1    20     2     9
  3.4735688676841112E-02 a      1160     1    20     2    10
 -3.4608074571979716E-02 a      1161     1    20     2    11
  4.9084582482461031E-02 a      1162     1    20     2    12
  3.2906663531905495E-01 a      1163     1    20     2    13
 -7.7654796495227954E-02 a      1164     1    20     2    14
 -1.9981274891412310E-01 a      1165     1    20     2    15
 -3.2520498577597012E-01 a      1166     1    20     2    16
  1.1779625392650432E-01 a      1167     1    20     2    17
  2.9715883870657916E-01 a      1168     1    20     2    18
  1.4429382535531565E-01 a      1169     1    20     2    19
 -2.4512306557958094E-01 a      1170     1    20     2    20
 -7.1199408079395315E-02 a      1171     1    20     2    21
 -1.0063628939012817E-01 a      1172     1    20     2    22
 -3.0791022293713627E-01 a      1173     1    20     2    23
 -2.6500576324369790E-01 a      1174     1    20     2    24
  5.6383310673937492E-01 a      1175     1    20     2    25
 -2.8204737778925359E-01 a      1176     1    21     2     1
 -7.5788264787172835E-02 a      1177     1    21     2     2
  1.6680538723432992E-01 a      1178     1    21     2     3
  4.8940379220097148E-02 a      1179     1    21     2     4
 -2.4969134906167312E-01 a      1180     1    21     2     5
  5.9706829682150819E-01 a      1181     1    21     2     6
 -7.7261205926653553E-01 a      1182     1    21     2     7
  2.2721973214754729E-01 a      1183     1    21     2     8
 -1.0113336892928027E+00 a      1184     1    21     2     9
  3.9717946623669981E-01 a      1185     1    21     2    10
 -8.3205963570316080E-02 a      1186     1    21     2    11
  1.7172134046142282E-01 a      1187     1    21     2    12
 -4.6866102019458766E-01 a      1188     1    21     2    13
  1.0483101254785325E+00 a      1189     1    21     2    14
 -8.1386380859491417E-02 a      1190     1    21     2    15
  2.9686842857934786E-01 a      1191     1    21     2    16
 -3.2752572101343369E-01 a      1192     1    21     2    17
  9.8272858564531371E-02 a      1193     1    21     2    18
  7.8990868103629222E-03 a      1194     1    21     2    19
 -2.5546107949303287E-01 a      1195     1    21     2    20
 -2.7610763270236621E-01 a      1196     1    21     2    21
 -6.8757488933314304E-01 a      1197     1    21     2    22
  1.7120686034875671E-01 a      1198     1    21     2    23
 -5.4821981085142280E-01 a      1199     1    21     2    24
  1.0493107849190914E-01 a      1200     1    21     2    25
 -3.6994648144757913E-01 a      1201     1    22     2     1
  2.6601209353070326E-01 a      1202     1    22     2     2
 -5.9258631289397190E-01 a      1203     1    22     2     3
  1.3331605916744863E-01 a      1204     1    22     2     4
 -1.2518858838196190E-01 a      1205     1    22     2     5
 -5.6968381294033241E-02 a      1206     1    22     2     6
 -3.3209207438022009E-01 a      1207     1    22     2     7
 -9.0470691926637670E-01 a      1208     1    22     2     8
 -4.9843925169447528E-01 a      1209     1    22     2     9
 -4.2989339690959749E-01 a      1210     1    22     2    10
  2.9225190691379227E-01 a      1211     1    22     2    11
  6.3984501705637922E-02 a      1212     1    22     2    12
 -1.9113520431208322E-01 a      1213     1    22     2    13
  7.2025472624963216E-01 a      1214     1    22     2    14
 -9.0508391804184807E-01 a      1215     1    22     2    15
 -3.3259008670614787E-01 a      1216     1    22     2    16
  6.0032124539230824E-01 a      1217     1    22     2    17
  3.1519551628109627E-01 a      1218     1    22     2    18
  4.2625185810363203E-02 a      1219     1    22     2    19
  4.3536121138487455E-01 a      1220     1    22     2    20
 -3.5876693674125648E-01 a      1221     1    22     2    21
  1.8527961233044449E-01 a      1222     1    22     2    22
  3.3606581864690566E-01 a      1223     1    22     2    23
  4.8654892619987782E-02 a      1224     1    22     2    24
 -1.7796528504730785E-01 a      1225     1    22     2    25
 -6.6455268479663807E-02 a      1226     1    23     2     1
  2.1987256542833278E-01 a      1227     1    23     2     2
 -6.8276569262077480E-01 a      1228     1    23     2     3
  7.3905328942837287E-02 a      1229     1    23     2     4
 -4.2963547725271128E-01 a      1230     1    23     2     5
  2.6848820468042236E-02 a      1231     1    23     2     6
  5.8934917403308063E-01 a      1232     1    23     2     7
  1.7098483808045964E-01 a      1233     1    23     2     8
 -8.7312438523651739E-02 a      1234     1    23     2     9
 -2.6918314050157860E-01 a      1235     1    23     2    10
 -1.1223573069569670E-01 a      1236     1    23     2    11
 -1.2392521422148746E-01 a      1237     1    23     2    12
 -4.0453040878167995E-01 a      1238     1    23     2    13
 -5.4958941965645447E-01 a      1239     1    23     2    14
 -3.0381046575079562E-01 a      1240     1    23     2    15
  3.1392186596981214E-01 a      1241     1    23     2    16
 -9.9009867760757403E-02 a      1242     1    23     2    17
 -9.5926623144464471E-02 a      1243     1    23     2    18
  2.1025633919530307E-01 a      1244     1    23     2    19
  4.9811310541219300E-01 a      1245     1    23     2    20
  2.3789388676835205E-01 a      1246     1    23     2    21
 -3.9838271503708628E-01 a      1247     1    23     2    22
 -2.0901911859803352E-01 a      1248     1    23     2    23
  9.1084533117009231E-02 a      1249     1    23     2    24
 -3.6783016695667348E-01 a      1250     1    23     2    25
  9.1718655362438894E-01 a      1251     1    24     2     1
  7.5107868454196636E-01 a      1252     1    24     2     2
 -6.7406678140389664E-01 a      1253     1    24     2     3
 -2.4911215777749349E-01 a      1254     1    24     2     4
  2.4743947550202319E-01 a      1255     1    24     2     5
  3.5672446487339254E-01 a      1256     1    24     2     6
 -2.3286985163628965E-01 a      1257     1    24     2     7
  1.6466870264658012E-01 a      1258     1    24     2     8
  6.1573202242239033E-01 a      1259     1    24     2     9
 -1.4758255528728662E-01 a      1260     1    24     2    10
 -5.1245898091489640E-02 a      1261     1    24     2    11
 -1.6771869643455486E-01 a      1262     1    24     2    12
 -4.0016010190163015E-01 a      1263     1    24     2    13
 -2.2740885002128186E-01 a      1264     1    24     2    14
 -1.9883509136160002E-01 a      1265     1    24     2    15
 -2.2948583533132214E-01 a      1266     1    24     2    16
  1.5376793750593782E-03 a      1267     1    24     2    17
 -5.2591808376509597E-01 a      1268     1    24     2    18
  1.0019766096412891E-01 a      1269     1    24     2    19
  9.7153712192463137E-01 a      1270     1    24     2    20
  8.4907288975267933E-02 a      1271     1    24     2    21
  5.0132690423678306E-01 a      1272     1    24     2    22
  6.4552426111658789E-01 a      1273     1    24     2    23
 -2.7173793087978226E-01 a      1274     1    24     2    24
 -2.0916833780744518E-01 a      1275     1    24     2    25
 -1.8250910773178050E-01 a      1276     1    25     2     1
  2.9363460018845589E-01 a      1277     1    25     2     2
 -5.9897057333911863E-01 a      1278     1    25     2     3
 -4.4355932924038464E-02 a      1279     1    25     2     4
 -2.5967844935653578E-01 a      1280     1    25     2     5
 -1.0846794319471485E-01 a      1281     1    25     2     6
  4.5843290277264787E-01 a      1282     1    25     2     7
  4.9507111356472089E-01 a      1283     1    25     2     8
  4.4074928452287521E-01 a      1284     1    25     2     9
  3.5880506057258010E-01 a      1285     1    25     2    10
 -1.1693177378397468E-01 a      1286     1    25     2    11
 -7.8820677148727120E-02 a      1287     1    25     2    12
  5.2699023202136641E-01 a      1288     1    25     2    13
  8.2128593414030837E-01 a      1289     1    25     2    14
  7.4767440836364174E-01 a      1290     1    25     2    15
 -8.7132678507454642E-01 a      1291     1    25     2    16
  5.6698709138897435E-02 a      1292     1    25     2    17
  5.1139323242383039E-01 a      1293     1    25     2    18
  1.6540009060507463E-01 a      1294     1    25     2    19
  1.1892686794856133E+00 a      1295     1    25     2    20
  4.0314268270006248E-01 a      1296     1    25     2    21
 -8.3623011441116768E-01 a      1297     1    25     2    22
  3.2660273756367203E-01 a      1298     1    25     2    23
  5.0887398215103175E-01 a      1299     1    25     2    24
 -6.0074842576363932E-02 a      1300     1    25     2    25
  9.8558749365336581E-02 b      1301     2     1
  7.5522912604396641E-02 b      1302     2     2
  5.9022367051043773E-02 b      1303     2     3
  3.7407221259279899E-01 b      1304     2     4
 -1.4960729679587631E-01 b      1305     2     5
 -6.5992747260154905E-01 b      1306     2     6
 -3.2288312897068398E-02 b      1307     2     7
 -2.5379741918355575E-01 b      1308     2     8
  1.3828376077468649E-01 b      1309     2     9
 -1.3071722697740998E-01 b      1310     2    10
  4.2828238290933279E-01 b      1311     2    11
  1.2765617509061329E+00 b      1312     2    12
 -3.1840172350206461E-02 b      1313     2    13
 -2.9096705867559347E-01 b      1314     2    14
  1.0978345403565924E-01 b      1315     2    15
  2.4511520395193324E-02 b      1316     2    16
  6.1025766123604025E-02 b      1317     2    17
  1.9725775891880357E-01 b      1318     2    18
 -1.3709003460992464E+00 b      1319     2    19
 -3.6352985846643299E-01 b      1320     2    20
 -5.3229186963986908E-01 b      1321     2    21
 -1.3212037618229181E-02 b      1322     2    22
  7.4474316308163180E-01 b      1323     2    23
 -1.0884845478509074E-01 b      1324     2    24
  3.3123095775981920E-01 b      1325     2    25
  1.9774044720514475E-01 a      1326     2     1     3     1
 -3.2944059844819545E-01 a      1327     2     2     3     1
 -9.1930372137514163E-02 a      1328     2     3     3     1
 -3.7744945969984933E-01 a      1329     2     4     3     1
 -2.5737006424796460E-01 a      1330     2     5     3     1
  5.0113065676296109E-01 a      1331     2     6     3     1
 -1.0388267899077730E-01 a      1332     2     7     3     1
 -7.5535038168374730E-02 a      1333     2     8     3     1
 -1.7356790881626322E-01 a      1334     2     9     3     1
 -8.6375697584724076E-02 a      1335     2    10     3     1
 -3.7431366096873658E-01 a      1336     2    11     3     1
 -1.3868764791685135E+00 a      1337     2    12     3     1
  2.5820270307826848E-01 a      1338     2    13     3     1
 -3.5640286735885873E-02 a      1339     2    14     3     1
 -1.3292871952240987E-01 a      1340     2    15     3     1
 -3.7516894313045829E-01 a      1341     2    16     3     1
 -2.4231434535869240E-01 a      1342     2    17     3     1
 -8.3932598835723821E-02 a      1343     2    18     3     1
  7.7245605645374327E-01 a      1344     2    19     3     1
 -5.0852263996326016E-02 a      1345     2    20     3     1
  2.0632212539628536E-01 a      1346     2    21     3     1
  1.8137382496794707E-02 a      1347     2    22     3     1
 -4.2463053270753937E-01 a      1348     2    23     3     1
  2.9104653587861077E-02 a      1349     2    24     3     1
 -1.7110557600971224E-01 a      1350     2    25     3     1
 -2.3605625908812564E-01 b      1351     3     1
