################################################################################
# Neural network connection values (weights and biases).
################################################################################
# Col  Name       Description
################################################################################
# 1    connection Neural network connection value.
# 2    t          Connection type (a = weight, b = bias).
# 3    index      Index enumerating weights.
# 4    l_s        Starting point layer (end point layer for biases).
# 5    n_s        Starting point neuron in starting layer (end point neuron for biases).
# 6    l_e        End point layer.
# 7    n_e        End point neuron in end layer.
################################################################################
#                      1 2         3     4     5     6     7
#             connection t     index   l_s   n_s   l_e   n_e
############################################################
 -6.9728149408899032E-01 a         1     0     1     1     1
  1.5116767370527809E-01 a         2     0     1     1     2
 -1.3285829355627572E+00 a         3     0     1     1     3
  1.6687960988864925E+00 a         4     0     1     1     4
  3.1861978156282106E-01 a         5     0     1     1     5
 -1.7353610114089360E-01 a         6     0     1     1     6
  2.0010303665637347E-01 a         7     0     1     1     7
  2.4018572476879625E-02 a         8     0     1     1     8
 -4.1535167118639976E-01 a         9     0     1     1     9
 -8.8837754030949301E-01 a        10     0     1     1    10
 -1.7921465031045483E+00 a        11     0     1     1    11
  7.4041726285485165E-01 a        12     0     1     1    12
  9.6336618680403829E-02 a        13     0     1     1    13
  7.3211667543671954E-01 a        14     0     1     1    14
  6.5458454242654629E-01 a        15     0     1     1    15
  1.4654988266124771E+00 a        16     0     1     1    16
  5.4449455211567654E-01 a        17     0     1     1    17
  1.3172530756043452E+00 a        18     0     1     1    18
 -1.5524400638107807E+00 a        19     0     1     1    19
 -4.9138086738921161E-01 a        20     0     1     1    20
 -5.2388266103799959E+00 a        21     0     1     1    21
  9.1444038025155372E-01 a        22     0     1     1    22
 -3.7915676132382092E+00 a        23     0     1     1    23
 -9.2176027908172475E-02 a        24     0     1     1    24
  2.1185695474168873E+00 a        25     0     1     1    25
 -2.9471611789035407E-01 a        26     0     2     1     1
  8.0689472362064737E-02 a        27     0     2     1     2
  1.9432918837127400E-01 a        28     0     2     1     3
 -2.4535777254909494E-01 a        29     0     2     1     4
 -1.0328915866266049E+00 a        30     0     2     1     5
 -3.6834869583838464E-01 a        31     0     2     1     6
  2.1042407417208722E-01 a        32     0     2     1     7
 -4.6056452588418145E-01 a        33     0     2     1     8
  1.3465612342358216E-01 a        34     0     2     1     9
  2.3413338760673322E-01 a        35     0     2     1    10
  5.3600697554105381E-01 a        36     0     2     1    11
 -9.1364572560281576E-01 a        37     0     2     1    12
 -1.4048055582304000E-04 a        38     0     2     1    13
  3.1069340591226596E-01 a        39     0     2     1    14
  1.2553443863356431E-01 a        40     0     2     1    15
 -3.1967766154460675E-01 a        41     0     2     1    16
  3.7138904917394466E-01 a        42     0     2     1    17
 -9.5478412354484107E-02 a        43     0     2     1    18
  1.1765446216511162E+00 a        44     0     2     1    19
 -2.9892199107218920E-01 a        45     0     2     1    20
  1.2955900945056109E+00 a        46     0     2     1    21
 -9.8841440830040983E-02 a        47     0     2     1    22
  1.1111196496624709E+00 a        48     0     2     1    23
 -3.9828968228100203E-01 a        49     0     2     1    24
 -1.3904403296801449E+00 a        50     0     2     1    25
 -5.6976909437958723E-01 a        51     0     3     1     1
  4.8045105022644297E-01 a        52     0     3     1     2
  9.8839241379525211E-01 a        53     0     3     1     3
 -1.6148600616272910E+00 a        54     0     3     1     4
 -1.2622319497140777E+00 a        55     0     3     1     5
  2.8762996347947317E-01 a        56     0     3     1     6
  3.4678519520979229E-01 a        57     0     3     1     7
 -8.8706589569898886E-01 a        58     0     3     1     8
  9.6416377527336106E-01 a        59     0     3     1     9
  2.1823941266221261E+00 a        60     0     3     1    10
  1.7578125175941239E+00 a        61     0     3     1    11
 -1.4049158899910319E+00 a        62     0     3     1    12
 -1.0494399122455980E-01 a        63     0     3     1    13
 -2.2753321798799292E-01 a        64     0     3     1    14
  3.9579129770989824E-01 a        65     0     3     1    15
 -1.3039259909480994E+00 a        66     0     3     1    16
  6.5552142281569448E-01 a        67     0     3     1    17
 -7.1337301735573111E-01 a        68     0     3     1    18
  2.1625403591796131E+00 a        69     0     3     1    19
  6.5232014470267641E-01 a        70     0     3     1    20
  5.2358919452776336E+00 a        71     0     3     1    21
 -5.0481826152946507E-01 a        72     0     3     1    22
  2.9747251512100785E+00 a        73     0     3     1    23
  1.5884590117860381E-01 a        74     0     3     1    24
 -2.5139573463312788E+00 a        75     0     3     1    25
  1.5425657812738631E+00 a        76     0     4     1     1
 -9.3448128431836600E-02 a        77     0     4     1     2
  4.0537338530727035E-01 a        78     0     4     1     3
 -2.4622333830434442E-01 a        79     0     4     1     4
  1.3070041302543860E+00 a        80     0     4     1     5
  1.6183447597869447E+00 a        81     0     4     1     6
 -1.0844353040914729E+00 a        82     0     4     1     7
  2.1354141737965504E+00 a        83     0     4     1     8
  1.1953615601512144E+00 a        84     0     4     1     9
 -2.5639894940875716E+00 a        85     0     4     1    10
 -7.0035480061531785E-01 a        86     0     4     1    11
  1.2782768343323250E+00 a        87     0     4     1    12
  1.5789827332519306E+00 a        88     0     4     1    13
 -1.0948129323738631E+00 a        89     0     4     1    14
  4.9093706685104532E-01 a        90     0     4     1    15
 -7.6791824277587928E-01 a        91     0     4     1    16
 -2.5819270129595009E+00 a        92     0     4     1    17
  1.6006393247088097E-01 a        93     0     4     1    18
 -1.8736573715889970E+00 a        94     0     4     1    19
  4.5140597410942562E-01 a        95     0     4     1    20
 -6.4014480829191978E-01 a        96     0     4     1    21
  1.0716640169673326E+00 a        97     0     4     1    22
 -1.9107118127995062E+00 a        98     0     4     1    23
  7.2929434469252152E-03 a        99     0     4     1    24
  9.6178396285082379E-01 a       100     0     4     1    25
  9.3549855496972478E-02 a       101     0     5     1     1
 -8.6119901525063614E-01 a       102     0     5     1     2
  3.9400474257571383E-01 a       103     0     5     1     3
 -3.3928944295537167E-02 a       104     0     5     1     4
 -6.0042277516029174E-01 a       105     0     5     1     5
 -2.6283467753688021E+00 a       106     0     5     1     6
 -1.7196305073669310E-01 a       107     0     5     1     7
 -1.4835919270671925E+00 a       108     0     5     1     8
 -1.1176965537298322E+00 a       109     0     5     1     9
  6.2671040308187431E-01 a       110     0     5     1    10
 -2.8785431004500456E-01 a       111     0     5     1    11
  7.8317757159119883E-01 a       112     0     5     1    12
 -2.4887941585916638E+00 a       113     0     5     1    13
 -2.1385520243200724E+00 a       114     0     5     1    14
 -1.0173314128322666E+00 a       115     0     5     1    15
  1.4967595451370599E+00 a       116     0     5     1    16
  2.3856003625137561E+00 a       117     0     5     1    17
 -3.6039926786435805E-02 a       118     0     5     1    18
  4.6053650584133526E-01 a       119     0     5     1    19
 -9.6180025796342883E-01 a       120     0     5     1    20
 -1.5355342152280163E+00 a       121     0     5     1    21
 -6.9226526093659146E-01 a       122     0     5     1    22
  7.0013416476481294E-02 a       123     0     5     1    23
  1.5627838765620485E+00 a       124     0     5     1    24
  9.9992966828812957E-01 a       125     0     5     1    25
 -5.2511321016200951E-01 a       126     0     6     1     1
  9.2540163165663492E-01 a       127     0     6     1     2
 -6.5655450393255099E-01 a       128     0     6     1     3
  2.3868462276560665E-01 a       129     0     6     1     4
  2.6949538735638728E-01 a       130     0     6     1     5
  1.1017448350697443E+00 a       131     0     6     1     6
  2.5661652410496733E-01 a       132     0     6     1     7
  8.7001292365043850E-02 a       133     0     6     1     8
  3.6323841310590677E-01 a       134     0     6     1     9
  8.5046315408006146E-01 a       135     0     6     1    10
  8.0384499192840475E-01 a       136     0     6     1    11
 -1.2145093312910440E+00 a       137     0     6     1    12
  1.2128331864920672E+00 a       138     0     6     1    13
  2.8365432339655485E+00 a       139     0     6     1    14
  9.9273008991279985E-02 a       140     0     6     1    15
 -5.4659915567836526E-01 a       141     0     6     1    16
 -1.5421209338310300E+00 a       142     0     6     1    17
 -2.4234494902065085E-01 a       143     0     6     1    18
 -2.4709462606836777E-01 a       144     0     6     1    19
  7.4742544001515943E-01 a       145     0     6     1    20
  1.4038979659229665E+00 a       146     0     6     1    21
  3.0467756826781700E-01 a       147     0     6     1    22
  4.1378202241522372E-01 a       148     0     6     1    23
 -1.4025855531678901E+00 a       149     0     6     1    24
 -1.0001288714597607E+00 a       150     0     6     1    25
  2.2490388878720693E-02 a       151     0     7     1     1
 -3.1329684844362071E-01 a       152     0     7     1     2
  2.1945007438289391E-01 a       153     0     7     1     3
 -1.8894187970457096E-01 a       154     0     7     1     4
 -4.4578992702628334E-01 a       155     0     7     1     5
 -1.6923826467487690E-01 a       156     0     7     1     6
 -3.1767239399420177E-01 a       157     0     7     1     7
  2.8624061040132553E-01 a       158     0     7     1     8
  7.9458282056743351E-02 a       159     0     7     1     9
 -4.4883942248107367E-01 a       160     0     7     1    10
 -2.1154201088576730E-01 a       161     0     7     1    11
  2.5201199655706313E-01 a       162     0     7     1    12
 -1.5129647735770485E-01 a       163     0     7     1    13
 -8.6971591929712055E-01 a       164     0     7     1    14
  2.4010908404475370E-01 a       165     0     7     1    15
  1.6457585577536776E-01 a       166     0     7     1    16
  5.1710042003171564E-01 a       167     0     7     1    17
  1.6045588236021430E-01 a       168     0     7     1    18
  7.1641083789917473E-02 a       169     0     7     1    19
  8.8950057198715973E-03 a       170     0     7     1    20
 -5.1815553488192601E-01 a       171     0     7     1    21
  1.3703365900029671E-01 a       172     0     7     1    22
 -1.7481427745726549E-01 a       173     0     7     1    23
  2.5824349926954804E-01 a       174     0     7     1    24
  1.4839536847781742E-01 a       175     0     7     1    25
 -3.4741821077063945E-02 a       176     0     8     1     1
  1.4499948936777185E-01 a       177     0     8     1     2
 -1.1657485992923325E-01 a       178     0     8     1     3
  1.4965020558601091E-01 a       179     0     8     1     4
  2.1289200448736437E-01 a       180     0     8     1     5
 -1.5490363124343187E-01 a       181     0     8     1     6
  1.5392408316794332E-01 a       182     0     8     1     7
 -1.9116071379112776E-01 a       183     0     8     1     8
  3.2993923617790182E-03 a       184     0     8     1     9
  1.5078453952377209E-02 a       185     0     8     1    10
  1.0827216136866566E-01 a       186     0     8     1    11
  1.2502651677573617E-01 a       187     0     8     1    12
  1.4543728965558189E-01 a       188     0     8     1    13
  2.5353342505205817E-01 a       189     0     8     1    14
 -1.1430640975821955E-01 a       190     0     8     1    15
  3.4805363545501990E-02 a       191     0     8     1    16
 -1.3904008860367811E-01 a       192     0     8     1    17
 -2.1084925369927227E-01 a       193     0     8     1    18
 -3.6247804532462471E-02 a       194     0     8     1    19
 -1.6089797021159846E-01 a       195     0     8     1    20
 -2.5472501628771248E-02 a       196     0     8     1    21
  1.3302828054524223E-02 a       197     0     8     1    22
  4.4498746944417501E-02 a       198     0     8     1    23
 -2.7042342821707713E-02 a       199     0     8     1    24
 -1.0439429988398517E-01 a       200     0     8     1    25
  1.4026962614974101E+00 a       201     0     9     1     1
 -1.5931581548725999E+00 a       202     0     9     1     2
  1.0626069802719591E+00 a       203     0     9     1     3
  4.1509058505257581E+00 a       204     0     9     1     4
  1.7863136312731245E+00 a       205     0     9     1     5
 -1.3798296813739641E+00 a       206     0     9     1     6
 -1.2583411152407270E-01 a       207     0     9     1     7
  7.7950987646337044E-01 a       208     0     9     1     8
 -8.9698623374780029E-01 a       209     0     9     1     9
 -4.3214813354355170E+00 a       210     0     9     1    10
  3.5683345332616728E-01 a       211     0     9     1    11
  1.4034688339895203E+00 a       212     0     9     1    12
  5.8902323408119306E-01 a       213     0     9     1    13
 -2.7543760062604488E+00 a       214     0     9     1    14
 -1.7090324534986850E-01 a       215     0     9     1    15
  1.7208123551891963E-01 a       216     0     9     1    16
 -2.7531488779219782E+00 a       217     0     9     1    17
  5.7735788559563139E-01 a       218     0     9     1    18
  1.5595534653886600E+00 a       219     0     9     1    19
 -1.4012978629355535E+00 a       220     0     9     1    20
 -3.6536738760639370E-01 a       221     0     9     1    21
 -1.7944126013383812E+00 a       222     0     9     1    22
 -1.3515643700153541E+00 a       223     0     9     1    23
 -8.4369043084041528E-01 a       224     0     9     1    24
  2.9283310393546486E-01 a       225     0     9     1    25
  1.7847277887333154E-01 a       226     0    10     1     1
 -3.3073715221158057E-01 a       227     0    10     1     2
 -1.5057922796095061E-01 a       228     0    10     1     3
 -8.7089505219932466E+00 a       229     0    10     1     4
 -4.5909603316550729E-01 a       230     0    10     1     5
  6.7803054495773687E-02 a       231     0    10     1     6
 -4.3988909810427901E-01 a       232     0    10     1     7
  1.5343893099676031E-01 a       233     0    10     1     8
 -5.1314132683151215E-01 a       234     0    10     1     9
  5.6019791402199921E+00 a       235     0    10     1    10
 -9.9028470844240857E-01 a       236     0    10     1    11
  3.0846285687194319E-01 a       237     0    10     1    12
 -3.5684497383531005E-01 a       238     0    10     1    13
  1.3395799435116571E+00 a       239     0    10     1    14
  2.0426442944412396E-01 a       240     0    10     1    15
 -1.2644081612850380E+00 a       241     0    10     1    16
  2.4367727139789079E+00 a       242     0    10     1    17
 -1.5110385011838068E+00 a       243     0    10     1    18
 -2.3987200405036533E+00 a       244     0    10     1    19
  1.8586655177013940E+00 a       245     0    10     1    20
  1.0724192864830796E+01 a       246     0    10     1    21
 -5.6178466056412613E-01 a       247     0    10     1    22
  1.8639146828611166E+00 a       248     0    10     1    23
  1.3491454695174758E+00 a       249     0    10     1    24
  2.2398120038361402E-01 a       250     0    10     1    25
 -4.9169163116779147E-01 a       251     0    11     1     1
  1.3617779982464182E+00 a       252     0    11     1     2
 -3.9073296099341098E-01 a       253     0    11     1     3
  4.0343740284155105E+00 a       254     0    11     1     4
 -1.4729354050445806E+00 a       255     0    11     1     5
  1.3035229443723013E+00 a       256     0    11     1     6
 -6.7602078876397464E-02 a       257     0    11     1     7
 -5.7977284251005079E-01 a       258     0    11     1     8
  9.3479486664136102E-01 a       259     0    11     1     9
 -1.2752380832709971E+00 a       260     0    11     1    10
  1.0058315586492952E+00 a       261     0    11     1    11
 -7.8918201855985370E-01 a       262     0    11     1    12
 -8.0057288428990236E-01 a       263     0    11     1    13
  1.7239947688857458E+00 a       264     0    11     1    14
 -1.9343925558719157E+00 a       265     0    11     1    15
  9.2932581437387496E-01 a       266     0    11     1    16
 -2.1015828249873117E-01 a       267     0    11     1    17
 -1.9363917563516211E-01 a       268     0    11     1    18
 -6.5556376778673731E-01 a       269     0    11     1    19
 -7.7425512254161788E-01 a       270     0    11     1    20
 -1.0931193425313273E+01 a       271     0    11     1    21
  1.3761452565131083E+00 a       272     0    11     1    22
  3.4052706426270180E-01 a       273     0    11     1    23
 -2.8763093164109261E-02 a       274     0    11     1    24
 -4.1676669057536184E-02 a       275     0    11     1    25
  4.5321545063916452E-01 a       276     0    12     1     1
  3.0197522289603360E+00 a       277     0    12     1     2
  2.1276424254741319E-01 a       278     0    12     1     3
 -3.7859451899163945E+00 a       279     0    12     1     4
  2.2114308745520526E+00 a       280     0    12     1     5
  1.2401193507440045E+00 a       281     0    12     1     6
  3.1365240608810779E-01 a       282     0    12     1     7
  1.6473595156028262E+00 a       283     0    12     1     8
  2.1593560153233926E+00 a       284     0    12     1     9
  2.9909343226131155E+00 a       285     0    12     1    10
 -1.8766206767639870E+00 a       286     0    12     1    11
  1.6568604558722173E+00 a       287     0    12     1    12
 -6.6127805152534969E-01 a       288     0    12     1    13
  8.5163590440775483E-01 a       289     0    12     1    14
 -8.7977787592969939E-02 a       290     0    12     1    15
  9.2532881015899437E-01 a       291     0    12     1    16
  3.0326413815318456E+00 a       292     0    12     1    17
 -8.0637442148574201E-01 a       293     0    12     1    18
 -3.5884150706842037E+00 a       294     0    12     1    19
  4.5044928877327600E-01 a       295     0    12     1    20
 -3.1810837242167134E+00 a       296     0    12     1    21
  9.9777544050148015E-01 a       297     0    12     1    22
  1.8024258280868393E+00 a       298     0    12     1    23
  1.5200257632656493E+00 a       299     0    12     1    24
  2.9994169520202401E+00 a       300     0    12     1    25
 -4.4149496633354229E-01 a       301     0    13     1     1
 -2.9707150123881265E-01 a       302     0    13     1     2
  1.0592582717616639E+00 a       303     0    13     1     3
  8.7271896660155015E+00 a       304     0    13     1     4
 -8.2221736008476737E-02 a       305     0    13     1     5
 -8.1671079603348545E-02 a       306     0    13     1     6
  9.6491167827553931E-02 a       307     0    13     1     7
 -3.9859282800451723E-01 a       308     0    13     1     8
  9.4932237557778493E-02 a       309     0    13     1     9
 -5.7399390038079163E+00 a       310     0    13     1    10
  2.0555684060538502E+00 a       311     0    13     1    11
 -1.6702216847885789E+00 a       312     0    13     1    12
 -6.3255035006821989E-02 a       313     0    13     1    13
 -1.6108631205098802E+00 a       314     0    13     1    14
  7.9361459240783389E-02 a       315     0    13     1    15
  2.6119347033224666E-01 a       316     0    13     1    16
 -3.1338643621430728E+00 a       317     0    13     1    17
  1.7499178985081505E+00 a       318     0    13     1    18
  4.0073424254584769E+00 a       319     0    13     1    19
 -1.5707889623312439E+00 a       320     0    13     1    20
 -8.8771322124135068E+00 a       321     0    13     1    21
  6.0055002046392159E-01 a       322     0    13     1    22
 -9.8817367186986593E-01 a       323     0    13     1    23
 -2.1719392458349667E+00 a       324     0    13     1    24
 -1.5124077360518795E+00 a       325     0    13     1    25
 -3.2612117875367341E-01 a       326     0    14     1     1
 -4.6643241374076343E+00 a       327     0    14     1     2
 -1.5667192202750544E+00 a       328     0    14     1     3
 -4.3642997118300784E+00 a       329     0    14     1     4
 -2.4374498903487267E+00 a       330     0    14     1     5
  4.2029088299645784E-01 a       331     0    14     1     6
 -1.3367898951697146E+00 a       332     0    14     1     7
  1.1864316473346359E-01 a       333     0    14     1     8
 -3.7944841355582191E+00 a       334     0    14     1     9
  1.9578075292588035E+00 a       335     0    14     1    10
 -1.0162778468063554E+00 a       336     0    14     1    11
 -1.4588529001382429E+00 a       337     0    14     1    12
  1.0408736007434130E+00 a       338     0    14     1    13
 -2.0511833902768326E-02 a       339     0    14     1    14
  2.9137692516897546E+00 a       340     0    14     1    15
 -2.3378269129807654E+00 a       341     0    14     1    16
 -1.2034584643049415E+00 a       342     0    14     1    17
  4.3127211538249521E-01 a       343     0    14     1    18
  1.2360335579099653E+00 a       344     0    14     1    19
  3.6906037083952481E+00 a       345     0    14     1    20
  1.4704692475199717E+01 a       346     0    14     1    21
  2.4600223341527408E-01 a       347     0    14     1    22
 -7.2481396715754443E-01 a       348     0    14     1    23
  4.2550985529121316E-01 a       349     0    14     1    24
 -2.1525735982835612E+00 a       350     0    14     1    25
  1.5240273335556431E+00 a       351     0    15     1     1
  1.7042523785105279E+00 a       352     0    15     1     2
 -4.9202438615483785E-01 a       353     0    15     1     3
  4.7484298363296293E+00 a       354     0    15     1     4
  2.1762130440060550E+00 a       355     0    15     1     5
 -3.1072839711998461E+00 a       356     0    15     1     6
  2.2009822696886392E+00 a       357     0    15     1     7
 -2.9050572491319531E+00 a       358     0    15     1     8
 -3.1539354851634066E-01 a       359     0    15     1     9
 -2.8624546684374312E+00 a       360     0    15     1    10
  1.1727624730612569E+00 a       361     0    15     1    11
  9.4452131464475841E-01 a       362     0    15     1    12
 -1.5192971208431849E+00 a       363     0    15     1    13
 -2.9885806813526533E-01 a       364     0    15     1    14
 -1.1934147815892197E-01 a       365     0    15     1    15
  2.2106888982381845E+00 a       366     0    15     1    16
 -5.9093149143442125E-01 a       367     0    15     1    17
  2.4564031160431608E+00 a       368     0    15     1    18
  2.1089052177115648E+00 a       369     0    15     1    19
 -5.2869103196157419E-01 a       370     0    15     1    20
 -1.0059541131474703E+01 a       371     0    15     1    21
  4.6896162948406611E-01 a       372     0    15     1    22
 -4.5672334295847792E+00 a       373     0    15     1    23
 -1.6454062229586888E+00 a       374     0    15     1    24
 -7.4957685137083396E-01 a       375     0    15     1    25
 -4.2372765440013466E-01 a       376     0    16     1     1
 -5.9645057241645860E-01 a       377     0    16     1     2
 -1.3793829691870307E+00 a       378     0    16     1     3
 -9.6041651519474680E+00 a       379     0    16     1     4
  4.2323043658946596E-01 a       380     0    16     1     5
  5.1832201604382866E-01 a       381     0    16     1     6
 -4.2719412759511674E-02 a       382     0    16     1     7
  3.9601158421425509E-01 a       383     0    16     1     8
 -7.1666877766001202E-01 a       384     0    16     1     9
  6.3219529918580175E+00 a       385     0    16     1    10
 -2.3019012871801157E+00 a       386     0    16     1    11
  4.6220990312004606E-01 a       387     0    16     1    12
  5.4752735236653582E-01 a       388     0    16     1    13
  1.5267900618925867E+00 a       389     0    16     1    14
  1.3708806826288058E+00 a       390     0    16     1    15
 -1.0172023638831018E+00 a       391     0    16     1    16
  2.5344771270647004E+00 a       392     0    16     1    17
 -9.4915663296355912E-01 a       393     0    16     1    18
 -3.5407879436884211E+00 a       394     0    16     1    19
  2.7971028990446007E+00 a       395     0    16     1    20
  1.2336724668551783E+01 a       396     0    16     1    21
  1.2285329411969310E-01 a       397     0    16     1    22
  1.1400884752246885E+00 a       398     0    16     1    23
  2.0088789412390629E+00 a       399     0    16     1    24
  9.5141224767262944E-01 a       400     0    16     1    25
 -1.8419120126214372E+00 a       401     0    17     1     1
 -6.8613420819614235E-01 a       402     0    17     1     2
  1.3207959198733066E+00 a       403     0    17     1     3
  5.5122152986566366E+00 a       404     0    17     1     4
 -1.7936451006243102E+00 a       405     0    17     1     5
  2.5273770722029036E+00 a       406     0    17     1     6
 -1.2715207793632786E+00 a       407     0    17     1     7
  2.3868781664154777E+00 a       408     0    17     1     8
  6.6448223684134877E-01 a       409     0    17     1     9
 -3.4569120900180463E+00 a       410     0    17     1    10
  1.0597436407188048E+00 a       411     0    17     1    11
 -2.0320485399880881E+00 a       412     0    17     1    12
  1.2815466728916398E+00 a       413     0    17     1    13
 -6.7837579077542220E-01 a       414     0    17     1    14
 -1.1199449653627505E-01 a       415     0    17     1    15
 -9.8257511173494605E-01 a       416     0    17     1    16
 -1.7475084108418801E+00 a       417     0    17     1    17
 -8.0284490010393417E-01 a       418     0    17     1    18
  2.4091969850515613E+00 a       419     0    17     1    19
 -1.7752379248375698E+00 a       420     0    17     1    20
 -1.9003147227964678E+00 a       421     0    17     1    21
 -3.2578720980114617E-01 a       422     0    17     1    22
  3.1658575686157042E+00 a       423     0    17     1    23
 -1.3647098695102298E+00 a       424     0    17     1    24
 -5.9920613129064049E-01 a       425     0    17     1    25
 -2.1404972156868984E+00 a       426     0    18     1     1
  6.0977582929641916E-01 a       427     0    18     1     2
  2.0898748330632286E-01 a       428     0    18     1     3
 -2.6519242573744335E+00 a       429     0    18     1     4
  2.4498663686715486E-01 a       430     0    18     1     5
  3.1056092210380166E+00 a       431     0    18     1     6
 -8.6742295662175162E-01 a       432     0    18     1     7
 -9.8590961459785464E-01 a       433     0    18     1     8
  1.8246382488909572E+00 a       434     0    18     1     9
  1.1301270631278457E+00 a       435     0    18     1    10
  9.5137949228359675E-01 a       436     0    18     1    11
 -1.5805426803523319E+00 a       437     0    18     1    12
  1.0216038735829991E+00 a       438     0    18     1    13
 -1.8083246343736795E-01 a       439     0    18     1    14
 -2.7840410142517054E+00 a       440     0    18     1    15
 -1.0311807444218883E+00 a       441     0    18     1    16
 -4.1278566269295708E-01 a       442     0    18     1    17
 -2.7623426929245714E+00 a       443     0    18     1    18
 -1.8945810110389600E+00 a       444     0    18     1    19
 -1.0962071551060002E+00 a       445     0    18     1    20
  3.4223492593453120E+00 a       446     0    18     1    21
 -3.0072766336669261E+00 a       447     0    18     1    22
  3.7338531389697236E+00 a       448     0    18     1    23
  6.4446436119477424E-01 a       449     0    18     1    24
 -8.3102575119614031E-01 a       450     0    18     1    25
  3.1138303702411213E-01 a       451     0    19     1     1
  9.6622689227403535E-01 a       452     0    19     1     2
  6.1082357749612903E-01 a       453     0    19     1     3
  7.5428275663923128E-02 a       454     0    19     1     4
  6.5505973533799167E-01 a       455     0    19     1     5
 -7.5710215632001421E-01 a       456     0    19     1     6
  6.9553237861931838E-01 a       457     0    19     1     7
 -4.8097047146176808E-01 a       458     0    19     1     8
  5.5648874058455278E-01 a       459     0    19     1     9
  3.7005642750985562E-01 a       460     0    19     1    10
  3.9629824462011000E-02 a       461     0    19     1    11
  5.5635493590063834E-01 a       462     0    19     1    12
 -6.6538461193766352E-01 a       463     0    19     1    13
  4.0033507548032643E-01 a       464     0    19     1    14
 -1.7719798977670955E+00 a       465     0    19     1    15
  9.0463059330899709E-01 a       466     0    19     1    16
  2.7728098273277141E-01 a       467     0    19     1    17
 -6.9600445962656610E-01 a       468     0    19     1    18
 -5.8735973967480370E-01 a       469     0    19     1    19
 -1.2225141657680934E+00 a       470     0    19     1    20
 -2.3201586937765590E+00 a       471     0    19     1    21
 -7.2165873999766506E-01 a       472     0    19     1    22
 -4.1416821242392515E-01 a       473     0    19     1    23
 -1.3400762073436651E-01 a       474     0    19     1    24
  6.0104496424120901E-01 a       475     0    19     1    25
  2.5207350065640903E+00 a       476     0    20     1     1
  9.7043623679213953E-01 a       477     0    20     1     2
 -2.6197211053448277E-01 a       478     0    20     1     3
  2.4477905632264738E+00 a       479     0    20     1     4
  4.2895457600529963E-01 a       480     0    20     1     5
 -4.2758424096076713E+00 a       481     0    20     1     6
  2.1052402555499814E+00 a       482     0    20     1     7
 -7.7324220759000128E-01 a       483     0    20     1     8
  5.2527287856186422E-01 a       484     0    20     1     9
 -3.0267796914560491E-01 a       485     0    20     1    10
 -3.5591736622002185E-01 a       486     0    20     1    11
  3.2157618802668386E+00 a       487     0    20     1    12
 -1.6965827349673324E+00 a       488     0    20     1    13
  9.1399471348237860E-01 a       489     0    20     1    14
 -3.8476740581165075E-01 a       490     0    20     1    15
  2.1071440119493587E+00 a       491     0    20     1    16
  2.4906123757352545E+00 a       492     0    20     1    17
  8.1242969236858953E-01 a       493     0    20     1    18
  9.5786334661897926E-02 a       494     0    20     1    19
 -1.2526787089108642E+00 a       495     0    20     1    20
 -5.3260702373828863E+00 a       496     0    20     1    21
  8.0551538642072185E-01 a       497     0    20     1    22
 -2.0377410670299843E+00 a       498     0    20     1    23
  4.9234923130885883E-01 a       499     0    20     1    24
  1.6908233107526529E+00 a       500     0    20     1    25
  5.8685330199656682E-01 a       501     0    21     1     1
 -2.4210935656663346E+00 a       502     0    21     1     2
 -1.9197016723935536E+00 a       503     0    21     1     3
  5.1382503628747846E+00 a       504     0    21     1     4
 -1.5893059906859279E+00 a       505     0    21     1     5
 -5.5831102087370601E+00 a       506     0    21     1     6
 -2.3000955532324294E+00 a       507     0    21     1     7
  4.0956063230353873E-01 a       508     0    21     1     8
 -3.4152075616504796E+00 a       509     0    21     1     9
 -3.0491774107643157E+00 a       510     0    21     1    10
  1.1526121704729577E+00 a       511     0    21     1    11
  1.4117006456864423E+00 a       512     0    21     1    12
  1.0823950610188469E+00 a       513     0    21     1    13
 -5.7243257031869121E-01 a       514     0    21     1    14
  7.6250082315846079E-01 a       515     0    21     1    15
  7.1472926067408182E-01 a       516     0    21     1    16
 -1.1748191765843385E+00 a       517     0    21     1    17
  1.1675337097459999E+00 a       518     0    21     1    18
  3.8433914414397248E+00 a       519     0    21     1    19
 -4.2740172317312375E+00 a       520     0    21     1    20
 -1.3567623985696229E+00 a       521     0    21     1    21
  4.7680502644989015E-01 a       522     0    21     1    22
 -5.3979923226917519E+00 a       523     0    21     1    23
 -6.5164013882503247E-01 a       524     0    21     1    24
  2.1740441723321515E+00 a       525     0    21     1    25
 -6.4147737354140047E-02 a       526     0    22     1     1
 -3.1238534204029567E-01 a       527     0    22     1     2
 -4.9522183950327986E-01 a       528     0    22     1     3
 -6.1493289747821382E+00 a       529     0    22     1     4
 -1.8879013137732925E-01 a       530     0    22     1     5
  3.6217682296084031E-01 a       531     0    22     1     6
 -7.2412231618224054E-01 a       532     0    22     1     7
  3.8500137083509722E-01 a       533     0    22     1     8
 -9.1791145910934546E-01 a       534     0    22     1     9
  3.2635526884319863E+00 a       535     0    22     1    10
 -1.6381681563656991E+00 a       536     0    22     1    11
  4.0696615709843265E-01 a       537     0    22     1    12
  2.4985593644195819E-02 a       538     0    22     1    13
  7.2173191510475143E-01 a       539     0    22     1    14
  1.2472394717924709E+00 a       540     0    22     1    15
 -9.2496332952412774E-01 a       541     0    22     1    16
  1.1026000984647732E+00 a       542     0    22     1    17
 -3.2070603013173016E-01 a       543     0    22     1    18
 -1.9774641020942558E+00 a       544     0    22     1    19
  1.4442463218192303E+00 a       545     0    22     1    20
  6.5533431718899031E+00 a       546     0    22     1    21
  5.5742035645668619E-01 a       547     0    22     1    22
 -4.4837077414009285E-01 a       548     0    22     1    23
  1.0974161499138140E+00 a       549     0    22     1    24
  8.0228942025855576E-01 a       550     0    22     1    25
 -7.7600846076513930E-01 a       551     0    23     1     1
  1.9022948529341677E+00 a       552     0    23     1     2
  2.3408909194090022E+00 a       553     0    23     1     3
  7.5299394072557468E-01 a       554     0    23     1     4
  9.5281597242561822E-01 a       555     0    23     1     5
  6.0482008055075065E+00 a       556     0    23     1     6
  1.8351174915113702E+00 a       557     0    23     1     7
  7.9352277281769426E-02 a       558     0    23     1     8
  2.9507497453413882E+00 a       559     0    23     1     9
 -5.5769460077433541E-01 a       560     0    23     1    10
  8.0354385250409817E-05 a       561     0    23     1    11
 -2.5674998516358878E+00 a       562     0    23     1    12
 -1.1523551798492547E-01 a       563     0    23     1    13
 -9.2009812369788280E-01 a       564     0    23     1    14
  7.3258123210526299E-02 a       565     0    23     1    15
 -9.8036331596156168E-01 a       566     0    23     1    16
 -8.6919772463494360E-01 a       567     0    23     1    17
  1.2734226326867809E-01 a       568     0    23     1    18
 -8.1650847222554845E-01 a       569     0    23     1    19
  3.6579499326128708E+00 a       570     0    23     1    20
 -3.4682919928038229E+00 a       571     0    23     1    21
  1.1670341982109168E-01 a       572     0    23     1    22
  4.8963083632528814E+00 a       573     0    23     1    23
 -7.1512606054335248E-01 a       574     0    23     1    24
 -3.2040586646775986E+00 a       575     0    23     1    25
  1.0815438300002242E-01 a       576     0    24     1     1
 -2.7503885161455948E-02 a       577     0    24     1     2
 -8.4667595384953664E-01 a       578     0    24     1     3
  9.4879391460736706E-01 a       579     0    24     1     4
 -7.2016751116559163E-01 a       580     0    24     1     5
 -3.0941052892046689E-01 a       581     0    24     1     6
  5.5015888696004922E-01 a       582     0    24     1     7
 -4.6753405691196609E-01 a       583     0    24     1     8
  4.2848653522183899E-01 a       584     0    24     1     9
  2.4689287263760386E-02 a       585     0    24     1    10
  1.0879821418278651E-01 a       586     0    24     1    11
  1.0937067001200858E+00 a       587     0    24     1    12
  1.1328737528787660E+00 a       588     0    24     1    13
 -1.6195290260303663E+00 a       589     0    24     1    14
 -3.7191564209171513E-01 a       590     0    24     1    15
 -7.1400591700862426E-01 a       591     0    24     1    16
 -1.5667526269918178E-01 a       592     0    24     1    17
 -4.3258806489293389E-01 a       593     0    24     1    18
  6.1638410906902907E-01 a       594     0    24     1    19
 -1.2373427335483806E+00 a       595     0    24     1    20
 -6.7346282483524839E-02 a       596     0    24     1    21
 -8.2414909595634767E-01 a       597     0    24     1    22
  1.9491238516805502E+00 a       598     0    24     1    23
  9.3255383736495071E-02 a       599     0    24     1    24
 -1.0210849557793114E+00 a       600     0    24     1    25
  3.2377214516981995E-01 a       601     0    25     1     1
 -8.6516239096974409E-02 a       602     0    25     1     2
  1.0750685724630076E+00 a       603     0    25     1     3
 -1.8570908363335721E+00 a       604     0    25     1     4
  1.5373469703000806E+00 a       605     0    25     1     5
  2.9622865046218377E-01 a       606     0    25     1     6
 -7.0077613776495473E-01 a       607     0    25     1     7
  6.1263455519450283E-01 a       608     0    25     1     8
 -7.5368648013924822E-01 a       609     0    25     1     9
 -3.1503191300771338E-01 a       610     0    25     1    10
 -3.5200272609205996E-02 a       611     0    25     1    11
 -1.3792195524392170E+00 a       612     0    25     1    12
 -1.8469170841146854E+00 a       613     0    25     1    13
  1.7664050801317519E+00 a       614     0    25     1    14
  5.5895570354872581E-01 a       615     0    25     1    15
  1.7079744898631395E+00 a       616     0    25     1    16
  5.8611744977173597E-01 a       617     0    25     1    17
  6.1885177786526657E-01 a       618     0    25     1    18
 -6.8766957262503414E-01 a       619     0    25     1    19
  1.9116442517912662E+00 a       620     0    25     1    20
 -1.3572416069596538E-01 a       621     0    25     1    21
  1.4895427853270466E+00 a       622     0    25     1    22
 -3.5181587079416463E+00 a       623     0    25     1    23
  2.2689804389500121E-01 a       624     0    25     1    24
  2.2037386336123999E+00 a       625     0    25     1    25
 -2.2872005607599780E-01 a       626     0    26     1     1
  1.1601808252193806E-01 a       627     0    26     1     2
 -2.6437003676541809E-01 a       628     0    26     1     3
  9.1682053559271881E-01 a       629     0    26     1     4
 -6.9175735108452108E-01 a       630     0    26     1     5
 -5.0606228772839726E-02 a       631     0    26     1     6
  1.5968305405849825E-01 a       632     0    26     1     7
 -2.2646758375590098E-01 a       633     0    26     1     8
  2.8697816077360877E-01 a       634     0    26     1     9
  1.9138184146770523E-01 a       635     0    26     1    10
 -1.1670026741044781E-01 a       636     0    26     1    11
  3.2808491795042738E-01 a       637     0    26     1    12
  7.5183824608299243E-01 a       638     0    26     1    13
 -4.9729827943430688E-01 a       639     0    26     1    14
 -2.8583611573554568E-01 a       640     0    26     1    15
 -9.9756961415312018E-01 a       641     0    26     1    16
 -3.6494888905763012E-01 a       642     0    26     1    17
 -1.6194748976070381E-01 a       643     0    26     1    18
  8.7208036648846354E-02 a       644     0    26     1    19
 -8.3086668451465340E-01 a       645     0    26     1    20
  2.0033305364031770E-01 a       646     0    26     1    21
 -8.0479798363437860E-01 a       647     0    26     1    22
  1.6124970435745289E+00 a       648     0    26     1    23
 -1.7946022554151436E-01 a       649     0    26     1    24
 -1.0219825175416308E+00 a       650     0    26     1    25
  1.1423250123841021E-01 b       651     1     1
 -1.4176505206612688E-01 b       652     1     2
 -1.0608818293008790E-01 b       653     1     3
 -8.6457512588919580E-02 b       654     1     4
 -6.4994397478334590E-02 b       655     1     5
 -2.5538439308738148E-01 b       656     1     6
 -4.2689906833302232E-02 b       657     1     7
 -1.1777821030302860E-02 b       658     1     8
 -1.3666209471881257E-02 b       659     1     9
  2.9491460682442339E-01 b       660     1    10
  1.5594570759886428E-01 b       661     1    11
 -2.4484808755248080E-01 b       662     1    12
 -8.8588344274650135E-02 b       663     1    13
 -1.9168909708246193E-01 b       664     1    14
 -9.4152680993575460E-02 b       665     1    15
  2.6409980697464008E-01 b       666     1    16
  7.2929777124860248E-02 b       667     1    17
 -4.0719610533139501E-02 b       668     1    18
 -6.2229475913922853E-02 b       669     1    19
 -5.4357108622165577E-02 b       670     1    20
  1.0037360644220125E-01 b       671     1    21
  2.0064599729225840E-03 b       672     1    22
  2.3921842703899032E-01 b       673     1    23
  5.9830515584109442E-02 b       674     1    24
  1.4478660639344165E-01 b       675     1    25
 -3.7620485475575188E-01 a       676     1     1     2     1
 -5.6135440201750908E-01 a       677     1     1     2     2
 -4.0504597521648483E-01 a       678     1     1     2     3
  3.0527037247962169E-01 a       679     1     1     2     4
 -3.8291386905405967E-03 a       680     1     1     2     5
  2.3917743312590550E-01 a       681     1     1     2     6
  5.3125722065650804E-01 a       682     1     1     2     7
  3.5568504177964810E-01 a       683     1     1     2     8
  1.6682841150104846E-01 a       684     1     1     2     9
  1.5883689395760955E-02 a       685     1     1     2    10
 -6.0130506382892945E-01 a       686     1     1     2    11
 -3.9529303554696238E-01 a       687     1     1     2    12
 -1.6792210447262268E-01 a       688     1     1     2    13
  1.8160869635275456E-01 a       689     1     1     2    14
 -1.0722819426001130E-01 a       690     1     1     2    15
  2.3524539263445519E-02 a       691     1     1     2    16
 -7.0940131083911714E-02 a       692     1     1     2    17
 -2.4812301300815662E-01 a       693     1     1     2    18
 -4.2695547897353509E-01 a       694     1     1     2    19
 -1.5908942251016311E-01 a       695     1     1     2    20
  3.0782982091327182E-01 a       696     1     1     2    21
 -2.3709225348654617E-01 a       697     1     1     2    22
 -5.0663758279124760E-01 a       698     1     1     2    23
  1.6909843403617958E-01 a       699     1     1     2    24
  7.3837978975959145E-02 a       700     1     1     2    25
 -1.3193128339273694E-02 a       701     1     2     2     1
 -1.4677228380639390E-01 a       702     1     2     2     2
 -1.3302042180278473E-01 a       703     1     2     2     3
  3.2792741572586098E-01 a       704     1     2     2     4
  6.0849323572742905E-02 a       705     1     2     2     5
  1.6798421584309989E-01 a       706     1     2     2     6
  4.4362349891602165E-01 a       707     1     2     2     7
 -1.7336697012117333E-01 a       708     1     2     2     8
  2.1299505276323999E-01 a       709     1     2     2     9
  2.5600439082374901E-02 a       710     1     2     2    10
  1.3459174992016640E-01 a       711     1     2     2    11
  6.0202968430883175E-01 a       712     1     2     2    12
 -3.7627272298057074E-01 a       713     1     2     2    13
 -8.8213041314183102E-02 a       714     1     2     2    14
 -2.8380746291682518E-01 a       715     1     2     2    15
 -2.2227036198383301E-01 a       716     1     2     2    16
  1.9069841207864568E-01 a       717     1     2     2    17
  1.1083805097518622E-01 a       718     1     2     2    18
 -7.8406531707874857E-02 a       719     1     2     2    19
  2.1992887999834049E-01 a       720     1     2     2    20
  1.6459944359377082E-01 a       721     1     2     2    21
 -5.2428557765288231E-01 a       722     1     2     2    22
 -4.0495193510841097E-02 a       723     1     2     2    23
 -1.4979179422704561E-01 a       724     1     2     2    24
  3.5625013787441778E-01 a       725     1     2     2    25
  8.7635702253763714E-01 a       726     1     3     2     1
  4.7164249707932776E-01 a       727     1     3     2     2
 -2.0490651969590329E-01 a       728     1     3     2     3
  7.5684798297493661E-01 a       729     1     3     2     4
  4.5633236431447599E-01 a       730     1     3     2     5
  2.1251169397591099E-01 a       731     1     3     2     6
  5.0174175126746612E-01 a       732     1     3     2     7
  1.2112936553686071E+00 a       733     1     3     2     8
 -6.4548222715925543E-02 a       734     1     3     2     9
 -4.1948982628572717E-01 a       735     1     3     2    10
  4.0289395715154491E-01 a       736     1     3     2    11
  6.6518386415501551E-01 a       737     1     3     2    12
  6.4230634851965285E-01 a       738     1     3     2    13
 -2.4057072153723941E-01 a       739     1     3     2    14
  3.4982267613262191E-01 a       740     1     3     2    15
  1.6159051056177939E-01 a       741     1     3     2    16
 -8.7255573915706902E-02 a       742     1     3     2    17
  1.7597502100763152E-01 a       743     1     3     2    18
  5.5042837705414592E-02 a       744     1     3     2    19
 -3.1855808811009828E-02 a       745     1     3     2    20
  2.9465947017459238E-01 a       746     1     3     2    21
 -2.4437684099804866E-01 a       747     1     3     2    22
  4.3636472883965299E-01 a       748     1     3     2    23
 -1.3690470068240893E-01 a       749     1     3     2    24
  4.3739424461200999E-01 a       750     1     3     2    25
  2.6255603351998652E-01 a       751     1     4     2     1
 -2.6139342433828667E-02 a       752     1     4     2     2
 -2.0449124044996494E-01 a       753     1     4     2     3
 -5.7936793449009349E-01 a       754     1     4     2     4
 -9.8197878873225897E-02 a       755     1     4     2     5
  2.0707450404039948E-01 a       756     1     4     2     6
 -3.2816516356755858E-02 a       757     1     4     2     7
 -3.4587163703124174E-01 a       758     1     4     2     8
  1.2792941909151523E-01 a       759     1     4     2     9
 -2.4627320650349041E-01 a       760     1     4     2    10
 -3.4109283803062068E-01 a       761     1     4     2    11
 -1.7390979562748229E-01 a       762     1     4     2    12
 -1.3839329479335119E-01 a       763     1     4     2    13
 -2.5317250273445496E-01 a       764     1     4     2    14
 -3.4174319845551221E-01 a       765     1     4     2    15
  5.5528881826830086E-02 a       766     1     4     2    16
 -5.4902594883971520E-02 a       767     1     4     2    17
  1.2194144708435722E-01 a       768     1     4     2    18
 -2.0681279411910569E-01 a       769     1     4     2    19
 -5.2137799077877918E-02 a       770     1     4     2    20
 -1.1854547074124457E-02 a       771     1     4     2    21
  4.4494715075835489E-01 a       772     1     4     2    22
 -1.8671180079305821E-01 a       773     1     4     2    23
  5.1217714547484727E-01 a       774     1     4     2    24
 -1.5002351531638328E-01 a       775     1     4     2    25
  3.2757341958902408E-01 a       776     1     5     2     1
  5.6799830780712968E-01 a       777     1     5     2     2
  6.5439262577354940E-02 a       778     1     5     2     3
 -5.4651600869632755E-01 a       779     1     5     2     4
  7.1025131109271500E-02 a       780     1     5     2     5
 -9.0260514233470480E-04 a       781     1     5     2     6
 -4.3186657899235587E-01 a       782     1     5     2     7
 -2.1653001520306911E-01 a       783     1     5     2     8
 -3.8426448031800634E-02 a       784     1     5     2     9
  1.7907382765898389E-02 a       785     1     5     2    10
  2.5911903032445233E-01 a       786     1     5     2    11
  4.5290840863718340E-01 a       787     1     5     2    12
 -4.8417913596967144E-01 a       788     1     5     2    13
 -2.4381438464889219E-01 a       789     1     5     2    14
  3.8625099894273707E-01 a       790     1     5     2    15
 -4.0630668881312132E-01 a       791     1     5     2    16
 -1.2007949481708022E-01 a       792     1     5     2    17
 -2.2844470680440140E-02 a       793     1     5     2    18
  3.2195650996605096E-01 a       794     1     5     2    19
 -3.3799727951280589E-01 a       795     1     5     2    20
  3.2806659707568897E-01 a       796     1     5     2    21
  5.0358677944971897E-02 a       797     1     5     2    22
  4.1242640258328439E-02 a       798     1     5     2    23
 -3.4156467815840486E-01 a       799     1     5     2    24
  1.8056574353743074E-01 a       800     1     5     2    25
  5.0990430793985464E-01 a       801     1     6     2     1
  4.3864329830685922E-01 a       802     1     6     2     2
  1.9026687477227067E-01 a       803     1     6     2     3
  5.7747878051421553E-01 a       804     1     6     2     4
  4.7576066239215525E-01 a       805     1     6     2     5
  2.1049670834185302E-01 a       806     1     6     2     6
 -3.0230911430716548E-02 a       807     1     6     2     7
  3.4952052055248317E-01 a       808     1     6     2     8
 -1.6168454059539902E-01 a       809     1     6     2     9
  1.0033580572165120E-01 a       810     1     6     2    10
  1.2447823925132999E-01 a       811     1     6     2    11
  1.3509584229249627E-01 a       812     1     6     2    12
 -3.0702157618341164E-01 a       813     1     6     2    13
 -4.1906960375931002E-01 a       814     1     6     2    14
  2.5206761188547344E-01 a       815     1     6     2    15
 -9.6927533409175440E-02 a       816     1     6     2    16
  3.3458509809643150E-01 a       817     1     6     2    17
  2.1598549102142311E-01 a       818     1     6     2    18
 -3.4694183704290206E-02 a       819     1     6     2    19
 -3.1097366409850047E-01 a       820     1     6     2    20
 -1.4317042159570664E-01 a       821     1     6     2    21
  2.4922004154873648E-01 a       822     1     6     2    22
 -5.5270975982227653E-02 a       823     1     6     2    23
  4.1630781081382756E-01 a       824     1     6     2    24
  6.1808057585636189E-01 a       825     1     6     2    25
 -2.9548130507068954E-01 a       826     1     7     2     1
 -3.6494263105172925E-01 a       827     1     7     2     2
  1.0159161648750689E-01 a       828     1     7     2     3
  4.1117072093968221E-01 a       829     1     7     2     4
  1.2173895088794782E-01 a       830     1     7     2     5
  1.0958197429587688E-02 a       831     1     7     2     6
  3.9122694473923719E-01 a       832     1     7     2     7
  1.3912918207447422E-01 a       833     1     7     2     8
  2.3531023992267291E-01 a       834     1     7     2     9
  5.7803030663494559E-01 a       835     1     7     2    10
  4.9985227383971903E-02 a       836     1     7     2    11
 -2.2758705518029912E-01 a       837     1     7     2    12
  2.0991804567164554E-01 a       838     1     7     2    13
  4.1854757984622604E-01 a       839     1     7     2    14
  1.4447671055111086E-01 a       840     1     7     2    15
  1.6260749790743095E-01 a       841     1     7     2    16
  1.5292689283911437E-01 a       842     1     7     2    17
 -2.1989394704880405E-01 a       843     1     7     2    18
 -3.5797378874950631E-01 a       844     1     7     2    19
  7.6597125938089788E-02 a       845     1     7     2    20
 -1.9039407253199192E-01 a       846     1     7     2    21
 -2.1537162159399559E-01 a       847     1     7     2    22
 -2.7222755092921141E-02 a       848     1     7     2    23
 -2.9329819726685389E-02 a       849     1     7     2    24
  4.1165119237822106E-01 a       850     1     7     2    25
 -2.7895112997033372E-01 a       851     1     8     2     1
 -3.2489859804909071E-01 a       852     1     8     2     2
 -3.3178368235716460E-01 a       853     1     8     2     3
  3.0560999812628387E-01 a       854     1     8     2     4
  2.0173297634547371E-01 a       855     1     8     2     5
  2.6548738891887247E-01 a       856     1     8     2     6
  1.5011270431645690E-01 a       857     1     8     2     7
  2.1419544739691052E-01 a       858     1     8     2     8
  1.0858848293495987E-01 a       859     1     8     2     9
  8.9579287990206466E-02 a       860     1     8     2    10
 -5.2847753992667024E-01 a       861     1     8     2    11
  2.7901857763317811E-01 a       862     1     8     2    12
 -8.7927465263628557E-01 a       863     1     8     2    13
 -6.5792524914653081E-02 a       864     1     8     2    14
  1.6333057129578607E-01 a       865     1     8     2    15
 -3.6968004384595732E-01 a       866     1     8     2    16
 -9.2250561569757528E-02 a       867     1     8     2    17
 -2.2457831606990880E-01 a       868     1     8     2    18
 -4.8524112292924457E-02 a       869     1     8     2    19
 -3.1921732621697008E-02 a       870     1     8     2    20
  4.5182732400392017E-01 a       871     1     8     2    21
 -1.6693715721401234E-01 a       872     1     8     2    22
 -7.6109909036422729E-01 a       873     1     8     2    23
 -8.8558254862746467E-03 a       874     1     8     2    24
  1.4378850469027268E-01 a       875     1     8     2    25
  4.6451255762283089E-01 a       876     1     9     2     1
 -5.7663708025346108E-02 a       877     1     9     2     2
 -5.8755109166723964E-03 a       878     1     9     2     3
 -4.5585459344529383E-01 a       879     1     9     2     4
  3.8803980547494632E-01 a       880     1     9     2     5
  2.3259322258881490E-01 a       881     1     9     2     6
 -2.2954913986890824E-01 a       882     1     9     2     7
 -2.0652965748503224E-01 a       883     1     9     2     8
  2.0432697444315873E-01 a       884     1     9     2     9
  2.4849829032699616E-01 a       885     1     9     2    10
 -9.8826962003311508E-02 a       886     1     9     2    11
  2.9846815387243958E-01 a       887     1     9     2    12
 -1.1122447755498133E+00 a       888     1     9     2    13
 -1.9002019297613607E-01 a       889     1     9     2    14
  9.7511997737272116E-01 a       890     1     9     2    15
 -4.6526397427872940E-01 a       891     1     9     2    16
  1.5528813891322252E-01 a       892     1     9     2    17
  1.0474885182592462E-01 a       893     1     9     2    18
  3.4361759002249598E-01 a       894     1     9     2    19
 -2.0795894655468863E-01 a       895     1     9     2    20
  9.1057769474519334E-01 a       896     1     9     2    21
  1.5870916206474378E-01 a       897     1     9     2    22
 -5.5006480815112380E-01 a       898     1     9     2    23
 -4.5523245808248114E-01 a       899     1     9     2    24
  1.6137230642761899E-01 a       900     1     9     2    25
 -1.8171142112650504E-01 a       901     1    10     2     1
  5.5297258685834572E-02 a       902     1    10     2     2
 -2.7995929138139058E-01 a       903     1    10     2     3
 -4.3965432056696813E-01 a       904     1    10     2     4
  1.0505921066049168E-01 a       905     1    10     2     5
  1.6858666211127588E-01 a       906     1    10     2     6
  1.3837979183631172E-01 a       907     1    10     2     7
 -1.7764742821640334E-01 a       908     1    10     2     8
  9.4458523983300971E-02 a       909     1    10     2     9
 -7.4594631319971672E-01 a       910     1    10     2    10
 -8.8705143830390232E-01 a       911     1    10     2    11
 -9.3881354017659818E-02 a       912     1    10     2    12
 -1.8105071341576112E-01 a       913     1    10     2    13
 -1.1759692513676437E-01 a       914     1    10     2    14
 -4.2200692406878876E-01 a       915     1    10     2    15
  3.4417539780021589E-01 a       916     1    10     2    16
  5.8054827165642664E-01 a       917     1    10     2    17
 -3.0103928128580720E-01 a       918     1    10     2    18
 -2.7996005030725546E-01 a       919     1    10     2    19
 -4.9570385486056823E-01 a       920     1    10     2    20
  3.7573487025571700E-02 a       921     1    10     2    21
 -2.5893825029443440E-01 a       922     1    10     2    22
 -1.3118746095583700E-01 a       923     1    10     2    23
 -2.1291955132869464E-01 a       924     1    10     2    24
 -4.8356627921762368E-01 a       925     1    10     2    25
 -2.0785729024421221E-01 a       926     1    11     2     1
  4.6570988913745129E-02 a       927     1    11     2     2
 -5.7102308525961414E-03 a       928     1    11     2     3
  7.0908935358601222E-01 a       929     1    11     2     4
 -2.3549211780828430E-01 a       930     1    11     2     5
  6.1469702717743005E-02 a       931     1    11     2     6
  5.8754875162128517E-01 a       932     1    11     2     7
  7.1879452551932810E-01 a       933     1    11     2     8
  2.1866105653696871E-02 a       934     1    11     2     9
 -8.3715037920812543E-02 a       935     1    11     2    10
 -1.0565456265953412E-01 a       936     1    11     2    11
  4.3797775012970502E-01 a       937     1    11     2    12
  5.3013878384332502E-01 a       938     1    11     2    13
 -1.6281819594913130E-01 a       939     1    11     2    14
  3.7800472168020904E-01 a       940     1    11     2    15
 -3.1170659328186304E-02 a       941     1    11     2    16
  1.4580385300489376E-01 a       942     1    11     2    17
  5.0078650299562537E-02 a       943     1    11     2    18
 -1.2824942808935985E-01 a       944     1    11     2    19
 -1.9556809214080811E-01 a       945     1    11     2    20
  3.9054889454258376E-02 a       946     1    11     2    21
 -9.7125962095879120E-02 a       947     1    11     2    22
  2.1842360253436255E-01 a       948     1    11     2    23
 -8.4067966393420707E-02 a       949     1    11     2    24
  7.2761977708989322E-03 a       950     1    11     2    25
 -4.9662130837328081E-02 a       951     1    12     2     1
 -5.5892129275843372E-01 a       952     1    12     2     2
 -3.6487359488397075E-01 a       953     1    12     2     3
  6.9218503582671120E-02 a       954     1    12     2     4
  2.2095705785590458E-01 a       955     1    12     2     5
  9.0322249873613661E-02 a       956     1    12     2     6
  6.9871704211100505E-01 a       957     1    12     2     7
  4.6474570517070296E-01 a       958     1    12     2     8
  2.9261706324122272E-01 a       959     1    12     2     9
  1.7356310627236260E-01 a       960     1    12     2    10
  8.3127933276303065E-02 a       961     1    12     2    11
 -6.3053142058617362E-01 a       962     1    12     2    12
 -2.6812073082733551E-01 a       963     1    12     2    13
  3.1646819930499481E-01 a       964     1    12     2    14
 -2.7853518276441330E-01 a       965     1    12     2    15
  9.2791247827549106E-02 a       966     1    12     2    16
  6.4060105776887061E-02 a       967     1    12     2    17
  1.3736123353481611E-01 a       968     1    12     2    18
 -7.9869128173697668E-01 a       969     1    12     2    19
  1.7717233147658312E-01 a       970     1    12     2    20
 -1.6947644335727896E-01 a       971     1    12     2    21
  5.6143782598627540E-02 a       972     1    12     2    22
 -5.9734467101934141E-01 a       973     1    12     2    23
  2.7129879133180046E-01 a       974     1    12     2    24
  5.5064146627394846E-02 a       975     1    12     2    25
  2.3462570479393119E-01 a       976     1    13     2     1
 -1.5314642909928277E-03 a       977     1    13     2     2
 -2.0114376881894053E-01 a       978     1    13     2     3
 -2.2926771996206505E-01 a       979     1    13     2     4
  6.5115032894893128E-03 a       980     1    13     2     5
 -1.4176866330415464E-01 a       981     1    13     2     6
 -6.2575539234151589E-01 a       982     1    13     2     7
  3.2873952872943640E-01 a       983     1    13     2     8
 -2.2753779909755693E-02 a       984     1    13     2     9
  7.1922050122577921E-02 a       985     1    13     2    10
 -1.5665709712589884E-01 a       986     1    13     2    11
  1.3297291814719925E-01 a       987     1    13     2    12
 -3.9466935573359180E-01 a       988     1    13     2    13
 -9.5094023628470872E-02 a       989     1    13     2    14
  2.8230940511481767E-01 a       990     1    13     2    15
 -5.7072119331704918E-02 a       991     1    13     2    16
 -1.0320794785299249E-01 a       992     1    13     2    17
 -1.3935963781093097E-02 a       993     1    13     2    18
  2.0325682129816855E-01 a       994     1    13     2    19
 -5.1264784142907922E-02 a       995     1    13     2    20
 -1.6260482092798464E-01 a       996     1    13     2    21
  1.6249574390231894E-01 a       997     1    13     2    22
 -9.6010390231238835E-02 a       998     1    13     2    23
  1.5509395300198064E-01 a       999     1    13     2    24
 -1.3093173787137863E-01 a      1000     1    13     2    25
  1.3512562763535119E-01 a      1001     1    14     2     1
 -1.8424264795244447E-01 a      1002     1    14     2     2
 -2.0279722991228580E-01 a      1003     1    14     2     3
 -1.3816696298033482E-01 a      1004     1    14     2     4
 -6.6645021564817486E-01 a      1005     1    14     2     5
 -1.2776085465411463E-01 a      1006     1    14     2     6
 -1.9391444592197615E-01 a      1007     1    14     2     7
  9.6177800866926635E-02 a      1008     1    14     2     8
 -1.0290518651969963E-01 a      1009     1    14     2     9
  2.8936734149117804E-01 a      1010     1    14     2    10
 -6.4879911627593057E-01 a      1011     1    14     2    11
 -1.2481097935487044E-01 a      1012     1    14     2    12
 -7.3743840853172737E-01 a      1013     1    14     2    13
 -7.1575826670168124E-02 a      1014     1    14     2    14
  2.5115853853909964E-01 a      1015     1    14     2    15
 -1.3403302650224755E-01 a      1016     1    14     2    16
 -4.2294681577877122E-02 a      1017     1    14     2    17
 -3.6083240505723986E-02 a      1018     1    14     2    18
  2.9066420301463364E-01 a      1019     1    14     2    19
 -3.1296060349111193E-01 a      1020     1    14     2    20
 -2.5487146130677241E-01 a      1021     1    14     2    21
  2.0496800477573904E-01 a      1022     1    14     2    22
 -4.6884912447425353E-01 a      1023     1    14     2    23
 -5.5496183166979185E-02 a      1024     1    14     2    24
  1.1788679125463720E-01 a      1025     1    14     2    25
  7.2527396904707742E-01 a      1026     1    15     2     1
 -1.9969391277005902E-01 a      1027     1    15     2     2
 -3.4813066060019687E-01 a      1028     1    15     2     3
 -3.6431336217613047E-01 a      1029     1    15     2     4
 -2.4438974876384220E-01 a      1030     1    15     2     5
 -2.7286133934436418E-01 a      1031     1    15     2     6
  4.7908339046588921E-01 a      1032     1    15     2     7
 -2.8286954210430498E-01 a      1033     1    15     2     8
  1.9934511453259668E-01 a      1034     1    15     2     9
 -1.4840642383226019E-01 a      1035     1    15     2    10
  2.3019772093184590E-01 a      1036     1    15     2    11
 -1.1497273543920854E-01 a      1037     1    15     2    12
 -3.2207722095206637E-01 a      1038     1    15     2    13
  2.8510975400298805E-01 a      1039     1    15     2    14
 -1.7200453185751266E-01 a      1040     1    15     2    15
 -3.0866702479374286E-02 a      1041     1    15     2    16
  2.7068116243409340E-01 a      1042     1    15     2    17
 -2.2367265478010396E-02 a      1043     1    15     2    18
 -2.4311137681401429E-01 a      1044     1    15     2    19
 -6.2934113560802557E-02 a      1045     1    15     2    20
 -6.0083613623342247E-01 a      1046     1    15     2    21
 -8.5735902453084614E-02 a      1047     1    15     2    22
 -6.8502679366587371E-01 a      1048     1    15     2    23
  2.1653645600964878E-02 a      1049     1    15     2    24
 -4.3566835883618660E-01 a      1050     1    15     2    25
  7.6012398429814465E-01 a      1051     1    16     2     1
  3.6917571979138430E-01 a      1052     1    16     2     2
 -1.6972981343755872E-01 a      1053     1    16     2     3
 -9.1358474293322819E-02 a      1054     1    16     2     4
  2.1505058489449544E-01 a      1055     1    16     2     5
 -9.8509536630812342E-02 a      1056     1    16     2     6
 -9.0451639640003231E-02 a      1057     1    16     2     7
 -1.5285801565356494E-01 a      1058     1    16     2     8
 -2.8782243659172985E-01 a      1059     1    16     2     9
 -2.6895150359249304E-02 a      1060     1    16     2    10
  1.0561643110993388E+00 a      1061     1    16     2    11
  4.3352735208664905E-01 a      1062     1    16     2    12
 -1.7917378731541803E-01 a      1063     1    16     2    13
  7.4294961886593860E-02 a      1064     1    16     2    14
 -4.6460325708506452E-02 a      1065     1    16     2    15
 -2.0849172666020196E-01 a      1066     1    16     2    16
 -8.4621984238814826E-02 a      1067     1    16     2    17
  7.4430327964858087E-02 a      1068     1    16     2    18
  3.1963924068954076E-02 a      1069     1    16     2    19
  5.6343845065391363E-01 a      1070     1    16     2    20
 -4.4787133271348289E-01 a      1071     1    16     2    21
 -9.4979310415889182E-02 a      1072     1    16     2    22
 -4.6894114449294533E-01 a      1073     1    16     2    23
  1.1045835227269876E-01 a      1074     1    16     2    24
  1.7264293414217205E-01 a      1075     1    16     2    25
 -1.2426968317344911E+00 a      1076     1    17     2     1
 -7.4109046304807813E-01 a      1077     1    17     2     2
 -9.5279109259007255E-01 a      1078     1    17     2     3
 -2.0768658510972118E-01 a      1079     1    17     2     4
 -3.3512841833261248E-01 a      1080     1    17     2     5
 -1.5892106860243851E-01 a      1081     1    17     2     6
 -1.3713826775828511E-01 a      1082     1    17     2     7
 -6.4845718984034983E-01 a      1083     1    17     2     8
 -1.9526139905030457E-01 a      1084     1    17     2     9
  2.4758005395856708E-01 a      1085     1    17     2    10
 -5.3093853660684864E-01 a      1086     1    17     2    11
 -7.0775572462956926E-01 a      1087     1    17     2    12
 -9.8000955442422710E-01 a      1088     1    17     2    13
  5.0228801659185762E-01 a      1089     1    17     2    14
  7.1569306213262018E-01 a      1090     1    17     2    15
 -1.0872846882168415E-01 a      1091     1    17     2    16
  3.5209367553594417E-01 a      1092     1    17     2    17
 -9.0526550066621723E-03 a      1093     1    17     2    18
 -2.3772260497014480E-01 a      1094     1    17     2    19
 -1.8987601545227323E-01 a      1095     1    17     2    20
 -3.9875196030436943E-01 a      1096     1    17     2    21
  3.2052742427147018E-01 a      1097     1    17     2    22
 -2.7648281230518529E-01 a      1098     1    17     2    23
 -2.7454484520296557E-02 a      1099     1    17     2    24
  3.0276489626641534E-01 a      1100     1    17     2    25
  9.8845655301152052E-02 a      1101     1    18     2     1
 -3.3409387277815179E-02 a      1102     1    18     2     2
 -4.3034130203243914E-01 a      1103     1    18     2     3
 -6.4175196367042597E-01 a      1104     1    18     2     4
 -5.5944515039268383E-01 a      1105     1    18     2     5
  3.1386675123840635E-01 a      1106     1    18     2     6
  1.9213745066129698E-01 a      1107     1    18     2     7
  5.7463704567242258E-01 a      1108     1    18     2     8
  1.2185921494384151E-01 a      1109     1    18     2     9
 -3.6460150744534381E-01 a      1110     1    18     2    10
  4.4076912234693350E-01 a      1111     1    18     2    11
  2.0934970380295015E-01 a      1112     1    18     2    12
 -6.5641776619872705E-01 a      1113     1    18     2    13
 -8.8265439134290580E-02 a      1114     1    18     2    14
 -4.2367674359910901E-01 a      1115     1    18     2    15
  3.0989326178664955E-01 a      1116     1    18     2    16
 -2.8504220721725965E-01 a      1117     1    18     2    17
 -1.9518315735497807E-01 a      1118     1    18     2    18
 -1.3985752019774791E-01 a      1119     1    18     2    19
  3.1029720860667570E-01 a      1120     1    18     2    20
  1.8441484418078744E-01 a      1121     1    18     2    21
 -1.6735564052105156E-01 a      1122     1    18     2    22
 -6.0585510741209540E-02 a      1123     1    18     2    23
 -5.4590142421401117E-02 a      1124     1    18     2    24
 -6.6875341788628001E-02 a      1125     1    18     2    25
  1.2073089725331636E-01 a      1126     1    19     2     1
 -2.7570704699497128E-01 a      1127     1    19     2     2
  1.0051024838879348E+00 a      1128     1    19     2     3
  5.1865260639045577E-02 a      1129     1    19     2     4
  8.6972712296935900E-02 a      1130     1    19     2     5
  8.9524380837163228E-02 a      1131     1    19     2     6
 -9.9180223222815042E-02 a      1132     1    19     2     7
  4.1322776506755471E-01 a      1133     1    19     2     8
  6.1349674322634141E-02 a      1134     1    19     2     9
  7.7073929173072242E-01 a      1135     1    19     2    10
  1.0951644350682861E-01 a      1136     1    19     2    11
  3.8998717043870673E-01 a      1137     1    19     2    12
  5.7670007277200852E-01 a      1138     1    19     2    13
  2.3761996537872171E-02 a      1139     1    19     2    14
  6.6247201330773331E-02 a      1140     1    19     2    15
  9.3679319795178975E-02 a      1141     1    19     2    16
 -4.8216883975069580E-01 a      1142     1    19     2    17
  2.1398070500153663E-02 a      1143     1    19     2    18
  2.6815624607751309E-01 a      1144     1    19     2    19
  1.0485564060488531E-01 a      1145     1    19     2    20
  7.5497893078920819E-01 a      1146     1    19     2    21
  3.0683104603784268E-02 a      1147     1    19     2    22
  2.4946350562572842E-01 a      1148     1    19     2    23
 -1.0824126732752948E-01 a      1149     1    19     2    24
 -2.6688093339247526E-01 a      1150     1    19     2    25
  4.0417751389816969E-01 a      1151     1    20     2     1
 -2.5494761716211064E-02 a      1152     1    20     2     2
  8.6183654475296204E-02 a      1153     1    20     2     3
 -7.9183712039017723E-02 a      1154     1    20     2     4
 -7.3262230631588182E-02 a      1155     1    20     2     5
 -5.0672234217794754E-01 a      1156     1    20     2     6
  1.8853882143553236E-01 a      1157     1    20     2     7
 -1.1035195238450217E+00 a      1158     1    20     2     8
  3.0503168754446284E-02 a      1159     1    20     2     9
 -2.0343410414919144E-01 a      1160     1    20     2    10
  3.4523485229742640E-01 a      1161     1    20     2    11
 -2.9467515687875356E-01 a      1162     1    20     2    12
  5.1349865978306186E-01 a      1163     1    20     2    13
 -1.7177383547698294E-01 a      1164     1    20     2    14
  2.9156153606022722E-01 a      1165     1    20     2    15
 -2.9098597291188799E-01 a      1166     1    20     2    16
  3.2445130669554928E-01 a      1167     1    20     2    17
  1.1336716001725811E-01 a      1168     1    20     2    18
 -2.6921425053815207E-01 a      1169     1    20     2    19
 -1.2159570903984150E-01 a      1170     1    20     2    20
 -3.3337936934891693E-01 a      1171     1    20     2    21
  5.0858360500261657E-01 a      1172     1    20     2    22
  1.8434148369028466E-01 a      1173     1    20     2    23
  5.1867390733813289E-03 a      1174     1    20     2    24
  4.1306261121342495E-02 a      1175     1    20     2    25
 -2.1643282952771476E-02 a      1176     1    21     2     1
  5.1743675752065588E-01 a      1177     1    21     2     2
  7.4896009830860880E-02 a      1178     1    21     2     3
 -3.6992469551378959E-01 a      1179     1    21     2     4
 -4.9647810400450010E-01 a      1180     1    21     2     5
 -1.2803826813303310E-01 a      1181     1    21     2     6
 -9.4475281898737162E-01 a      1182     1    21     2     7
 -1.2827161730414702E-01 a      1183     1    21     2     8
  8.4561978160757056E-03 a      1184     1    21     2     9
 -9.5261296776423657E-02 a      1185     1    21     2    10
  6.2119861666596699E-01 a      1186     1    21     2    11
 -1.5996376460882716E-01 a      1187     1    21     2    12
 -6.3634593039943155E-01 a      1188     1    21     2    13
  5.4839368826000412E-01 a      1189     1    21     2    14
 -1.7144361589647628E-01 a      1190     1    21     2    15
  8.8580119617540878E-02 a      1191     1    21     2    16
 -3.6634747860255590E-01 a      1192     1    21     2    17
  2.7799454811518998E-01 a      1193     1    21     2    18
  6.8086046121697885E-01 a      1194     1    21     2    19
  3.5517031449441588E-01 a      1195     1    21     2    20
  4.2204622181738938E-01 a      1196     1    21     2    21
  6.6522576473326711E-02 a      1197     1    21     2    22
  1.6838684929790410E-01 a      1198     1    21     2    23
  3.5250328049544316E-01 a      1199     1    21     2    24
 -5.1919990132620941E-01 a      1200     1    21     2    25
 -2.0947998732937997E-01 a      1201     1    22     2     1
 -1.2187712393172451E-01 a      1202     1    22     2     2
 -1.9540719813847643E-01 a      1203     1    22     2     3
  2.3622463825153983E-01 a      1204     1    22     2     4
 -4.8377721413872582E-01 a      1205     1    22     2     5
  8.8099369974481423E-02 a      1206     1    22     2     6
 -2.0356378154273622E-01 a      1207     1    22     2     7
  4.1988947668530358E-01 a      1208     1    22     2     8
  4.8028014473361748E-03 a      1209     1    22     2     9
  2.4974216312803124E-01 a      1210     1    22     2    10
  2.4368125656311507E-01 a      1211     1    22     2    11
 -1.9769773552341016E-01 a      1212     1    22     2    12
  5.5407979001696410E-02 a      1213     1    22     2    13
  1.8253375864727767E-01 a      1214     1    22     2    14
 -2.4578121324607236E-01 a      1215     1    22     2    15
  4.5454299674936033E-01 a      1216     1    22     2    16
 -3.8417255332528338E-01 a      1217     1    22     2    17
 -4.2617818589660034E-01 a      1218     1    22     2    18
  1.1084247254115717E-01 a      1219     1    22     2    19
  5.7316941709070583E-02 a      1220     1    22     2    20
 -1.8679166937499705E-01 a      1221     1    22     2    21
 -3.7487319057639973E-01 a      1222     1    22     2    22
  3.4507836896598992E-01 a      1223     1    22     2    23
  7.8630747786381308E-02 a      1224     1    22     2    24
  4.2668522134855075E-01 a      1225     1    22     2    25
  6.1415632952479637E-01 a      1226     1    23     2     1
 -5.2957583439006273E-01 a      1227     1    23     2     2
 -1.9604092512946220E-01 a      1228     1    23     2     3
 -2.2297839284360740E-02 a      1229     1    23     2     4
  1.0687695371926771E-01 a      1230     1    23     2     5
  1.1603260090938755E-01 a      1231     1    23     2     6
  1.5677819039215737E-01 a      1232     1    23     2     7
  2.9221794377224308E-01 a      1233     1    23     2     8
  1.8278337636593381E-01 a      1234     1    23     2     9
 -2.4489617255398638E-01 a      1235     1    23     2    10
 -3.6665055470707025E-01 a      1236     1    23     2    11
 -7.3044698259211516E-01 a      1237     1    23     2    12
  4.5881412995407206E-01 a      1238     1    23     2    13
  2.4528323600506707E-01 a      1239     1    23     2    14
  3.2188473888814079E-01 a      1240     1    23     2    15
  3.4988262911650020E-01 a      1241     1    23     2    16
  3.9225112778584798E-01 a      1242     1    23     2    17
 -1.1464006953758740E-01 a      1243     1    23     2    18
  2.9619780212623198E-01 a      1244     1    23     2    19
 -2.7962362541793095E-01 a      1245     1    23     2    20
  2.5329910089646224E-01 a      1246     1    23     2    21
  3.8181878010686066E-01 a      1247     1    23     2    22
 -7.1306324163043335E-03 a      1248     1    23     2    23
  4.7142742379313630E-02 a      1249     1    23     2    24
  1.2743753765865540E-01 a      1250     1    23     2    25
  1.8842088649241537E-01 a      1251     1    24     2     1
 -2.7998067171526264E-01 a      1252     1    24     2     2
 -3.5914105872162871E-01 a      1253     1    24     2     3
 -3.9720169226706736E-01 a      1254     1    24     2     4
 -4.0572498921451489E-01 a      1255     1    24     2     5
 -3.6829080475727449E-01 a      1256     1    24     2     6
  7.9413374793528946E-02 a      1257     1    24     2     7
  3.2607606089866759E-01 a      1258     1    24     2     8
  5.6614578314607207E-02 a      1259     1    24     2     9
  7.7865228332122699E-02 a      1260     1    24     2    10
 -5.1705844889921992E-01 a      1261     1    24     2    11
 -5.5283047098617377E-01 a      1262     1    24     2    12
 -1.0360525354979325E-01 a      1263     1    24     2    13
 -4.8688844083432650E-03 a      1264     1    24     2    14
  7.6357070376713743E-02 a      1265     1    24     2    15
  6.8865515017446643E-03 a      1266     1    24     2    16
  2.4782308898954725E-01 a      1267     1    24     2    17
 -1.3233433767938402E-01 a      1268     1    24     2    18
 -1.7503391566984788E-01 a      1269     1    24     2    19
 -7.5797069319613064E-01 a      1270     1    24     2    20
 -7.9977508858027480E-01 a      1271     1    24     2    21
  5.1808912968392073E-01 a      1272     1    24     2    22
 -4.2076708492792736E-01 a      1273     1    24     2    23
 -2.6304156776315002E-01 a      1274     1    24     2    24
  3.0491893546197017E-02 a      1275     1    24     2    25
  3.5061514393296339E-01 a      1276     1    25     2     1
 -1.7754730631683574E-01 a      1277     1    25     2     2
 -1.2266696080657290E-02 a      1278     1    25     2     3
  4.1245994725806548E-02 a      1279     1    25     2     4
 -5.2146593518841866E-01 a      1280     1    25     2     5
 -2.6840402817474596E-01 a      1281     1    25     2     6
  2.1842909097085905E-01 a      1282     1    25     2     7
 -8.2006205250524239E-02 a      1283     1    25     2     8
  1.2464719922158080E-01 a      1284     1    25     2     9
  1.5922930377384936E-01 a      1285     1    25     2    10
 -1.3541668144281621E-01 a      1286     1    25     2    11
 -1.6734686950734404E-01 a      1287     1    25     2    12
 -1.0236899040632187E-01 a      1288     1    25     2    13
  1.2177174460303640E-02 a      1289     1    25     2    14
 -3.8479088436720094E-01 a      1290     1    25     2    15
  7.2347541436494134E-02 a      1291     1    25     2    16
 -2.3262007620210218E-01 a      1292     1    25     2    17
 -2.4434796338959051E-03 a      1293     1    25     2    18
 -6.9087743897923215E-02 a      1294     1    25     2    19
 -1.4217010272020231E-01 a      1295     1    25     2    20
 -4.5559510366049882E-01 a      1296     1    25     2    21
  1.6678478557852577E-02 a      1297     1    25     2    22
 -1.5504231049914582E-01 a      1298     1    25     2    23
 -5.6973372657084020E-02 a      1299     1    25     2    24
  5.4472589216852689E-03 a      1300     1    25     2    25
  1.8081097226495990E-01 b      1301     2     1
  2.6107778380618684E-02 b      1302     2     2
 -1.1693168630660157E-01 b      1303     2     3
  2.2113711889078858E-01 b      1304     2     4
 -8.9383603644536722E-02 b      1305     2     5
 -3.0082836258553036E-01 b      1306     2     6
  4.5930638350446321E-02 b      1307     2     7
  1.2535431304884953E-01 b      1308     2     8
 -8.9708377437766806E-01 b      1309     2     9
  5.1615201573902661E-02 b      1310     2    10
  2.3583681718282762E-02 b      1311     2    11
  3.2613211531351508E-02 b      1312     2    12
 -1.8437292001117001E-01 b      1313     2    13
  4.2083961041353213E-01 b      1314     2    14
 -2.8023300004236085E-02 b      1315     2    15
 -1.4603598443402752E-01 b      1316     2    16
  2.3828994184307978E-01 b      1317     2    17
 -7.1725141382579150E-01 b      1318     2    18
  6.6266248508745018E-02 b      1319     2    19
  6.4537999299226823E-02 b      1320     2    20
  3.9191969000834638E-02 b      1321     2    21
  2.7156985141937601E-01 b      1322     2    22
 -3.7384465146659170E-02 b      1323     2    23
 -1.3658557045594411E-01 b      1324     2    24
 -4.4458594786815897E-01 b      1325     2    25
 -1.9320283248929010E-01 a      1326     2     1     3     1
 -2.0843008460515333E-01 a      1327     2     2     3     1
  1.4776262161542478E-01 a      1328     2     3     3     1
 -3.3125596967340770E-01 a      1329     2     4     3     1
  9.0149143113188140E-02 a      1330     2     5     3     1
  4.7392178356563136E-01 a      1331     2     6     3     1
  9.9905196436566937E-02 a      1332     2     7     3     1
 -1.0444765621227318E-01 a      1333     2     8     3     1
  7.8399712168612612E-01 a      1334     2     9     3     1
 -1.6462355400154363E-01 a      1335     2    10     3     1
  4.9738674883341501E-02 a      1336     2    11     3     1
  1.1281278341474807E-01 a      1337     2    12     3     1
  2.5744549436251363E-01 a      1338     2    13     3     1
 -3.1671997103587807E-01 a      1339     2    14     3     1
  2.9089933003756857E-01 a      1340     2    15     3     1
  1.1853786561115549E-01 a      1341     2    16     3     1
 -4.3650184298571126E-01 a      1342     2    17     3     1
  7.2857248406467334E-01 a      1343     2    18     3     1
  3.0030731886049777E-01 a      1344     2    19     3     1
 -1.1198552621573309E-01 a      1345     2    20     3     1
 -3.8296322994958076E-01 a      1346     2    21     3     1
 -2.6493310879191423E-01 a      1347     2    22     3     1
 -2.9538334155776985E-01 a      1348     2    23     3     1
  2.7512554857647986E-01 a      1349     2    24     3     1
  3.1650804927583098E-01 a      1350     2    25     3     1
 -1.2280695458600948E+00 b      1351     3     1
